{"outputSize":10,"numberOfHiddenLayers":4,"inputSize":784,"biases":[[0.13580968383999742,-0.03349524496660088,0.004581337904961895,-0.02758384134133727,0.09764719517803719,-0.11129252264337089,0.05557769093884269,-0.4904656431152038,0.014649422756091171,-0.01182452167278091,0.004942391304035482,-0.013335837296531488,-0.03967619047013075,0.12140509682452715,0.040940145722436545,-0.018013973709120175,0.040038441555312755,-0.03374539717623148,0.020974394224871313,0.01943175768827269,-0.013047462444117051,-0.06969325480455918,0.12427679269431158,-0.004686796204723131,0.04236196696812748,-0.09624366524786804,-0.005633999207539953,-0.0212172150301869,-0.07683686798154127,-0.37062409094902055,-0.034777751757894736,-0.025342246194936392,-0.04393787418458955,0.08698535208765627,0.022177582770929904,-0.012147570016135912,0.007132174406098797,-0.008699429692779417,-0.007439577284793221,-0.013743544177107951,-0.13156570548811733,0.08965395456912635,-0.1710704097392966,0.08346912447703997,0.03814761540274509,0.016990190427496665,0.022075046591164667,0.05873389588842806,0.0694584767327291,0.08255358449266693,0.027067405493325702,-0.008356698799556136,0.004559520982147215,-0.015623766901345452,-0.001119706987543483,0.010568379316918857,-0.019709871478514482,0.09898421576563074,-0.04694028502622376,-0.046526268617140994,-0.04295684108805775,-0.2536565603215742,-0.01757496475739535,-0.02927432472193201,-0.0036150533653415123,-0.25320326130993337,-0.017714659240971743,0.1416095533814021,0.010678340802771273,-0.06209326149783433,-0.007006363427634774,0.03400448725164913,-0.2163653551488926,0.003407027877659754,-0.04167635662514568,-0.015528553256729645,-0.002055432579780085,5.852343232196856E-4,0.1211783417642628,0.1083181030054545,-0.029518040064608626,-0.09476545517658083,-0.30954496185458097,-0.07095201125064603,-0.012366845992425064,-0.0294205189333667,0.03401487396837021,0.04426593716859608,-0.013750279347890573,-0.026408677961319883,0.016626641723095255,-0.2736375406898061,-0.04354581153629484,-0.0179212294143396,-0.013108958715833566,0.007384919496143395,-0.11710490648631174,0.004226274444158218,-0.022186485827773078,-0.026940581350405453,-0.047076632110291686,0.03072731575217367,-0.19380611466395026,-0.0438376719729428,-0.20760024956165662,-0.0389435364655864,-0.03175082471322986,-0.28718141293579774,-0.11727625717026476,-0.06817740134196239,0.0071595125237073716,-0.10495035279074257,-0.03494638386663197,-0.03563151462614959,-0.01868875592265213,-0.0203809224283215,-0.026101741869735143,-0.05410886607085629,-0.019510684405915732,0.1463118691173964,-0.11470706282808547,0.0933828062872829,-0.07268816977926369,-0.0380941973488775,-0.019863616804219903,-0.02192454029138885,0.05883532064019059,7.901440812819668E-6],[-0.24783300878071654,-0.05891841900775482,-0.14534256566113388,-0.013414036924766153,-0.20056744620312747,0.06398773454997592,-0.014086383882599505,-0.06755278755319961,-0.06939325890051662,-0.1206047766462405,-0.05319207272106665,-0.07801967080435401,-0.08584296791265672,-0.07987788807570106,-0.10777807144030653,-0.051093393665918536,-0.34639246411622066,0.015304992012605337,-0.01952709182710483,-0.04124408862424584,0.03172144036032558,0.0331596638366651,-0.04878164133515022,0.04888749798937886,0.04738427650016893,-0.04611955668120882,-0.061536987127124444,-0.2631372415695052,-0.0987337548799054,0.23468600906648202,-0.028771437601059748,0.08934623590620566,-0.018001829331763662,-0.06518499078221987,-0.1127338817704425,-0.04689007368477688,-0.050879572439031615,-0.10147962918028854,0.12696704168795814,-0.10112783899588236,0.25277826987699775,-0.09535762763047134,-0.22398510728010482,-0.05914099846070152,-0.05518263614062093,-0.14904274895168196,-0.06897843966828485,0.10730207164594406,0.07342868973520267,-0.0624421695566646,-0.24762889427724655,-0.08662527940826739,-0.04650334437493426,-0.19521865971593008,-0.1041586312361137,0.08021813036028173,-0.12121366268810457,-0.09543924881768746,0.052587690235283376,0.02492093586002059,-0.2640896453599023,-0.18355155323533484,-0.15926037175636468,0.09048122872685414],[0.12811888492296458,0.3830050115723158,-0.14472791136139124,0.007609219006613684,-0.09773326027749556,-0.006187467188733661,0.12275240143636108,-0.10977291171526034,0.4786606317682824,-0.06913852966270922,-0.2541365636672685,-0.19187494913387504,-0.1309424623337104,0.5047635702477129,0.04911903271413744,-0.06039237228783689,-0.24097606968729648,0.013012016708981333,-0.01628776178857115,0.07268803710247249,-0.07410556921522964,-0.35318738960576845,0.19541315381820534,-0.01864759705542074,-0.012785719672495805,0.12914174489877472,-0.2084734576335574,-0.05992272447564371,0.2166935257423337,-0.05142113401894203,0.1318064390086773,-0.005659546874051872],[-0.19904887076316619,-0.07995744512692764,0.5253295257255076,-0.15023551283583392,0.6526532509993117,0.6703555608071342,-0.12065605754756778,0.514122355184054,-0.231822285074062,0.31538933566911614,-0.11406589837122832,0.5184190060901267,0.1868575470053897,0.5450877759515644,0.5659422260980701,0.23022313296428404],[-0.8668049090344969,-0.9724303757626193,-0.9209332053665912,-0.7683221664007447,-0.6610802017327723,-0.38438359427695384,-0.9549144346341913,-0.9092304294744948,-0.20211185489955855,-0.6356000909395849]],"weights":[[[-0.06611850270218655,-0.037598973643871006,0.014352231982606477,0.07922135274380745,0.03159490409659465,0.0023859350121671523,-0.02252700606362591,-0.07086523107575245,0.010164442380112361,0.0014692458032169642,0.027272510648734403,0.07823607225375401,-0.05568500632173158,0.020570106201676423,0.03602371254790888,0.05059688203505502,-0.04177305923123604,0.054711789410858115,0.0693968433044526,8.80999747380662E-4,-0.05825869861209758,-0.05468691856860164,-0.05220448331976882,-0.057043906814969916,-0.012584795911950764,-0.018634862137248163,-0.03675168993633354,0.05799607777074157,0.024477967326758426,-0.0319366268065602,-0.009586637814435047,0.06603438048683752,-0.025089640809338037,0.0026543325922099036,-0.038609394740173816,0.03393662202980751,0.028355817553292872,-0.016424799995908065,0.06862717835254266,0.059107181422601074,0.004122973372178589,0.025849909618390378,0.01594537701536142,0.018505514634473273,-0.00208268493111203,0.02326231411133919,0.0724127872927289,0.02901134506279351,0.08042575565725996,-0.02958361290718067,-0.05586061819387236,0.023385476151278315,-0.026715506631342683,0.03326007533814121,0.033890135440170395,0.04376771809119596,-0.006882756821796258,-0.0183863030897599,-0.07219046339144936,-0.025885730334002145,0.017358973441358685,0.011713281425565183,0.027928920310996815,-0.008075300040626659,0.00862173969434107,-0.05586742273100739,0.014242237709668265,-0.01301295747662279,0.05308708667659438,-0.06185145481266477,-0.0359115563195773,0.06172745315772589,0.0382791712144697,0.02000023587770115,-0.07817855208391755,0.06971816253569288,-0.06781444858100799,-0.058326289837612594,-0.055241877724500954,0.025894272927799514,-0.0065020822958443076,-0.07998764656105235,0.007851044866482706,0.0474644871501867,0.03505716543579711,0.05975234946094616,-0.04173652599510977,-0.0616846431727103,0.02606353165055943,0.011809808257683985,0.07871546742497888,0.06970307963913215,-0.0155828702828168,-0.046814756253511586,-0.012642471399737515,0.022901989703635415,0.040837226983453184,-0.053911551982527416,0.06306189512586773,-0.014866638162395333,0.07122705453093538,-0.04318548214124104,0.03185886490119677,0.008690752710061353,0.017511941877662498,-0.06817197167467864,-0.04183570516464269,-0.03213558968273564,-0.02563895887559926,0.019379004339978446,0.07141703344536272,-0.009701595913634096,-0.039115101726988774,-0.06352487129074705,0.06905637416462483,-0.0479389962721268,-0.059624209774239136,-0.06019572853927905,0.03494147649541556,0.06673582556376362,-0.03812479625989823,0.07641977311121063,0.005032968429868454,0.014977002541929879,0.059248432145596164,-0.03221208242235961,0.046006897501329254,-0.05454122958597255],[0.08096326012872354,-0.011867352524770591,-0.03246107057080756,-0.004453927516917716,-0.03642086312177926,0.065988776001696,-0.04366808994014906,0.06353152860827971,-0.031494508553992516,0.03974904392674941,-0.04482979432297699,-0.07931663745803659,0.02153979117193413,0.06499833579841945,-0.022252572427458876,-0.021636356731649653,-0.038630997067928254,-0.01652275024450081,0.01425256789815593,-0.06797832611178997,-0.05668029864678271,0.06284233377610009,0.04586958635513491,0.04098481816576411,-0.07964234363356311,-0.06361469978612252,-4.02387062252487E-4,0.06857509264853509,0.007995805405932137,-0.025348371738033185,-0.03077427379686282,0.07655044312300088,0.06230619989113149,0.019940190302035466,-0.053866340389739344,-0.023064303572123957,-0.06163942324339759,-0.06353911148050698,0.024816030020739104,0.030603628844340296,-0.029796769555683663,0.058092882441386925,-0.07843520621943308,-0.041064439394184846,0.06286008217205917,0.06322071922082881,0.07943453002292956,-0.044231891246727544,-0.045891036337925836,-0.03684909252451204,0.05520208107077726,-0.05938091024219425,0.03550758406123024,0.04832112314557521,0.06104976636895215,-0.0014696892914390495,0.05401070181301646,0.019242723929799983,0.018673765773415566,-0.03755287461606121,-0.0037427996956321736,-0.05641334043392255,-0.05932045589883051,-0.049225910530447795,-0.03483583071804586,-0.01070936988286066,0.03254054309819528,-0.008761552699904742,0.01047801124068201,-0.06961212992868387,0.02129230165244679,0.08016565650684283,-0.037404382244225716,0.06749987157237895,-0.0021307023603371806,-0.022883223631354768,-0.006640284251951061,0.0152757728367357,-0.06249834963739584,-0.034822612535901125,0.02200945373386564,-0.07337272838403293,0.04345207663791888,-0.016263447511224875,-0.06768500822223818,-0.024784061194799343,0.0014614886023379555,0.049944256224400775,0.05265122919727467,-0.06352377017088422,-0.020058602847707944,-0.06382644178534565,-0.06344373824248124,0.08027548619050782,-0.026810874774964973,-0.03191181112984163,-0.019525752407464896,0.07288505861974946,0.059370983329590905,0.03141437479121174,0.008022681653889273,0.07996459467776872,-0.05483696241753235,0.05402897089501928,-0.07949382631916027,0.02588051540931596,-0.03644203413643077,-0.023051455874194805,-0.04494711637827068,-0.01781782972287144,-0.039473823397194734,0.00980632302481601,0.06898168541159694,6.883171145889308E-4,-0.03904083646629327,-0.032056118689516994,0.0729757380919006,0.029856564934836217,0.053645188298493685,-0.07072892419456404,-0.013637384953246403,-0.03858795447886256,-0.06118316868298524,0.027405258499193674,0.011918305412961147,0.07869182571326808,0.00900994065882613,-1.1929298675110684E-4],[0.06512933820530298,-0.025610061353470166,0.0068343427178811445,0.052022298163591635,-0.05623620158177789,0.07997807024250894,-0.040551336893907546,-0.052689075248975197,0.06793289239433216,-0.031184028805438947,-0.07967926856284732,0.026981232795548336,0.06967672740148857,0.006330092452517296,0.06520391659558232,-0.022463869302435106,0.044423653525378984,0.030531180988368847,-0.035394748634469904,0.075792902292777,0.06569592344591432,0.03209498027792754,-0.01070885974908449,-0.01727714228124634,0.05344952009131552,-0.04787477730784577,-0.019114010538774606,0.05174422340285478,-0.05776972614119653,0.03628926981446742,0.06066696443120126,-0.017750408607446085,0.02451464359765243,0.04747192313720893,0.06753145474446817,0.040350117400627765,-0.05946695083824984,-0.030197217508619412,0.05509709705163557,-0.055920777005595806,-0.002604971467830978,-0.0739289385293476,0.042552724752498446,-0.06169037068539465,0.049771796867223536,0.0736189821376821,-3.170030450735307E-4,-0.06997027019338614,0.046034294461888906,0.07419498318025654,-0.015395531404116798,0.04611827497955599,-0.06891255448745946,-0.024643059236275976,-0.01462355501947942,-0.073169990674121,0.044505214184567765,-0.06288398948925271,-0.007328410834806967,-0.05237747061421453,0.07559169324509615,-0.05024753812721189,0.06790199544824271,0.06317433999687636,-0.03995763975004941,0.02606670819118765,-0.05930362096881054,-0.0341209868153414,0.034943005323055,0.04484426980644326,0.08029132595962364,0.006887376368570581,-0.061286283217684014,0.040884031820742746,0.04395631235244655,-0.045827617050240015,-0.01413213959661292,-0.04607074734902749,0.03189598429931637,-0.05426183859480628,-0.023481269602161518,-0.035785550082018454,0.0123511380552826,-0.045113459977871966,-0.07383588604097262,-0.041636768923828366,0.02486463138596143,0.0804686229446173,-0.01741582156252509,-0.06956553765470826,-0.040380034471974795,-4.8480047371621563E-4,-0.07532177163824712,0.06241074818922196,-0.04260224355591062,-0.020864160428635436,-0.05386538829969426,0.06630314751098584,-0.048570826254364555,-0.06747553017887437,0.02166088705997049,-0.002569056541372574,-0.027466218130077446,-0.006470235302565621,-0.04053050074700066,0.08092601623231431,-0.017530161148347365,0.020114039492449692,0.038675072640672034,0.055477881622481795,0.056233112397050145,0.0034623545774824255,0.051955996829855584,0.04537887229998723,-0.05784115988466589,0.0632719233963791,-0.07777117130155124,-0.004815132099931658,-0.013153758210898077,0.04190039423894443,-0.007177010990091008,-0.050418185335341315,-0.01979963516852173,-0.03384150909778884,-0.011910971694827202,-0.045564174279130364,0.06750019349739468,-0.06771565005733989],[0.07220455557499804,0.04454708304245055,-0.06061589369278372,0.046989777946192475,-0.012876612093313738,0.044918343886715395,0.031286032484701166,-0.023426520422905474,0.01712227087056812,-0.03685564145768145,-0.02979821591881386,0.06803095570766654,0.009609101026820246,0.04862947207042095,0.03854226808671609,0.06869168426209056,0.05295074244155266,0.0063893430263514085,-0.05978090485889987,0.057401862746942735,-0.04113393080476743,0.028075058429406895,-0.06054376007326842,0.0019106950202988158,0.05039512357201187,0.07396725083338053,-0.003883190155843854,0.03375916062865589,0.04337815590323685,-0.0553053971441729,-0.008718096793841295,0.04817003471589511,0.03852863629396108,0.031550474582739504,-0.02755116450238374,0.003232062946289314,0.07269973516032555,-0.010529755678603822,-0.0666075079856675,-0.045440163985795166,0.05168661934096921,-0.00528155974405919,-0.07607972146257132,0.016329691149032398,-0.07479985526183017,-0.03641605476794487,0.015020055188662755,0.05827645174535864,0.07633306536532036,0.023171259351120115,0.04300828892480398,-0.049127923246867954,0.027382629169313534,-0.01914347556811978,-0.013317507901295472,-0.011376509023339943,-0.06875747213768015,0.05725570180392732,0.049739538476546025,0.02532345534422085,0.0761841256232425,-0.06238526883679001,0.055703673180074034,0.03625029074505227,-0.0717759091844245,-0.003951222795782993,-0.0345709549459012,0.005255040728057558,-0.04603274094156449,-0.05939065664045387,0.060159366819970736,-0.07179591778712228,-0.043258921888115205,0.019020952596352603,0.00498365440645998,-0.027137762576162225,0.013171605616864285,0.03084828308502826,-0.03056321649643094,0.007877144589717342,0.029642360457908846,-0.003914890985796741,-0.04152861035896545,0.0544884611800216,0.05702514282178646,0.015085608165736914,-0.00649182176224675,-0.03602127180568495,0.01446966554230146,-0.04640039316622735,-0.06679386686168338,-0.05168717195228792,-0.0478565958521248,-0.06718034400793507,-0.07865421402027951,0.026502359650087546,0.04645330282219999,0.03557796938238788,-0.011825921003726656,-0.053978503063080774,-0.017243468431597003,-0.05722663932439065,-0.05499661132414779,0.017150467665888083,0.07765699861416965,0.062127278359026525,-0.035723578518868745,-0.008247715644807972,0.07018842805473649,0.0755992956793615,0.07535968254971483,-0.04447379706432769,-0.02272640330790387,-0.03675741101692891,0.04331094684871355,0.013235838204841796,-0.058247045138865826,0.015664616443399015,4.952506412277917E-4,-0.0392349268506506,0.016414441986132056,-0.026681169838555216,0.013627944228816611,-0.06603067370121062,-0.05953361542155724,-0.07356663255830607,-0.01954114974782666,-0.013401475617497246],[-0.010923590443810055,-0.0010388055271071293,-0.03462773476216262,-0.07530753064682891,-0.06356943414196733,-0.0321306884567848,0.006084302360984702,-0.03160302222473547,-0.034052846796224036,0.046551710120350615,-0.01230665678644925,0.03299828250024904,0.005710766852418392,-0.0740696732613472,0.005602905726087994,0.027966582159864594,0.04051472813696978,0.06771378284714978,0.04973156747041223,-0.007319504763589179,-0.06799081857386939,-0.07188336892952023,0.030037559232222056,-0.06423481917164864,0.036374372536293956,0.05469318074770465,-0.010026590681602018,0.05497491275757941,-0.019702645269115287,0.015161909011453275,0.03780579710592286,-0.00925624475469445,0.022959153121741266,-0.039542085507632496,0.06578726752194367,-0.006685280802120437,0.07881921188619957,-0.051616831331453464,0.07506431069547356,0.003046793405993295,-0.06806614920363396,0.032203297394693416,-0.04003528463814256,-0.03736811427167917,-0.06026129352071262,0.023874702437026177,0.06666855906020534,0.08088138143769276,0.013696570217945032,0.07862545246253001,0.02161822961045664,-0.04072893527097083,-0.06850280651585629,-0.025805745958948197,-0.06683066245771219,-0.012100863175222057,0.020673897755851135,-0.03702550188430212,-0.03839339287358562,0.021444708394101116,-0.03904166881764359,0.05426599566629027,-0.021283660877717173,0.04240443873854434,0.0735147779641714,-0.07663870520579935,-0.00350013775074537,-0.055936485185387845,-0.009390908179672287,0.013266286537757646,0.0753013501637737,-0.080820516442503,0.04242966546216193,0.011232783868906226,0.06680832364164419,0.08009595506339022,0.01666954955651365,-0.03189393138495729,-0.0595782552913677,0.028564534471585835,-0.005773414761466406,-0.07385678773173679,-0.06650146271451864,-0.02547673750491349,-0.029937615306511622,-0.06528482299922295,-0.07418528056493877,-0.031962405027841076,0.07839416505612429,0.07883977134930686,0.07738837962665686,0.05302557575935471,0.04274826129126356,0.004974660225904938,-0.008967548239815017,-0.06240750628340638,0.05057263636130046,0.05081519110258022,-0.04008073200309016,-0.051852089265980165,0.035831544828017765,-0.04672994817528338,-0.07050941948817213,0.019713159770350916,-0.02991937343837968,0.06787772828163766,-0.022356006322306426,0.06396377720734941,-0.06473245113574387,0.01717966665363775,0.06186370327129102,0.05192541563722562,0.07984950183912502,-0.04743380452744266,0.018946078414522397,0.043095730598831185,0.06824364688905493,-0.0670540863050748,0.030042673470714317,-0.059522650072037,0.026551053305703086,-0.04370023592369677,0.06311139374361466,0.0071143676901338024,0.04496903981600858,-0.001988589037888545,0.016502170260937237,-0.020188092007623615],[0.0525807552612451,-0.03614200292628576,0.02913561478230513,-0.06250000334168124,-0.05107959700042494,0.024607302243036294,-0.005474460448031221,-0.02805644960330065,0.018814715100745172,-0.07002268399508904,0.015520523821713776,0.0670920411315379,-0.020818139651352208,0.03778623439473236,-0.04474668707441987,0.03594171570126943,-0.05575815012628247,0.06842714996623535,0.003989135183171053,0.0014212119642767627,-0.019841275273425947,-0.03923052183658405,0.04254154688055624,0.036086598042439126,-0.05084291505437876,0.0033699508945375357,-0.07495949073162618,0.007624389761764659,0.010056851091675386,-0.04898851105721262,0.05383580699991875,-0.04887497018505081,-0.03752196177513822,0.026678874723052155,0.05049204952718492,3.4801703092205257E-4,0.057867841911450356,0.008733432587416759,0.07692183708780764,-0.021261714505528006,0.08096724610807494,0.02103529976856396,-0.06572330684503808,0.06789360338366834,-0.02085870487189622,-0.04644597104715523,0.017433795445383055,0.02099617603778498,0.07537607215043696,-0.07752359517865634,0.0032890002789666317,-0.06644260980912779,-0.049726503490354734,-0.06792726218722513,0.030313233655509947,0.021562714270232913,-0.014268418914131182,-0.04113158633994599,0.04512280363475291,-0.021242804223394068,-0.0028382651502492145,0.03760158449936034,0.015653273419437588,0.07043124704766221,0.05745038388180335,0.07688661473375541,0.0733764511318844,0.006237777098584574,-0.04760714376364484,-0.06510291994393669,-0.05121100509700177,0.0436295009604749,-0.0672670458108051,-0.04270443456863658,0.00735748011466747,0.07327265933796458,-0.062081279117955857,0.07218480362125229,-0.06493508981179985,0.045883015964235545,-0.02776701184270742,-0.07667169200026396,-0.0031191629186493063,-0.021292654864479323,0.05073380864047731,-0.061089514509036526,0.05581559286778868,0.04479531112876528,-0.0018552389726953558,0.005311807581542683,0.018981600457363655,0.03043691006013744,0.07850395564578411,0.0614849544141069,-0.04957039988987398,0.045643985585194294,0.037027927210374796,-0.019230517326718828,0.009461381279046353,-0.07950494929299033,-0.049570773709522654,0.032139069475454515,0.06657907343692607,-0.0746524975881552,0.05683772736799993,0.0053586291582826155,0.04830719373229291,0.037672473999250035,0.046965076588677816,-0.006847651928984953,0.06239611091318191,0.03136969904346494,-0.049059111779128764,0.030563104779694088,-0.003644422155603323,0.01707398434473672,0.045916922098066096,0.061560649985397196,-0.05733977712041521,-0.03920811246036366,-0.07309712989280628,-0.024290341359895745,-0.032212850837465556,0.07319276373093571,0.051842847235933374,0.006631850161664461,-0.01944703673403935,-0.0491413184077369],[0.03839469994270229,0.06688899271435336,-0.018614895345148968,-0.002978065060856449,0.009626141052109257,0.07296100571619724,0.05929074643029699,-0.05598314565098489,0.07244435326336889,-0.015189237938259074,-0.06818927323720539,-0.015100148851789274,-0.067508350417576,-0.010722305853411914,-0.08039054845771391,0.02875691687252034,0.07148437419086803,0.04637697675014835,-0.07284564757396039,0.04515549314127818,-0.053576007925427306,0.056913414687050745,0.05519409888504625,-0.004069814317870648,0.0257672374664195,0.06090678048272737,-0.055974366472741184,-0.03973874733276301,0.004608166840087779,-0.02086037765091962,-0.04350475831421725,0.008526166548585146,0.0700394234628515,-0.021985164395529107,0.06310225636133317,0.03832004835963239,-0.022824502232362143,0.055320610380294705,0.014992895515276383,0.04347220968831975,-0.036622202703172645,-0.0041559137527688505,-0.006931234674278491,0.008283554163920924,0.05098619770198465,-0.004461639412992418,-0.023853702986138845,0.022329624272311804,0.07829711663823011,-0.05221255122165024,0.03808251212373048,-0.05728953909068444,-0.045257749599598246,0.06074423342987618,0.009758132733240658,-0.0072268791912732736,0.0013787756303965558,-0.06473314476654672,0.02670919403804362,-0.0053135015433868294,-0.05474176258646093,0.027426730904660808,-0.03735499369180669,-0.07448286004601441,-0.02737406451202858,-0.00306352293342085,0.060789865215711225,-0.006159577232346051,0.04241603175563586,-0.04814611482643549,0.02346794034069076,0.02967944793152196,0.049134460489260165,0.051882090917059163,0.00773554491816295,-0.013054749858993476,0.04307740891992803,-0.06379567006794734,0.06793952452164093,-0.06541508565547703,0.030295625873200435,-0.06504874116001008,0.05360767177574111,-0.07083595946219855,-0.03520175821259597,0.032770801746395274,0.02204377838458167,-0.006789561588973238,-0.02212657751307966,0.031789820718590676,-0.029522947586367854,0.016983187142234877,-0.03814226904645901,0.002982149830432529,0.05258879140438603,0.05417764486263383,0.06930464265577556,-0.020491229047559772,-0.016805558367344837,-0.04999688775782485,-0.0677786177111733,-0.01368312236365628,-0.07836809054430872,0.011933575849393151,0.023118251856335696,0.07720334662262134,-0.0031524076641903046,-0.008488532173291988,0.047940309299448605,-0.06969205190178047,-0.03592044224204764,-0.0035419808415668485,-0.0018601261786135746,0.03337339527996039,-0.011072719619493973,-0.07498045032245966,0.07539495483010461,0.053372538009867965,0.02390513126561797,0.05104859502869687,0.04206016589517942,-0.06220094260190728,0.030801947181940507,-0.006652379809015441,-0.06545347503770671,-0.05166563777354538,0.0249476853986795,-0.0016028653780721005],[0.07214370864708544,-0.0495328048117451,0.06587010965552777,-0.0014493283233043123,-0.06862082177381205,-0.022745704685068115,0.0528384373761807,0.07350489531950431,-0.021910891063305942,-0.054879441517318515,-0.06324209300957248,-0.08072617245326877,-0.05062146236549914,0.05100492611857049,-0.025964223617763748,0.022553781258890068,-0.035729338507134084,0.06111424761658523,0.03226304499127711,-0.07284611784878021,0.008654385151481002,0.011979697263822345,-0.043723687912127794,-0.07706538509143468,-0.008624130514581769,0.07561233687818464,0.045316283036467994,-0.004461526915155146,-0.06255037167256108,0.038911455061717386,0.05087642190647559,0.017996086146092723,-0.024227362739188168,-0.07130873456514232,0.024865054487589897,-0.016764367080282012,-0.003131583706233342,0.01999483519699645,-0.042140386169110484,-0.017159497121845484,0.012174035684533964,0.043379258019248475,-0.003710286839119765,-0.018988276997226744,-0.039766642890516034,-0.03673073544760451,-0.02678097344222087,0.02470480659621996,-0.0742761978543314,-0.03900496715240708,-0.01895355047720928,-0.06199590111948187,0.02900819868415365,-0.015096464869202311,-0.05957720249063244,-0.0646147737068123,-0.0664974907636134,0.017118297068715687,0.01568642625658321,0.059091457243799106,0.03225673747263534,0.07879232094349174,0.04434643102296675,0.04034761585603959,0.01825269426052344,-0.04475521621941154,-0.026822528048920338,-0.06405101735132093,0.04824213349869478,0.07365191386679039,0.026407771665477645,0.08087112208210019,0.03765494880471276,-0.06654520510597177,0.003338510823103284,-0.06940101008903977,-0.05042336312117447,0.062136340879761595,-0.07090766201549069,0.05497788219306241,0.03749961924238186,0.011137100914724439,0.016430976735459804,-0.06469069781840155,-0.04391326163667365,0.004836145502337253,0.003083833621729136,-0.05428571447644993,-0.0467887076644474,-0.07888475913001362,-0.08106475689085291,-0.08013205428756787,-0.05986422680716078,0.010341703881665448,0.04631277570071887,0.010325854394364052,0.033617003002265576,-2.500116516118403E-4,0.0799955386292296,0.06673974965962001,-0.025877387493007532,0.07534404111254553,-0.05521577747787678,-0.062226637915404136,-0.04524528985005365,-0.02960976170454901,-0.0746420488632359,-0.042619865416939316,-0.05399082387448339,0.05595859776986174,-0.01882732942295846,-0.07298566176339427,-0.014619269100730345,-0.059493330104395926,0.05836691285072837,0.044629328172265705,0.002598994972252035,0.033127077664043755,0.004391624037772832,-0.03427019540427653,-0.01801649287137305,0.0645482903577636,0.04598428411959932,-0.07329113119314405,0.051973094076953,-0.022263614106444805,5.507546566411924E-4,-0.04363319645890671],[-0.019484073056283902,0.06953849684168242,-0.0539500946970786,-0.016717181782820036,0.0036947609970334515,-0.06725091522106015,-0.05815251896107588,-0.02972706337495159,0.02819993855307173,0.04320409011829861,0.06595830049332384,-0.0031122711573260413,0.03262863179955778,0.02353791386696411,0.07492379473133491,-0.048745728913178146,0.021519374939866165,0.03167197065177337,-0.027661391127323902,-0.058688332343264066,0.030553715315222704,-0.027384705196077996,-0.06921127178593053,0.01487918785682969,0.032629600225075744,-0.07236241488273013,-0.07924150462340662,0.04798693866966027,0.04584779236722165,-0.05561757499044465,0.05671214873113204,-0.0651368431068661,0.024753559151791858,0.03491475162931497,-0.0338214460849597,0.059780610668116275,-0.016795081677014507,0.04387819841004092,-0.03334160075615054,0.017296235003908263,0.006567801248359018,-0.021932451583043085,0.004288804382659572,0.05544366102284307,-0.04188996991676876,0.05182052094821098,-0.03935264234654947,-0.07371949576294877,-0.06829838244704334,-0.006984153301513314,-0.02112147623802671,0.07744939709139369,-0.016414144713201687,0.04545935484213473,0.06627938002603372,0.013949860847332941,-0.012200668405367321,0.07732601019087348,0.017610471536770665,0.05426417279263839,-0.021617378426808054,-2.2654455556269583E-4,-0.05939172540592632,0.01511445225785678,0.013493885591504742,-0.01836091347293133,-0.02531708836893257,-0.07356549308848917,-0.009213620140498823,0.07296944816799823,0.04223058057816604,0.06505570914076057,0.06662380812194933,-0.017962895009907328,0.00829679904405109,-0.07356993683779459,-0.0761084691043148,0.07636873677579321,0.04403640155998445,-0.044846464817299224,-0.01017600683769082,-0.019617822590430038,-0.03191335342594021,0.029408846407235702,0.03539549096890915,0.07597296055583233,0.06868622398383797,0.04376807070170602,0.07793298216031183,0.035746758895590335,-0.04957121224666685,0.06594760360161292,-0.04334247152757801,0.05801865188074848,-0.012737404023684843,-0.019610255075967885,-0.036649195503757385,-0.04491952297041337,0.04011773263712156,-0.08054277571741009,0.018511735945120567,0.03803670355586167,0.010950477370264678,0.039362099404004196,0.013779314907191866,-0.008207400717243818,0.05522082094885385,-0.07955586220625628,-0.048077212884882044,-0.07539058063071365,0.00618435160398748,0.004530461878991021,0.006268417606817701,0.037063467557254204,-0.009744729254574844,-0.03188032503314637,-0.032364981362240926,-0.050434140565203754,0.03311945123533889,-0.00443263241779087,-0.06022489948859314,-0.07966106004757582,-0.053269882641257725,0.00595039117836107,0.012899923452365108,-0.07863111293382613,-0.056581183286920175,0.042874166021639626],[-0.059852149055961715,0.06936745968338046,0.002865024793814022,-0.023902204106944144,0.019443437981662075,-0.021018942408763844,-0.030561471280450482,-0.037065143828219634,-0.016902837225293725,0.0362590993624582,0.02818901766823469,0.013794112391911528,-0.058145677544562825,0.04852352212023799,0.05969209052823567,-0.008996466687421082,0.039046678184433435,0.061008031958433954,-0.02405803214994967,0.061041780362765516,0.048344476661728565,-0.049981362800555804,-0.026212912599746143,0.0730195452362062,-0.013456467241083356,0.01564003679535602,-0.0710146187788705,0.06623685007886591,0.01973034541586694,0.03318393707282299,-0.08051720046027658,-0.023043372121646456,-0.020766742017449387,0.008208751831251358,0.02659179852950301,0.030214711956306494,-0.004760311004112247,-0.0092994920220498,-0.06714146347291086,-0.008953508685423403,0.045302771822583056,-0.009101507064190242,-0.04662705636462952,0.010879076491346342,-0.06899629430100568,0.02679105336547857,-0.025769489704149405,0.07021547950824295,0.009950338919633527,-0.025196050113162064,-0.016737773436387268,0.07690900840639764,0.004285191472727629,0.0017629434633854829,-0.004753684020175047,0.03704956839439362,0.06088962971671976,0.061190919182421456,-0.06572737796618029,0.07937284061206648,-0.029593721093263047,3.5514903014110573E-4,-0.07797296390608352,0.0775085007804152,0.04635037122377049,0.026262002916861264,0.05471328413741092,-0.03825985606177026,-0.037905714121568575,-0.02768790611168911,0.026446665640143134,0.0010580366762805193,0.015571934231157587,0.021442111523362277,-0.04674616672617876,0.07156701937140787,0.07043421438193126,0.02747700362590854,-0.07290598421299321,-0.006798343865719695,0.010141681406377341,-0.06378157628203672,-9.268642233347346E-4,0.0043567506232293825,-0.019514188761875963,-0.07395441443616127,0.017545896678495383,-0.04880135376709587,0.07507086595619947,0.03998896461135029,-0.07440045486575803,0.06618150259755896,-0.024821469210729506,0.07626902334297114,0.07573616699703965,0.04983919025890542,0.03906341932573944,0.04440084568987868,-0.043702856445658696,0.07336378073543547,-0.04276818490754829,0.06581510458015946,0.0687101322816637,0.03361693267132095,-0.04824027723623921,-0.06737126881861594,0.07822282580316593,-0.01864314058379625,-0.007296801149060413,0.04017273531890997,-0.06568336228303515,-0.03671964548992003,-0.0025856974887002414,-0.05959325632879164,-0.05706610934594612,0.062219181687162214,0.08035092216383373,0.0620908326270252,0.02858819817031097,-0.005785862644864218,0.042793125390256065,0.03416804267966918,-0.03177572560760947,0.012847210349047098,-0.026239908454192037,-0.07343798567074752,0.0748007521687788,0.04908553771107993],[-0.009039924004231353,-0.07891274153466281,0.036965899626233624,-0.014442168811537629,-0.07626321927875247,-2.4032818727367586E-4,0.006288320178596871,-0.0366967893738154,0.044299034372118934,0.017490774885125945,0.01651514655647614,-0.07791139254794734,0.004601405637970091,-0.040200199830442235,-0.028770857547008838,0.07350565798554493,0.02067335794636767,-0.05065907982294337,0.03606445091440932,-0.06072520698344806,-0.05367500107116381,-0.017838985300438773,0.05260374207352156,-0.011248050939232243,-0.010613063882705505,-0.04098760689283419,-0.04013281874428946,0.013017730640905315,-0.024985386563693587,0.030973427254220722,-0.02736223634245457,-0.024279070033395966,-0.008033483719155219,-0.0734793052683809,-0.03185949971604505,0.0054786728532725815,-0.03961907417016383,-0.0665364626661881,0.06492643448854672,0.020938085898719483,0.059990209375465446,5.387640496228258E-4,-0.019750468332048566,-0.014562468570414827,0.04934777539500417,0.03541199828154432,-0.028649884735871434,-0.053102905323410256,-0.0016931306711890492,0.06179364795839757,0.07530966026163954,0.021204287480652995,0.0033259464872028126,0.004936617651526124,-0.003040306232129956,-0.056037139619747656,0.06476046536197407,-0.013588409903120787,0.05036375420404639,-0.036202507492232895,0.012757411952548967,0.04354663350781836,0.03883790273875934,-0.052830265588274604,-0.01300358996842637,-0.04042879798336135,0.027939139271354944,-0.059118871763291746,-0.036879765140356256,0.04401278061771677,-0.03232401517112325,0.05867658134952645,-0.03810400204682091,-0.03184179873775377,0.00980886260670564,0.051406499916081615,0.007110970596513512,0.061781382955128146,0.028053784329428788,0.039438825970538285,0.02377667227594117,0.07499193664123484,0.04543002306548388,0.06256112332561281,-0.015030178386837838,-0.008312376910669576,0.026187962822031483,-0.010251543958919376,0.048022195449070916,0.035542287452776544,-0.03367709965085982,-0.04881813155327434,-0.020109578633095655,-0.048850150762167754,0.007782595628956121,-0.0011300325743659357,-0.060401869564325965,-0.059182140939899146,-0.05068987453195468,0.06346657887073642,-0.04396703565317919,-0.00840351138871571,-0.0219137747935264,-0.008794569557174487,-0.07909384067521658,0.04179044469074403,-0.03233819755598505,0.03181654307464807,0.036086232538768984,0.07153244541098336,-0.012092457299689803,0.06364865649327124,0.06287901894292018,0.060154650627145395,-0.0391592034579694,0.00817588143552895,-0.0663277678708094,-0.03256421658634161,0.003240122854339188,0.02712963449172418,0.02820888665867772,-0.0470089523813319,-0.0014452268651200784,0.02716114632179693,-0.010243290871801893,-0.025219135435370178,-0.00996944360546722,-0.011887250496252538],[0.03615729184832129,-0.07830030964806538,0.07981997492241694,0.003907955739218112,-0.023851231447429712,0.04761100476101908,0.03729395186298654,-0.04694650844447799,0.04341458664187173,-0.07055249242161987,0.05940404898257872,-0.007868673355945635,-0.019200893881812266,-0.06771831910443893,0.057893340848065744,0.048245080040685936,0.0160033932127914,0.005256853895300091,0.07234923757159621,0.044008870740268435,-0.05646628911142229,-0.028434831133801623,-0.055373769013888505,0.06805612007632639,-0.009981020522183479,0.05787532777177194,-0.07882448735061469,0.02737984990353292,-0.03305668940787764,0.024762877377058273,-0.03573310135036995,0.025101374825720585,-0.042673859102196586,0.07200055893815172,-0.013545845478505743,-0.04147003549864704,-0.0011668141849370149,-0.007780386076333304,0.07721853965565337,0.00979327170201057,-0.022669621277280515,-0.02222500344891323,-0.06463781497933199,-0.010605841117640166,-0.04348556784728265,-0.042338950455523765,-0.006808352661192122,-0.021623055599368262,-0.0168319164340142,-0.014986225916215267,-0.02110272317341992,0.039672409821824475,-0.056219522930257906,-0.05101191503288899,0.02944472770326567,-0.033114365513081764,-0.07323441771067427,-0.05691576712392121,0.060145809272156445,0.07823709740140994,-0.07247494176675502,0.007602788669168639,-0.04130669783219726,-0.028762802160544176,-0.025556097925447885,0.059003694331354745,0.02095873531136531,-0.010112360376851476,0.0659489067537034,-8.753439287429059E-4,0.04986955007851487,0.07201920552116627,0.01863703126060934,-0.006429468263458319,-0.05836868672526378,-0.04927965627159844,8.721808920950243E-4,-0.0633174181747185,-0.052265030548810994,-0.03692730322245513,-0.07927455576519685,0.046977285030983515,0.05095942769599412,0.004837010530561344,0.009424773238671587,0.006309159093584331,8.201533375675744E-5,0.0035255781022104785,-0.006115168131227184,0.07483873549994167,-0.030956505839640967,0.008992367967891499,-0.024579073100206395,0.011183430215902597,-0.051469302046247445,-0.04871057089313672,-0.02236594231240064,-0.07280561901115405,0.0057518237681857525,0.01678591958065234,-0.03209189403933028,-0.06131922509361547,-0.0027903604269717227,0.012102730619410997,-0.012592880486769039,0.05251455216653295,-0.021653228678507427,0.07900914840800745,-0.07169993020225564,-0.01190603494622093,0.06754535821774642,-0.04341924928074128,-0.012491803232044171,-0.0240336686749249,-0.025489507501132755,-0.06269280329389154,0.0635949027827764,0.05965910809150154,0.06346017050245419,0.047137231108071755,0.05411391799346637,0.026157444033977996,0.06537708289686099,-0.060023423160583074,0.014862921701377768,0.043846879908928785,-0.043701279336314104,-0.06720826633810428],[0.004449708618145508,0.04518948072774831,0.06926884299440891,0.007076006332821235,-0.060391304959357496,0.019334896245175894,-6.485442247432107E-4,-0.016275874572170054,-0.07119207177640677,0.0506851297758238,0.020725391979025433,0.0014397651329843661,0.03608864044621001,-0.004703301962230365,-0.037594125187339754,0.006929433646513495,-0.04179746830990048,0.07238122585596629,-0.06890866391329996,0.03609554763695498,-0.055136536924007794,0.009748142087421705,0.04840439453836818,0.05816669405484512,0.07433157442686882,-0.004693874761640447,0.06302623065444259,-0.06197003734118595,-0.009915451083302046,-0.023745428968732708,0.030429071609046066,-0.005120120552203929,-0.0020327639306341834,-0.04232765139192382,0.061870355452290075,0.04878564746420329,-0.0630668876467678,0.009628760023970577,0.001088422590845498,-0.029147405124799932,0.04355538011988719,-0.05448621003094544,0.0317764278000255,0.06740109371788151,0.06658603470834124,0.0551481283923891,0.0025230041710236815,0.05837807522294172,-0.024952021394347587,0.024416242433225113,0.03399440948470696,-0.018276443881243477,0.0017951737503081665,-0.04252530240259005,0.0635585954420262,-0.01795450022137314,0.07628966239773378,-0.06851870769416024,0.04078030067752023,0.036938211622850464,0.0033432458303800025,0.01046698213461336,-0.06000854901665347,-0.011200940464405014,-0.07012186029083348,0.035647276012219196,-0.014366217127296153,-0.024859465004780153,-0.07286900457300526,-0.039250387126398764,0.0034237645124234268,0.026167413392094187,0.010037580181697576,0.03729672191668276,0.07778927675565941,-0.07078725980089658,-0.0056161924003729526,-0.006009678624829873,0.06020171782766305,-0.04335517560292206,0.04232122204963844,-0.07029394892262293,-0.03277397120475437,0.04151348934176751,-0.056385537742055236,-0.02657472961754478,0.06030638749367449,0.00788942347108283,-0.034321328085519326,-0.0011795159841317198,-0.07078193716046795,-0.02601896759420399,-0.013166121108340837,0.05402879290323699,0.0455247479628911,0.050073675883433644,-0.03586377796919657,-0.07717914509024966,-0.02196379826232656,0.0034695554392974322,0.05753581230257236,-0.0036922798730384156,-0.028788008617833195,0.06337014348869717,-0.030792017301533855,-0.006510033977314917,-0.0022877261759947074,-0.0788344984434516,0.04295092509696722,0.059784227688879005,0.07651151057763314,-0.018645878017018374,0.04803956079070611,0.059756137734826256,-0.03720461371377823,-0.055664316755552445,0.0025282769783447627,0.07015104465996348,-0.07708830436294568,0.056645550234327255,0.05063429733165775,-0.054582026384031784,0.011471289375636615,-0.05963532339595082,0.0640433257943024,-0.054283561290768424,-0.06067630671888137,0.015682509311973333],[0.012274468250338077,-0.05747571438516518,0.011749683813125644,-0.04532737267426302,0.05372971651887128,-0.01955218983446345,-0.056422781812961266,0.01449505248115969,-0.072180340603834,0.022438415058172394,-0.07580604137696116,0.04579590386454635,-0.06928392979645553,0.03258499828102693,0.019622096414237226,-0.04095328763915318,-0.011558858265365317,0.016042885687588465,0.03412328009354351,0.06701111759220649,0.02772577667768808,0.05277841597761254,-0.07634241781540868,-0.04131964112701109,-0.021414888432671305,-0.02711138106758638,0.004550889735398117,0.07443840251049984,-0.02166818827694576,0.04628390441018846,0.04626646979927386,0.01733923679333111,-0.021837059976006178,-0.05035169766154917,-0.04056521351556758,-0.026763322465403826,-0.04396486571578505,0.037622982724045316,0.022665368847240044,0.02777489719140224,0.013322053277676807,-0.021218284179595794,0.03407259085953158,-0.02595536963375291,-0.05785908925106614,-0.0022131481657057745,0.04591591290956006,0.03895924171055015,0.07079910924579032,0.03554750447096273,0.0611133199681261,0.06572659192994829,0.07992619745702055,0.059060605260308145,-0.07923097106124093,-0.003633969575022297,-0.015244466867964343,0.02427284739114387,-0.03433592997981455,-0.004533685885795072,0.02206248593817222,-0.07689319887356692,0.020769244262402273,-0.02022170130321078,0.04332205405997489,0.007569084648723201,0.023532284751665907,-0.009964395527516455,-0.07676681441549048,-0.022625960329515662,0.07850893955861134,0.05717636308986869,-0.04179404389380329,-0.03059169523075883,0.01497817215157402,0.05929882013315885,-0.06952976612741349,0.024373376818792158,0.052770272786088,0.049366405034335474,0.04568402404008201,0.06574539225737681,0.07799989311965914,-0.018673430451509227,-0.06906792067369377,0.004434627648488674,0.05688389680205589,0.027229300646813153,0.07234564292012381,-0.07639587808219622,-0.05868455941511746,1.6875762555195598E-4,0.059629208820897686,-0.004632603819987784,-0.05793980275569225,-0.029296716827056788,0.019462643904259287,-0.029920435183505862,0.07106029185822788,0.03679268345087782,0.07683745634384691,0.05743550204268237,-0.018888674183278692,-0.020844867613269858,-0.07732475050163208,0.02663627034874709,0.03248262358412436,-0.04133159918431411,-0.01674831603873543,0.045944591223799375,-0.07921945135347101,0.0300284090682867,0.03977442572450559,0.015700823798170897,-0.04713421066210182,-0.0748324007524275,0.06373068960539369,0.04096218268461848,0.03808641725510599,-0.05457295048149665,0.04437349154934148,0.04269599952692069,-0.01859365403898814,0.02871917805775925,0.051032542997702955,-0.02463346237115771,-0.07220526365150177,-0.05759505677478831],[0.039352807091693254,0.0772046468399322,-0.01770474224350824,-0.047787305808552165,0.06148028662788269,0.002961396461943671,0.035307984473631426,0.0744091551062016,0.06010259418171361,-0.01582899075242116,-0.04663032537325603,0.052581951007367275,-0.007139127701162541,-0.05547923277916418,-0.04123983627114177,-0.005913324242149728,-0.03077005829146299,0.04771698216595614,0.08104375954858266,-0.03225049071794027,-0.04461340293943176,-0.07872406686694461,0.07571027278498609,0.02155582792196149,0.06273698972042739,0.061827511567244024,0.03166812228424526,-0.030932277502922916,-0.03287459867522429,-0.054066259535878035,-0.04955255708426956,5.988475643714516E-4,-0.009531323711478218,-0.03064247346264743,0.040008325877744805,-0.06022356022914099,-0.05637423072339834,0.012963407491678068,-0.003809891675515861,-0.07202695701534241,-0.03918092181879953,0.04250390131385116,0.06945290778435856,-0.015047671526747972,0.0786889651779164,-6.555025135499498E-4,-0.07069689272237467,0.05495774629918272,-0.03305168737086101,-0.06378717314872699,0.010194887872402046,0.06790194994330327,-0.030639101770369326,0.02529535824641903,-0.07796001553401051,-0.014754650595253289,-0.049940187992226985,0.04208378843291042,0.028872129322402282,0.0018201533315380654,0.0698568809346032,0.018399744243680308,0.018702238635680258,0.0649326955751925,-0.037470880965029825,0.013151311703476394,0.061485693664055284,0.030540731552155448,0.015288180681633668,0.02286878970396914,0.07174076333058019,-0.03458941606187571,-0.07910516358981133,0.07709497372820105,0.07751351702749362,0.0016618014018126126,0.07655710353121364,0.07846669276830513,0.06155890529988755,-0.05510313862096434,0.039270624497791624,-0.0728518896595873,0.025927941018588502,0.04252629686208282,0.04395736009772484,-0.0058233637116168495,0.05544610595444006,-0.0672570031406317,-0.007914553286039702,0.07825924515018315,0.03659514080774857,0.012343629258745345,-0.06469991104195635,0.031124523303839108,0.07495506820138806,0.056713261231523135,-0.07552133161727492,0.07222321654932613,0.031097078070126658,0.07315796438799198,-0.01057993882805639,-0.019037866589720686,0.019369262893554166,-0.052644418075154985,-0.01962486484770588,-0.03956052556139696,0.04645048776511068,0.05850267597250818,0.04201469314805178,0.006437912261065369,-0.004315573420220447,0.034109675392078535,-0.0745366507099638,0.015789510265175007,0.020209919177133974,0.06355717842542676,0.043538127550515664,3.6063553940649353E-4,-0.013909797314056805,-0.022717705712085635,-0.0038090622518139757,-0.007683867479645497,-0.06512417998784342,0.016756354461523373,-0.04944334440142625,-0.06253373030271325,-0.06662807665300884,-0.03503274273610001],[-0.07130993685743452,-0.05917165732494083,-0.03768751552132223,-0.07332753841022183,0.020291293394072436,0.003161082069417951,0.0674365908871392,-0.06207059891896525,-0.024599643864148958,-0.07531025169812906,-0.035006676810707155,-0.05699823691623996,-0.016914050041352092,-0.027444935626978962,0.038950983921946694,-0.04290197591247905,-0.028915734210680773,0.07613925935276467,0.022546140263619563,0.05992939907866874,-0.011926612660794927,-0.05070223768331218,0.008835045209387993,-0.05999325345986948,0.012670244462362363,0.040726958847798096,-0.038466326215895755,-0.020413096017893827,-0.06876900385034015,0.0720843181390646,0.06960934293000699,-0.04694242786481674,0.031279321095781604,-0.019789748435698147,-0.0375043029640156,0.018315051887386066,-0.020012103110860168,-0.08053829102696602,-0.06932091166980707,0.015942458020945897,-0.04467585750240077,-0.0084959972402145,-0.02114416721441906,-0.07653552355333514,-0.041985354115776925,0.006334888249399141,0.029085418722939467,0.037325183152835326,-0.06697476255493945,0.030919119176262447,-0.039391406264454885,-0.028792673414382842,-0.0011964881709903494,0.019499562934683988,0.0767245514640732,0.054777552053936425,-0.038977043721433735,0.04015806833384602,-0.0037280404154397323,-0.0035682696761496564,0.050559841650829884,-0.002195314991545896,0.017768942270040302,0.019190582589904023,-0.07146668867264422,0.011091214598644561,0.013810333375946796,-0.004804094804456332,0.07323755727211004,-0.0035107877628158335,-0.02493400276318792,0.026651108700547405,-0.008498752464928429,-0.07088535555122868,0.019559565617108893,-0.02141847460369192,0.05134278944336153,-0.019792892244699354,0.02260223913477198,-0.005327637861870441,-0.06601115259219016,0.062109688036520935,-0.05191607906017852,0.04176964967946239,-0.039986259453998765,-0.05462571408362232,0.012790478162821438,-0.07089894645170813,-0.05431593051786056,-0.006298658638334028,0.02088592774995778,0.030503774634110695,0.02466149057508273,-0.011416363936686923,0.05233571132060367,0.021921669186724415,-0.06833593883859347,0.031153502160575965,-0.0430973768183938,0.012095493784180114,0.032797711452057114,0.07838973020041293,-0.010108997701866905,0.022955546683816004,0.026630727259556373,0.06105909668869934,-0.03952311293908511,0.04091944928077692,0.06610180548013221,-0.022794252652138094,0.0503625317333042,-0.035449598247543075,-0.0024724176464598377,0.05093799291928563,-0.03580894526221239,0.019999517095195773,0.03247131601291009,-0.037167974097092084,-0.07536413014543188,-0.021067160191074095,-0.03657654044837389,-0.05344581872634874,-0.02885926246358205,0.014179290539378777,-0.03944538195821514,-0.04251609179146265,-0.009313882618324791,0.07065892514486],[0.035461348493481766,-2.525320031712938E-4,0.0018038664581502557,-0.04906758470243041,-0.022386799952931823,0.06604890834510818,-0.052923769633953247,-0.06395403627133502,-0.07312410695417791,0.006587500576076323,-0.024349172272547542,-0.043476327272476724,0.06766618851947333,0.05033012898152881,0.07590967921184986,-0.06464735525303637,-0.0519187831262335,0.03174893269916592,0.06041846874037734,0.02024426071767941,0.07186802513931531,0.01100958375996278,0.010688184185487892,-0.015948364906209787,-0.024256496708502488,0.04447624674184804,-0.046352474615952245,-0.008900012391879332,-0.05303890879122004,0.04742049604187255,-0.017191421408181348,-0.016606281534184735,8.291985500276625E-4,-0.012402158600587118,-0.018383189037220787,-0.021442044789686233,0.013757906640058767,-0.04979846304200607,-0.010075536089200579,-0.06451025405163943,0.061203924655030315,0.05716850280458504,-0.03415826752491186,-0.028258781134372263,-0.005166000271260772,0.022461224900343215,-0.005639585376503565,0.03757028042529921,4.552406930146221E-4,0.03754641446315609,-0.04106887308530062,-0.034662315560134625,0.061146611196985196,-0.05212078580966511,-0.07965648309329153,-0.04491156216108681,0.021832085859339403,-0.0160841348285053,0.01663062610815133,-0.025612280136159512,0.01010695380558523,-0.035309586845799476,0.04380795326866613,-0.07946348323641926,-0.03545802182843015,0.0426225354294247,-0.05547118500012632,0.009556042751273268,0.03815318130422593,0.04731797789483598,-0.02423753610566805,0.01876692262342563,-0.02537626277024009,-0.0019923435541390738,-0.0015421668099246182,-0.037172655877788195,-0.03965164405644075,-0.024280946742420116,-0.0037059020551617338,0.06235588137232583,-0.07013814115169784,-0.013910171199843783,-0.010695880552870837,0.04300622360616531,-0.06550310416421924,-0.031365859304898255,-0.06089819929630016,0.0677824933012663,0.04762812383581462,-0.03731541508342553,-0.0387499080374472,0.007635929560330808,-0.05214263523886165,-0.024727976958248923,-0.048591787105786634,-0.07624184850875662,-0.04599409468056814,-0.0659146125201827,-0.024726787896388634,0.020705670785612296,0.06950588099051398,-0.02172543873495333,0.03246816564605628,-0.03419619167249398,0.02196481353721998,0.07899966198634488,-0.023065952373147316,0.0038789583841518168,-0.05691134709286497,-0.0297316832832796,-0.0011311951788659782,-0.00602909254052067,0.06695194876928216,-0.06901125742266906,-0.04306678636447404,0.06728052451393218,-0.07142853521875422,-0.0709205069897939,-0.05684251657969938,-0.011093074520844839,-0.06233615402589972,0.048972896247630134,0.004586724006782697,-0.057986385748439125,0.015513993537794405,-0.004977317994673902,-0.004882413689909907,-0.01794931789140374],[-0.07075980763452092,0.0728541915540844,0.05714606303233425,-0.08066557488741931,-0.029083950145695613,-0.04132073232399646,0.020003292379456784,-0.017052312119413073,-0.0399956214714506,0.07957891309928519,-4.4818617617059254E-4,0.0019948259164790363,0.007481342522074283,-0.03409917467793513,-0.0714001424860108,-0.06609720822554657,0.06230251850861173,0.028910073917217675,-0.0013422075179749097,0.016012320465429934,9.282261458100863E-4,0.007349945303273777,0.016759749304507035,0.02718536460987362,0.07412670531506291,0.0775855329222785,0.023189630506813316,0.06503176023696511,0.029953564879285004,0.018203099730773744,-0.018486594394132642,-0.023877795324851108,0.027634934974899657,0.03889278880881855,-0.02542174360193423,-0.0611084032167168,0.024147123972407192,0.02087424331871663,0.005829834459266826,-0.07249592573577823,0.013471263667579697,0.03633958302121479,-0.05229280590932827,0.021876845367443422,0.07680185819456287,-0.053605315699319075,0.044693762499089414,0.065537459791098,-0.03744060990015405,0.06067639351158518,0.018946363830554824,-0.03993902806809731,-0.06208602227468277,-0.053810048494680844,-0.025421837270338234,0.05366403472369492,-0.010180406379704526,0.07339642929433805,-0.027270896358130233,-0.014570512631081648,-0.02568546488117237,-0.06232864810487529,0.06451796692292815,-0.012210134156462625,0.038157280229635715,0.0692940846678575,0.06737004666397785,-0.060473261350563634,-0.07776278462732429,-0.07462060585984104,-0.030225209011717425,0.03282208359318567,0.03494803731814686,0.037882571455603656,-0.07415858363646166,0.002100964878226261,0.07147470448504906,-0.07779256645838442,0.00516607930723252,0.010501452219228305,0.029363872173531317,-0.03375192040057047,-0.0222554665375339,0.033035381942956944,-0.010232370165834353,-0.04199648842222459,0.06017360363155551,-0.07736802965927474,-0.018338015205969723,0.0664733125276058,0.023762012254015853,-0.008063140543200748,-0.0056465577315151895,0.05451797669396695,-0.005984485917862773,0.001042521626734233,0.05166287196400195,-0.008674325937907646,0.07882392830174531,0.04699492508965066,0.07376568162333512,-0.07600157778187785,0.03611453792533975,0.05172099817769216,0.0030998987411166665,0.06021779285979849,-0.069180307616321,-0.0013922521033087145,-0.07429251848482238,-0.02627548121075594,-0.0798282649191633,0.009995091777448438,-0.0500508936454507,-0.06640341280471718,0.05665690811383713,-0.04507302020220684,-0.07593547079133893,0.04824511620093756,0.06281037653236608,-0.06690337468591681,0.00698227255181335,-0.05224230820946516,-0.07305455758634766,0.01927176502136609,-0.05130762964116395,0.006042162767881598,0.02723881116173693,-0.03189838393061649],[0.016212737914004557,-0.019533532918886234,-0.008910099933236708,0.034346008245774766,0.02768947337288517,-0.058733993284541125,-0.06489257773638525,0.06268635810364682,0.07479463316139691,0.004943239332449924,0.0485296213133076,-0.01791599026972735,-0.03087687072115051,0.010620303052269171,-0.01410211933227701,0.037802487641898176,0.03494882069833519,0.0414687953085215,0.054577253560552895,0.056290862926750514,0.06637322620855755,0.028251693195867462,-0.06518358029999037,0.03304342742010296,0.08035827832592994,0.014185841932511462,0.04101989309321535,-0.04753651085978026,-0.027049742226362992,0.005383239609605311,-0.065946026118071,0.07825882243318585,-0.01816882381716542,0.061227299048482876,-0.07226244162419836,0.041940577436764936,0.02094181508862839,-0.0679996920250237,-0.03492548322347358,0.018850051740250954,0.02889226237178729,-0.05979918915043534,0.042149288888313034,3.4265224740055597E-4,0.05117613220403051,0.058438670701857744,-0.0032092895214018194,-0.07281454842596162,0.02344013655639675,-0.05729329478488787,-0.040576048328840195,0.0718824084783387,-0.05185374564599006,0.05529422640592483,-0.03716536419033276,0.0375792373757134,0.06212737977175367,-0.06784903441845523,-0.0319734747298255,-0.028268358819720698,-0.05112035018453372,0.012829000812541286,-0.010542226704904201,-0.0682808810558788,0.061376179504724154,-0.027030270923610347,-0.06533787697637801,0.04024994892464235,-0.02895647948897703,-0.04503205585407165,0.04837867708149972,-0.013588546090469363,0.048361405766217065,0.057744692968070666,-0.04570074592286711,0.05681503154271467,0.003895467985973636,-0.06315668014524768,0.0338875498875749,0.024997018824011175,0.037420169769445163,0.04811530654882045,0.07376654511987035,-0.07849373222773016,0.07737328415503991,0.07763471244863436,0.006301056542323929,0.049852577621729274,-0.02588368101441532,0.012620594873206789,-0.013156085946431015,-0.035408052107991944,-0.012612699899065364,-0.07899205616711635,0.05997317894440716,0.025099067911608694,-0.05469905041375987,0.04960873821291188,-0.03623274557890506,-0.017902864341675647,-0.030737538576226475,-0.03733848230469114,-0.03649109749392006,-0.06305035070127207,-0.07926321888220546,0.02167936238216876,-0.06135724545191105,0.02959864764726444,-0.01703852574432196,-0.0482480674066046,0.05815436269080414,-0.060306728648137915,-0.04537618246619858,-0.006878386533693205,0.04545769974039244,0.04475646775094052,0.018696946820476207,-0.030975776855620845,0.07424970794354505,-0.050799307374132394,0.031483466333074,-0.06873339386019073,-0.06826256447363166,-0.04815410950137342,-0.02121835784778051,-0.0571417228996333,0.02837166563214104,0.033052076465179235],[0.07918496897306533,0.030992282186210463,0.059424623678217006,-0.004546773915205492,0.0032212552323838666,-0.04392466960146793,-0.05783711940114093,0.06695526548284209,0.06356769609954475,-0.020032813735514562,-0.030180126516864428,-0.044496924101577226,0.03823098240256093,0.005811487348153397,0.031042904434570924,-0.07455674255473696,-0.04255318477187264,0.06497465639126004,0.04769899263210929,-0.008123759285886552,-0.07926615932109221,0.028199122582455948,-0.030655685446159923,0.05540192023997674,0.06623080882193634,-0.0775280925519687,0.05812104128840838,0.06746143669733813,-0.005317335485476137,0.06682374414501382,-0.06549197102108363,0.05043455727257305,-0.03816513221163285,0.023714696491238387,-0.06339681935874708,-0.03209658984864073,0.044503177281410025,0.017815025834500373,0.009113537819614772,0.022367740509008548,-0.005120813392590642,-0.005722850734400363,0.08060131600175811,0.03020835875496126,0.049260630207366776,0.04720028896079071,0.07560319053651426,0.035694364141709616,-0.013125777032580709,0.0749580722150432,0.05300499533225887,-0.024841212122950075,-0.024927561874963082,0.05893986681829276,-0.05420610653752301,0.049047755081151986,-0.03540023203407542,0.0672354357062713,0.002217340151764157,-0.06987652455074526,-0.08061989862650148,0.03926907425504896,-0.005510895685562193,-0.07162958666871272,0.05281187014106616,0.04249266718659922,0.05954653415172752,-0.01722454040313254,0.014592005510675982,0.061319745506159644,0.011516616135786781,-0.05189646228760995,-0.07360455039472862,-0.002946768782391923,-0.009288143051166316,9.311732183858608E-5,0.025828387127339134,0.07232110816368152,0.02926565027453466,-0.03382125543549383,0.048071364028676754,0.05559370216103976,-0.04117017180191154,0.027582055264053613,0.07804775508008208,-0.04932205036545793,-0.052169083511266444,0.04134878117637754,-0.017199008918344985,-0.053924652914038126,0.05237294847482389,0.001996610462447586,-0.06714597571869906,0.03633648563130875,0.01151221011252891,-0.05135775714133872,-0.01057803640609521,0.07876079921511789,0.0032415700633555257,-0.015283534272007952,-0.046411367539885805,-0.054917524142270614,0.013216455019353484,-0.04407445621194437,-0.036002619837682104,-0.04864049132486069,0.07398051361560469,0.05461077751412625,-0.03765383759303261,0.006828236476971316,0.010507175533727231,0.07402503214008858,0.06986584610214597,0.025072004247711995,0.07819190810297193,0.013106021905878043,0.01973563006233067,-0.024784652576064,0.024294739906185994,0.06228172501368005,-0.03225045911204279,-0.045298230197052834,0.02760784799719923,0.06805778238861036,0.06102230407897984,0.07858615120969116,-0.03719116762096056,0.07864508813652361],[-0.07353161992544646,0.04760113398438671,-0.06235062413256665,-0.027510791438750112,0.06726159994441833,-0.04813137030021612,0.08072143755580839,-0.04268935432690312,-0.0023789018625729763,0.051280655854556524,-0.06727524744834817,-0.025214475495866025,0.057270618589133675,-0.04834724624199895,0.05274399140388937,0.004104103410071535,-0.03299361868407377,-0.04554074997870294,0.04863982862547636,0.001968125753483133,0.037945247334692934,-0.011550606200595708,-0.027336667254051754,0.07595613512444496,0.07834821183079874,0.0647021795282474,-0.018844241409801055,0.02708410647809742,-0.07123517675352849,-0.027143696898795096,-0.021741959164096485,0.07800268215597755,-0.030097601557120487,-0.06255055361762601,0.04361309726836906,0.07010243896568348,0.0035459226374965906,0.010718556460344189,-0.05248663110790121,0.023536914621606515,-0.04384529072859426,-0.010450734993553042,-0.06732436738239478,-0.055522161133101676,-2.5919554045312164E-4,-0.017081121423693682,-0.058998720378072037,-0.0485270796812163,0.06741978265352602,-0.06231851378015966,0.05287353063271742,0.0376484165533675,-0.04722584917350854,-0.02957564503557047,-0.003031133984088855,0.036536417552745414,-0.07488798725681499,-0.07744650510263888,-0.02876866714212272,0.07431037918163685,0.013495860906634924,-0.056435641896219156,0.03511236796764697,-0.029818142848589038,-0.024527652375959875,3.5689768004522825E-4,-0.030678883195800845,-0.010389165413207325,-0.045967145946137815,-0.06716602138126615,0.016683594121402738,-0.024780930479692497,-0.05933102797197296,0.050164135775211886,0.02069416404020529,-0.05778741848519194,-0.08101464481418538,-0.007584332776233806,0.06246671852788024,0.017716703826115465,-0.042190882962756075,0.07762103181830426,-0.028957713633236924,-0.055609986153125096,-0.036067097396909976,-0.04294730179704724,-0.053724158960031757,-0.015280789709329235,0.02144789638817226,-0.03748193463969465,0.03457411325213208,-0.04868654988620612,0.019306217103260068,0.0067920469760087325,0.017721912806595134,0.06799807947125672,0.036813647734351945,0.009478493363545983,-0.05046020033825669,-0.005536876410070283,0.0115794001515237,0.012462609366959478,-0.02919685457566985,-0.014272196462530596,0.07376049256427988,-0.029535958463993917,0.04303576760277564,-0.015330462244232663,0.07651369863572766,0.05528835859421528,0.026499478242696235,-0.0677107330076964,-0.03465005486109982,-0.07389596869091136,0.03359089969625142,-0.013617932395785752,0.028632246613483636,0.012391692083416084,0.05370741704144297,0.022544721477355777,0.031061412604491707,-0.03544774976369539,0.038326438447778235,0.020887521909646257,0.04942488361379038,0.03381158412093642,-0.01996478309871931,0.06634777245730203],[0.040765660971296434,0.017109713620423368,0.018744563565208927,-0.04325152312046952,0.05513745704875084,0.04612391485047826,0.01789096626832433,-0.0726069144737008,0.0650074333261066,-0.04736467368139708,-0.05805127822772809,-0.07593492439832841,-0.05002311045166895,0.02717793545422999,-0.07926273368594126,-0.05004131671019567,-0.07782224939724525,0.07332187966336509,0.05466842373240723,-0.05471616315229646,-0.07108865572731085,0.0792539631746432,-0.0684085861706105,0.004320561885196662,-0.024095704724375184,-0.07612970458536858,0.059130966579633536,-0.05084643605705223,0.034800418872369177,0.01738858528019371,-0.038008764803136086,-0.040068336091288355,0.07435103305180145,0.0177285590493847,0.07591338361545816,0.07721249410314691,-4.1887486621025567E-4,0.014604446020891077,0.06905903854975086,0.056034217786183255,-0.04746948180537217,-0.06866078690655372,-0.007172068128682419,-0.06502519177236703,-0.04687340671817816,-0.006976835824247178,-0.014455414374358455,0.004372649356340313,0.07930923611466435,0.04671528574714719,0.003863627551046888,0.022739766269564643,0.028407033533185994,0.032594817693057235,0.040483013923507304,0.07920802927774245,0.024684636764615783,-0.012265021274304488,-0.00832356095634548,0.023766742670303685,0.01434479168557412,0.05419753753020424,0.008688059760452563,0.028204945727475304,0.06120325829355971,-0.023964258661732123,-0.010124322810837319,0.02361432214842866,-0.07613203481730889,-0.00559858411273971,-0.0699585955059881,-0.048390409317609434,0.07400229028285499,0.01744442069462801,-0.05362589761266067,0.06838312904481883,-0.04809904309525479,-0.054689117715371126,0.004573450334241778,0.037729187809611195,-0.04775956944300006,-0.018493610281650513,-0.030389892311617282,-9.857185362325315E-4,-0.03920001151824361,-0.06432366708418889,-0.04568561171833291,-0.023407593801338698,-0.0025104554503663314,-0.053860599012816215,0.008905920342622364,0.07935794408124647,-0.03093168013983601,0.04334976356558461,0.06788561693927243,0.049775676545192424,-0.07478610701690239,0.05777171622655043,0.06965936281362069,0.056296178261692725,0.07753421340626349,-0.05249978364174737,0.019942754654634874,-0.06725688988577312,-0.057338222295922656,0.00898661709716502,-0.0042560782200216085,0.008509477862602028,-0.07005568187402127,-0.01045408745969479,0.033650846078325136,0.046559817759028364,-0.03513560653868341,0.06068633564560832,9.253827388280007E-4,0.05439615860437471,-0.04564105609191135,0.012343979140417951,0.07274951199131259,-0.045777199217530526,0.046513130669335094,0.06081547297586269,-0.07276957826937157,-0.07647657954340097,0.021212787641062793,0.07436240463701815,-0.07193631101888757,0.01735134975203264],[-0.043043495332268665,-0.07223950035816733,-0.04682092670988879,-0.07679165227344473,-0.045583225163574395,0.03837154469443202,0.02166394786249881,0.07848469049892609,-0.07835132554977502,0.07823316441018925,-1.800389320237654E-4,0.005739939860511864,0.0457966145961296,-0.05860937337609536,0.03467160057553372,0.005846698750300138,0.05173720134492124,-0.004441795151309747,-0.010294726261524082,0.008944016947685767,-0.07405959106283247,0.01097290092190634,-0.03255548614255069,0.0024717158484597584,0.07956846383626397,-0.011859297700044976,0.07229070234617317,-0.034408785855387036,0.025054263520756664,0.04457569965079193,0.008142406864744933,-0.08008773354474201,-0.07710535303496474,0.035165910213496535,-0.03019895108243826,0.06658940667008857,0.002473363872097784,0.01819537114942746,0.006204184685211131,-0.06048825292828389,0.018907291968943207,0.039310434414862205,0.044807278010872836,0.06567856800880982,-0.08046899765175666,-0.06231158916381238,0.036710875916781335,-0.004083467610508136,-0.07688645282945834,0.00682808321633815,0.08023796909464224,0.0627799912402818,0.07553650738723999,0.06896234437385088,0.013291785154596298,0.062478517587230754,0.03526198792565125,0.013700251327505271,0.07639592010762629,-0.06071411392774348,0.009368348164778084,-0.033988729163629154,0.0788796194828706,0.052104551889920865,-4.1920630973904825E-4,0.019317589736938638,-0.05207935874083505,-0.04978374575570962,-0.03249188412779573,-0.052588373290361465,-0.02469567695141601,0.07432170068416061,0.0204172380910675,-0.04584215821646031,0.07305686973144238,-0.010138854725697451,0.06882533866746379,-0.047507472319248796,0.013249147895673372,0.04544697517528584,0.019423360877757864,0.06181587614561729,-0.016276543606805444,-0.04527547788370523,0.06138538383793034,-0.004428770951210171,-0.021987554801450277,-0.039594615969322226,0.036501894558765326,0.05630443341549387,-0.012382446335324414,-0.06295149435665937,0.011565132377752967,-0.011657079377828542,-0.028519308380473368,0.06641712966302354,-0.03602498422931949,0.07607794537481671,0.009752214278720812,-0.003919263436108864,0.03521673077966406,-0.014502296984634436,-0.06869019411445196,0.05710858811646267,-0.011577703476076256,-0.03206985796413817,0.03910874945200454,-0.05631141939081984,-0.021060856740333495,0.002536020274578176,-0.03782599655041011,0.015028414470116434,0.07298246884000775,-0.036671453654513964,-0.044437464095755455,-0.05407786759721057,7.260527561856042E-5,0.0553018658825182,-0.07659593411230288,0.031134320522209415,-0.06432387162637627,0.0103329485757897,-0.0405541171919373,0.02491917008748167,-0.04762055189301575,-0.024241459655638672,0.0023207720418065582,0.012571134461291256],[0.046533218102705685,-0.06855685712969231,-0.05331836947457128,-0.007249628676452007,0.06712992631510642,0.059079916045640134,-0.01241103115504571,-0.06715517874024401,-0.010892448256747149,0.02273365216465502,-0.05593106618589011,-0.0706342895057582,-0.05566136242604363,0.06881414730508645,0.026337252893893066,0.007945363750605231,-0.01864149496071891,-0.03424699282102026,0.028765550284602464,0.05958694621207037,0.04719512603168082,0.007403403421580464,0.011593794546856257,-0.0019161061989862876,0.035935749278381474,-0.033586960606372764,-0.018998182485531267,0.060196351589877434,0.037780813661249475,-0.06451552675537928,-0.021770317100656793,-0.04252813612106815,0.0404150877711934,-0.03542207448728331,-0.06705454500007019,-0.02239424990193541,0.01266216596548623,0.057264562492192854,0.03284241148765022,-0.07151727465536609,0.02305329332019828,-0.06363933784149083,0.07276322897158857,-0.05171884943866583,0.030891518564563753,0.05872212311115259,0.005781747362122595,0.010406098422046,0.0724065008566382,-0.028288440040043595,-0.06319783080598067,0.010189236357613835,0.01858060377316739,-0.029633747292986467,0.027404004900326708,0.0024597845868120616,0.06859793838285475,-0.014011246055466182,-0.02775306035633724,0.03631582018920776,0.06588872646908446,2.0095062432897681E-4,0.026767744268866234,-0.029841049850478762,0.07346162396711493,-0.06191553038862754,-0.017905868642463886,0.024083329275985204,0.03727294410936247,0.06752434410687129,-0.07736799773441866,0.04248997808390319,-0.0037557359511317203,0.008243480307380239,-0.026325018231076792,0.041721048130014204,0.0519456610527917,-0.029030295116750905,0.04607347104109085,0.05899191091218962,-0.05013297151355917,0.06704405860024285,0.050335032410141506,-0.01569558119290036,0.025390598165068137,0.02920050141628962,0.07682321558797851,0.05084648957857541,-0.004459906218478035,0.07866697847716952,-0.08025111156377479,-0.01837931907415235,0.07221470736034281,-0.03565135049907373,0.0070642079200850996,-0.014909557538737007,-0.03926477121920077,0.039926494104498854,-0.06932520085365201,0.06947361072222705,0.04229768932581312,0.0032544730821705025,0.03590807923214284,-6.167578707001159E-4,0.05607712797802351,0.043749625504867246,0.07498094907171021,0.04769538704630009,0.07162739102251248,-0.06117034822964435,0.06941762991604039,-0.038002519984658055,-0.02493755683562884,-0.039204508102394384,-0.07881255604452254,0.0020246442703307924,0.01422918475611579,0.04549110260574641,0.02826104870257899,-0.009981347598309391,0.04104207504364796,0.05789739518326659,0.05300209948099607,0.06090818075599312,0.042131173950192786,-0.0034594604370996097,-0.06546047459259113,0.03042512126281144],[0.057607941641764346,0.019251667651372928,-0.050866289013628885,-0.05450393680082564,0.036441172755351144,-0.07923022566934952,-0.07456503967774411,0.055924295328343886,-0.0054052493758106526,0.04124656015496457,-0.06550733768289216,0.0472053087586094,-0.02463338055716068,-0.010501263711041623,0.057437216560352056,0.03465508906602374,0.03138432447678768,-0.0742483074507029,-0.05092656915227203,-0.03218859639294726,-0.003307405229073857,-0.005327302763957265,-0.032312974929755864,0.00897200174798941,-0.04692322954476591,-0.07612792383211804,-0.07424603142478917,0.06864618441246158,-0.011661502332073621,-0.0674637235033771,-0.04048123574599558,0.010195854300781121,0.044526554945648326,-0.015016412246303784,-0.04227593261054155,-0.063906327263777,0.061161984782689825,0.052414366656604594,-0.07124265122070614,0.06343583366677956,-0.00995280071669429,-0.053606728480448416,-0.06319701555455288,0.03995869571333481,0.05430585151052352,0.006235506159661231,0.050064066795152455,-0.07174283664849451,-0.04844951996985609,-0.004905213464761159,0.006676146583490272,-0.07587509216473978,-0.004968612134073543,0.01941692615022638,0.04543904298128987,0.04595969265287695,-0.07262979996913162,-0.037462428293163014,-0.02879233815707614,-0.06392646222834476,0.06888743117650632,0.0687647824709489,0.06195748699830376,0.013702627534169978,0.0234329741469654,-0.05280225569940931,0.05629773908541512,0.07801149434396233,-0.005609039020516527,0.06911952889416428,0.06195801501654701,0.030665468620642584,-0.07098466919188531,-0.0663485204029548,-0.051218949758182246,-0.014916068856630436,0.008050338054450913,0.05549626363063542,0.022763848687884027,-0.06684451720991963,-0.014582699827155345,0.010721101624742763,0.05193867199168763,0.02116602044159222,0.028367949347558055,0.03691084663296424,0.039144387467583704,0.04719112623429826,-0.05019724898147512,0.07405527291023214,0.015573299594256561,-0.04558705757127559,-0.06535022364383743,0.04974509026307796,-0.051055566151550665,0.016575196649706334,0.0325257490214125,0.04793851868908217,0.021323794277665127,-0.011405189078780313,0.04369062186696766,0.005731181585792596,-0.0727007331239395,0.07831934994382586,0.06686106805934756,0.07946649219213936,-0.037720427377358735,0.044620467299145955,-0.06536938294199895,-0.05648070980030662,-0.033462137589324245,0.05121584983109907,0.010576114061739571,0.036557259528044485,-0.03019690225506329,0.04050921208511305,-0.022752044011245382,0.035576382127972754,-0.06947540433867884,-0.05835674353297062,-0.00952708879549841,-0.04707579791523847,-0.05894703889757919,0.06531065695788046,0.0640014593268644,0.06716245844040385,-0.03391191199167294,-0.05316602459766564],[-0.0739802476863252,0.021484442846933835,-0.020987643708568746,0.03191400500877979,-0.01780137147303759,-0.07087867350576083,-0.04080878749536331,-0.05251308279031652,-0.05570255668328745,0.07600343521085726,-0.03370955733338048,0.05645761490542328,0.06324908553349447,-0.05098564178229956,0.008480137970825218,-0.08006478835603277,-0.08094517222462078,0.0013245279501868082,-0.058830812526385494,-0.06738052709140493,-0.024588553379004646,-0.074319113794239,0.03609142915225224,-0.01912986380060582,0.07609490071529512,-0.042455129903746947,0.06493820542351747,0.002938652461671445,0.055853967125179295,-0.009378644356974341,-0.059419899564889044,-0.046272323199400986,-0.05665304802438013,-0.007059840984282877,-0.016556138058272832,-0.07009792507192084,0.0473407957383629,-0.02870231331967933,-0.04704880427898886,0.008613775660922142,-0.05994330300750536,-0.04123264645924623,0.02187707282143308,0.021157234627963695,0.040917617962901394,-0.025806591173038664,-0.0759957304279931,0.07488551932669349,0.044574942487159104,0.030744220306828447,0.041301317703287856,0.07048167804310022,0.031012121203970087,0.0793887179339861,0.042848249482007716,-0.016182182038670005,0.07850883436597555,0.07368143121549545,-0.06295126320427823,-0.03668359809671703,0.045448146587207784,-0.0010533873142775376,0.011471150643133922,0.06824062807328098,0.021141136403378665,0.019612409885970624,-0.040303513374850976,0.009590223143525768,-0.06655760948952046,0.07862587954448876,0.06743989214504173,0.039930039367692204,-0.05587182394868205,0.0636715621643176,0.05321926823965181,-0.01955391701684221,0.0440862020714015,0.03412794516356957,-0.01260308310630789,0.008284505882473809,0.008149685793112644,0.009191321500377147,0.04101218514076812,-0.07842885879687546,0.012834879137670152,-0.035288880434329616,0.031203815181026044,-0.08003398161783318,0.03041050328786154,0.05402913209726549,-0.06450941001698013,0.0164166466106014,0.05182485057659209,-0.04573147475847312,0.0405093538796076,0.06637687474024433,-0.04311489153288599,-0.002615828716716979,0.011971830409680837,0.05757747388124287,-0.06622670978924587,-0.036171664538564796,-0.07840427301694007,-0.006908916158158224,0.018208615295908,0.05133284329582359,0.0036562938458959424,-0.0637364810307623,-0.01583014967135728,-0.0244453314589063,0.07849106124393164,-7.854818227353206E-4,0.037558849730180595,-0.006989393338313898,0.059508973083703294,0.0048079032728300785,0.0015115218809913808,0.06443990657170785,0.07844861309089184,0.04636085576483108,-0.0050277606182299525,-0.07722005076125735,-0.017015933020643526,0.0454907844768644,0.014736675385625902,-0.04778671549947556,0.03686255338921768,0.021885310589621645],[-0.06244391505881039,-0.06791297106862297,-0.03883121574363921,-5.086725810357723E-4,0.014269985620262214,0.0718671280937352,0.0026245372790477195,-0.011733458367492174,-0.03884213228158315,0.08080043784579727,0.03228529729100945,-0.027414000198296956,0.05140227264242603,0.047343581009664265,-0.03455543690279888,0.06441111717878044,0.05627906226065419,0.015502397413687141,-0.03997649049434242,-0.005247682013260602,0.032406134186161895,-0.057677637089093896,0.0650079957119,-0.05034698502997561,-0.023980861924433754,0.03407935277467425,-0.07403873008512901,0.051392449057986705,0.03433642439110081,-0.06067975581704709,-0.02648970387088076,-0.0737883632425636,-0.026723515432286696,-0.07301396258405736,0.05856274597176142,-0.02888198436144702,0.06336292163359154,-0.009160599255285251,0.032537581316476064,0.025341809129907453,0.05055988547377287,0.07718338029722988,-0.05999202027785437,-0.06885734777754114,0.001473497216701747,0.05152865845978515,-0.04748309914022867,-0.07706443671563432,-0.05148063260645618,-0.06753630422237579,-0.07845228072560903,-0.051437050946532566,0.04127725443738292,0.08088419753287973,0.007914932995344912,0.0620125440549648,0.0309820677686385,0.035488449236764745,-0.04578102223729151,0.010792183581898129,0.0025352865852908946,0.019900194120338496,-0.03136601754040572,-0.0021086194444116697,0.020405780703018506,0.04859853082573321,-0.044395454894631224,-0.056576089494566134,0.02013774854209493,-0.014364837830743538,-0.029212355583355974,0.060117780525116994,0.04040347264740566,0.013161679994067855,-0.06609601334860925,-0.061206692232933624,-0.05728433593639575,-0.005113337461842074,-0.053812928864521874,-0.02526882293140681,0.02703359682744813,-0.04282963909336267,0.07779591755901388,-0.04870436638557162,0.012716802668944078,0.02871518768143055,-0.051826167542340984,-0.02682935538392166,-0.062258237898051724,-0.019120047517296807,-0.07442308106893228,-0.06283109110333032,-0.07619798557688827,-0.00765807483627964,0.020898132502309534,0.05916970230838795,-0.01703372820061726,0.07084686573262398,-0.014625385269925049,0.03701792944691244,0.04305194612516853,-0.02339231190702047,-0.07808943278758197,-0.04115553423693704,-0.016246007493654034,0.06883146135882787,-0.027833125796312877,0.0021333768035812837,0.02829420231428589,-0.030035794786006608,0.021819620551642844,0.048635162504486,-0.08072613800006552,-0.06185676601634222,0.034501021072378985,-0.03602066277595707,0.0069229578433141516,-0.005040021680222106,0.040901167737064585,0.027445168115327462,0.037578201526704935,0.023896739673640543,0.02886279054394983,-0.01764329137094871,-0.047925355697782696,0.061524051965761974,-0.05249159223923845,-0.0734948571244202],[0.07906705245257145,0.07087361120877048,0.051271202148244696,0.06606221997114467,0.07032109251532936,0.01879208329902046,-0.07849932758109224,-0.020025733548586368,-0.03956951244342454,0.020998342256973754,-0.039297472763568424,-0.03290310103565834,0.026732966458876403,0.07666016681504828,0.05755752360844253,-0.024618566986134672,-0.07257926167632925,-0.024758946680820088,0.04948034826369879,0.03669015621544466,0.06480696021633138,0.05104296399253924,0.03713576159317504,0.04133596025845279,0.009796914736740773,-0.01025567733038337,0.02745982892833148,-0.0702386780337149,-0.01843670738319083,-0.030431978563862223,0.011710699740947341,0.003850078091801975,-0.04988803596156883,-0.07013783626354543,0.016246732913520235,-0.06615471109408119,0.0697462073153814,0.010572084278863289,-0.07503698786690685,-0.0013007758933423449,0.00745960562560202,-0.029202467540168583,-0.009717059402051104,0.005779241864506502,0.06854465705049222,0.059920615602711405,0.057656076765467544,0.03893734568378571,-0.0043525285728814875,-0.05924128301148075,-0.017843154274525343,0.07551648266225015,-0.008566149124068433,0.021834172421172606,-0.05824562970834103,0.008332544728038915,-0.04198951894446429,-0.039132778565124655,0.003402509244200519,0.025903342032731348,-0.07300598602290397,-0.048417912233267475,-0.03136867552517856,-0.03017046404390373,-0.08055860714257866,0.009962656251130644,-0.02962189280841142,0.06891048268987483,0.004653576916330664,-0.07043353575854282,-9.576392735118936E-4,0.06981500300244566,-0.07213659006175341,-0.023680640582521287,-0.034630340336510114,0.00826518845396872,-0.02657617837687923,-0.038682356139296485,0.02970790677859188,0.008403015696844563,0.015710932501214563,0.014409440227095758,0.06807135368886455,-0.025477714698909942,-0.00887432234372372,0.06625622718608246,0.06305693693557908,0.03317011758196873,0.07698264687914265,-0.07014786487912104,0.006477701432017295,0.06808114738426889,0.04440796938730265,-0.052474996346397455,-0.06389176804068347,-0.06120334475486893,0.02042951866633258,-0.07488383291495392,0.052328076529235754,-0.044917201010963595,0.0026113810059510945,-0.05315058361024009,0.0672433099016795,0.05781166586105598,-0.04889030575556889,0.050232965590009976,-0.07762172663227004,-0.011659107462869321,0.07798797991779219,7.641795766355972E-5,0.06464474155089336,-0.005098385747682279,0.010876462473839117,-0.03890905923948206,-0.05048547755095075,-0.04951274308844538,0.04534867097178059,6.752585730372109E-4,-0.03264273272786899,-0.01780198581652316,0.035584912233424165,-0.020449233729351944,0.06832396387652502,-0.007418037354441666,-0.005255363137795782,-0.00982496292312483,0.008306209688138739,0.04022928145394845],[0.038465436212442826,-0.05202296018891195,-0.013080858499248603,-0.053520573947432266,0.07803738498191226,-0.0671594373672198,0.02024855464554102,-0.04359444719560079,-0.025875167767622095,0.03574395020420068,0.06405541119360492,0.04309696788129281,-0.004804343113986382,0.007993328156322617,-0.029369728938988822,0.05125366783193195,0.03595529265924754,0.07142112847982832,0.017814065113350576,-0.05512630105835044,-0.019958523017783836,-0.03938143647442524,0.06967178497487017,-0.014589350241533919,0.02252272078524067,0.01709371576223885,-0.06735659854091414,0.016784026145755426,0.05685880911941091,-0.015231357476402233,0.07210882694202504,0.03868195246574955,0.08015390813341111,0.024069193666453513,-0.03896581362611632,0.04086869206866813,0.05758343355555756,-0.022921138109779228,0.02911397312123496,-0.07581639858811605,-0.02158804266567746,0.00977164721048506,0.023303995228921633,0.028644042604778715,0.009862480664965955,0.040459456728753264,-0.07916308486403349,-0.025571901775900432,-0.04432416510301159,0.033950727066887225,0.038413119991047275,0.03967736132346617,0.06016301245440219,-0.03250233126549209,0.020535229866850413,0.005705296307123798,0.04818133220837461,0.03512399703152023,-0.03848121126423317,0.010707002952848951,-0.05222835288176086,0.015858749072599234,-0.011491386513148892,-0.03237827661790804,0.04752151857698365,-0.03795218245084131,0.0800796577303562,-0.008644306474883755,0.032739553965832335,-0.02477663799671616,-0.07430949334479926,0.03636024325324594,0.0010602132713635447,0.07779604317915807,-0.04800051945163083,-0.07473060734827615,-0.08081007506232432,0.054710865504906246,0.006227955684482274,-0.04034423239984585,0.07471748882926037,-0.04319031246991893,-0.074617483911257,-0.059494922450737,0.0025814327785451895,0.02255099608571693,0.0533572657943379,-0.06464054537803707,-0.06408720944286898,-0.07307834270659883,-0.02659239427273698,0.04466770654492426,-0.045423007431865975,0.04584272709517671,-0.023226008883360814,-0.0072877269889750395,-0.03611471405576259,-0.011040822441978057,0.02722552735602245,-0.054712428143435195,0.041886292505399096,0.06771637934427624,-0.07862719666614307,0.07708960796263904,-0.015912060645437865,0.04703865170841511,0.028147225671191888,0.08092748343295106,0.02272785045537404,-0.046922928099465626,-0.008883508123458814,-0.0026730282451024314,0.023864117029279784,-0.0300838059596565,0.06982408758928317,-0.03979946144043963,-0.023824456717232375,0.0791204942889304,-0.0609868290627246,0.057506467965576395,0.0027638726178120616,-0.009030577747891877,0.06834843723652068,0.004162627828276107,-0.0019754601313969854,-0.021511437226530136,0.06584304880272811,-0.00878948327115051],[0.01583380617932411,0.04828446213659746,0.06097198006413303,-0.011835826109365292,-0.04487613325887153,-0.016547882177372568,0.06863179767817705,0.02121879431295182,-0.011215924309832502,-0.04869415546135796,0.0035952479133253895,0.03529309168072105,0.04401397609270661,-0.008772262402620615,-0.07961318906469435,-0.04067000206991476,-0.04218717255504955,0.02996243469851391,-0.07560628822070345,-0.0658530328433653,0.020277347875160855,0.05548358771691762,-0.07235310110069146,-0.07404778010440997,-0.0036762112837332474,0.016080901687036638,0.033730005560561126,0.05641295712108467,0.034429747485988024,-0.0747622314572779,0.07293692261851852,-0.016974340872884425,-0.013121966418849149,-0.050353928163078876,-0.05560701004243472,0.0525469273635596,0.04854231221618947,0.0462148381645325,-0.0746758770663459,0.06993223136756148,-0.036059372962458716,-0.03249816289034543,-0.07214775613471772,-0.02008749080374163,0.03942568442319196,-0.07079667043945422,-0.043835944909299075,0.050387871117298824,0.00910243094540655,-0.07182284826224171,0.03502957803450074,-0.0394392289257369,-0.009665809625024722,0.05046193852176938,-0.05340611983255014,0.04331140279720483,0.01878430023346631,0.02929840090984203,-0.07383456309668383,0.021914980266740776,0.011474834573099505,0.025399448877742783,-0.05282861893538189,-0.04655205780354257,0.029428825224774236,0.04573353803170696,0.023813712774252874,0.029744500705468017,-0.0031672045128852363,-0.049427512751067784,0.04399245125347672,0.07806569165774965,0.04130477495383282,0.048254221585450854,-0.06086752476821175,-0.012189786094523102,0.04981590357523185,0.00743678388500023,-0.06940363893540266,0.0021790872017310027,-0.05518128785535593,-0.01247077511580955,0.05770025299821855,0.04579059918456765,0.030790544130561183,-0.0493001609787471,-0.025590877460482334,0.010827841166662524,0.03156238832750378,-0.05120392507355924,0.045036237829026556,-0.07790419244302793,0.02678656669306355,-0.017543187979194387,-0.008497650015187968,0.04087559891082893,0.01733701725091878,0.003127719771529897,0.07694334795810277,-0.07794622479849768,0.01533276983422934,0.011647005126518782,-0.06715000984129418,-0.004695798464568416,0.06047923050270395,-0.08046234548367416,-0.06626543957978247,-0.06746341384065685,-0.045074328168318044,0.016673464708070587,0.07474233236579356,-0.06977209636854184,-5.950273972355642E-4,0.01605098058340514,0.060136531514020396,-0.047606813190927556,-0.04702478555644055,0.05182653993708032,-0.031213598370987482,-0.03682139935116276,0.04936396790023161,-0.07377581172416164,-0.026736896764634616,0.0808601782286811,0.04040511228230577,-0.06129954501158911,-0.010323166632729655,-0.046009991300812104],[0.0745388146269955,0.04700170008062243,-0.014001013361975007,0.03555623105485128,-0.06625201684827206,0.02211866129516578,-0.049365632912149224,0.023492482072385173,-0.05451497083442126,-0.07003994802972592,-0.07513868379175855,-0.06556477985933566,0.01723782966183714,0.030660673395569847,0.0035782011915984698,-0.06642135648221183,-0.03640767835128189,-0.07706891707462547,0.07968301100699128,0.06109305952847294,-0.0486847824195459,-0.06426176560224929,-0.002745769194943693,-0.06504500239977314,0.050360095851086195,0.08072298338344355,-0.07026806263235127,-0.031078748198304352,-0.04774888339962661,-0.06957580505010312,-0.004046598659606774,0.051700475709431884,0.008706608218095775,-0.02472286977742973,-0.03527946723661308,0.07791969791028144,-0.06735592521202145,-0.06577860861280363,-0.002411475428591158,0.0033935918469291805,-0.040341712900693834,-0.006052968615358697,-0.04466929600736064,0.03635851934610175,0.006393209779514933,0.04384259954162061,0.012660290392852458,0.05946816162483258,-0.06390048494061425,0.05071990677009385,0.04614787126539796,0.00219773089076796,0.062333702222650667,-0.01602179639534366,-0.0782370691210813,0.07880602909888157,-0.07308142852276184,-0.050950864941503936,0.05339680678318432,0.008672335657257337,0.04459095690728189,0.03256193859882647,0.029828103061344,0.030323019407745344,-0.07899493818169012,-0.002228447377741597,0.014833920401130867,-0.08103031534125574,0.022722147140300027,-0.06659219719667378,0.03143253604775366,-0.02244708779044762,0.027773774409822323,0.03547455749655219,0.050842105334959274,-0.08006138346954135,-0.013623571762197209,-0.02594656372500864,-0.01797853881580325,-0.01588915184255825,-0.019661786203228098,-0.07412391795722266,0.06965084511903105,-0.07688903974342091,-0.01135395994235838,0.011686684851149914,-0.06506586525879411,-0.04919132201476721,-0.03644486560254516,-0.0770854653228314,0.05238105278755702,0.012964127174796983,0.005064575437449148,0.05721564160181106,-0.026462869967806064,-0.07758560002537779,0.045295476005408265,-0.0063131171290703985,0.07195531342805313,0.06737322528475827,0.051313958946327856,0.06590524866845597,-0.024994863445838036,-0.01738962447012011,0.07205236142825028,-0.014307367577687724,0.051576558853591324,-0.039814969329481316,0.007707076243617198,0.03020871305227086,-0.05716283327441839,0.03181035264767772,-0.016104980237026344,-0.030146028147495223,-0.04208057031840305,0.011965753431395176,-0.06316021062739072,0.05098459671870021,0.0013157362300374722,-0.054727987769465324,0.057668629978574616,-0.030883670955380988,0.029183724594277437,-0.06446278999631448,-0.06307428058749491,-0.058375674621589935,-0.0032208843836197157,6.115879318762043E-4],[-0.02099019839610267,-0.054796809300982054,0.029829281073221373,0.07899960831817804,0.07387532155849219,0.06904871264726435,-0.011096572606497445,0.04438946562683951,0.06428100520265026,-0.016674198568814393,-0.028983402943158848,0.04953779123708405,0.0024076841554629604,-0.014997975663720534,0.03576115047757381,-0.03647324418881371,0.045233109078861675,0.006318054875179228,0.0719118418645227,0.06181270951567908,0.03591726061749175,0.03936266741014747,-0.011922159267315114,0.012332497890367649,-0.045839901472542646,0.0124364974442302,0.04866998723890514,0.013124216864372235,-0.05015526532218691,0.014467002047117369,0.04866426365760139,0.07314087370887548,0.06345850549058867,-0.0750364338081552,-0.03265626402555825,-0.07417797197702357,-0.045072273886604355,0.053276140796901246,-0.026429154462149843,0.05132013845135274,-0.04373337518244333,-0.03325671584532856,0.07087859680149065,-0.07753130597283649,0.043969890881592553,-0.051850076323343784,0.023152256389689478,0.07709901245955765,-0.07237926685820095,0.08001260054806114,-0.04910457813933972,0.04869226009571237,-0.041485184525352096,0.0352901702758211,-0.0015144733529891552,0.03831887200091727,0.007271442668346549,0.03465395923334992,0.07105974456272203,-0.025221185799902436,-0.046511853974083105,0.004949612802422894,0.03910450300504927,-0.044567694815996914,0.0469296137259172,-0.03810707198657264,-0.0705640425224116,-0.05461818178281086,-0.017116107950620622,-0.07309225182584476,-0.0769524199308005,-0.007140032492273588,-0.024711767123046503,-0.04452981028298061,0.0032719709402337163,0.007302178692748314,-0.001009732278884756,0.04464218225094484,-0.022593474029935803,0.07692283029614833,0.01360782223605992,0.01841529484590148,0.06028738433034153,-0.06084486067066053,0.04267032891341066,-0.012285228827317266,-0.06518016709676694,-0.057770466064684375,0.03632244054926955,0.05189058960511775,-0.07452840850674446,0.07619568482315672,-0.02168214320071264,0.039104346740586736,0.06075901484666766,-0.017710545477033036,0.0594430064029475,-0.052427822151850594,0.07299682517090807,0.019700926656908892,0.06543581848476275,-0.0029693635031658463,-0.0051664880851833355,0.07624920469299389,-0.013224164342501392,0.04781123098750671,-0.05992924024387515,0.0474916784123627,0.0304686279188066,-0.028673957405881613,0.036516138961285964,-0.06915902007634586,0.028958073372460317,0.007274765649675337,0.011179675101394736,0.02500249990117501,0.020824711925802628,0.032781970929893954,0.07518263157456326,-0.025013293474104806,0.006438684524361808,-0.029708798468719922,-0.02709216184039762,0.06570738691368748,0.05028144823965703,0.054430130854963336,0.002649414485359317,-0.06159966073435295],[0.005845878831355096,0.06983198379088264,0.04222329781794962,-0.06970031886380777,-0.06117320679641534,-0.011275426694454636,-0.028579182305309446,0.07271409862131882,0.03309468299256161,-0.02763449526272236,-0.04159505415434766,0.034551201942002174,0.006111712766854892,0.0540385603770782,0.03796226943417752,-0.043518164253417216,0.07823629468025227,0.07115352575614067,0.0648476112059999,8.09981976697681E-4,0.06047864730333902,0.020002824637746816,0.06864265957095858,-0.0763039851727325,-0.061272159829269965,-0.03107687960585766,0.02535922844892633,-0.024727788986991163,-0.05616362266570876,0.06619556223385063,0.015437399490593978,-0.02393922779259397,-0.027207946031742536,-0.010869444587405,0.006740437729543605,0.07821278032566699,0.06656437195006869,0.05150014915690124,0.060153308171247054,0.001996928212361541,-0.06044367933146401,-0.02213196459410395,-0.046628614136176014,0.04599232847232156,-0.07947920094520411,0.07419444491809037,0.0042704275952794545,-0.025175241937398916,-0.06348455334252037,-0.08103092222337875,-0.07995030900856978,0.028664218202670105,0.06096907061804314,0.05230550976615646,0.07981536641607324,-0.021324394516123196,0.023232624308189072,-0.050097400192603954,-0.07232075490410547,-0.021311162888053757,-0.05114189432040179,-0.012367067246936042,0.04392924629075369,-0.048761177982238696,0.02739098796859523,0.0021437944400967265,-0.044156785817980236,-0.02653927708811137,-0.01685397613634893,0.021856672769074263,-0.0507945243560373,0.04633429618199529,-0.06568646242082316,-0.020848984273639987,0.07796437121770323,-0.038404843419626605,0.033491776633759206,-0.07963513615325245,0.020235441533557604,-0.03568638361681724,0.003853274788846901,-0.03435963606797168,-0.02579590599974299,0.05901905732160818,-0.03587046854223804,-0.06890765665128314,0.027341064342072327,0.018826463857266978,-0.03866792807120045,0.002405122525821362,0.01779233019006309,-0.03407646321061752,0.05588933424752518,-0.022648102779314384,0.049021306081652706,-0.06425539816571706,0.056412114701513166,-0.025189050996701292,0.006622109736523437,0.009505015238960106,-0.07723147117389098,0.024166808021477956,0.012995376765478897,0.018326510193172538,0.011039287634412868,0.04143177953509148,-0.0742098437374429,0.03134168088014605,0.07554208892517776,-0.04403122410285687,-0.011519590017326452,-0.055581434595256426,0.029224385298912654,-0.03903177906856908,0.02957780831451673,0.003214237240637994,-0.05671552266870587,-0.06037652182859412,-0.001531620230491834,0.07310796001978452,-0.029087658686407315,-0.06609748162901094,0.005243264766375377,-0.03090017519480408,-0.006948276134344536,0.016201350661126004,-0.05424195179742965,-0.04115170641403394],[-0.029512587411845842,-0.0618501939303413,-0.058462948272554306,0.03383032914292614,0.05527141856883849,-0.023433427002340995,-0.03738985234374671,0.004912265391853846,-0.018953338251628576,-0.06817238422919873,0.02543676238856757,0.023911756138839176,-0.04601420226221554,-0.0324731875098175,0.07445665439942956,0.061974583493826174,-0.016113821917628845,-0.06982888442423499,-0.013311864068697084,-0.05345058359534731,-0.016086776558794497,0.04474177254812822,0.05530739548945963,0.011461715082820526,0.04765726193622028,-0.022494609206112067,-8.196186001268385E-4,-0.019842234863851532,-0.047601365648219755,0.01135095146864793,0.06860971070514645,-0.04832504099647162,-0.05113070651555984,0.0757415552425896,-0.07790340804440987,0.06796046136564253,-0.0751427955329428,-0.05149213899879659,-0.02989184439165135,0.07857016087994918,0.05262847668941616,0.009197278399016205,-0.03125072508975804,0.037948623753202196,0.012899745413909144,-0.06209382335125488,0.05644911527320148,0.06918970670912274,0.0019715555564454837,0.019426252073904002,-0.07062609182107889,0.07747072121224444,-0.00846645826405525,-0.04973987594562912,-0.08058330624010437,-0.07482354282792338,0.07800133665556702,0.07986810914770189,-0.04532009795850538,-0.028709914545713488,0.059051872244970334,-0.059071992300234105,0.055091090667088546,0.05659753910909542,0.07585818468340327,-0.05933607303405692,-0.054678890518434844,-0.06752026763494176,0.03824541899992045,0.07220198396502868,0.04894091291444696,0.04907556724069663,-0.009040575194240971,0.04565939202743104,-0.01368967008030112,0.056108425066784914,0.035873720737700225,0.049013753469445934,0.01390844677832144,-0.022241459964314966,0.037194205570956484,0.05752322924352989,-0.07402083116993192,0.008426979299323933,-0.05985942074119132,0.0020112333769458863,-0.005282836988247716,0.06114399890500651,-0.0073619122910621535,0.04075627458784998,-0.0292672529361522,-0.0440663790978085,0.043115188964260226,0.03920968541063254,0.0410355934754302,0.0038566852256102673,0.017785469221817035,-0.015920453813131848,-0.010352970343636497,0.04815966475497253,-0.07548924210997637,0.007954378456739616,-0.038405416613999314,0.0669199507702913,-0.059232201802426894,0.03532328631572379,-0.032066744805920866,0.026329317045475427,0.07375157449214645,0.07615890887937175,-0.07921146368085198,-0.05757595939207789,0.0467734552519413,-0.03081986492004561,0.03331368257853669,-0.07828309511117278,0.06120116864323308,0.02457429044472087,-0.002360204865166517,-0.014436544567692935,-0.03941622206944196,0.017612345443963263,-0.020098972242615972,-0.07190530012365691,-0.07452830451905472,0.04904207268702513,-0.05023242282421177,-0.011271263949881078],[0.03831510551652407,0.04229612363352353,0.03916498274276665,0.006541129052991338,-0.03343073102796903,0.07297919957655229,-0.021106030249490253,-0.030485803363135902,-0.00841407006169783,0.07028270662001465,-0.016296626937149828,-0.016432547183506927,0.015156362950898762,-0.04147838604924416,-0.0716749572703886,0.022873213933260108,0.053693093443547175,0.06669358333305234,0.016725913630232743,-0.02869333483114413,-0.06245193149179127,-0.017007384957275728,0.06115020154062551,0.05930069727608476,-0.025089203917826992,-0.0648732786734251,-0.03480586123242874,0.00445130682825733,-0.06697052112167187,-0.02519261026179247,-0.042620001793316833,-0.03296515585898223,-0.05434653036411707,-0.027480264470571503,-0.01367757693229816,-0.06084633645142837,0.02886651433254272,-0.02650761245123856,0.05764761178615971,-0.03428136236572699,-0.052991070462039665,-0.06749408615752867,0.03477103915504525,0.050398036487980045,0.008467223951099901,-0.07648837938351065,0.03948363484417132,-0.01381181224159753,-0.07492732223203762,-0.07784868662294242,-0.07816150515753267,0.050541887888930874,0.0717835759213178,0.036160971207500635,-0.06704357034508729,0.03381760770875937,-0.03429934051610382,0.07122509952508972,0.05527878045374217,-0.041875083570412676,-0.03229482350417122,0.06483942988569169,0.025238898322734387,-0.0354660197576863,0.025752124647796065,0.006572425171911716,0.06119132298578583,-0.02127287207546914,0.07182780521776193,0.019496999038929545,0.03217681063922382,0.06315707135976772,-0.057462850263804426,0.024867278529444387,0.005099560217141666,-0.009820482290918194,-0.047712715799857995,0.003195295283872727,-0.013815019503613088,-0.03904027186188496,0.002201322564472639,0.038118024769514126,0.03795334647162373,-0.07733187839919675,-0.07521447466474171,-0.018117413171546207,-0.0030023708076679424,-0.04124342023678194,-0.04644768569495636,0.059530923322811416,0.01135868161935523,-0.0714139740101336,-0.07201087676297155,0.023235258509935734,-0.040292496454707116,-0.05979297956654102,0.07231731664349345,0.007146157392104564,0.004706253268413419,-0.0720549253543763,-0.0029430158750715467,-0.06280475427503765,0.008621398734501911,0.022750512872139632,-0.027470997348724137,0.06920472857655809,-0.017233083097428138,-0.061906260366844115,-0.003365025858620906,0.07555424164525003,-0.04180779568982528,-0.0035938268551639714,-0.013308770389275996,-0.010775880108205715,-0.07131635422115043,0.04347441296312801,0.052413090112950526,0.04025284258468937,0.06866352484591826,-0.00546960295823114,-0.08079686264944759,0.04574479323852013,0.052073647058846095,0.03639474364789714,0.0687679560512219,0.04696990957163462,-9.100672767759279E-4,0.01470245100958656],[0.07579068569639785,0.06443992050447246,0.0662106350255549,-0.06427127629232098,0.017201903115076772,-0.0012813223312387882,-0.011308521671611204,0.0026920465348198516,-0.05903494771847256,-0.04110176538109454,-0.033136806625722263,0.03572129856078333,-0.046645284003166754,-0.04773101498605413,0.07478234200112892,-0.013509444942326474,-0.023935112499043367,0.012418618128158712,-0.06353755710596357,-0.010545955089696758,0.06326308845326269,0.05538416105885798,0.009304431605761714,-0.058975330755530395,0.038145060727422374,-0.06720576135805134,-0.06363250241379521,0.0389225839377749,-0.05522630177202874,-0.04386905781681912,-0.018862523361584872,-0.07275013829861801,-0.017267425117274394,-0.004166348952844737,-0.06771598688511028,-0.07842125225788885,-0.06527791037197415,0.07752035752531895,0.020652502726690142,-0.05479628616443303,0.08041962679048584,-0.003867365684296238,-0.05557315386069711,-0.05466968984794712,0.04135670236502451,-0.014237599694573848,0.05919455477460377,-0.04096406963090936,0.07990523551605612,0.0412773724670742,-0.03015750490056316,0.010045091066966843,0.02525964769313729,