{"outputSize":10,"numberOfHiddenLayers":1,"inputSize":784,"biases":[[0.04606245707103656,0.08563988685051584,0.24139347704993608,0.012864869624883686,0.072877133479526,-0.011896212820556942,0.39644887661455686,-0.02977393064709167,-0.024534112927545832,0.448456385722832,0.22464981619456753,0.4155746685723551,-0.024915247695836168,0.02126356029285829,0.04173311747013293,0.019550027644053905,-0.18343745230288228,-0.03811012128691623,-0.024798326431895626,-0.13789813193686798,-0.03090324352019095,-0.04177119301265094,0.21206004170255943,0.06753292485970049,0.04956927165949315,-0.07393263544936177,0.7585325091304523,0.4270237368319497,0.12312447897040762,0.012663324954775972,0.33043668305782053,0.11714553534433574],[-0.504825651497612,-0.23921894693155737,-0.49424587273849724,-0.5423791259089158,-0.3578041564649844,0.06553135351878725,-0.44440209890652876,-0.21369451559493763,-0.6791999456288699,-0.40064161233577966]],"testSize":10000,"weights":[[[-0.07948278104347758,0.027731508785979676,0.08401448268563314,0.06131696162674617,-0.06737686090875826,0.036112888545836185,0.06987389224375612,-0.07414879035577647,-0.054865004716808066,-0.07477579383505863,0.08404563754973313,0.006280240819271164,0.036854764274481484,-0.024975836378716143,-0.0472225438858956,-0.05682959492470438,-0.07884097266552147,0.08070688034363609,0.06515620445158328,-0.02622659798770201,0.0366725231010265,-0.08535791704326451,0.07059265813916173,0.07788040682311007,-0.0049167850949897686,0.003488583605600005,0.03269670724189346,-0.010857755265452051,-0.07312236406633965,-0.07699734735482774,-0.05332664439384021,0.05580372833460342],[0.01957208936976509,-0.02346871801785519,0.05855181506929158,0.05633728480219568,-0.08390300677957425,-0.06736501900921772,0.049503893771718654,0.08496322680385492,-0.004455067556617862,-0.013664814640815152,-0.06745216383841937,-0.004786154939617,0.03702479392416508,-0.027000501354280997,0.0727302885083635,-0.07619746783732845,0.007687961886684871,0.04755854462677497,-0.07871573571295065,-0.06920312407535313,-0.03812156167751936,0.0468342830767439,0.04731505966104455,-0.0356839958234837,-0.06992987752900877,-0.06794963388062901,-0.03656708604776227,0.012278032192194685,-0.07857356582643171,-0.003243857392807546,0.007060066889043315,-0.07193215197171277],[0.07890539637217606,-0.043680407934184685,-0.010121053709381744,0.040370283004473595,0.0673505440629078,-0.0771634686552584,-0.025933239762762243,0.07687830172536315,-0.08358664488700611,0.06537559354434287,-0.016013331898802805,0.06751714138542303,-0.05195641221045815,0.039761026361890425,0.015594824117956546,-0.06408842389852772,0.013037667907383817,-0.0182957575222726,-0.016365036408668595,-0.008646290971906008,-0.017682367394352843,-0.06595270539145155,-0.004843637501168525,0.031188448692671313,-0.0012397054412615065,-0.027454605802077457,-0.07345536120406988,-0.022339791381955194,-0.0015715185409438848,-0.03135146009313341,0.05554603471290779,0.010021624460809543],[0.026002032133581904,-0.054972264421490113,-0.030711056415772726,-0.00954685775407437,0.06711353205433307,0.07920623925566765,-0.0010937517463974194,-0.06736377651039736,-0.06741489422591286,-0.06195215259227222,0.0667688078548962,0.00820682065110125,-0.017711634494210877,-0.004481515247010295,0.0592658440704212,0.07570713426665669,-0.05997112941505059,-0.022302700341247417,0.042789075440900305,-0.024405935621413462,-0.040128946366251375,-0.008794015985845519,-0.05358806022911931,-0.052124084050194947,0.07687958178499579,0.0498937378504848,0.053258071917867,-0.04500200866820758,0.023120348381522257,-0.06455631591887846,-0.057227185131724305,0.004161745445111946],[0.018612981944393887,-0.04224507301485379,0.014418739294951924,-0.04406982872943907,0.04471169568338342,-0.04854467536265551,-0.011070759524803825,-0.014865072822519332,0.04953161575305893,0.07461958002535632,0.041365966341352624,-0.007643603525545306,0.057669499154037906,0.02689249038911214,-0.060812906583056575,0.02599563970005018,-0.049513982587830144,-0.0694727212876943,0.04051190894868353,-0.06818546947343666,-0.024346975422626108,0.08006030782031533,-0.07594606578618437,-0.08083566465343481,0.03356261646091509,0.016275243766018424,0.07250744981516638,-0.05642632668297416,-0.03604913319162072,-0.02915633081478121,-0.029164406664289606,0.01729837053097176],[0.012826743314756424,0.05564470598289743,0.05802805343035632,-0.005021749037573166,0.0014362824565471322,0.01705392471778457,-0.0370722188186356,-0.06791497790587199,0.01801285117659767,0.07315677816726612,0.014185706623378086,-0.025030099396208507,-0.03941230929837132,0.04731191004458814,0.03226097808065652,-0.026536654819095343,0.04049534142971394,-0.005319847855803528,-0.005779742403479069,0.008671583927633342,0.03206598690160226,0.037916771401409005,-0.021255848183151745,0.026887081169284704,-0.02530007860889264,0.07803372777516557,-0.025010380965451447,0.055297280306772015,-0.008773697563082968,-0.06392999571585926,-0.045102161251080096,0.041537472493075635],[0.060009750456936815,0.054638788227675206,-0.0203470777506927,-0.01749169790799303,-0.03721745775362327,-0.08383102313950928,0.06627995991329041,-1.780497052361668E-4,0.027608167200811464,0.05110751650551977,0.0798211178948136,-0.01877685929542391,0.0662615083504261,-0.04222121549185652,0.01115406514808709,0.025346631716770807,-0.06996386390760916,0.057081632120428404,-0.03567601828551068,0.02727250243746515,-0.030771593759111933,0.0777459878772362,-0.07427559857074285,-0.04256348846488705,0.014663922947316574,0.0649657207946759,0.034098926668415346,0.05464150866823438,-0.06736414074207964,0.01931375121640904,0.042666491540379416,-0.007366477606016489],[-0.03937290254439558,-0.03690005811192158,0.023131072170881728,-0.024562824141120286,0.002064272199635232,-0.012050098204711791,0.07202973516288506,-0.07948878159568024,0.0711332200238057,0.021777319592140024,-0.06532343597293683,-0.07491615291323099,0.04394657109928912,-0.04949206746056641,-0.05754251403156421,0.011974193021042686,0.02447819558155645,-0.06109055067433821,0.06444221232945561,-0.04636611533440528,-0.06122686826345779,0.030674741938260624,-0.017925559773216134,-0.02735977529806261,-0.08058898685354642,-0.057026055083736184,0.01224383461842212,-0.029557181488435183,-0.027858106280506962,-0.05392836930213037,0.033254508173602676,-0.03728455239744038],[-0.010070568004687358,-0.05218628263659642,0.056511831832580975,-0.06516013643350936,-0.036094146381897785,-0.06578704942637716,-0.0461671276027375,0.010211264849814486,0.0379257795048507,-3.2649889052262736E-4,0.07695533510060389,-0.014697770549213248,0.006009559448533972,-0.002051767406434204,0.055733246260150866,0.018178169152126084,0.017973707491377063,-0.016722517746931603,-1.5074898821646144E-6,0.07101763830214043,0.06302743058667365,0.003341437957046566,0.0748558491850749,0.03702754873496976,-0.007051642793770629,0.02659828657918126,-0.04647456826702949,0.06458287148603048,0.019756115119544806,-0.05265738089150878,-0.06059184148040318,0.0013914557541056841],[-0.04847137330129502,-1.323259146287234E-4,0.07533079218167268,0.005472077982624112,-0.08339674666582811,-0.07301957633464307,-0.012718195753464803,0.06032939783095921,0.02150483773876931,-0.0227744197642536,-0.03745256114887332,-0.0047153507413068224,-0.015108963063013684,0.07067293803967135,0.0409394890471581,-0.0714115837779371,-0.059296023231858064,-0.02919133333956146,0.021679198221592935,-0.005348518961455477,-0.03443087728894791,0.04913462539200721,0.04962350418992968,0.016962160842085735,-0.05130767879586486,0.03393130533656993,-0.009700912874786772,-0.01394836132241566,-0.01831663880914025,0.05571335100069684,0.0781132121747718,-0.06027147647630043],[-0.01116604607462484,-0.013597593359316873,0.06276475503230973,-0.019325431310519878,-0.03863465067037849,0.04390865488864924,0.036612196570405715,-0.013061799025975674,-0.015890009237066734,-0.05561967295362507,-0.02323913126859618,0.07633205802721467,-0.03256134641315535,0.055147430686048,-0.06778239053049408,0.044792959439998586,0.04851072102074763,-0.03543301403713342,0.03528219764772517,-0.04119424084635963,0.05964321121004041,0.053804789480035864,-0.07818831615005455,-0.07735061569998918,0.05318316884671507,0.07089282355839162,0.021112170384115562,0.025868212918443937,0.07334000272197766,-0.041186078595797045,0.0035856833723814214,-0.05689914499461765],[0.06737423913280594,-0.08326415870648224,0.06415994435600426,0.010642198244518725,0.08442990327888902,-0.08191074959339435,0.0847742497802453,0.008470856037969042,-0.02138878505028863,-0.04892854004908151,0.018955854380409736,-0.05823560626139045,-0.02788499094930688,0.057368814514582006,0.005562543996387715,0.03038720332214929,0.0694076542969598,-0.002625977225503887,-0.0450697465645343,-0.08273675260553158,-0.036022843896231505,0.006947964249720188,-5.037660198934172E-4,0.021519521607225783,0.08319278042203687,-0.0566066832551644,-0.053987838640087875,0.01389605813735916,-0.02524309578392137,-0.0753601745338034,0.05561597184529744,0.07792147871632936],[0.014490393589591043,0.07986354062393777,-0.03856233134368752,-0.018423293460186316,0.052052764277987155,-0.02578777695767785,-0.05110478627461035,0.008798168943839925,0.07029615581580194,0.041065420245143494,0.016534674232883427,-0.0410952300688006,-0.0024184301260692623,0.06338579788094768,0.0333698847837211,-0.04311761631951913,0.03645504651849297,-0.026501277926941416,-0.07233953116744397,0.05865231014353711,0.04844540933787361,-0.026633211047816813,0.020035294597985528,-0.0345056788491998,0.04069286243517573,0.05586288735634995,-0.055270572681702455,-0.026481242940522336,-0.08464956283327697,0.05476272425726979,0.035318893593436256,-0.07875148291918878],[-0.05510022292417561,0.02434358975958083,-0.023631024050879725,-0.03332936124854804,0.034344321583001776,-0.036373573428536074,0.06775580678602187,-0.027828238749684365,-0.04146514230633609,0.057183177778774255,-0.0327444472151433,0.02444595860834112,0.014157238792765797,-0.01430959174249793,-0.046207832978182754,0.020523950426885786,-0.03696450706702275,-0.043780995204196295,-0.08510594448714623,-0.007333989518174331,-0.06436599462855483,-0.06419233794868257,0.04449867792392935,0.019111153396290558,0.05320491678858438,-0.04826809202191005,-0.059758309359754805,-0.038302507104184376,-0.08477674289758597,-0.0765869824352312,-0.018146983028685136,-0.07174809429128057],[0.04314086438243516,-0.01796367336196001,0.01623386478093213,0.03418030038438248,0.07162024000776926,-0.05674519150974701,-0.06971980519252421,-0.053453844318237395,0.013307829134112185,0.0038924594194999474,0.024747796044358367,0.026242964672277255,-0.0018484290432804005,-0.07601707117891436,0.06879685730321497,-0.04115555574906479,0.07540082813704412,-0.01623777562262064,0.002775071007506584,0.037138910886154904,-0.03924423344364622,0.023569681757209502,0.023411243911015116,-0.07045842443670618,-0.025972356842022593,-0.016580272472038436,-0.03729390017478367,-0.04809684504251493,-0.07399951266405472,-0.0255771105195396,-0.03764249573992124,-0.07292114438007233],[0.0458953935610704,-0.06626150091217942,-0.08015194744895472,-0.07351865013288202,-0.0736205570587958,-0.07460435865446531,-0.021467231759028167,0.04977548558104731,-0.04637141631747711,-0.06172112843050737,-0.05970830854564432,0.004862076298601097,0.009072621742470956,-0.045684281128778766,0.08400042110531232,0.053847794547074265,0.059289263698420434,-0.07187968123274603,0.06938949060140848,-0.02448029973054247,-0.06953721961669239,-0.07350466156213399,-0.08094006063427031,0.06896620885527101,0.05433051192541841,-0.06113352280525653,0.04177016388054301,-0.06857830577436409,0.016109179181065265,0.04556808160086564,0.07751686208892525,0.05757413649958992],[-0.032324765903703666,-0.08181780194676683,-0.08203699343292144,-0.01729004606866486,0.0072855322452411485,0.08489416663899202,-0.04881278306437411,0.004189129081196056,-0.03017902131377746,0.07539023686024664,-0.08019277153641893,0.015075315975282815,-0.03328770068199897,-0.0388882958274249,0.07820303173368562,-0.05156460668826679,0.0642980321739385,0.08273391671981857,0.009354648359827307,-0.08479846690035923,-0.01748343674877953,0.06682165682550446,0.04262691922024978,0.04734544714332601,-0.056863852055003876,-0.059939804942227726,-0.02974122850743579,0.04153412840143497,0.08355619019168367,-0.006232662582262881,-0.005199701119954483,0.03788914011969087],[0.011891014622685506,0.04091123423691324,-0.06394952252758444,0.046521144676769675,-0.06481710469855091,-0.019802660976576524,0.012895712960150794,-0.0854679342450986,0.0021868155693506013,0.07896265717043938,-0.01941689597312515,0.030298912198348453,-0.01439792132967525,0.026553246649700865,-0.02734052627224844,0.07803106219791041,0.03603749568158277,0.0780652472504939,0.0012833378571816096,-0.011763095887771892,-0.055154400232546356,0.06992868675541292,0.06267106028694151,-0.0594563898436489,-0.040341047247543504,0.012081325112327039,-0.03177124016493742,0.07457682519971054,-0.0463215266451946,0.02015928501510678,0.0673437116150054,0.01745287996743779],[0.010299591028325386,0.011536431794604103,-0.031046758436228995,-0.040189067997259235,0.06721588114116525,0.04676486772012201,0.04172857932998325,0.059788351444788286,-0.07995904603237014,-0.061491489704894826,0.03625179267989182,0.06128253749545787,0.06634907054272948,0.005352737849276697,0.07160046360436914,0.0583788729967586,-0.05115776936890795,0.06952731564660204,-0.039370345437992935,-0.07657143563922326,-0.062032398029624056,0.021939944332315355,-0.05784774409190344,0.017840461979933577,0.007538163815523666,0.0386696751584474,0.017909472161892454,0.042867974088495624,0.03585129262674579,0.009062504390823078,-0.0755027993061301,-0.07066962848441805],[-0.06568227399602126,-0.07564436315879763,-0.01608530372718074,-0.07197343489157179,-0.023020053724679065,0.04638033396268304,-0.012414922546482065,0.04188495822529951,-0.08488028329269949,0.03178612438279726,0.02497110104858765,-0.025258724755262727,0.0013452713284703812,-1.0921451637956658E-4,-0.0690292255613277,0.031546286428218315,0.08125587980990395,0.08180326172434123,0.06440095000198007,0.03328379088715573,-0.008705072378867144,0.05521167159591027,0.06127227406477707,-0.002178363614586562,0.07543288065739905,-0.06818197554239873,-0.07248772010560031,-0.06698423353710382,-0.0357575840451762,-0.06119828833079852,0.020046858785634537,-0.08555286294956238],[-0.06528538079922265,0.052856902914708466,0.03798170049248094,0.07082217950834352,0.06449937368592945,-0.03968283475085788,-0.06936494521037061,0.035253201222298476,0.08037095721887354,0.029654049299202113,0.08042347620889093,0.04084535475553646,0.009345841347459399,0.02073607774219258,0.013963126871522633,-0.003156191291895406,-0.037580763340777236,0.08203473113558593,-0.053244204842643146,0.01436169390819033,0.0453118208159984,-0.023303236444857208,0.01112703170130285,0.062129540064314315,-0.07700125936256016,0.015798363180429088,-0.04758947505042614,0.017596962837826424,0.025563278456342296,-0.007588549380496732,-0.03504599033295095,-0.06880452739968503],[0.0811819216939919,0.0011019316840899067,-0.07621368593322347,0.015587030156181925,-0.04939473984183791,0.06788633591713357,0.011145225004014412,0.021281859646332807,0.03161882498595494,0.07328155110154128,0.05969245782869014,-0.01990331597906064,0.040933315685527875,0.03303711592318748,-0.04054807414248223,0.04211362738204748,-0.06618725235938876,-0.07561370176542487,-0.004540423288364901,0.019976752224149838,-0.003373733698628362,-0.03182519044193763,0.002708156722005139,0.025604484108382702,0.010229404097638046,0.08207740883967989,-0.08429317517856638,0.009220041634028574,0.05722406408594546,0.02522005219596708,-0.010049916652818246,-0.07758890833929183],[-0.026720169882501695,-0.04403277681979126,0.05869225975852669,0.07733568633079632,0.0011627035463172425,0.038867180788752814,0.05918289920974528,-0.07686216786996963,-0.05590817671874337,-0.06374926316156761,-0.02849330727523814,-0.060435551926315424,-0.015650584218448584,0.04578855310118485,-0.019723871652365027,-0.06810148737454283,0.009896281358253389,0.02347886877256092,-0.052762581164967765,0.06079117734852117,-0.04260488836681599,-0.04263187144307261,-0.08220100530474658,-0.078710866667905,0.06869244077239584,0.030594020597068138,-0.08483769635285883,-0.027551181797118806,-0.06814930204546309,-0.06719878473007267,0.05002592056608881,0.025224418399520766],[-0.062254936661003686,-0.07572317175860035,0.01583585547960615,0.0804926175633552,-0.02130334879127243,-0.04470267958166613,-0.04681128763104824,-0.04503997842301453,-0.08316032226480305,-0.05548081974512406,-0.06713712330592542,-0.03149192479362467,0.08570007774842431,0.07247361246549794,0.07491521493197065,-0.061024492534934166,-0.017886369618823665,0.01271471802897244,-0.07301810466743636,-0.03722235323204676,0.043128050166952675,0.06092394937523175,-0.0537674507912042,-0.05768674060588976,-0.0548785095803506,0.0394155306223935,0.044008956787044744,0.07811061733368328,0.08467650857245973,0.06180019339799276,7.872682949103675E-4,-0.03370639281468783],[0.03919192265109936,0.041801256183082294,0.013517540868357363,-0.06146264286453203,-0.033625964558344205,0.004148516347272396,0.021423999174540558,-0.015063600475921953,0.06601918728798922,0.05277276296521009,-0.0029752955389964735,0.051370631099005755,0.04004643114530411,-0.03691743511500593,-0.03196591235564909,0.0037783675003845666,0.08026744352831658,0.017955942782609532,-0.01365185201066889,0.0540510528075547,0.031867691385114756,0.04127974748841232,0.0655339399301816,0.08365597566927062,-0.02661265949574374,-0.08022423655723895,-0.016861930479862505,0.057481953066766324,0.02582548719627076,-0.05135122035482636,-0.010816513141239457,0.043399477878161084],[-0.008819139288723672,0.0676381343456753,0.04648784601874921,-0.06647293956009592,-0.03712813552448284,0.041378629029298224,-0.05719445453721197,-0.029752838160374218,-0.0249396236148516,-0.007355341927540547,0.024396507437503767,0.012148244062150804,0.01185490213041178,-0.03499980858806813,-0.04860442637413957,-0.03431380326235596,-0.038217082124385855,-0.08390544361406409,0.028220829791922333,0.008090443964407168,-0.07626281658280927,0.006893291504762489,0.0779333013521409,-0.0017187881457959562,0.017354913444203635,0.057474991498642866,0.008151966359624221,0.07133748546062527,-0.017555263112704323,0.016630926643617976,0.029617968049470016,-0.07956653180732944],[-0.03234531043742365,-0.04954102313296057,-0.0823990671534109,0.009502263298969606,0.03461570560102513,0.056351112615408434,-0.079903416819055,-0.07961318063750426,0.07419174344274425,-0.021695265971583992,-0.06073130152930205,-0.023870034145943277,-0.016663941552836778,-0.04522079609634749,0.052661734509904225,0.008685297602056528,-0.026672232460016522,0.008485878682087491,-0.054445735116339884,-0.04068277998179733,0.028866737279042504,-0.0451427415380104,0.03325045785904187,-0.07486068942490351,-0.0713963644125139,-0.003825654370675152,-0.01869260675052456,0.07838639122284397,0.011232788801532508,0.05734982686893077,-0.03406959377475167,0.0377390407894517],[0.08526070332823095,-0.07686512182623167,-0.0016628530499677176,-0.03373983563509573,-0.003602932541095959,-0.006865160906973251,0.009488016155978066,0.07485951549717809,-0.024134386550107443,0.08293490127840598,0.029437843070748773,0.01701932559888791,0.0031510730468593887,0.08477700904201957,-0.06693589291980313,-0.050584438345086954,0.05432665505925398,0.022270754643166225,-0.02541417219077053,-0.05343786202552971,0.06920327695947563,0.04238284428490108,0.008659938369686752,-0.05494252939455408,0.04702240455845929,-0.02095921076082335,-0.07017919980956987,-0.06742227816443495,0.01133549622766476,-0.015448684307124518,-0.009250576792651014,-0.02164681827379512],[-0.07145252661395425,-0.04575749228410321,-0.02578283342631439,0.0389997630627263,-0.007641642477816755,-0.04232428847611876,0.00755002777112198,-0.0767411078197209,-0.05996733760566963,0.0010762965598080808,-0.08328727035496526,0.018429123438575903,-0.03650294634692143,-0.0708201546717958,0.02843875585008026,-0.05991979373604308,0.05533891250376963,0.04105683094536,0.0619324920506255,0.08540126972495435,0.03818060318960743,0.04366507245530315,-0.06866938765066348,-0.03450086586561582,0.029293398103119456,-0.039211986638640915,-0.018946072335056043,0.037776146144299215,-0.048384852085547665,-0.0551724754310682,0.007229777325546475,-0.03590291137941844],[0.004520716812786873,-0.07156092058148646,0.034070993047872256,-0.022645639713689658,-0.08063761971667363,-0.04665279544374236,0.06705269402567325,0.012199934385327982,-0.018689088049454843,0.05434120501158678,-0.028724754569905805,-0.0787519586058045,-0.06543722787742379,0.07388173855287883,-0.010841433157767673,0.013740046867536361,-0.07218763729709027,-0.06501276381425541,-0.039443651831050454,-0.07412626796948085,0.07427267283746684,0.050112863492666984,-0.04156424627094817,-0.08030337600928697,-0.05026789651035745,0.03458060356449447,-0.0024231098541462365,-0.012670671616750007,-0.03070433126459673,-0.043300535952242945,0.06265572257659148,-0.006438686257568352],[-0.018399293176951582,0.04121056342250416,0.044198586886524206,0.05378312214234758,-0.07777200166802108,0.002372696591498794,-0.016327458065002378,0.02215664208298782,0.04802086916982591,0.010517996800439244,0.02493856006768956,0.013881911373962112,0.027363310858448207,-0.02373073061135351,0.07841613827106315,0.015479596670396055,-0.043288238159161434,0.03417397335482,0.054599086440997376,0.08255560894850414,0.03442437283078221,0.012963647695158044,0.042544792815134215,0.008658427791449768,0.0720133126933616,0.04431996895975067,-0.058899773344637835,-0.009512689705767113,-0.0030133315935486275,-0.06442860155310591,-0.032573916116424954,0.05195704444138843],[0.058428834586979936,0.0360044487522415,-0.034104781303662915,0.05685430213057362,0.07434752231126522,-0.03287472396553217,0.06906103391526669,-0.02585115919751411,0.07259674328548292,0.00353377838106273,0.013764372228753574,0.06487951621948007,-0.04354786013671949,-0.01615299678361702,0.040902553789628135,-0.08055501389547609,0.007030396010407318,-0.04147844411217628,-0.0023904395438094014,-0.03695886809385721,-0.03215015372740194,0.01476696793073812,0.05438549610588381,-0.042940394617811684,-0.02222254795297323,-0.07420076174175445,-0.06371557714754257,-0.05928363904737968,-0.05292206911140958,-0.0669415371903908,-0.014094512420673241,0.02084489088028204],[-0.025432121074313085,0.027725708869788274,-0.027145682830358907,0.042389364813225715,-0.07032195576143278,-0.07119907351422718,0.008804679938125759,-0.0641836143873861,0.06487227366518407,-0.04719562160115354,-0.02244256549552811,0.0419198257838061,0.017496575522968013,-0.03423471839691224,0.07234170903564362,0.017257913405661292,0.013666646679598271,0.06290402177868051,-0.033875255890686774,-0.001737022759394775,-0.0532888520888818,0.06924695348102544,-0.05152099357939244,0.026992725293395064,-0.03240687010920331,-0.08076578750060458,0.034428821230946524,0.07037470657851075,-0.06099146717367895,0.07619175905874985,0.026670924349587594,-0.026264526910616807],[-0.049436289725428725,-0.002885241226800309,-0.07454938679036653,-0.0730096237170773,0.004098289104805665,-0.07703706046274265,-0.0072586195372667615,-0.05813341305236589,0.07674266554479649,0.05445051948293446,-0.06925454407688941,0.016182436522003327,0.049744816049903495,0.04520746879956107,-0.05457869625009472,-0.05118580788373422,-3.212862876643836E-4,0.009740718750596948,0.06964091172780051,-0.02878426741847962,-0.06032846879911017,-0.03596051063530263,-0.028345034803178015,0.016610370189490225,-0.06768442554666917,-0.0328239328979627,0.020029377228964782,-0.06672290070870464,0.05491485603860862,0.03500233853652891,0.07609872325916418,6.88867399894768E-5],[-0.04384310507617217,0.01399088832200499,-0.08311056072035475,-0.018107342384572584,0.040720642915292336,0.061809839092124036,0.001667015502104839,-0.042603701309137036,0.03820254921130768,-0.05660005439838527,-0.05328089727050521,-0.06207751136620498,-0.015145079200408055,0.0022337510668188803,0.06440967258133683,0.005438516588205219,-0.03391206152543849,-0.04307457339915623,-0.02504195484501034,-0.038795322233977754,0.07132053724034601,0.0037968969652728566,0.05624711250214958,0.016628510339147064,-0.017694435028576552,0.01279158566415568,-0.053431118482863575,0.002612774148974025,-0.03334533565263064,0.07646917482828429,-0.00892898488409332,0.07100049745559968],[0.04957716999390872,-0.011093736996646111,0.004737757630957177,-0.0021959331224057563,0.06356266667860314,0.010416317905984178,-0.00556248176312965,0.055587233214216686,-0.020744212938389583,-0.04367046871411805,-0.0547853325892646,-0.03002465511574797,-0.07589734191550489,-0.07849459263716918,-0.007560148292628913,0.07493089495944091,-0.004476495793172508,0.07364433637763242,-0.054612433657577425,-0.04161710875668225,0.06698084836529034,0.08118144593570882,-0.05549833021797759,0.00921345335295328,-0.080975816335515,-0.0019636889347456215,0.028010254754470117,0.05326494562642445,-0.022303950719374587,-0.06812566535181128,0.01294189604021127,-0.04820704517897816],[0.07344160036105907,-0.017887211909653263,-0.014670167100403194,0.037175980080906126,-0.06998936958545042,0.051043900708330904,-0.032598452905759225,-0.0477184274498814,-0.048297288698726085,0.03574754772245117,0.03550770641431944,0.00643239379582154,-0.08453314226182367,0.024680131388439785,-0.06400804318593543,0.0013236681673178814,0.05658016021816581,-0.0724299265497045,0.03635028285458852,0.035934479189323194,-0.05912015877952442,-0.008776390974932696,0.04121374531240076,0.024075415089845342,-0.050309333044192835,0.0764071676237117,0.05998622805916886,-0.012613280363161167,0.050649907216804235,-0.06372897627712397,-0.043284042288542796,0.012231851043732672],[0.08311531415588012,0.04095790752738306,0.0685679432226752,0.023391420745116423,-0.04894631713762887,-0.034884906094362615,0.05129213841565353,-0.04457909748306983,-0.006197930099502193,0.05316494176336854,0.03782788690866615,-0.08088479807718277,-0.05491203491987342,0.02733234074361021,0.0382206243737148,-0.0116457100435484,0.019733124265689957,-0.027086628674613637,0.019843323423739453,0.05278742485966441,0.04121870120856346,-0.03994646636096736,0.07255343266264495,-0.005026212744648183,0.07451272020930658,0.009787884029208074,0.08330599458812027,0.01995094369035027,0.07380798254730458,-0.017424591665963492,-1.7904967544516627E-4,0.016005794293749397],[-0.04260564563324751,0.08013320185263685,0.05270914521038296,0.06893301979735734,0.012880022415167782,0.015951251666091095,-0.023581254481879595,0.07087539297868684,-0.03369102444507901,-0.005215420245977015,-0.09123957361371052,0.019060738301954136,-0.028398747972787967,-0.08258591570628583,0.059036879207217924,0.015027761189758446,0.06730603816428879,-0.005625109511534828,0.03777605844372193,0.08651644788868877,-0.06244431289199452,0.016017061771847783,0.022445915176591016,-8.295748866457608E-4,0.028698152855622647,-0.017306158967371508,0.07493997137615924,0.039347248043669396,0.009523448968442616,0.06287380521226096,-0.0280529686583884,0.010947970878441408],[0.07168297279962735,-0.02369993364382094,0.08293534903003373,-0.0172692369452379,-0.031039515717756986,0.06003863837634235,-0.05874995881014065,0.008640499631326144,-0.054116709779668766,0.026877785346473858,0.08113034851804801,0.01992445170201319,0.0033446802406870133,-0.08406900146002852,-0.0087244386217799,-0.017592808291703278,-0.0667381633478344,-0.0050481493897623604,-0.07380803675150507,0.018376542920661924,-0.07634774519001847,-0.0818378195989051,-0.054344933744325134,0.04062785062537566,-0.04717831903316261,-0.0857529461484216,-0.044216483963116296,0.06924286714797033,0.07203383288475709,-0.023631247401528933,-0.06132330021825265,-0.05800806678789606],[-0.014095800967912206,0.04992429142707595,0.08299117630506898,0.014602772324420768,-0.006162343266274502,-0.02930289062718117,-0.030912471502898744,-0.0820973109391466,-0.024621683998151615,-0.08405269920067193,0.007819247996047203,-0.07703630098133005,0.046942833721791456,-0.03669792793360476,-0.06726310298627432,0.07176466627082682,0.08425955779120173,-0.07387078376483101,-0.045646134323155084,-0.05542027991136559,-0.009379574776511046,-0.014906996368919248,0.0632713130013926,0.00750439482706054,0.084908113892135,0.006702788178111423,-0.02124218057553438,0.02591121655056925,-0.06919299420738519,-0.010220375358398252,-0.050819645280042035,0.027373571322113772],[0.050471695319560105,0.03941536885365713,-0.07989942356064848,-0.062252396293265434,0.07257357134549007,-0.0049326776028679135,-0.08906580157260915,-0.03551118802414154,0.02850268488826096,0.03469217643847928,0.017142663866829368,-0.06329248604568263,-0.07273312769910023,-0.05476245654204382,-0.02470236663040606,-0.0517157991749262,0.016528365847884585,-0.02455869728916974,0.06321650272424502,-0.03579666182725183,0.04349843235868098,0.08021399074841437,0.016167816173662263,0.07116173786814967,-0.039444830230962694,-0.0016366389551611877,0.06636193916580461,-0.05048964493850645,0.001415963666085682,-0.07035844113826319,0.04949909186744666,-0.005824305439228868],[-0.00239652885794086,0.01909103206238318,-0.054463915572326604,0.06330687032202428,-0.062018978151753834,0.0849589497917392,0.006134602693352464,-0.04890902355595814,0.017356938854849076,0.006369795307198235,-0.05086875595922128,0.05695530028066055,0.007762111429812509,-0.06043959587678366,0.014993823410757976,0.06606139753572123,0.043232468085225545,0.039415075218400736,0.004266703497856734,-0.018977973899107756,-0.010790270517717259,0.01183749234216472,-0.07070723444809132,0.0547750024811853,-0.08760782645650896,-0.06413626839030144,-0.08302679984727565,0.020694611632378672,0.05748243826100866,0.0674125808228921,0.07982671509430389,0.08541434313302212],[-0.033615461240423736,-0.02513137637517902,0.04306156050174459,0.057674270150908515,-0.04954056734676212,0.033806499248120625,0.03754979519274269,0.009540038032259881,0.014343308811360556,-0.03185928958992369,0.003579733957582022,0.07167236650851068,0.0671657688869829,0.015226945663674206,-0.012752620345451764,-0.0792551752670603,0.011202328716757961,-0.0746175417025323,0.03573394641275882,0.009194644470346059,0.038917382290963476,-0.0238340745401686,0.0328780897456698,0.06883807819122707,0.04702438519774959,0.022922986277105907,-0.08119425107837913,-0.01527569475891029,0.08572988872845758,0.01877294006063816,-0.011443792293106202,-0.05106399541549465],[0.030629083903847786,-0.0597924072604619,0.08706753873394889,0.03308178715141514,-0.008838464793756145,0.009754252520501713,0.00438088056643573,-0.035024513702534926,0.0024544029356661492,-0.00669439705231503,0.060985972934348064,-0.059267950020649,-0.06591475950132232,0.06558580861529853,0.0034732363854760393,-0.040234130059925204,-0.026473652698902637,-0.060835550197287244,-0.053310280445818904,-0.039936670210391954,0.0238455632197427,0.014157097610411526,-0.02567284908847015,-0.023220665793571987,0.05926800075596651,-0.017839098799623913,0.011997292725643349,-0.014387542614936029,0.00668627172508836,0.02161334488388484,-0.013065083991146252,-0.018494561749242102],[-0.07454426051529499,0.007444403114288618,-0.06882982830657208,-0.028399361399007866,0.07259167476297856,-0.03313981799398875,0.0033516330921282973,-0.060850013851695,0.011433691772717261,0.0735437296149904,0.05361530735020024,0.03804857108368415,-0.007047598135254402,0.018919082281727968,-0.009326197782258057,-0.07429929690545074,0.03676115347038449,-0.027857387053000317,0.010505972198429058,0.046529262075412976,-0.04505663804735136,0.025759930563974465,0.049798742451070174,-0.06165255587358871,0.0017815749121213593,-0.015256199878305978,0.03622262780326014,0.05324336919186046,-0.05095734406971726,0.05957238883991352,-0.008229650658443107,-0.0544979124056327],[0.05026504979230876,0.036355548922276326,-0.04013692676888868,0.05073915527446325,-0.026565419637847348,-0.06579892133934702,0.010202724974699732,-0.02572282568703665,-0.04618649424961196,-0.05117771053896775,0.03841111815821463,0.06196290780775866,0.017866743916727587,-0.06703415096390834,0.04410317914308416,-0.014334680076503053,0.07463014508894733,0.003193909186682552,-0.07679483656259722,0.01896312438103351,-0.059736958720861724,-0.0014765863372734475,0.08301392678381189,-0.0377641961857156,0.07977875796667186,-0.07551133607250264,-0.06510172210373204,-0.012379117375518523,0.04191079701741927,0.07344614667092579,-0.050725804515604135,0.01984799379118835],[0.08061584622442611,-0.08342535525235023,-0.042724538930833215,-0.025668724851682784,-0.051160025905160784,0.011698482216146194,-0.08347945938303455,0.03744384416165209,0.018323381381263864,0.04749598641202803,0.013961874825019548,0.06794819260541972,-0.06420243614273528,-0.04068527619970852,-0.007951405850665574,0.01970499389118872,-3.8556801412669746E-4,-0.04249418553836474,0.014166602913161012,-0.015549793800285568,-0.028737327276244288,-0.06391696622843267,0.0706123243600831,0.02732595126627823,-0.06354252820339881,-0.07285439376221638,-0.0417583539017042,-0.020390530423864423,0.08479337027813995,0.030132259866481,-0.029040171671400685,0.04962375536190098],[0.03943127793485555,0.054596473666540656,0.08369011870072592,0.07176439673190299,-0.0555732441144579,0.05828191374390695,0.07879800508634587,0.06997920897379878,0.07718159208891927,0.03548177180538252,0.06566413866257656,-0.020070506749221378,-0.053333527323907726,-0.005796515663484457,0.018829586841743167,-0.01772662549917277,-0.08061722029175561,-0.0487367166888554,-0.0727713795490872,0.05140924500447281,-0.0741247068105737,0.0010204398511919508,-0.004180152684718049,0.06192467440472704,0.05167197702534253,0.051264207425107476,-0.06099035035904402,0.05009201671302592,-0.05572592100848016,0.025176964503427546,0.07791236267568392,-0.008823486002019924],[0.034645600383174956,0.006960663139182039,0.0037761878772466736,0.03490098704397598,0.039490880208350336,-0.056818452617158836,0.053488949315557935,0.07942756974738488,-0.006245771328503253,-0.002655866798758128,0.07511984797657424,0.009165622825872898,3.102064649796355E-4,0.06957899469167096,-0.03874373807676543,-0.03885450203143129,-0.023447542145178742,0.0647145661538651,-0.08285579680187183,0.041872962869080654,-0.04362643320866376,0.014603393441442868,0.038250301070001845,-0.02764490099532272,-0.07024797946851626,0.02817311045412959,-0.030560653714593135,0.06926364832813231,0.003023706770874446,-0.07074457758645103,-0.05034051756478376,0.08207563705458755],[0.04320344005407983,0.07460645824554907,-0.04726622846550535,-0.07894682782949264,-0.08010984410703877,0.011104061280954683,-0.02539691833701199,-0.0686282023042039,-0.026911075865733394,-0.0575655690357498,-0.02038918050555974,-0.08245506536486877,0.002312422671686704,-0.06439647605807003,0.02321535140177402,-0.06315423561757422,0.0699450396420093,-0.013386875872832774,-0.04057037827501835,-0.0853642660649079,0.06279494335867965,0.02839192036820096,-0.026423318276177516,0.056593836102955014,-0.06792503373736614,0.0748360006981,0.04436519434765843,-0.013256771749004794,-0.07519087365612455,-0.07886197887768302,0.04836323052414946,0.0359641342572934],[0.08153296114293503,0.027190877026355337,-0.05017054147464264,0.006597321850727676,-0.06842429862850154,0.04536756247149287,0.024875102402934234,0.041624420048062834,-0.07366828540835692,0.03769774385082819,0.06642167055076287,0.035371726948372505,0.06271013816737345,0.045465593079632084,-0.01028870270686895,-0.07124843050092695,-0.04237082240331612,0.07352284899131288,-0.0679207426516647,0.06642611049277869,0.0522442291227487,0.08122613766273647,-0.021784670238840377,-0.08271348384568682,0.058836934008153964,0.034516426442924866,-0.03090653861209993,-0.07694059083405974,0.0393281682899277,0.04259267500391721,-0.06912046561374331,-0.028543764532336254],[0.07305706805857712,-0.07388262762410559,-0.08344327378361605,-0.006069751045843473,-0.05550823393984138,-0.010128186664134623,-0.013868191224706278,0.053310285063998784,0.07850865586891198,0.027537048705359637,-0.05727699183099939,-0.07753486932947612,-0.06991808336321702,0.014473410064665498,0.021620053126504085,0.01202709044401068,-0.0813390772492478,0.05101773285196023,0.011653638522987085,-0.03846680425159976,0.05556657509022809,-9.112649278465533E-4,-0.06360851125406906,-0.010062573765707874,-0.0209890641575159,-0.06769406787735482,-0.02236630562292679,-0.031491098288482844,0.02617697369550076,-0.03439156247076536,0.012660189331175374,0.02126709487842326],[-0.07146726645098252,-0.038103395402038796,0.008412002658977675,-0.021828292739731168,-0.023879557416303952,0.028064835933682968,0.027216028818031254,-0.04219589058705048,0.0756948028571913,0.0674620072688155,-0.04726843378956664,-0.012079811605373162,0.011997912953896371,0.03973073020623783,-0.04595915904523878,0.03387971016844092,0.08489202790865803,-0.01276218022939853,0.08325061074684756,0.06267233425574753,0.05790360659700157,-0.07616351504717236,-0.005954062576597048,0.027005898484299726,-0.03957068589889959,0.05903105494108906,0.029401977098854636,0.02321395872549848,0.04307174756992725,0.005260541060945963,-0.0593601067085762,-0.013411792607081224],[0.016136721071975335,-0.00859152808388402,-0.039446107059146696,0.0826148069024651,0.0013141817983311453,0.017428982706477452,-0.009306799788588806,0.05805255603526387,0.021542290249194927,0.05794107268648655,0.06227618332839606,0.06523776047287416,0.03736444148623033,-0.03950249307703454,0.008383454880448182,0.05957406583899424,-0.012115090679787915,-0.06266891006242584,0.050844096991866275,0.030698688417500522,-0.013380067785758145,0.027313404376551827,-0.04826731354609923,0.025966228729977926,-0.044833213381262775,0.06904351378459789,-5.09349278462021E-4,0.023051646033068595,0.00963724100617595,-0.056495719297657794,-0.07294147836402635,0.06168740981773866],[-0.04271148395521819,-0.02447505386081611,0.019824272745078225,-0.03317820212017301,-0.02436147439326101,-0.0026006201949104416,-0.07707731562228343,-0.05422055959336262,0.013195763250589276,0.049868354674387584,-0.013826551861893651,-0.08310972607782521,-0.008875273378526635,0.07591348635322788,0.0040294193843595305,0.003419138298311174,0.034841158750512385,-0.026232815945647886,0.018998896917205972,0.05461679734217247,0.013602889832574586,-0.0746585473466818,0.07341517046718511,-3.221166040364427E-4,-0.07136313017831913,0.007369440738409873,0.08540836750423735,0.036959210794405915,-0.03671885622009726,-0.045581360039606625,0.06913134312474566,0.05689959697545184],[0.038449392510888004,-0.05488817206545385,0.03315964082105864,-0.07929760939985941,0.07347370130673414,0.05339266474889276,-0.03899063350878272,-0.07745419616710258,0.06307966383379765,0.006910798706719486,0.04542331372478839,-0.04667521738581491,0.06284284302966753,-0.05182294061979316,-0.015036546875473643,-0.01132694149147619,-0.05949757596116532,-0.08347141864442485,0.002964385245983865,-0.005122866949542872,0.042944042069016086,0.02107028679092633,0.05167378208272439,-0.038855080003925006,0.06006434315783945,0.007744580943010031,0.05624509715280415,0.0641168907143638,-0.05653396238606392,0.028910863024089826,0.053344898718883,0.03748180523692189],[-0.07829906791825013,0.009905143914884056,-0.0491342337017591,-0.05645376131272196,-0.06011443980882844,0.05235750393829391,-0.08036723209497723,0.06270439567466864,0.06356012813892105,-0.0462728226981978,0.00909121432668079,-0.06315768303483871,-0.04783206071988862,-0.007575754787111353,0.03169445407810788,0.06433593173605234,-0.05410428437507407,-0.036330626732114915,0.024640047795764158,-0.05841608887747311,-0.07251038683104936,-0.02427429887671795,0.07371026617695897,-0.04884998378491319,-0.04315915295925943,0.03352413937498966,-0.08327333248254451,0.04550398087445011,-0.08114401641036866,-0.04320382004588732,-0.06794246386471976,-0.023905891514447174],[-0.029323063725481685,0.06726500247571832,0.029769812639304505,0.06642019793251508,0.043354151560598325,-0.06430446448097765,-0.05025772197542374,0.005223186510559983,-0.034019861058570466,-0.004436854354463886,0.037047819986322866,-0.042166527930232074,-0.0678410401921394,0.022507779104304525,-0.05544744842366055,-0.035182612117719295,0.02197035617839704,-0.007240015035496565,0.07991703329154581,-0.04191540555351279,0.07126277378397121,-0.03378988041267627,0.04374231684089296,-0.06273539833904596,-0.030261840349743024,0.004464472948241105,-0.07185031424481021,-0.08167046528832432,-0.0711636328194762,0.037746532144689246,0.08548164772438098,-0.03734908101090146],[0.04689125208058296,0.06829987754026472,0.05030790036516144,0.03145532556285599,-0.015597568460520442,0.05505691572695105,0.03963696777443271,-0.011126398777329564,0.0025693173777786354,0.03772376618777075,-0.04947783160183856,0.0818153225240546,0.06899957468161241,0.06913244362478257,-0.0011477068807095332,-0.058529779405462994,-0.026361844264070577,-0.06580192230087566,-0.02260419215080015,0.038932652033601724,0.016777545853067413,-0.07240534556279346,0.04874287746991124,-0.07276781920439454,-0.021482682035072278,-0.033620621570899276,-0.013771051373065094,0.0563348847624579,-0.07508881074086347,-0.05137047652447137,0.026050487385731316,-0.057497643901272794],[0.0638528303366864,-0.016130913925022392,-0.05182042603870206,0.042928875552325774,-0.06615585663291178,0.007529993342779748,0.07333138960101472,0.04380895732795042,-0.07776315948163014,0.06241644325729347,-0.0818613184941976,0.03988408001144624,-9.164806097897138E-4,0.04022960888968431,0.02762323314568763,-0.07797138669490773,-0.07055349810754571,0.015895456700190113,0.07747136931831969,-0.060556435527921795,-0.009296708391139373,0.03897596154664697,0.009487643965723392,-0.04631761957064063,-0.06460171174556138,-0.039326091898455436,0.07076347268683285,0.0379849486838326,-0.0016420309797788545,0.05470216182835738,-0.009793619738379469,0.012262033597598879],[0.06998368223080562,-0.015043682341416065,-0.024657278110808246,0.0182068359748805,0.05699577320071301,-0.08534610374796522,-0.0697063179357481,0.08351049639084127,-0.015775129932251174,-0.06602725593725527,-0.018583974891495447,-0.010562148277622382,-0.050535330115364985,-0.06043542456235367,-0.07895045529489945,0.08481519776043099,0.017309267958367743,0.021848346333018208,0.016310068950778016,0.0758277531658066,-0.08007492507375626,0.05171732320895099,0.060924904857469125,-0.06950745539781296,-0.06309153326358834,-0.0649309498687051,0.053705362950645145,0.029612515014615558,-0.03719264216993669,0.019700371052618997,3.281699947559905E-4,0.0713336556805918],[0.030534958443805178,-0.020083433246742572,0.04534403077096988,0.08143010793533782,-0.022763153590331178,0.02986938688127798,-0.028729498350411924,0.03960804702725547,-0.06334639627632122,-0.06706975219877094,-0.029842463386460703,-0.05206970707035082,-0.08530266946756357,-0.04576945053865084,-0.007985194888126877,-0.06742257912304589,0.08217129755167359,-0.03441928811822849,0.04517988268670651,0.07069310370304892,0.033965948655750214,0.032533695450409086,-0.05630776324266546,0.06586803984678585,-0.0043668380098345365,0.041534204522015096,0.06498104236402204,-0.017725911142922945,0.014179430602392722,0.03135186371930276,0.006445586141375378,0.03129952181311732],[-0.0035457843978554233,0.05214061528381044,-0.025029220925221227,0.0693618357837104,0.005743068587873077,0.045433071190824646,0.050640055231841286,0.039575319499897774,-0.07559037115285788,-0.03926236241468949,-0.02000669878072183,-0.04479875833696865,0.07704126499423572,0.07382979099200802,0.02048469392381616,-0.018871167135326737,-0.037487060754599,-0.05094634269206303,0.011675116925636124,0.08124421614812881,-0.03329568452332031,-0.05112459079676415,-0.008825360900990013,-0.05303287676546116,0.026702578523690103,-0.030822597574923283,0.017901975817026888,0.07697095119837623,0.049432951615896704,0.010824386521705765,0.021185636409310576,0.07392947728279237],[-0.028719323570357745,0.0831550440209448,-0.04846566574368821,-0.057355166002571845,0.0019825371126319775,-0.01977576139072027,0.03448948851952983,-0.05869444733243464,0.06798154968273072,-0.012153661371015062,0.016610860449835976,-0.06603545059133237,0.0690512754716474,-0.07491978870111328,0.051699983420989935,0.06174092959426588,-0.02251575131662464,0.0641417095691228,-0.07269695205104916,-0.057144173801743636,-0.04096558262468045,-0.01645141115444265,-0.08493155805033316,0.06813039206801275,0.04718672947646005,-0.026516221182852195,-0.06507577086392648,-0.002634498610051062,0.07762111260847449,0.06753123527031192,0.06287488824133736,-0.08781919734231856],[-0.0056981551506816875,-0.06746285950631303,0.018253876707876322,0.06504991833427408,0.001436159423425426,-0.07532662904616345,-0.04491262236684839,-0.06044674006313525,0.08503709467432315,0.03188282109789157,0.05754389187912597,-0.06272566458669118,-0.005972722250729432,0.01105231374314723,0.03300346876026883,0.06748931329742011,-0.08332462468398058,-0.0061292009666260435,0.06344941706193136,0.06138534678957464,0.04685515308521625,0.03462608217976506,0.05100751087477019,-0.027922677043815878,0.07331411283475543,-0.04954732916101934,0.05362032864494304,-0.02464930652297937,-0.038450031420591155,-0.02709085950259002,0.010528823065019847,-0.00786923093663669],[-0.07347904721505595,0.0033217145612822524,0.06696727332792746,-0.017828907624629513,0.010722856186692125,-0.004444077139943641,-0.041949922326375816,0.01476056958485309,-0.015831991388247514,0.005735094213740771,-0.08776414464407349,-0.08023378913377885,-0.054148243121389925,-0.08093401106502027,0.005108233141301341,0.05388709881875132,-0.0313305516530245,0.029799887842473845,0.06122709758264751,-0.010605239976730298,-0.021824103427306386,-0.05643004487721105,0.04514021744444943,0.03265194084210018,0.07874135123200757,-0.07528098594237491,0.026852009772370677,-0.00977144147172698,-0.0849822065349358,0.02251043301717697,-0.004112639349482818,-0.0395668018770015],[-0.0467465583269311,-0.03013084498984407,-0.04950458432380258,-0.021664294165790604,0.07144208714453347,-0.05128246252978719,-0.03534501136595231,-0.060746058121565256,-0.056442280627392274,-0.047274112838958986,-0.03514091436489805,0.08429294346744923,-0.08530094970636336,0.0027233570445263345,0.03250318067494637,0.04566419536306203,-0.051421976730861574,0.07312534506609028,-0.02931616234362661,0.039612063135588925,0.02660995441722494,-0.06136807591975682,0.053285894465593,0.04250023670658631,-0.04132765226320536,0.035827208453517126,-0.03996161460400505,0.04619899559318811,5.032486912081228E-4,-0.07353886979199484,0.088242427199805,0.014908899847152404],[-0.04911659404614299,-0.06089187754875307,-0.06764962908362292,-0.03193155096101727,-0.06651399457895646,-0.03165537295837418,-0.08880051230421472,0.01281257892152405,0.06115228489134851,-0.028517814743277668,0.026853112495658603,0.03795986362517566,0.07861642769164948,2.4666063035524413E-4,-0.0769817747464717,0.04570845078802881,-0.023318877811197413,0.050184080970049866,-0.03910406436742421,-0.006741895897770129,-0.032114395225680464,-0.08160690755753873,-0.007558796699021318,0.01484363375453653,-0.07822584700720442,0.029102272032577464,0.09250067360191518,-0.07155885548461062,-0.002602966258980042,-0.05949303716233563,0.03971931626038614,-0.11288611252766576],[-0.09365462636204991,-0.06120973868723487,-0.02006346483039166,0.06404046739516703,0.03209787726500651,-0.037269311212637386,-0.0783542344516768,-0.04773026022840105,-0.023191849821320453,0.033624535326189274,0.010185422698882653,0.09241261946018609,-0.06251026282574539,-0.048331125359233784,-0.06890033547258484,-0.06767287981159148,-0.03365851304193999,0.028769008919653217,0.07307799995228362,0.07072230475752408,-0.017217498851245377,-0.015602862303786222,-0.050474889952762884,0.08079910379543581,0.02271066576206746,-0.06103909341724745,0.12818380712045033,-0.025356196604698768,0.020665568592803836,-0.008264319212472733,0.10802658841907302,0.017577658389718726],[0.02485257055927099,-0.016726815065615568,-0.02526377682969439,-0.05086975140679687,-0.011153936239223386,-0.04658345183798296,0.013668088719830458,0.058453091808920506,0.07994909584914639,-0.001564174675251234,0.094117133981618,-0.01884872886245648,0.06236247545048514,-0.07745314134268512,-0.07295724051767051,0.07086233600542953,0.050507365422996484,0.034423161506000874,0.01952725892498032,0.08240648331015113,0.053740070914853035,-0.02099312929554659,-0.06929785239925823,0.02539362240549055,-0.05575295393370616,-0.03751437232855748,0.06394840349247397,0.037711228327162935,0.015153051502732218,0.031289796732175,0.12980424581938196,-0.08298357938165966],[-0.09060530881398182,-0.008095743960670131,-0.008254256277709884,0.025419522503799915,0.0597423497449393,0.05624974752737589,0.04076071116703468,0.017333910760049354,0.016583457188445158,0.008155277891537418,-0.024182936766120412,0.07250297093895001,-0.05683797886855351,-0.008681100219240786,-0.04723315809878478,0.0897217358338132,-0.030386625596974696,0.08044299167851307,0.034791554968063486,0.0725691491861555,-0.06789339580542456,-0.06727104419727326,-0.06392501737546376,-0.07201009858811677,0.07377484057339685,-0.07063126129612445,0.05945014040525336,-0.07069440300051878,0.026781929810404077,-0.029660460857963714,0.09692529730685587,-0.029409437990286905],[-0.07619092605898603,-0.07516403834855213,0.005084807406142751,0.002549071472240025,0.09615450159069146,0.08163909907361651,-0.06801324814134563,-0.016387969138014064,-0.01691996211879151,-0.08683358621196853,0.05287063425829881,0.030590820238215428,-0.004733395630811502,0.06670324746509422,0.015229596765966642,0.09061150289398956,-0.06303264316084414,0.06945537960076704,-0.06905188859538772,0.048954963121990006,-0.0073051617604789724,0.03372385998427889,0.03373156716336936,-0.04054289879443178,0.04175037678804166,-0.029781944807528687,0.012146835081899681,-0.061317969812308026,0.012545216401736031,0.0730701381207151,0.11160494702676713,-0.029864505778457926],[-0.05402873916562655,-0.047432031529645806,-0.08876547456714058,-0.058936735052963325,-0.030869052626952404,0.05772096708773042,-0.05104823061094645,-0.015583877283894154,0.004835717952452022,-0.02576648843945641,0.09542429601366068,0.06281106706086291,0.007476576650255452,-0.05634329465348795,0.05229641806663411,0.035742138704666616,-0.04388672182762009,0.08148431915541628,0.024807200709435623,-0.04884330469400583,0.07857105537585655,-0.043701959262798185,-0.032548187499836914,0.07938256447096316,0.07854632122269171,-0.001320891642379138,-6.930647883908043E-4,-0.041229724099219364,0.030840451764353575,-0.01967599611072144,0.02754579615521182,0.019390530258333233],[-0.02286845331661784,0.013531035092818448,-0.09051490666843799,-0.01044314452525078,-0.09044401147539234,-0.022743302127910547,0.01254783450352993,0.05120378471159063,-0.056188024906748034,-0.05399382756746386,-0.06848493460683071,0.061603042921115556,0.03384057573048658,0.07400256994471562,0.009463792297758587,0.019034742715470943,0.03713370209208078,0.018299254491166962,0.0837806971109646,0.044700740200520984,-0.0661732948840277,-0.05697109784415757,-0.017358926561382576,-0.0844735218665032,0.06780820716642606,0.008713587157895119,0.056432352141378865,0.07226674756164876,-0.06350671862374747,0.037337200211419515,-0.01970746925837045,-0.08362594438163858],[-0.005232076264302958,0.06985166229943426,-0.09566511584196845,0.02065916552064157,0.010731115574545806,-0.0555584162856612,-0.020934830559919192,0.05801104663269307,0.0634418875598282,0.06122938196916799,0.08203586645590118,0.07792296439545673,-0.04363238708972213,-0.017290081339722076,0.02846479169122388,0.05733714073473397,-0.00567333174246283,-0.023915981883816884,0.02438433197559724,0.006522192439042984,0.018388836745405722,0.05669377775573313,0.06414811067635443,-0.05924490927551958,0.08163619912188347,-0.09258901936169825,0.13945320022562196,0.09962283542995316,0.0208248659974447,0.03478179850278355,-0.02577733455959932,-0.05457168466848442],[-0.019624844572333523,0.0734161933882959,-0.057548824130466705,0.02061298292835873,-0.08038477837219694,0.04600735281846806,-0.10419587363834308,-0.05916342229415242,-0.07857415687143408,-0.07286816636495969,0.006096325639828962,-0.010949675674264626,-0.05189324405334991,-0.02727609269345725,0.04284486461179316,-0.05279689514123044,-0.09579420599698928,-0.023795956286076652,-0.036300657775724075,-0.018442275656247845,-0.03183385942171617,-0.02831115444655103,-0.07097484775705441,0.053929085951479376,0.013889664247820212,-0.05620880757733679,0.11179879710379563,-0.034387355167218345,0.08415125000007648,0.005119442904676585,0.09858140396883874,-0.05108730169317359],[-0.023493143842638904,-0.029468768506271344,0.005931806324551735,0.05986660966177955,-0.01441862692393153,-0.07263091006274316,-0.06625382775985665,-0.038848236379031696,0.049379349254698474,0.0015149152843015965,0.08365974299250888,-0.04280755882225261,-0.049890062187339525,-0.012808388298470136,-0.055225136442724726,0.002131022226326823,-0.04320526665181974,0.08114171472446738,-0.027589575855536723,-0.03531515813564433,0.011407990799825829,0.01659391896372349,-0.05812924831238414,-0.03518979944445747,0.04148721736695419,0.059600464188016886,-0.04625157305726485,0.017356107753357344,0.0035768134461660168,0.017883034393585632,0.04700747951423959,0.0037614156223715403],[0.07412767338373556,-0.06698877704220109,-0.06637469034313903,0.08075938384434522,0.0636822317460416,-0.062444645263676664,0.012223922725795706,-0.016771571510283342,0.07388511016380324,-0.06462988539652481,-0.04417750965656813,0.015156459187209119,0.048762343204924175,0.04857401974830824,-0.030854534182526237,-0.03987893283470583,0.005136257996534589,0.03892500781678243,0.04249153586874507,0.005382895178233994,0.028107583180476174,0.03859135453729189,-0.02333091979926774,-0.04809452418927168,0.03301429560299032,0.02873898878967832,0.02238860681435055,0.05919751791859908,0.0799882159985626,0.030182001250045633,-0.03255008422892836,-0.03309778807910099],[0.053112724898800354,-0.06282216032191533,-0.032282682693793745,-0.07473720152179522,0.04751057860275312,-0.08375315674395337,-0.012298422847340793,-0.0051686696078229125,-0.03260563734566404,0.011387963620515076,0.02983987224590654,0.061657934909239556,0.03849450348546028,0.03578860688195643,0.06518801101628535,-0.012867706432917039,0.021675110123922915,-5.644702697590569E-4,-0.07437574140644612,0.00854009315232706,0.02342159324123467,0.012287385312460215,0.06038177310986682,-0.05919955772818256,0.04550957159766922,-0.027877057431282562,-0.04559442504952055,-0.03742484079683364,0.022028294122930562,-0.035474070066668396,2.084254752249526E-5,0.06471426284288799],[-0.05150057959003754,0.06838977228296274,0.029267516708345084,0.08319524387746952,-0.0735030982163609,-0.08027673959774125,-0.0033668810671446075,-0.015209052055162013,-0.029985860648317358,0.03496376902034556,-0.0702754859251209,0.05788675637432099,0.056360567291796705,0.02325692175042979,0.0030502001477472457,0.004240164376233018,0.0742424397211591,0.07310113826495006,0.04385943642567728,-0.08174013779765305,-0.04153702559491874,0.011897406092696438,0.017057627616460416,0.006421188709881177,0.021648552275798753,0.05729099730063451,-0.028552879486094737,-0.025757787845133304,0.014458754698228405,-0.013948758659730354,0.014404254524809517,-0.023095284646367814],[-0.05550375938154029,0.02038189789080813,0.03645200893432759,-0.08009112434213402,0.07194954384551415,-0.04118002225449463,0.03565726056221808,0.034949486157950474,0.03967340301496953,-0.0022016112827335683,-0.08103085239001512,-0.06007063752854042,0.05900111185190997,8.39974189839506E-4,0.056365241098800936,-0.07664796925192566,-0.017607650694861213,-0.06753681535868994,0.04209588907137683,-0.07097388215517988,-0.03314859232340634,0.05472610397753596,0.028468234889291816,0.05688231141208072,0.0222040308553262,0.06211414560346597,0.005659960736794143,0.052534876374813105,-0.035881467735848833,-0.031026908728527574,0.002106284665606914,0.04316069955334144],[-0.003821987894438993,-6.033745610685281E-4,-0.05028653118612601,0.05094151323015554,0.01762944594535383,-0.05600871627655758,-0.02926891969257149,-0.05951419554379326,0.031158209226866834,-0.07015893767724742,-0.04668263127247734,0.07687521320384644,0.028474921349485253,-0.0436657245790363,-0.01065194375050034,-0.08085049273142933,-0.08175061704147778,1.0568695535780575E-4,-0.04408791735330953,0.053336458548758625,-0.07185592187973686,-0.01372702786094617,0.02415857941391844,0.0759454343947554,0.007042881929372817,0.02477640798749456,0.06501751985384416,0.07593452410432681,-0.01275429879853152,0.043217625784528105,0.06770909766793068,-0.07557961493534475],[-0.005118959690493401,-0.03512105206788926,0.01397304899590529,-0.03491415789193323,0.024177405250715524,0.023216764486264484,0.0500870608372159,0.07360504928856837,-0.08197850954737908,-0.04047465765894415,-0.01991193718614209,0.06171318874520158,0.049466885848322116,0.00612610771058171,-0.014912233513098871,0.059987578825250555,-0.02296813896499983,-0.06451823727680256,0.05028375860558896,-0.08514579303099233,-0.05836601435705702,-0.07664034753383135,-0.025923608185366823,0.06480308901832861,-0.012413896681356831,0.06280927460361056,-0.04926569840338845,-0.04410689330148031,0.08192286317316926,-0.028438772969011497,0.07625399010709691,0.056635764061676246],[-0.02329734989465714,-0.062367878024778375,0.013895798748290743,-0.021902663091154514,-0.055330731771029096,-0.06806373114883481,-0.07458748056463496,0.060621362587381995,0.05736750235676422,0.07541611924345558,-0.059776974470631475,-0.055080416590200625,-0.08512529517423104,0.05682151800191233,0.07412151467820521,-0.01804351835723844,-0.01315834387910811,0.08009069410551149,0.01518189713341517,-0.05302783101177688,-0.014469961679064756,0.053995825284441586,0.05772167259964465,0.026774330518674016,0.05731703554940231,0.07362241140306784,0.05261815760005308,-0.0565755447954054,0.0060152963576581,-0.05494946472441019,0.046777715575026406,0.06234402242495867],[0.037000665694561605,0.008621433603435326,-0.04665322576454178,-0.033551469608044615,0.021827859672316506,-0.07143224343115175,-0.03437499845668606,0.07439398617882799,-0.0459763824601101,-0.0671323049728544,-0.020250907191169072,-0.03327421484108395,-0.02523958715040168,0.023199674363662715,-0.05556305682446442,-0.022232810946737052,0.04149952100737814,0.03005364152336966,-0.08096886199852828,0.06438899212670934,-0.03799109328501266,-0.03438032991317631,0.012664542851801821,-0.0050334184995079094,-0.05109047244546332,-0.01009072998754615,-0.04785874160752706,-0.04533399593173859,0.06608397745782266,0.05268908890957227,0.07154837364178504,-0.05545226658654944],[-0.05965018333796626,0.04772733162933153,-0.08572903905257057,0.033301442873187724,0.01076811327375428,0.05858818606446653,0.025805580953883137,-0.05984357840156804,-0.01693722760026851,0.07376614468723465,0.021185054174155983,-0.009969168924419361,-0.029806515530219607,-0.08251928495458404,-0.0026711441402472243,0.07042458292414533,0.04714821716086557,-0.0044585747441662415,0.004552790681477167,-0.07874573424736821,-0.043359874414525275,0.07419462346326068,0.07260377864274419,-0.06868689492475252,0.006464093896682356,0.07793609440609897,-0.012225956926002791,-0.03169333249134056,0.05723039242704841,-0.03714867584839619,-0.06509324335925488,-0.04586250846920811],[-0.02517488665534983,-0.03013027839013379,-0.04012569968771075,0.01647283170182966,0.06008453124127221,-0.024167424742743908,-0.02281321010918209,-7.939219659385291E-4,0.06822594913022273,-0.06915316974435019,0.06294311884294766,0.004770731111699206,-0.032048382033015944,-0.018540455088772338,0.04457941646697064,-0.012731822721421246,-0.0021410753168041403,-0.026404719334272665,0.01298671040172398,0.06958094724231752,0.0261901049932631,0.009219445092148521,0.06107940920750636,0.011324742145106691,-0.028978439986130665,0.07816508508392621,-0.053100557004184576,-0.04860640538737793,-0.03790134375702607,0.019969805249264238,-0.024237482928509666,-0.01501640936581238],[-0.03726069556650107,0.044006138743817695,0.08001752908368376,0.06794792561648644,-0.07917680195855657,0.007161684860858117,-0.06315762042653746,-0.04251445196114595,-0.053293360073096145,-0.008665285793699764,0.00845488600157538,-0.009417268371620454,-0.033892512558955666,0.004040828233642521,-0.06500276492270346,0.03423519276689239,-0.049275631491836336,-0.007003195319205014,-0.0768234900655991,0.07368413820455179,0.029126068315744855,-0.043125144644804166,0.07192964921393559,-0.07690491799785842,0.03870512179477574,-0.0681313783486765,0.030224965599947484,-4.8781794875983955E-4,0.006234538428887008,-0.01650471413452412,-0.0654025254847701,0.04161237521284492],[0.02840679727735646,0.04213755080403104,0.009734168377243392,0.07452861118441372,0.08340338953682666,0.03098228226221103,0.01780069473589159,0.006520147243381616,-0.00869431456644508,0.05822954336730492,0.04573142332500573,-0.010174888601174928,0.05698589214040964,0.053455584079901676,0.051912398891513584,-0.04425175675818901,0.04455361815510324,0.05808800040357614,0.047535080292917156,-0.07446330484737061,0.01435527388760043,-0.010984953440462467,-0.010734256398987918,-0.07626667229774914,0.0750419829313161,0.033526772640534205,-0.018966624492470014,0.0032207021083933427,0.07333007618162911,0.03873118460637844,0.08997729912529448,0.05782889175012406],[0.040759734061460384,-0.013029865093881573,-0.057994511360609194,-0.014279196351742641,0.04872882370705252,-0.0597720530179261,-0.0078066475802128985,-0.07075294627306261,0.01747090209067055,-0.04402355267575052,0.060353375597263344,0.06031780127494733,-0.052998777631824937,0.05238196150372161,-0.03157869836714834,0.06546037733876839,0.04568560579530668,-0.03419467023765101,-0.02960535297699447,-0.037869132211103114,-0.03489187759032675,-0.05197814941941397,-0.08266664361601934,0.05248687012395708,0.073098460630846,-7.913338216265326E-4,0.10002806052348136,0.053623276667276266,0.010203290259214407,-0.036039460334844925,-0.038787063544921146,-0.04719360490198364],[-0.05152159284641308,0.05538028202496377,-0.07831082491505523,-0.0062249006225392235,0.05527008486245924,-0.02043118316928391,-0.05109894626705981,-0.036294562145770475,0.0199450020924835,-0.0622078192219118,-0.08773612772863436,0.08386632437060774,0.06285681815097997,0.08275662982017055,0.05784382840580709,0.01989445031200553,-0.03175079048617885,0.021673581652416674,-0.0697882988091485,-0.03668173543497386,-0.06988775779751824,0.0610822154955685,-0.052780334224714544,0.07553128521811132,-0.028686375435785613,0.025810027394129118,-0.014469152767981842,0.01591176057776759,-9.459676795753512E-4,0.05604888319240028,0.10790235468697354,0.02320811311679597],[-0.00930525066322708,0.0548836156953291,-0.05417685354511192,-0.05892950696589754,-0.019796938910681742,-0.07716284587809549,0.06576302487707943,-0.005386751756031749,-0.0775183224250177,-0.07651610922618772,-0.01800164398081322,-0.020913154883540997,-0.043358369559030274,0.04175963302571668,0.06655505826087871,0.03810436622259138,0.053114554789817754,0.08261147248026512,0.015164903999386832,-0.004839171011723525,0.03004881222776759,0.05613726164033918,0.005532623791432203,-0.028512275242206304,0.005008200314460587,0.0730040180901332,-0.04524535735041594,0.013906411387918396,0.0818661864750976,0.039177974164384295,0.07250801227715475,-0.08985149393636392],[-0.06510418100242533,-0.07343589863483481,0.03271341068799789,0.06937453988369448,0.05118552215475753,0.011960031679065673,0.0973771861177533,-0.011686192469745133,0.05712901087528453,0.009634493343126903,-0.015762203760213027,-0.04498288301453747,0.01227463161676646,0.03242536415111911,-0.0597207329253551,-0.06991768455237937,0.08413118935265518,0.018447936577050846,-0.083876527022011,-0.024119838726428606,-0.027419103991250818,0.031022103308840265,0.014882203862333195,-0.016141938696283203,-0.050403240228966514,0.10197818877940557,-0.049870763841415276,-0.08195127394422995,0.08517395038392646,-0.08423929063660548,0.035773975616296624,-0.07596459285703401],[0.039736022183142254,-0.024344970253587287,-0.034940514354591515,0.013241704829121233,0.07807202304752658,0.05039215125839326,0.10616002285212452,-0.043903069471575205,-0.028204428992367785,-0.03700026738545968,-0.05984689109800302,-0.06001913525710602,-0.0636492243544947,-0.051786977889956905,-0.10636417828619923,0.052451686455034854,-0.021652676725349266,0.040701116815613586,-0.07693309635171583,-0.08119396153877531,0.020957751776301808,-0.008662099309941928,0.03830771887910951,-0.018653277100877094,-0.07592010989241861,0.06770308476549053,0.06081878529966767,-0.05291148631664987,-0.05267435766045527,-0.027313657354208376,0.1711856193151478,-0.10435871454994995],[0.029937434980192988,-0.05926138921778618,-0.09484416905417785,0.021042196080475778,-0.05294433096303577,0.05898981512223443,0.10752186006268578,-0.040108100836316427,0.024070104007370138,-0.023854273826157558,-0.0990789492451494,0.05798655759258743,0.03583893933871282,-0.05868787011063295,-0.0721326496597024,-0.07503905985528542,0.06755414736290014,0.04690919163210164,0.07803564773155357,0.028300072311717873,0.08254647733652162,-0.03450289288230454,0.027695500209282877,-0.06292804035639009,-0.00492592650852358,0.07434064837628881,-0.010648502491801898,0.05634311254156257,0.08528850543684437,-0.013543683158965368,0.14511831572317033,-0.02698330252945615],[-0.0023925511159086535,-0.013468214022821359,-0.12311773825233074,-0.07879568373343664,0.09098373010616424,0.014779350736803754,0.1602247341927247,-0.0075824616141892875,-0.06974948689021342,-0.09590446644212468,0.015843623259053207,0.024585754800113182,-0.033824248716241574,0.07182485365227624,0.06909482757844931,-0.05546682102686603,0.005178055620251739,0.03773302878773149,0.055084724010301726,-0.07323293665741881,0.05125293040135679,-0.042505226868676436,-0.062237463219085784,0.06850386751295226,-0.08011313885133926,0.0606038029046727,-0.03141076072620181,0.06501018587764276,0.03564747140122069,-0.09185133277516076,0.1279459979269107,0.009797891300590063],[6.410726361847242E-4,0.02773735045792176,-0.08606351125814263,0.03785469586446228,-0.03956642690375087,0.05650489142552896,0.025955045193852586,0.06498625913206207,-0.06916421054424138,-0.09719551004110388,0.03912410650067917,0.046786975904853055,-0.07678573519400508,0.027029701043318415,-0.06637374247532,0.08765710727607111,0.04725480030745388,0.05987344241633571,-0.05507403390719936,-0.05773137447704975,0.029905305469903658,-0.022579403186362496,0.01107257397909535,-0.020055331494045585,-0.010971222540038216,0.07479150925248775,0.08830173729751802,0.03886437422482167,-0.03986613053396537,-0.0845846088002848,0.18015839745252193,-0.03521118231922363],[-0.07507410404674375,-0.05130668359135618,-0.07969811822928304,0.03613316723147787,0.017422665553760184,0.07860390909373581,0.04177257463404319,-7.55351939557016E-5,-0.05658623543444958,0.005155300540580825,-0.05907297476554968,0.09036563884801949,-0.008437194489581874,0.0655510266748476,-0.08413779918550192,-0.0013982392176303175,0.04739165197114497,0.025474225990748972,0.052106471380291314,0.08425338532385979,0.06940283213021767,-0.08969532619616404,0.00813470350056734,0.0074958359585319025,0.02679071837870718,0.020460268843608218,0.07685215224274007,-0.01949092280073215,0.09578101313053124,0.023212684244847636,0.10879591872070207,-0.11993184399681311],[-0.05279197493552329,0.030968199502173974,-0.0375217359063244,0.05733994438351544,0.0660176562624687,0.0026981679608009228,0.06332427443480891,-0.04389579144777793,-0.049614984537640565,-0.04223447512894802,-0.04844374215149857,0.019725833583304143,0.050294272285923494,-0.06476354912934855,0.027018918723342115,0.007972181767692708,-0.0743200839517932,0.08070741028266046,0.03920407284630053,-0.0019042464737251935,-0.03732187012849731,-0.012283097526130073,0.07060595853399033,0.05628806858452352,0.02133106811906778,0.02185273406828355,0.05868936393577689,0.060797627457262145,0.09794763138903693,-0.11118095777423623,0.13525268565982465,-0.01165486163750653],[-0.006017412410130569,0.06792776147447138,-0.040432872104176364,-0.043923511140730405,0.09953768164280231,0.03717881631418879,0.11155976725796944,-0.04223864981285038,-0.07527674809487983,0.011335253091984398,-0.04233667895824968,0.02069008663547349,0.0645272120751127,-0.07972859652729725,0.03308782570707066,-0.06035360230469301,-0.0711362637834868,-0.003936297447738131,0.008823234243584008,4.9812264900621665E-5,-0.060247159970081135,0.04312657666441547,-0.0012091383410817176,-0.0035370678522899444,0.024449769066596076,0.049701864517788394,0.054513863351600175,0.028081692213672897,0.0703200505785544,-0.11401360428656929,0.1718235093953996,-0.07267505375237765],[-0.06278742943914563,-0.08029333125756559,0.020757694913397115,-0.09105523359502245,0.038006170047770196,-0.07772085486841379,0.04791957639172067,-0.008163847680589344,-0.03589979230053426,-0.09381383248154086,-0.07971876849489117,-0.026212761558820123,0.07688439172781598,0.035826398977608725,-0.07191736417005387,0.02295310317348789,0.03655361813056743,-0.033007338727696435,-0.05991440562882565,0.06320955737697048,0.01452019275481812,0.05758031731983218,-0.05742399887151083,-0.012412555844758599,0.016900727011139142,-0.011432667427590849,0.06666161721295286,-0.029045428829418872,0.012843864569313987,-0.017857685524785085,0.22966526592145706,-0.09985304576173196],[-0.012296290523801146,0.05797919070111052,-0.029031723973398788,-0.13127511127038669,0.04568671281709086,-0.0338315318702974,-0.11474473669223793,-0.034681951203441905,-0.04171148540009479,0.027039417647871884,-0.029404871211884304,-0.060071022280657915,0.07032742141450303,-0.052850835298268097,0.056428719340335366,-0.012557292434678454,-0.023462836819415966,-0.0826433523221769,-0.040319177996100325,0.043949680656881256,0.06950991665923852,0.030220521405746485,0.061797163245098555,0.020853862345158857,-0.045822493457929776,0.03152559355803253,0.10994894872090022,0.017529691933548017,0.050483436950284045,-0.06909305512472781,0.23503789685947668,-0.05226154126383903],[-0.004388746857993404,0.07925132544652089,-0.08889047439648154,-0.02367096257075337,0.002742260500958727,-0.04347753676517561,-0.022232443364358864,0.058256548961811996,-0.019819694410622337,0.00317815135343318,-0.024683614303751173,0.09145184648316883,0.0453646152177677,-0.08815916707324437,0.03300996730608569,0.04884313297797087,0.014744622301628724,0.04285892887713043,0.040914158427177334,0.032769769644453196,-0.0016399007092209438,-0.09067293786815507,0.0021919247097539245,0.0699300122630168,0.07241480766849129,-0.02844480799559364,-0.026470738072874055,-0.05327486701855927,0.06336328843792235,-0.018336752784515364,0.14745017051149822,-0.056534164485520684],[-0.06856601614891132,0.09353936182329851,-0.09192090736469562,0.0527500802038699,-0.05908488615307434,0.059762501568789116,-0.0164123627734383,-0.08546898469800351,0.03666274120229135,0.012846575393851188,-0.01897500361626194,0.05640601699867452,-0.03136507627207455,-0.014194354298391545,-0.10145737252996959,0.0704356882370186,-0.05982246761409267,0.024940476709825722,0.03560235544856855,0.03546716983539431,0.04126750019503485,-0.07234658260487262,-0.058079697031418916,-0.09388681235442811,-0.07174190087077646,-0.017181885945250247,-0.028625046566657892,-0.06945090774552945,0.054452934842631834,-0.002258885008456411,0.17257685743759746,0.01580259835973267],[0.052426528221669995,0.02988570131499655,0.05309314887137499,-0.06307722672321936,-0.06451407353156828,0.04158815825217318,-0.03281100437743221,-0.06570936996720934,0.033322341357627676,-0.020571634887428067,0.0835371765669114,0.08153237944697042,-0.06413493451623568,0.04692054315806251,0.0273481838052001,-0.031183163924015055,-0.10368765306269422,0.007894543558656765,-0.05242739463823335,0.005808220965134034,-0.019885197282874616,0.0761570975371179,-0.03672300851155336,-0.008083462157645738,-0.058273239043657096,-7.895344710202989E-4,-0.01501354105183834,0.08662874570895243,-0.030260765005584833,-0.07791527721648112,0.14541294325800475,-0.0256462047443164],[-0.03651684045101883,0.018682226592575516,-0.0869276698119949,-0.03687495771480766,0.06391329165669345,-0.08289588379298822,0.07453502806541741,0.03683319948478977,-0.04651986728442351,0.08873024806399094,-0.06921307680814436,-0.06637899325840745,0.034704163163595626,0.0559947629767095,0.02161640766590652,-0.022290472805468732,-0.01584269327221519,0.07037387422588581,0.07946160145467897,0.035927253293985856,0.08140732027386093,0.016446379758112077,0.06778960083390645,-0.08900001728927284,0.06501852838294948,0.004346488716680508,-0.03566239237757264,-0.02612301230267632,0.0675047657704457,-0.0050634954365502815,0.01564954706871131,0.039642479885907106],[-0.03301154649889834,-9.927198499319106E-4,0.07491597006697055,0.04312389491632812,0.08544304380697611,-0.045659537845468036,-0.08700422644478456,0.009647280604687123,0.08010141995892794,-0.014871882198051571,0.0034552155386114673,0.07460169075097269,0.07893443900277745,-0.0013667442220053846,0.01243049342331587,-0.05391901026134627,-0.06436469978403433,0.08282975436837868,0.005279937289768998,0.07583122750833186,0.026089874906165916,0.0091089228617612,-0.003644725407334809,-0.03011284001106248,-0.007301681373286345,-0.03854866241221164,0.06525551622113934,0.05580230058740845,0.08088286357024646,0.07585223659573478,0.07486521678408321,-0.08814489008176254],[-0.0560759011366831,0.0392923821261084,0.01680084716630474,0.03311986815855645,0.07436633870051503,-0.018013258669884152,-0.06453848266439406,0.07204335198537432,0.06009015911197309,0.01513088493439698,0.053062458507741654,-0.013662103654502331,0.07155088237261409,-0.07801192571665572,-0.055757042434432344,0.04707944116940155,0.013333873621843455,-0.046269894851228184,-0.0014630539215258938,-0.06776098256889646,-0.0592540830319514,0.05154849619377519,0.07870037562695417,-0.05347031709043709,0.009280657099104974,0.0792903512194957,-0.07684250858556887,0.06211559685493862,0.028393911735871587,0.07363578570744586,-0.0329336565320464,-0.08613244221743731],[0.08635364105103659,0.08551575044675519,-0.06723796753452221,-0.08412314503924685,-0.08477964350611733,0.02624291449852781,-0.009082267881281149,-0.06189166046541619,0.06944093560581815,-0.06183649771082642,0.0540303285928483,-0.04031288970417419,0.024721231380313628,-0.02839119881166222,0.038469655198741605,-0.029874287220144173,-0.025079689095682804,-0.08347915432772592,-0.0723597049811595,0.05270012957733001,-0.0720643933567381,0.048785537950128306,0.030470878328360252,-0.034450539018100274,0.047287072430405565,0.07449421831535491,0.06653719023384652,-0.03557481969364742,0.07055793493187693,0.004399228321018884,0.060624400080489894,-0.048737326884713876],[0.014017057679717695,-0.04415316471922182,-0.05847807982347029,-0.07067764063796494,0.05765351557082972,0.0649693389554152,-0.05929122099978132,-0.019482227554774342,-0.03671738644239297,-0.02100094045661359,0.06646125787835673,0.010927677472603273,-0.005880805797452257,-0.06112500118832766,-0.014747908886409441,0.05088792301510149,0.029157700136091144,0.0029452569877642097,0.08035793768645613,-0.08177891638557816,-0.017131710936997602,0.04816915847141535,-0.047622153774211445,0.04462908867109322,-0.010822636428992808,-0.050686158651132206,-0.08345084660325242,0.053258620759645735,-0.020082565505399445,0.0011264872281434978,0.07826226162919013,0.05803973001058458],[-0.03524520723699101,0.04457943509725332,0.06414798392734984,0.03681614261587958,0.027321117226139106,0.025313170535705542,-0.043232761873037796,0.036242424761446776,0.012283882923664337,-0.05100939494970937,0.050028169406004006,0.04921426448853362,-0.015366288243212602,-0.05116860639665572,0.022874124757622107,0.05604978927997713,0.03656451764573601,0.07308581988219327,-0.02633000920949154,-0.07550661391794385,-0.0472949528946958,-0.005256504861869469,0.07034337013045278,0.06324142335631437,-0.03661826621100744,-0.0013692196703223873,0.022930663527172275,0.06276405834356374,0.059558880185816676,-0.054503627003904,0.0027246268365436884,-0.015272859374799188],[-0.025598605536561084,-0.05369609192624196,-0.02688089814493806,0.03753022125328621,0.034680235596722155,-0.008022097813581385,-0.07376619587151728,-0.02988455748335283,-0.03305241318110932,-0.044413911789378584,0.028635436493702794,0.0784294651191437,0.07045146777282504,-0.07697899172638448,0.03134489037437967,0.04824611806353255,0.015859725597650157,0.06011470005186782,-0.049653100215540376,0.01981585419746703,0.05323173321231027,0.04627516757358615,0.056071289639121905,0.07024819210750674,0.05612182282913401,-0.017323753293693775,-0.028307305194515762,-0.04759381541002029,-0.051077872881250735,0.0708260226345747,0.054631570599785476,-0.003933957008820347],[-0.036693100828907456,0.003860996719321151,0.017943136394933647,-0.00185823085290988,0.05476740363530536,-0.0577452457237523,-0.04939571885547862,-0.06172305760006813,0.05126415788354531,0.07081599878819042,-0.04013810459286256,-0.07023421948437102,0.0435182903612794,-0.024741191841322355,0.02701314755189901,-0.06560641196371002,-0.008631898807767761,-0.08513930224444666,0.07442482267735971,0.08548490774431994,0.056417864770859846,0.07281023388569277,-0.08180331788511322,-0.023784374838401443,0.03147531056818885,0.07412814602881725,0.07063020283094917,-0.07299857760426139,-0.05859066312705386,-0.07831426294242365,0.056638589270245315,0.010175894695910136],[0.0321987953636869,-0.012699462525844165,0.05476924401516948,0.06438408807143474,-0.0212072776534791,0.039094578631861956,-0.033050007297644866,0.00849893466573301,-0.05874333802426484,4.1651188653348226E-4,-0.00754342769640206,0.06664730193042677,-0.03763188911401463,-0.013464341039744827,0.017982920991474402,0.08236530568258035,0.05363493223654173,-0.06375454788670333,-0.07295133685194459,0.0229821283791166,0.06433752981023104,0.056773877709748836,0.08323668043508299,-0.0347506697158705,-0.0383867609945794,-0.044069164132413484,-0.0015205176392055696,-0.022757776991504417,-0.07723727433029229,-0.07942090440534888,-0.08199889183228848,-0.019299297520034096],[-0.055905266094020134,0.045848007826525615,0.03566246346465817,-0.032348932718495656,-0.01864900630384251,-0.06224797853821915,-0.0645365893007521,-0.0051165602224709115,0.015882103307612586,0.0027163595650913173,0.08135440472244228,0.03143217458870394,0.05783224452402622,0.08013181490481064,0.07328515128411138,-0.07674093424961344,-0.05099605050120555,-0.055895755112771284,-0.011323054688298369,0.05426384560136242,-0.04602382073704812,0.021487396422944546,-0.02523325283273444,-0.07744533198364965,0.04132423359640857,0.021579789449004332,0.07060195583057807,-0.023031828199181485,0.06940213544343339,0.0657663066926638,-0.018383254916002106,-0.022987832003040738],[0.02134647700647178,-0.013692103885877238,-0.046602236447460824,-0.05427865459171259,0.07165132271037644,0.022900217375255758,0.06963918994480843,0.02142964876772619,0.07832857892422487,-0.033109919333179576,-0.012245007389517637,0.022879843540669534,-0.004371027930816578,-0.0612848429738228,-0.08055375269579448,0.02575433048832811,0.0832050817883576,0.0386730145664309,-0.02281315626592774,0.03728743753556074,0.06503423214671833,0.0019352107329318965,0.06527296110621134,-0.06557365904333991,-0.06888763633795379,0.046693193651776634,-0.02558194542564925,-0.005129822354276153,0.04561654003716557,0.04262413621280145,0.04100746064931197,-0.03386629137100395],[0.03346751505711802,-0.02842780204155832,7.874715626294136E-4,-0.002391674783409523,0.02975453674109541,-0.054172320378111344,0.07861139798350524,-0.07201443447477116,0.006671557562919364,-0.08734802334280362,-0.011751994720395424,-0.057205739232323444,0.06831218989432462,0.052153142124914294,-0.04734071685842827,-0.07131659550602412,-0.002151140375846689,0.02958186390570375,-0.027169198544702875,0.028095542673536405,0.04558621738247579,0.06234219521873114,0.024863048330509115,-0.028260390803601588,0.028060431718697758,-0.07159502765551816,-0.057295665691313044,-0.03848902268528867,-0.029809567204609266,0.050137431913633,-0.03359252072704517,-0.01838236637352697],[-0.007421195180913417,0.05461010784785616,-0.08192424125067226,0.05516708702522386,0.07628599336341402,-0.0705820444166883,0.01181726350062523,-0.08043373653638476,-0.06693593798564347,-0.009073917427877196,-0.03457288117984579,0.016862088833756037,0.029114540398457747,-0.0781356177642657,0.07756433330182556,-0.04582207404645696,-0.022050293909776916,-0.06118933169768841,0.042512988086795926,0.016183194913514075,-0.03149383606967188,0.002756208935730152,0.00833286338277187,-0.037511057944591426,0.045932440008462846,0.059441226406108306,0.07442087924809362,0.07748390616646814,0.027135154099452535,-0.02616211526714687,-0.057221500447405385,-0.010343530875282763],[0.003260211003005975,-0.06531171744710738,-0.07287279497850277,-0.05480123779926293,0.04409488826349638,-0.0632079853083674,0.10773295310166836,0.058049783366732784,-0.04873114629703975,0.04723300752899679,0.020967073606561346,-0.05327103439884085,0.026711069752891795,0.07192080855998262,-0.08240543935857055,-0.013975608277752767,-0.05383438648815769,0.03184461169986409,0.07870315092390513,0.04871909846664588,-0.05438006176115621,-0.015025740537043614,-0.09090651051273328,0.07468343530509784,0.00868051614365456,0.032178348995520065,0.06939122703003349,0.034973324296850385,-0.010562085102877997,-0.005412951918082174,0.049223822048746584,-0.033888482985308895],[-0.07433020554117177,-0.05016513546035401,-0.021329765757854405,0.04237524340180772,-0.0510900886489551,0.023429430329157397,0.07376530009199879,-0.03174616033015337,0.036604226925632206,0.052268335188248555,-0.005947150006573523,-0.02698458300081878,0.03912609597212801,0.0017027200702414641,-0.017883888834288385,0.001950319121422658,-0.042098832952426675,0.03022525152327425,0.02427918980923169,-0.08591935773096344,-0.03639766445075948,-0.024542082454417986,0.05190261148870818,8.15459903777551E-4,-0.05741174073861067,0.10112645742872381,-0.051837280398739576,0.009581646592369012,0.0664995940033098,-0.011694502010364056,0.1205313395792548,0.032188080627823405],[0.029972106098869886,-0.11740986395591328,-0.024227945080518787,-0.07069427918980725,0.12102261490555404,0.06720384836744349,0.07575121638227054,-0.041122177305846754,0.013747359582610582,-0.07767836899385772,0.008288718269859332,-0.0775317126583931,0.03678676776747371,-0.047339875718387964,-0.0739203599833015,-0.04675011651525723,0.049007869342945064,-0.08210108335310821,-0.031991513034418155,-0.00634261747290976,-0.07906454883961689,-0.05764080001643686,0.022605963044384586,0.03869761751188952,-0.03631880470353103,0.08852983051114578,-0.01562603743270643,0.02365959575714044,0.05503461796509123,0.0010090363097901307,0.03768773962148668,-0.08486259400489517],[-4.240487342253841E-4,-0.13008520913650026,-0.12833851804885663,-0.02061732424266685,0.0737341443860993,-0.07575171820201668,0.21267030453030955,-0.04315963843067567,0.07769700656527978,-0.08761175426789868,0.0072649734440204585,-0.021772541780099536,0.01619938643256597,-0.04461975277910532,-0.028360705462294182,0.04478066268807553,-0.0571982780766342,-0.0761138808326511,-0.06137735785942922,-0.07582927312416231,0.06864301287422282,0.07624850962983515,-0.038478558859419386,-0.033180123477282386,-0.07717430487185448,0.17334059434973756,0.032191901557082486,0.003474680078619449,-0.002832172693605136,0.02689881950439643,0.04703670888935918,0.008391927857750305],[0.03427020409108766,-0.004190382677960593,-0.027347512902992498,-0.0062026716037069,-0.008271790413294693,0.08026757072181477,0.18697719433333354,0.0279742533625189,-0.01617179521559784,-0.004028463531014087,-0.15176071401487448,6.914883469722783E-4,0.07139630524411003,-0.035192747279924684,-0.08171308158139906,0.028306884529667953,0.0383837198098121,0.04392643521284695,-0.08155726709639245,-0.05041918918457672,-0.06293874632240423,0.03315415333816578,-0.031322263078409,0.0071687815310328765,0.02367810264223058,0.08660628097456101,0.08956257185544332,-0.03574985246402721,0.04571560662791837,-0.04922578523763,0.036660196835992316,-0.018492632675533204],[-0.10651774415879925,-0.1085746139454246,0.0031277798710096054,-0.0049383984717087555,0.0470086558169691,-0.0336126946984751,0.24094587510000984,0.08280712882104986,0.002963418644315938,-0.05904813086322353,-0.16028369334184323,-0.046083229744522315,0.030997539711825575,0.050087610101509195,-0.08722354614829503,0.06818331287916315,0.006068911203226306,-0.06310904365949299,0.06409437187662553,-0.06083746390685451,0.041713185312084726,-0.03424260029935111,-0.030048654943459614,-0.09525267011758007,0.025726368178273427,0.10712614405371851,-0.0320382461836061,0.008019639944109726,0.08300850539800457,0.037585347871352835,0.07530932540797812,-0.12884895440509325],[-0.10613729459748247,-0.05578044221905748,-0.021672185544342987,-0.026730828141026064,0.12471139526002309,0.11985864723061569,0.30742279330548616,-0.030469092318699695,0.024237841872697185,0.04302388047086903,-0.18411473616095964,0.05369030903168033,-0.08276445796174578,-0.09574259934193974,-0.024920437146169004,-0.05476551022424839,-0.014147130496577846,0.07171611945275715,-0.040611684926944225,-0.04611635828505203,0.05877203507745701,-0.04174935239651358,0.0039155593674573405,-0.08613499270370639,0.09157524763840594,0.14016684434649343,-0.021733940210451552,-0.009412707860482037,0.013022466943058987,0.05867228715818801,0.03559031526224207,-0.17243027518819354],[-0.1388146103887313,-0.005472169411060061,-0.02940224911949072,-0.0162419907023132,0.04522462809812709,0.0010035724349741436,0.29297784495196294,-0.0509632776188284,0.07799070983215563,-0.018307257651205746,-0.11905335175833238,-0.03181784236211021,-0.00439552842110674,-0.030154202919489476,0.016574967886230165,0.017210774405884047,0.09417468620403331,-0.0010130523362584078,-0.07812475607156803,-0.019241852152487852,-0.06873470568294845,-0.03871777804809232,-0.04704542399118653,0.0897118274243825,0.07949515602478213,0.1673981807017272,-0.06506911924805849,0.029971386131839473,0.10983907777526428,-0.004986969014018993,-0.07215213419122068,-0.1261529500303019],[-0.08984475716530013,-0.0221533280714118,-0.15503223098320548,-0.05809426722273562,-0.022856591717493026,0.01955747530166613,0.21401516440531243,0.02003325388011857,0.05372936486319688,0.03173468026016628,-0.0546278911484879,-0.06671956936419476,0.014811186898440036,0.03627845488235497,0.06467731021667739,0.0066456655147857655,-0.0011766372812352442,-0.07175384291029911,0.024530743120920687,-2.8413599219622197E-4,0.00869702628450485,0.04758692552007231,0.014840141798885972,0.06660242566419136,0.0885543716327717,0.17903988456017353,0.08254651144338845,0.010184921214487955,0.1463947790680289,0.035825662246419025,0.06113894828482364,-0.11127998918735527],[-0.22251288915985734,-0.012376684843837731,-0.046616581484701776,-0.01216081432401082,0.033903512401042134,-0.09214855173344962,0.12405181810196032,-0.036222720047947174,-0.042483046960530735,-0.06883563930982187,-0.12688917540636913,-0.05038967716262432,-0.0019773493388774263,-0.07319889201212704,0.01834873861526163,0.02864238825689034,0.06473030160400975,-0.05953888042213407,-0.05984100794686562,0.07229609432743714,0.010365745049804155,0.05896423411326979,-0.06628955481912818,0.06765832581411294,-0.013870702574315111,-0.07045968588542516,0.1240843600644456,-0.045171920343583416,0.15720438025921232,-0.043935749034605176,0.16354937748383405,-0.23979149162033064],[-0.15040403860276988,-0.04615908662992115,-0.11901678763040759,-0.021658001766858028,-0.027046983133147563,-0.10287415946949885,0.07177684185002882,-0.04674227964648555,0.031187707398709,-0.028226787275959488,-0.03449133254204685,0.04495389318554829,0.062146453257370136,-0.10474670267052412,-0.01335677190350623,-0.05419875018985144,-0.010316086365273413,-0.06905188557771605,-0.07876273655859532,0.09005848647111088,-0.05930661894247079,-0.019631939190550177,0.06599613545905994,-0.02147147272312613,-0.043636097973720575,-0.034973934095835074,0.16051597667649006,0.06480158421857826,0.14347625948251097,0.0022256600391838033,0.07830698948660793,-0.08677483351502749],[-0.10764165362352657,0.09608833146253347,-0.028163996961167403,-0.06992576568660758,3.197002744462405E-4,-0.08888057121256655,0.09517226152929442,-8.95194233170089E-4,-0.07339563655132156,-0.19712407534652812,-0.020956655040620605,0.012389017977903618,-0.06048039921723592,-0.010492860767654471,0.011113413846883935,0.03370365106676573,-0.04278345620724887,-0.057099272380908006,0.07886912237300468,-0.01824062338485328,-0.008635677857124524,0.06560144465304552,0.01005820117037542,-0.0651870240151978,0.05263561030231168,0.05279387315097593,0.13137967201159803,-0.055644214312848425,0.06684704280617831,-0.04994981352388682,0.09947436532396407,-0.09504305844895597],[-0.02861013348267922,0.01195057061370079,-0.05433952911571746,-0.0787939437578385,-0.06732632269064054,-0.07652935983275348,-0.06007529607341491,-0.0402906014195305,-0.04581635812246953,-0.0059989766477159855,-0.07755645371991972,-0.014240459237065057,0.0841078967066881,0.05075689157110875,-0.08446572600106514,-0.07291320059724843,-0.06711947413074708,0.03116473076452881,0.023101529087070524,0.037929183400880924,-0.008893821304111217,0.013586029107415605,0.02856466617582114,0.04523414799703568,0.04612938631915542,0.015339503122466302,-0.016367645575032234,0.046678244238990245,0.038431861509371244,0.028121275078994954,0.12726057382455774,-0.16266274202800712],[0.04506568913601923,0.009537608844014289,-0.1355826272710019,0.03541653125838487,0.03352577879242271,0.018808322197404848,-0.03196837032723417,-0.0750112590131747,-0.05307887016697025,0.012891553746286354,0.00836713683734326,-0.0089651004946936,0.07660256729689705,-0.09614067814831367,-0.06400301354408668,-0.07402858360154796,-0.11964194481682404,-0.02218465784621574,-0.004039415471855245,0.04321749040179111,-0.07460343716527051,-0.06417655114818238,0.11287437913640017,0.09592197473683489,0.027179416183644906,-0.1086645992678984,-0.04654184664746172,-0.026209036103683653,-0.11329919926729237,-0.05311838856099632,0.1609535481861227,-0.11507082208979302],[-0.06721367190744922,0.09720465644399032,-0.09887388704556548,-0.07210221571865748,0.08722221204756256,-0.05353550131878022,-0.12419437711844056,-0.02322594387469922,-0.04725263673776462,0.01822624826206802,0.0593219751543333,-0.02195144158878624,-0.012132447053968785,0.04275700208919422,0.04549538265400891,-0.0469320070524141,-0.04112849273609376,-0.06341566721721192,0.06167556051024348,-0.01259715332875998,-0.02357257720013614,0.027628786339140878,0.02388133705422523,0.10471253978237012,0.039773889921812904,-0.19097077122103778,0.052471652634448585,-0.0639062022717352,-0.03211312637360157,0.002040791582720681,0.2466892990889183,-0.04947176289305459],[0.040578997528836,0.1571090360471765,-0.020177353103496005,-0.02588668218703599,-0.04673773836433057,-0.09376415315882598,-0.0781316784752864,-0.025221466013531195,0.048580126147462904,0.09149033782737429,-0.01210241451000203,0.10849770779177706,0.070275500443013,0.03640570344376053,-0.05236069001165344,-0.05372862200929473,0.0059230787585023885,0.07119250895526688,-0.07502907256044473,0.05546073761917831,-0.06824942340515501,-0.06405476462475145,0.10578669916469881,-0.06354038345300696,0.04007380420762158,-0.05945617825775181,0.09865365677919978,-4.855483469537437E-4,-0.0513315117295859,-0.04035073444678148,0.006917351483014839,0.04676930171519261],[0.06687148385760791,0.13031022289305638,-0.060124057101088896,0.047736115392342,0.028811343385583426,-0.08039586999864437,-0.07465189432498799,0.07698178324012721,0.04811618317846965,0.01345187268642457,0.0661825773628709,0.02065895902602406,-0.022577261259563483,0.01265932318445525,0.012825105663769414,0.012939135809061118,0.0016056972793736563,0.07244473720971169,-0.0546631642189643,-0.013151209456432606,-0.0034670629119103406,0.049087044494310415,0.062355496805430184,0.038498004146003,-0.01005624206538007,-0.0358808016236095,0.008001813738699477,-0.021756642536890667,-0.07334998474866285,-0.04754554865649594,-0.0036644841175364437,0.025145067551192942],[-0.01080331060234024,-0.007678009385610145,0.009993747252823083,0.05990423010769962,-7.972937727329976E-4,-0.04847385153444515,-0.00628958134833091,-0.06804565271734313,-0.059740368229107665,0.07004196040296039,0.016046732497167333,0.04960253922492117,0.0847018594683711,-0.00627874945441524,0.03989160304336469,-0.0639368995443452,-0.04754200205188247,-0.08158837274759763,0.028738260845260773,0.019100234287033863,-0.059165377213703324,-0.04202312788383637,0.03318347178718024,-0.07857101654501367,0.06411865958094402,0.02553564687310722,-0.03564234497068806,0.007580896509050106,0.020792974451618727,0.05297768309576338,0.035060652368472514,0.04323059375551679],[-0.07746984049047825,-0.051729738424544966,0.016233221283109903,0.06368374928448767,0.04777303930644444,0.053389417552123695,-5.80858802055414E-4,-0.028707661463438058,0.025282387165204576,0.03328550357216719,-0.05226583972617006,-0.03990750414680309,-0.06272698260575199,-0.06811444064046779,0.06364981267413297,-0.06903578257394806,0.0012260962032602822,-0.011559424946718397,0.04484549584523136,0.07959220791312477,-3.839448889815288E-4,-0.01855252760499671,0.02749223965151671,-0.03903470092012136,-0.011486740341318944,0.04293862121735007,0.07461091134981014,0.026679865964686977,-0.06864101926065339,0.007426827083394719,-0.05935870657163006,-0.0362540092325217],[0.08039801738439989,0.004905414081543314,0.03527293150613453,0.05456201971297936,-0.014368492819294643,-0.059130916143191554,-0.06511132257246595,9.508453939827177E-4,0.06486783937252379,-0.04922077428917175,0.015130750412307081,0.0754509437941869,-6.169993740192543E-4,-0.024000265817284996,0.06993063244650174,0.03914859406700099,0.07843326037152187,0.022129173094299924,-0.031771359533058735,-0.04056440713936425,-0.06729742748292672,0.04090607636523421,0.004198477772989535,-0.0654407106585722,-0.04238465940470188,0.0824269172692528,-0.06684942571988259,-0.07118868040439214,-0.005185895203899944,-0.008268318752188504,0.009106044234678284,-0.043208142816875655],[-0.07613245727927823,0.05934500000574597,-1.3165377464001134E-4,-0.05858272106236988,-0.02695526347905042,0.01954465069450387,0.053065569671016014,0.06493357504863632,0.018516379883529527,0.0709698042437241,-0.05108780646153459,0.07150296855934275,0.0165872346673052,-0.07963091286468339,0.04780796171616333,-0.050748450758091146,0.08053842523168157,0.007776161116639703,0.06219916660550791,-0.07151641484521203,0.01307869263222963,-0.07677991183456559,-0.04108655771226124,-0.007748135104285648,-0.03892112459849624,0.034915933480262396,-0.065565007186393,0.060537927516296254,-0.06255824903813952,0.007887192876894359,0.0731188087967625,-0.023658789814279997],[0.08125993082865686,0.06283555994641896,-0.07183456235401538,-0.005484483190785361,0.06028817654596977,0.050199104362559484,0.01926126247777866,-0.020131512332523506,-0.03466732996642847,0.041711452018003775,-0.019323795122288417,0.04733678375858983,-0.006674784353681924,0.05827545746251074,-0.06677957897733916,0.0366699696366857,-0.05363490789088007,0.08386236465939147,0.07104746226094824,-0.04660259203449861,7.385990320160013E-5,-0.05856566887962459,-0.05217720115114921,-0.05466841620385149,-0.014800165411998426,-0.03135280395377182,0.022159915472352923,0.08322244893507885,-0.026085725134151895,0.01960971887409168,0.07785556571788385,-0.03297369469252651],[0.03249432061796606,0.023480814093292845,-0.046897557789687086,-0.06874858282962262,-0.05480229713309177,-0.08541989015684479,0.0363310447265498,-0.05855044999100518,0.06868757418098334,-0.06569320607388894,-0.002596281361685159,0.08196504434818878,0.012880494470962513,0.02962347065740446,-0.06591177191538942,0.0497604843272036,0.05542295385645101,-0.030922530397440567,0.003228476156028974,0.015297722879105314,0.04190721795660535,-0.08161569676775267,-0.0579188282523197,-0.01975607301376848,0.07510222077366485,0.05144099108353593,-0.025446439039044044,-0.06697606514245458,0.024700708048682407,0.0632485038771427,-0.0459453012342488,-0.016392661657259285],[-0.05086417619402908,0.053495758112484915,-0.0028453402819011795,0.08166401555714072,-0.009901862301377719,0.07800843635370235,-0.012772235014342664,-0.0267369293651942,0.06925892560523321,-0.08127430014828431,-0.01983717298883547,0.009336757294457937,-0.07128329001112635,-0.059144085129704996,0.04305670983242766,0.07176736419983577,0.07437619311266366,-0.021257011215665856,-0.07197330424861668,0.061802336473630794,0.07761980860135029,-0.06923919290829007,0.08144557310445408,0.04516695939381399,-0.06293219899540413,-0.0035164593685199867,-0.03979018865045053,-0.07382576291576522,0.058522470380825545,-0.04332842669185345,-0.057498652870428144,0.08187133652202852],[0.004082303785886316,-0.05086865737650154,0.021088113045742145,0.03899536479254204,0.045504052449531526,0.03920947414852536,-0.04272985329512808,-0.06701557019331629,0.02143710943745996,-0.02275078377533019,-0.03870677430613396,-0.07653373057949833,-0.043818784771497594,-0.01838373744441956,-0.06469457072120079,-0.02025325948900408,-0.07763286512635134,0.02613445252857769,-0.014785832522015478,-0.04523358976673842,-0.03212427489628988,0.0658792617201061,-0.06112902673542301,-0.037261727456699895,-0.04621158892789201,-0.07714087599540652,0.08579494042964726,-0.015553491133697814,-0.07710984000162234,0.05197510279634064,0.07989929176303309,0.0478639777959598],[0.07054850460456968,0.008768786035636118,-0.030432872388057617,-0.07284430849692637,0.021111771138912095,0.08570811588822262,-0.050099028388942944,0.07594519384693872,0.043613722883319536,0.021990109298377965,0.018162226122476186,0.040230878767149175,-0.06490535357507503,-0.08750683932033229,-0.06588959137544227,-0.02471399759483341,-0.0833208785543522,0.03915673511611613,-0.07623241198416016,-0.009855739948027607,0.010853091276102554,0.05098613999849353,0.057168811327684484,-0.06928686586885936,0.013578533825867106,0.0507322025493204,-0.019718951514269407,-0.05147406344727932,-0.07622830652900646,-0.03723665036090873,0.08046944207649834,0.04374457756466492],[-0.02603148172659223,0.02414055633285718,-0.07525998226784278,-0.006489328759825275,-0.00323226062699401,-0.013583264063317268,-0.024012263656911007,-0.05341094177992148,-0.060158227126704246,0.029694603915711264,-0.043357147749378946,0.09322159106275928,0.0072038379989287984,-0.025786909928617652,-0.020227713450808163,-0.0373128337124888,-0.06657934860503047,0.07420550914353484,0.05459163860445012,-0.08449737054317956,-0.0384772877742012,-0.049343999774921654,-0.07108115773374885,0.039225758725296433,-0.06452555616209767,0.07632117401055946,-0.0039388625495628184,-0.05210111460399702,0.04955599136725025,0.08432987339042308,-0.045401912951013874,-0.0875298498610436],[-0.04968844183931259,0.021438853879513216,-0.005735883281573248,-0.014069391614207685,-0.06428191658282259,-0.01994176413590478,0.08118786678026828,0.05678383296524746,0.06560628129575895,0.06964412385169359,-0.016523977290003093,-0.05002619908685898,-0.03545730176845542,-0.05956541613384683,-0.01643259753525593,-0.015128514487810926,-0.016111298544231555,-0.03546590648009858,0.01934011928073876,0.022076635038535082,-0.028091488521759248,0.05906831270638331,-0.023082185621154633,-0.018994306499925884,0.05848463502671108,0.004086070310813667,-0.042602723604895816,0.07476999261711008,-0.04991682150548816,-0.049853793664322216,0.031017056334756578,0.07083343573646776],[5.7463920521536006E-5,0.010736790326199955,-0.009695674484100972,0.007468842009476026,0.07691866802749708,-0.07060995536669792,0.13909091099970355,0.005517644587842671,0.00454033890983095,0.01980694439712173,0.01013855801812044,-0.08104175712741375,0.012615025255143946,-0.05847589817765625,0.06464204937321572,0.04039877575575049,-0.002997049708704414,0.030979722477361023,0.0034464573261965285,-0.08017106166559129,0.03934634361863495,-0.0324453913152614,0.08608141727504903,0.03550247402027921,0.06759354821147341,0.14727308989471255,0.007995878772656168,-0.038054933304651026,-0.0024162929073177895,-0.05124231066408566,0.006767277547627049,0.043525181764190755],[0.059416369565460314,-0.07783645937410336,-0.030485617405349066,0.022893453449060908,0.004398727866344754,-0.008148873645871682,0.14110488079556824,