{"outputSize":10,"numberOfHiddenLayers":2,"inputSize":784,"biases":[[-0.10364649441043246,0.17504354364427163,-0.02053519821392508,0.06589593089544057,0.07007568511812928,0.23893605535847048,-0.1325211399209616,0.3247673565845301,0.03384347013591808,0.24849237357644738,-0.035930280274242304,0.3581962324411792,0.27088787578280626,0.32380005449025523,0.01909349860587756,0.2916556053236144,0.27779178451043396,-0.04749444690979726,-0.014782430772978774,0.06626797401368138,0.3228940455257727,-0.0343613382050063,-0.05151006202789028,0.07774032412911323,0.05249063527152468,-0.040556896503699556,0.17653441163683914,-0.19063337864440116,0.4273889413817252,0.05546032800155222,0.1213673197092243,0.07458212596411624],[0.43300215733960834,0.005960837302075508,0.056132965828596525,-0.007963954611610287,0.15537007327052155,-0.015479996830484235,0.25978677880995926,0.292470946358885,0.1804080303739671,-0.01821239248835522,-0.02831632540040213,0.3622782670778449,-0.024166023294047143,-0.07467597440440918,0.14650356818516636,-0.1820836737686589],[-0.2727502337648246,-0.08270955840191817,-0.23424850691720048,-0.25670434367509676,-0.11264065085275535,0.0386455923179356,-0.2421546981129338,-0.1061769698612057,-0.3943547283127083,-0.20155973638001853]],"testSize":10000,"weights":[[[-0.06778163530206062,-0.05034457344519665,0.019645496384842327,-0.03271847816837604,0.05813937831128004,-0.05233089969428098,-0.0351203715505499,0.07416214860090753,-0.01664089598961919,0.06415053679231937,0.013859647157527293,-0.0328188462140226,0.0423338787211888,0.04286627203250799,-0.07544882013649859,0.0567208761840801,0.050524978306331694,-0.036967298145563376,0.03602418301363234,-0.03490232241022695,-0.04839867970170621,0.005321383086946991,0.030296228005782393,-0.08128369059639073,0.04080053215850768,-0.0019445564307036662,-0.028005761888731582,-0.06698303775304221,0.01010688135494651,-0.06962001341146284,0.024097497266782394,0.023341089806687566],[-0.0768602706458563,0.07300497642246609,-0.028848838879907104,-0.06598821885026251,0.0411362912832075,4.5492016087871735E-4,-0.060575145556241695,0.05282536688691188,0.0799930497351583,0.0046132245126878,0.0010306805694994053,-0.023581934827998995,-0.022899458123346317,0.006853401485449066,0.004916039244310648,0.07991909693572832,-0.015803958654229715,-0.04404213499796905,-0.012992204593507882,-0.049285580672432584,0.05506725151908946,-0.057398543814293,-0.009428194423043245,-0.08234209338168957,0.03322596328984955,-0.008261854523363608,0.020532982692386674,-0.047422981353634215,-0.02234147313690571,-0.03465186122157375,-0.011873126413524318,0.07354725404922871],[-0.07459743103410878,0.07717138185682225,-0.009209754182452458,-0.03353205318260213,-0.036499747685310696,-0.04120904707724837,0.029670779470301063,-0.04026224067655627,0.03937621499138047,-0.0013546720374512534,-0.07599336178371213,-0.015027292773577687,-0.034162545880636455,-0.007069867912899121,-0.0640651437970993,0.029548912722868515,-0.026776991985700282,-0.07237369012613921,-0.043462647506556845,-0.033008537817944085,0.06924987888233523,-0.06064047710848068,-0.02895659060524752,-0.02380695136752225,-0.06725351336159723,-0.008782506400462154,-0.060283346679971636,-0.06174391468293584,-0.027680904328991094,-0.029351818953521812,0.00792568079400563,-0.07869541195468943],[0.06854781877660328,-3.863387836977279E-4,-0.08217040384390961,0.0660240394259887,-0.03406385929882687,-0.057227482401084016,-0.07508110256033632,0.0733489310239289,-0.06425699270667792,0.009077746804752533,0.019456886279637816,0.06817894771984923,0.028861623908319277,-0.010101842761413675,0.05249995956566149,0.0383133958903401,-0.049916867786724634,0.040958853770740655,0.06030557761844427,-0.06767880345969561,0.05047241934826045,0.07322350571690599,0.01746202018758589,0.03694863447507904,0.06866355569563488,0.064123446012644,0.05600597551758491,0.018839052778485008,-0.05396086404536526,0.04144050771280695,0.034180388262033075,-0.01974388703837587],[0.05570746845219672,0.019057488733709743,-0.029246152034125908,0.03681409708618043,0.01624040683318015,-0.08324165183031716,-0.010941169033114916,-0.05627047649707221,0.07733078484011202,0.047768924910405415,-0.013972498958040069,0.02595980343879254,0.05901034785070319,-0.008188139201041639,-0.06094589002899725,-0.03572065310274324,0.06907253572504739,-0.06399536864757191,0.04400527190411102,0.003720353786960976,0.07215469420960242,0.022653891751886368,0.02859804644889673,0.04212042695720196,-0.03567981187587259,0.07564365047896825,0.03566239115459228,-0.047009469410455806,-0.05990884916031515,-0.06711993360492954,-0.06990613643380401,0.07228693746632793],[-8.422865234982715E-4,-0.04744451452355003,-0.011582305486136677,-0.01769233373276036,-9.272359708919437E-5,0.02784584034448955,0.014021428238594171,-0.012190503140840466,0.009041899804532688,-0.016493676783676244,-0.005927335052619762,0.018745538001804504,-0.034159292407928935,-0.03869960505332871,-0.019385699744748585,-0.07503188952094941,-0.0659398936718975,0.04917388883384249,0.003656906821647668,-0.019897995598127813,0.07960876626906332,0.027101340659293854,-0.011130202300765597,-0.07908786475910816,0.01942840732857322,-0.05339128104095642,0.0016660756523457952,0.04385814889632575,-0.006541453848619461,-0.01188200960636431,-0.07089430709304606,0.06880167203590459],[-0.07324190466912965,-0.004087736549057961,-0.08543713139935939,-0.012732998929337012,0.025108148344947907,-0.04177058861200338,0.07408962818035623,0.040516546762100945,-0.04103941945854755,0.07877691329889766,0.023274909272771788,0.045776290158339734,0.03420226810722547,0.007263005441238789,0.04119429111780066,0.01682811046595294,-0.0729008766760334,0.059869426572581715,-0.05167930386705929,-0.051087672909421206,-0.04079220624938314,0.0035545030270044344,0.07234797608636756,-0.037153705826708204,-0.023201817422721913,-0.04554785606647517,-0.021477218644727562,0.03856746474994459,-0.07739936516486493,0.05119482562481002,-0.06500291431975531,0.06038075775875278],[0.017259611279633456,-0.03650314709551169,-0.017787357814847166,0.014077522681637837,0.08455134513093863,0.03541938129553493,0.051095237742368335,0.0067722079618970895,-0.07323575171858106,0.025925015812491455,-0.07086571959487066,-0.019224864894010936,-0.04630419178074275,-0.08055536742697127,0.07158621750072523,0.07758201874834442,0.007434714518062996,-0.0475285010595547,-0.07982087870475063,-0.053349511571012836,-0.006573288357545981,0.0779511667847453,-0.06785806991419235,0.03345969454773021,0.0044198212966128705,0.04805336612841576,0.0659396377305112,-0.042924012306091164,0.0015852037921787157,-0.033704290905917804,0.06536052197021193,0.05481566108048115],[0.0209945709228032,-0.05708154741933207,0.08344799099980528,0.013451490443296509,-0.06828496364585088,-0.015644719212870258,0.05998328182220827,0.041866810963333646,0.015499599746076108,0.08416783567326805,0.06682795447048516,-0.006507070204624785,-0.051010351801583406,-0.05362371940958996,0.07402249876734251,0.0059443368162526685,-0.0746253510682652,-0.07929273743362313,-0.014004509462912177,0.005260357606264124,-0.013231110953520383,-0.041026058229789504,-0.08085505430606622,0.03336357162004776,-0.0660634436107906,0.06294837909995658,-0.030618726744864586,-0.06508970968962297,-0.029890131451979832,-0.05161842662602886,0.03745391519148749,0.06101591131400976],[-0.07606884777313051,-0.03641467884475734,0.0395513880242266,0.07800632496653602,0.02894638142625494,-0.04812456903265494,0.05975809484377296,-0.08278380175530481,-0.051259614579734374,0.03000401175962713,0.07146004698656801,-0.014863675029158528,0.06652622605081691,0.07270275499118867,-0.061786186781697956,-0.047284971141261414,-0.00646946813369693,-0.02810231666979819,-0.07155002542640103,0.06989826506103557,-0.021945330931439137,0.06970646053347065,-0.05732595378340751,0.057181254931247594,0.08547905953688535,-0.020584975812002176,-0.05451073718757282,-0.06272077856313535,-0.02911744769853626,-0.03229649495997302,-0.03108184098232919,0.04429216670980728],[-0.031391705423592715,0.051135460326308876,0.08552378813760281,-0.047276767516744776,-0.034043521827193515,0.030573908738114188,0.02179979679955619,-0.027519684649208544,0.002608549110573131,0.036981265437918014,0.08216625376851144,-0.0758366680405026,0.01859907871470271,0.025379389864116354,0.006256062657747772,0.04025205402684907,0.014449212879565004,-0.08292372665646795,0.009341817990186884,-0.04042456129156878,-0.03340692966648728,-0.02181315665847422,-0.08252834584577504,0.08086470196054393,0.0773915464961074,0.05193430636292549,0.07539037314310058,0.030557503846289937,-0.013610710606061347,0.03468468341047003,0.02087915879302629,-0.07548604443855413],[0.03195091351332589,-0.01825517945655367,0.025487596444146023,-0.03973082740265931,0.008164554806564391,-0.0029692787211647,-0.03044315359190492,0.05257346297777946,-0.07731305072569956,0.054851424619026215,-0.048889870173394925,0.05345494613120874,-0.07220263477256605,0.008737757613887806,-0.034573877763211316,-0.04668003952142963,-0.033895307888110265,-0.08152176460623728,0.06068033590345788,0.056669376551112614,0.0242252903764419,-0.04218963943877675,0.08208334553533138,0.03488287198769034,0.07981277497917688,-0.04746512063609266,-0.0761233872715885,0.010649638281493685,0.004531059717350041,0.013181182672003576,0.08392457631241916,-0.03986077825695717],[0.07497442242984204,-0.06317403774022091,-0.0255484527498757,0.08270592869442266,-0.056069512762068764,-0.04959043405883881,0.06112962935030609,0.031040446411393554,-0.05821786714333443,-0.0824186262622184,0.038822575236048665,-0.06013636712871964,0.08535146868667613,-0.061061233005348284,0.013333846629621903,-0.055186919214111965,0.04427328112628802,0.050914849068254435,-0.009360781757483023,-0.01867262523489373,-0.06425288158023026,0.018127959717995912,-0.011889069225197878,-0.07971526845335149,0.05314860897267299,0.014995181583057925,-0.04354523197507125,-0.06824810173980381,0.05563666190417771,-0.008888505638579815,0.021450915620614044,-0.025385262255525325],[-0.050268149003132895,4.6884677833894676E-4,-0.05753988136532982,-0.056481312549609655,0.03250608002204715,-0.035061263564642786,0.02899038985578784,0.03337300083370384,-0.04604211563150554,0.00853055050683362,-0.005858621616755475,-0.03250359140444099,0.06663812209226712,-0.07820951382310352,0.007965714201698981,-0.0019550368453498793,0.06183528372052225,0.07755446342166153,-0.010611656108379277,0.052729546371920136,0.08269606296151787,0.007510922223353975,-0.06684540121612276,-0.03236309064070517,0.05841078172390719,-0.05055857615221613,0.08393464503080936,-0.007529425943953711,-0.0506469470650457,0.007939843108597496,-0.04411469826441251,-0.0025736182722044814],[-0.06702940031195163,0.040621773577933,-0.023886612294454157,0.03329599798431763,-0.06229379776240334,-0.0432347644716033,0.03304023261878519,0.01683236853752894,-0.06735459952999404,0.08323386982429355,-0.020256148039623414,-0.04088666702339986,-0.05412161935059488,-0.08405228230736234,0.032591786464832045,0.059854608460761405,-0.0803325581826762,-0.045626252845278034,-0.0796927018439013,0.04920434895676115,-0.030967040151740368,-0.06981119160898776,0.036637791578485415,-0.01865694796313307,-0.0755640579179008,8.004646777953479E-4,-0.035956889201353884,-0.052518339599274,0.08340189408033884,-0.0033091839252882816,0.08328612531354283,-0.07969488791450016],[-0.06525468144468896,-0.019837773053364604,-3.5698838273377304E-5,0.06226812577339972,-0.06762500471368994,-0.06331927715972027,0.015930398485833934,0.079846057893029,0.04728909151413967,0.019253134078184915,0.05079315918893954,0.06853131963228583,0.013361146087474594,-0.0465180600447517,-0.025444219397996543,-0.024431840690637856,-0.050569507152366966,0.034860955902580655,-0.045436377071766273,0.06928620352599633,0.048171324536024414,-0.03683517201805225,0.04263822626163563,-0.072672026185957,-0.013029123492188642,-0.07935433316313366,0.033480489463496764,-0.06059766350940874,0.06572905769371465,-0.0599607909194547,0.01632257625537946,0.051401807011351455],[-0.05188912394436359,-0.0629116634709883,0.04378781928712855,-0.07149790185364466,-0.08287853350016111,-0.03727506838674068,-0.04286376518771227,-0.0436094986425917,-0.03387267903342681,-0.07580550142083473,-0.07870436826924161,0.0016750501707458267,0.019284018830732334,0.060328756085117605,0.00443277851743048,-0.01977929919046583,-0.07304861473358946,-0.05460508779417024,0.048075635668785976,0.06361168700859839,-0.008588929050390364,0.0015101099130242215,0.024132145659363384,0.049100633891802074,-0.01585208411598543,0.039900471074243535,0.009489658331310836,-0.0014538052982731606,-0.04799235760164482,0.06944184710999929,0.056613281249493365,-0.0013026484786545702],[0.024860777678102453,0.062284214201005265,-0.0017710715584339323,0.043286860035220906,0.026311982201232684,-0.03583484507034791,-0.0032420754548097568,-0.07516726104712361,-0.08239708624114245,-0.05508335156272813,-0.024298710888793384,-0.003737132545694757,0.0021569646554451326,0.048111366184389076,0.06906999017918809,0.031028633917039243,0.01466692416487944,0.07576273925981473,-0.02415435437050332,-0.07586227916753346,-0.08527716508883548,-0.06747301754008644,-0.06930891871205123,-0.0022997067062825046,0.05281803140599401,-0.01656361098195241,0.00587654522246428,-0.07451603320202553,-0.01747170519379432,0.07832331798197073,-0.06253921445382668,-0.0013572469009197445],[-0.044738029829557525,0.08122901979255814,-0.07217896454047892,-0.016139621011932965,0.07486745865856406,-0.04865246874952051,-0.08088714734450342,0.04537454126279497,0.07830454632011614,-0.05420302801666901,-0.08091697583514765,-0.04348421121817928,-0.037233697388600856,0.03483307566127624,-0.05800201424240276,0.042231294742122734,0.03248154905987325,0.02595668200865535,-0.07633644035001279,-0.040682978981806894,-0.06657892737602979,-0.04721311750416958,0.034661035783288545,0.06250032757922562,0.05277272341514745,2.44456860971134E-5,-0.021488350917508912,0.07938439732308426,0.018967069208829908,-0.0786779199061322,0.010440901762439178,0.05576482647919121],[0.017461676000016538,0.07690468651104015,0.08388187957685253,-0.06671990145607305,0.07776832455120918,-0.07457417807323118,0.04964043383767919,-0.04551321760785279,0.004506140138562994,-0.08289846405145418,0.044435512944225874,0.003458072298624718,-0.07768122099387519,-0.020547111486726395,0.002710871814180572,-0.009757633935180067,-0.028289979501489072,0.011119623965441555,-0.07780494834075408,0.04011400056784907,-0.068789603665706,0.0705499884977596,0.04923185918272356,0.04390648426416746,-0.037167947320822244,-0.06581895629574691,0.07035095665831838,-0.023135087073355626,0.05301938371524557,-0.029422458803170837,0.07388646761675993,-0.01606742146951329],[0.055159167932030094,-0.05603904878698294,-0.06870745279490277,-0.06636356803216983,-0.045203140844126376,0.0024634156668164207,-0.034534143698318726,0.07427230259837742,-0.007058658310104752,0.08302085958578084,-0.029932790518014434,0.03897610292794256,0.02375030060668307,-0.05466986845111102,8.381259268861634E-4,0.06185869045335426,0.03744694489555957,0.07991827990234511,0.009938714560603327,-0.010606799486164577,0.058100910265428685,-0.00594334201542988,0.0041949490001536765,0.05541423395554918,-0.02318983379952695,-0.04412562812613385,-0.029514603570142392,0.0211857279462226,0.07191434152137921,0.014374111629962851,-0.040768336653956475,0.0047722932802111775],[-0.02983823197136955,-0.08523282844729949,-0.03787149897852238,0.039631105804846495,-0.03585939738439104,0.0659142193893771,-0.007169384969491206,-0.05076891190008435,0.08346554017081184,0.02357705973462093,-0.007671090418542801,0.0387392969022607,-0.010068898818065811,0.06354651947147466,-0.0788259460495786,-0.012138999349268343,0.04781931145717442,0.06178727312937468,-0.07543789127525379,0.014182826982361079,0.07070808214551051,-0.07981353429700849,-0.035924044717043,-0.0034479203958430373,-0.04363889362079155,-0.03888326647584281,0.031058881370900005,0.015872948848870527,-0.03319634689547502,0.013644231118777907,-0.011267678094631091,0.016956272747414923],[-0.08518167671250536,-0.07215132383135096,-0.04930501667609848,5.343617092479923E-4,-0.021619790196402228,-0.023526038348998118,0.003420281127156611,0.055871828770197154,-0.03791450379749331,0.06888725477461093,0.08023681298053573,0.04499852126710708,-0.0032657945569499465,0.0246071267932096,0.034089024710169245,-0.03702345983132877,0.07660373113826092,0.07154362790280734,0.037602527849522206,-0.019677173593772367,-0.08408264234259141,-0.005996823068308439,-0.03935931293040928,-0.0738075437170784,-0.0443091939331814,0.04442306586602511,0.026080781084116902,-0.04930206755024786,-0.0014790213414641942,0.04385315767403012,-0.06742630863556638,-0.06264225677752912],[0.012831544666591447,0.06818930076083969,-0.004585589298084128,0.014008339052985928,0.0038421544411886095,-0.0036952923038308136,-0.03144717171172188,0.05372778365294395,-0.0641449074636688,-0.0076757518881933684,-0.05803828992671555,0.030760547056023563,0.045491301736764495,-0.014995299408698134,-0.0401762103450006,0.06522906963452164,-0.06177173769582291,0.027884400458604047,-0.06893774447347739,-0.06952231167348308,0.014426261750217929,-0.017327034369987063,-0.03172427545115355,-0.03575851587065502,-0.06834921561278928,-0.014847448028666365,0.011096080459371674,-0.026961632101734495,-0.06577275090890683,-0.06323883842472662,0.06683579182830311,0.08508039058240378],[-0.04855353588743899,0.02141703468191564,0.06010114679406236,-0.020682187379183422,0.056831622016113935,0.05564394587858779,0.041745812441916386,-0.0052767106203606235,0.06416131811612136,-0.023966544779661963,-0.008314243398243737,-0.021664268022971937,0.06431758945552804,-0.026828679315743984,0.005140086953540581,0.06116069034770442,-0.08386105646288604,0.07225186479418223,-0.06764560173387153,-0.04097042245149502,0.04367386270398567,0.02124880314391179,-0.07775640107775515,0.0647048239583758,0.011202242354485479,-0.022784955326473056,0.025240094370035278,0.05911681230390319,-0.05808355296234621,-0.005948053866768884,0.044851871207199315,0.06487530180342993],[-0.01149785190111114,-0.0571470044069866,0.07260670295254927,-0.0060943063282773045,0.08274017229056414,-0.08021875328044664,-0.0018361320381785112,0.0319276211181234,0.018879229412957166,0.07583722665907015,-0.0416463120559684,7.603704678106107E-4,0.05231126315005973,0.02429907541349358,-0.02963289995583927,-0.06007735744693849,-0.009446272471369702,0.0015818575193971317,-0.05185400705518802,-0.0416524846980638,-0.006873481917629714,0.029340776918942546,-0.0486887343338781,0.0031267393870229522,-0.05573810751973699,0.029663374475785795,0.007666381214454993,0.07111107934903271,-0.01569119314975329,0.028849812841027365,0.040923084097077185,-0.07708586274913175],[-0.055624889511203326,-0.002553599429634523,0.06633955005503966,0.03535023943465966,-0.08197206115393575,0.08490387112792849,-0.08256905830721716,-3.1507447469935056E-4,0.01639306698395626,0.07201099340884726,-0.06172110467835778,-0.008402082640784429,-0.07636950882991325,0.01503819873129681,0.05730559248614694,-0.02425498434458984,-0.03341600983523108,-0.05558316759227056,0.056061627935204014,-0.07757303213561087,0.06194813072379902,0.028154017627688547,-0.03274113118497939,-0.0786004361334675,-0.02858889888757925,-0.07534386863399485,-0.07165207058710978,0.028637819080246034,-0.05838701580788132,-0.006401232156684903,0.05042338868369693,-0.026551728690981845],[-0.048216847807054895,-0.057415869529677116,0.0216624274001557,0.029194092591469035,-0.018925114877847145,-0.02716027540283588,0.05182425841003882,0.06561028847965811,0.07750617008601642,0.0489283613713606,-0.05286314290635605,0.003609204144324626,0.08043937413304454,0.05556561219631636,-0.06647775960984303,-0.024211833131577678,-0.011772153401412688,0.050902091905378,-0.06122840272558747,-0.04959310606456244,0.08504933200700089,-0.014094500094520722,-0.016742530260125236,0.057954899148642096,0.019493844161948205,0.07578795793615173,-0.038247037281851144,0.08011361011659328,-0.0513385448561305,-0.035178072906705556,-0.08122657908087111,-0.01765175296790471],[0.04797380030911699,-0.04573490911746196,-0.07833711121894293,-0.04035205787097965,-0.05207633221923229,-0.05835622987064885,0.05134858752210398,0.05347181459772651,0.016219878784102672,-0.011410604396438356,0.029328987735893507,-0.015697035842458407,-0.029254481614932246,0.06703519329209989,0.06900023907001947,-0.057142534627443904,0.06624659061450461,0.05415804975601633,0.07594058384827539,-0.05003570068336009,0.031002805007405643,0.04911265518457824,-0.03937431468812822,0.006333682249065351,-0.030919194723804024,0.028314345986040247,0.01740106465833774,0.0024949254661029386,-0.08257236347844772,-7.430269303810684E-4,-0.07221521617206571,-0.06299484833115955],[-0.01871403344872156,-0.04733808205231549,0.022297047404172758,0.023168859226671223,0.04337589857749261,0.08058601382009031,-0.0533290123210303,0.009437401117579599,-0.014117159032901862,-0.07848074420645022,0.0672239481266485,0.06885674477254482,-0.05241461568372919,-0.08360156412445566,0.028690001054131612,-0.07650023464846364,-0.008087013020432158,0.07501723910314814,0.06357500374455106,0.06957774586420828,0.02833749148394113,-0.040736289148608065,0.04145814583137057,0.07461396193404073,-0.0351918867299505,-0.08227301085865187,-7.117274145385605E-4,-0.055617174068795266,-0.04008942116817267,0.03286626863992325,0.05289030004225658,0.0016136725106442546],[-0.08192083957300322,-4.5114782314872713E-4,-0.03508207204350263,-0.03257966353300423,-0.02601709283830524,0.07700562522317182,-0.025559859359827273,-0.046296749117005126,0.039223440099942865,-0.050957075815202764,-0.023729193736440737,0.05841956381195689,0.08410975159090636,-0.06290306449854088,0.06640762384009023,0.07047309320715686,-0.020371489599185805,-0.07385128854349501,0.0632195454289463,-0.02682456052056643,-0.07978828408190602,0.05584995794393609,-0.033364330942271654,-0.05626410148142547,0.0825964140223856,0.08471937649487914,-0.06331174860528234,0.011512235107436517,-0.0035986016722226555,-0.0057797970086309255,-0.05075675327959898,8.340927916879726E-4],[-0.00795271854738531,0.052609916069882696,-0.010338586802810834,0.01659424280912994,-0.03810588115481178,-0.016467364536635436,-0.06901545913754609,0.017994217870309567,0.07425405807399578,-0.0345625975267187,-0.05701321131644771,-0.029719286485535377,0.060535324268389784,-0.050857757388581074,0.01763065762685893,0.062096666683837135,-0.019573419066591696,0.00254434119894823,0.06454676432620612,0.04414236581382424,0.06245102436423282,-0.07870756199870553,0.08019733211304769,-0.058819756051556704,0.03974455607517322,0.047032667047019944,-0.013670470974206836,0.06661443367152893,-0.07887992691616257,-0.039244830847468354,0.009682743133920785,-0.024679577631106116],[0.06790560765804939,-0.065879663421623,-0.03777470293520808,-0.046877008525443034,-0.06490318955192814,-8.072336923946627E-4,-0.05912548548146079,-0.06004923943991539,-0.005458228035631029,-0.0625403386085404,0.019816746814593122,-0.055086767895809484,-0.048532831608608266,0.03705623451643842,-0.04984564138110738,-0.06353459760682899,0.06734741823516227,-0.014601824723678365,0.04831173371420319,0.05972860695749166,-0.0650282469202359,-0.015776262769176177,-0.024392637585111548,-0.04345260941360207,-0.023110545543638835,-0.08484357648994552,-0.03704641425086115,-0.08484929288629058,-0.017768390838519495,0.014913776618342322,0.06459359829514415,-0.07736751130476392],[0.06244822988760462,0.028496921841364476,-0.012989784785847416,-0.0427477989285657,-0.03898285463355631,-0.04961025390220817,0.06786729856979827,-0.027640150808743557,0.08387306644278442,0.05523424798600233,-0.0656077024020613,0.024410673398107458,0.027094344899260846,-0.0013025672801390293,1.2963798694645657E-4,-0.060456053854867006,0.006177839807506118,-0.01015939352623144,0.020690390331009667,-0.033700846139425644,0.05457478357818633,0.07865615504008347,-0.07112702405444012,-0.056520483667096694,0.08235050287418487,-0.03558047419694649,-0.05826694277503175,0.04841840145088207,0.004228041141490787,-0.02835339193458741,0.011125242076808648,-0.07598703262866886],[-0.03451708837028678,-0.03505692941753995,0.034143711622795336,-0.05405119676479043,0.036956733659770806,0.014365116565684661,-0.03127474598493449,-0.050657480402555695,0.050761352047755025,0.06879622160569188,-0.03097630286176755,-0.026887075356939998,0.083272445059341,0.03635440800996146,0.07988033333752353,0.07400968883497484,0.0698497288769311,0.04069467413871528,-0.08099952667792248,0.012350872112754978,-0.013834285506917995,-0.06712537218993363,-0.02659539081362706,-0.04910697795707537,-0.08364855278220341,0.07845717955062904,0.0461069795387532,0.0300979931768122,0.02568735088283173,0.007009270990947349,-0.02917467598105439,-0.029657023045981085],[0.07513274383324811,0.08606870262418162,-0.04762386481553726,-0.01571510779118432,-0.07647609065442874,-0.05472835054022329,-0.03811461355011496,-0.0627015569863086,0.006239636096779752,0.038612107765076085,0.0022047031399254693,0.001108062096150159,0.013396134576742389,-0.04952109237720302,-0.029657702097878356,0.031238286068154292,0.008344020680361839,-0.0663753097910503,0.07472408242279233,0.0639930843250506,-0.001856250659751569,0.04304236498517625,0.047148186528455066,0.022315806036441944,0.007598530723715937,-0.0784531032569346,-0.06457792986556904,0.008214740631722808,-0.05123627583641937,-0.045048135170832386,-0.02474954832003646,0.0046591731982512504],[0.07482338115197681,0.045592946761238165,0.03934692843258042,0.052251912088742226,0.05119536479806022,0.05593499399606124,0.08011987108886684,0.07109545100610686,-0.06271574095874584,-0.07000038946394706,-0.0372603973760683,-0.014651146753029214,0.08211736096672416,-0.07913824148016271,-0.029609748757428923,0.023575041834279872,-0.051132739881061644,-0.0025210627169438386,0.0042039192775874794,-0.005597973292667032,0.017008260873931206,0.017406341437696475,0.011934393709007049,-0.03131974543074299,0.06276157043897278,0.011312049033503559,0.05011394560818536,0.03915222672860309,-0.08039914268975609,0.02151894153296895,0.038411269038586465,0.007752692773742034],[0.04389434107265183,0.01917736488244506,-0.06026339857583687,0.02570056056771106,0.061685193463609914,0.006660543210252539,0.02842589988763411,-0.07575181688401855,0.07573930648276615,-0.06759280068404531,-0.03326942157091295,-0.07000142311389396,0.038429937042711415,-0.05545342768748497,0.0525877896352336,-0.044187225608855636,-0.03421442823698356,0.011190856496691328,-0.01217056534526385,-0.053187519793920945,-0.0034944170423210257,0.054364467959588915,0.05330488707991222,0.047842995161664244,-0.0371929571110995,-0.0811758922406561,-0.014203183902195896,-0.01348825774032546,0.07089169086385527,7.02054698963571E-4,-0.07076542579060907,-0.05397715331930232],[-0.04372178380117487,0.0745104560476186,-0.012713635851498498,0.047942529402363154,-0.01954619854464576,0.0509453819223476,0.031764209049993254,-0.025471415038089303,-0.05051502694519961,-0.025066895114708415,0.01419511523628676,-0.03917026351711009,-0.005228078778930734,0.01904330524171381,0.07799984614978558,-0.007050745156838597,0.04157269848949448,0.054817283165159866,-0.05536612226638572,-0.04523554485922091,-0.013411249131766936,0.055475731038410456,-0.06714284278018562,-0.03835852732803769,-0.055287096265465095,-0.05844874837296822,-0.004241570626539981,-0.04112021379874141,-0.048694313089698155,0.07265444532031029,0.012515316294445494,-0.052262906729163276],[-0.07249878495966058,-0.07755493722281397,0.017193622369493185,0.08041253235601176,0.03996742855104804,-0.08512810476764325,0.02399988013617662,0.016656803189495716,0.0498941547789748,-0.047612467735050984,0.056533684790200434,0.024112634920826964,-0.04037609043475539,0.028337357069194005,0.0661604793731171,-0.02125827868422621,0.05626143691088107,0.022078812770737262,0.06867680152066438,-0.0657008717296286,0.07580791888041762,-0.013795921924865827,-0.010333524586232736,-0.047907852559880684,-0.03143488924671842,0.07520425393015455,-0.03878134014854109,-0.0754296909504967,0.05786899281843616,-0.07356890609582636,0.07889223399816472,0.002499186466247332],[-0.03546874783609065,-0.07933990623128372,-0.06361558197953328,0.014393964934971295,0.04946021701472386,-0.05528535515280588,0.06711683721310713,0.04571520686932285,-0.08545633759157739,0.01597746147554526,-0.0816662336142588,-0.04447581747300936,-0.04466319120067971,-0.011403569974342349,-0.0162864273222429,-0.0648737840233862,0.01608271485717686,0.04757866650035341,-0.03866190320653544,0.09038916294402605,0.025998358891018987,-0.06267493211555407,-0.04251450063175568,0.072859298448417,-0.014978277987835397,0.05744852754710088,-0.04379682671083688,-0.07862268042349922,0.004655542907070911,-0.004683629239006065,-0.06771696283859885,0.039564008753508496],[-0.0481768731087078,0.048933709296984415,-0.006322686559853371,-0.0050297462381039045,-0.004639114743511419,-0.07973474643788098,-0.034107789189359784,-0.05090415383876118,-0.0915751258065015,0.024727870864370144,-0.0036710445712102055,-0.04578783268506116,-0.03224548904130467,0.04187495218269392,-0.07194161198995022,0.07071265635499456,-0.05084853818076426,-0.06943572268549748,0.039192107656769885,-0.04821928424055827,-0.004817945989343763,0.05006684944574314,0.057417263142848354,-0.014236467718818525,0.07415306604518819,-0.03101344815346875,-0.014432127604574109,0.08364403081687385,-0.039918174058453576,-0.030431133082128064,0.021829807232161665,0.05694686698411518],[0.020482220888219473,-0.03056602284896028,0.06374416250309674,-0.06700768908706531,0.001027432083210056,-0.08156478935713338,-0.04717713484447491,-0.041918759291767596,0.0454229353144063,-0.07603944096819837,0.02850834816615848,0.05397915635925494,-0.005492623240568265,0.07715393845202709,0.005792634512981099,0.004623965593009926,0.051861852964561514,-0.012111051360080633,0.06695559937125833,0.08225318821772722,0.08250341415958456,-0.012696310072121467,0.06672264345698538,0.04928394365075859,-0.058813724534115375,0.02002205658220658,-0.0469187016294162,-0.07695686565853575,0.08651163780815004,-0.035443424634656114,0.04248992345037244,-0.05334189072362068],[0.08608675734169124,-0.02203250824260178,0.0032020790721947498,0.0842708879894247,-0.004045980589849033,0.07698505280937765,0.037162631263617824,-0.07775075795981798,-0.02420741695159891,-0.02236563336657628,0.0635579254401945,-0.014899028793416091,0.07223221480907682,-0.02004336104370172,0.0767481409740595,0.05004802890127467,-0.007473593108788684,0.05896830791242864,-0.035350364428910416,-0.002323351910977316,-0.07341045854369056,-0.030148284299051652,-0.011501022047978449,-0.003356806312565393,-0.0014826876635542145,0.03660164920544338,1.286059314766115E-4,-0.018094166368050137,0.023274383889213258,-0.02806175963398161,0.010375912902973052,0.05531070346638404],[-0.037316182583555395,-0.05435853702374776,0.049277020514706914,-0.03661661874607309,-0.07100705121905025,0.027273432235475573,-0.08174493093815467,-7.991930644946257E-4,-4.398240157608609E-4,0.015790548544115088,0.047686281596329115,-0.0528789020491826,0.05184234779890733,0.06553141970625383,0.06984666465657136,0.001014149984021179,-0.01771102396880941,-0.0771938114578519,-0.03202157358375614,-0.06370878415535434,0.06412401110926821,-0.019640130003701246,0.06620739608163945,0.08157887000449614,-0.08179155174092392,0.01882261273477143,0.036759884543325946,-0.021529203734630534,-0.05515812521854154,0.05728984321507906,-0.014226958623917332,0.06261157587200356],[0.017465809493170857,0.009965460708575421,0.05937596070907276,0.038305132876994843,0.037025145978338454,-0.07664350608754843,-0.03407687841782587,0.03342612267056052,0.05729433510925931,-0.06820063103974554,-0.02793347888226319,0.04222382603291844,0.06360011904788054,0.005385556565181888,-0.01642519479531221,0.007556665872213685,0.007544882213033239,-0.07389738262426822,-0.020336050539988965,0.08705630779259267,0.07246171685488342,0.03924968491397094,-0.013003039729713537,0.050831254549470566,-0.02856358510576876,0.05592102020217788,0.003865649031369563,0.03539236466063515,-0.015397391653654472,-0.0725446078251809,0.01316485252400192,-0.030389140468475864],[0.011870915938459547,-0.041446841502466976,-2.336455628067894E-4,0.04608937838203148,-0.06233157024174829,-0.05270588712767757,0.022260650301583397,-0.02752524848764438,-0.016157664139970527,0.04168431695520144,0.06043643491425456,-0.07858142627129303,0.06228431572448188,0.033213722538285896,-0.05615793043277611,-0.03893132384212258,-0.050910542139911925,-0.046506031731439024,-0.012611764504368494,0.04406932567744758,0.006067050836702925,0.006662378401749184,0.01222924852217247,0.016351995884187294,0.009617101704059515,-0.05876270492749427,0.0010452087104332014,-0.017893576421486947,-0.0463661645294156,0.060273960850704196,-0.06945181372883473,-0.08305710450687148],[0.007353867903045667,-0.0016543236333487826,-0.045563294183225175,0.07985721877544291,0.015848986140214728,0.06347615192139544,-0.04571780618273394,0.025540936959285776,-0.04065807418089381,-0.04416786635671521,-0.01598849942530481,0.022374789941189608,0.019636909701644223,-0.02919141753128314,-0.05047175041012768,-0.06951655808928676,-0.06430981105203085,-0.030124723737116346,0.013790540293990116,0.003959140282780693,-0.006297166214074543,-0.05760410853629418,-0.07265238382126078,0.024436989714672244,0.03287452967921986,0.03054655036231671,-0.0513808345465565,-0.04127132210477212,0.07827470734463848,-0.014796097483583792,-0.0744270297697033,0.06358724241365317],[-0.04721315321274439,0.04338899881253002,0.010743970401909608,0.021395255282131403,-0.07246692889995272,-0.02879854731313516,0.07324819772626055,-0.02583808318485335,-9.80989539082435E-4,0.05662100779773096,0.009742474397995587,-0.06471490439396356,0.032011499601937166,0.010957208250538307,0.008124575469170253,-0.03173521260851518,0.03569657701522821,-0.07465676960937433,-0.0640187895146572,-0.04622866676381627,0.05340845856321694,-0.006788701111670036,-0.08028430025702633,-0.005405788736228373,-0.06096216250577845,0.08528051975129214,-0.0278961510844865,-0.07318634408982001,-0.018011530977047767,0.020489621257543535,-0.08539556597386731,-0.017394657972294506],[0.011872316745619865,0.06651232473807966,0.015168940983278534,0.03423662777827495,0.05970464842070604,-0.0486203151285397,0.06612882892092965,-0.07919601932504317,-0.03324489547000946,-0.06354748649033298,-0.06479737998993462,0.06344633997219207,-0.04156056930748582,-0.02475969183487118,-0.028083716542799772,-0.031656570858420476,0.006581740085945248,0.046424523607512376,0.03408134305925384,-0.06000762876553086,-0.055175598366903875,-0.01612389690165607,-0.05185477524244408,0.05655423918445435,0.011758217124615424,0.04510860029654921,-0.019411541839481974,0.08406339989778171,-0.02176938864723322,-0.02394900842760794,0.003751688440044124,-0.01330496870116464],[0.07444169778153598,-0.013820213560112232,0.05783404308599334,0.07473498547254119,-0.05114647356517538,0.04889796541345917,0.019626895102619144,0.0303359130176769,0.004424535668214845,-0.040661296088720336,-0.021440874831351167,0.07443886977579162,-0.05439104596732614,0.02345271681729322,-0.06466252844055116,0.0628027051197569,-0.0689436200136542,-0.031424604064505104,0.040030763444463185,0.02097875174690794,-0.07455613442400452,0.07370769681337574,0.02136534643859245,0.06059154394085654,0.0699355168484942,-0.0140994143074147,-0.03481204169391284,-0.07354953802478366,-0.017869938328820792,-0.05200481760665354,-0.045646197577062717,-0.07523946793018077],[-0.012516705306996802,-0.06648013297618295,-0.029214917157536796,-0.03972095400609817,0.001583000646556095,-0.01529551121943646,-0.05523340134988642,-0.01707614964911823,-0.0352597383309818,-0.044574400659164834,-0.008804215085018689,-0.03329170701031793,-0.02634847086846131,0.015513126627476179,-0.019003594020293033,0.043074274902140344,0.04589733227234946,-0.031822354428159665,-0.05690820003792392,-0.07190949069335931,0.005481529236635585,-0.0829436406546606,0.002335779228818743,-0.007871494165334102,0.03394518175221734,-0.05093451313149642,0.0012174862859419596,-0.06908934931645654,0.020793369912667697,-0.04006284824786327,0.07486063029988263,0.08373107558852748],[0.004838714836466949,0.049800238742720375,0.0697936966682551,-0.005218515668695252,-8.795042555184838E-4,-0.03617145895962595,0.03226235450806851,0.015482834178362843,0.07499424403063996,0.016912674479541128,0.07107047347964919,-0.025092952336780633,-0.04283955959770148,-0.06529664648619758,-0.02548665055496093,0.0253225509736808,-0.07081788278787869,0.010563400077983315,-0.018992271435972378,-0.024314278387139468,-0.0690749178183845,-0.07405050550856458,-0.031150605018784458,-0.07617767682283644,0.02368028178662207,-0.014736420458799755,-0.04742200289738765,0.032120360511705894,-0.06950114408345803,-0.0022596799972925703,-0.08119222332979377,0.06986650244926888],[0.07899863426714192,-0.016842194970925917,0.05252353032575967,-0.07901616011375943,0.04439355197046643,-0.014443242046552925,-0.08105097997118794,-0.057125025583521026,-0.04847130477550007,-0.039488661066234686,0.03856411891251393,0.005299145958979225,0.06007164264940187,0.03643523712803528,-0.08514446692082707,-0.047299253237297376,-0.04408583299128595,0.04040023938221105,-0.010371736539483225,-0.057240209379474195,0.06695422297757855,-0.0025499691276712833,-0.0688958157486267,-0.004957469923358707,-0.017705638250930973,0.06949449055079981,0.07211207040356017,0.020525868453369674,-0.050235099461473844,0.07147840972675677,-0.05660186981688394,-0.035008616311992265],[0.05392009333015098,-0.027822383204137265,-0.0024734842466912995,-0.02521221895288694,0.010400068240680701,0.05321423814887208,0.05740521060364361,-0.061732549509832785,0.040057384054248635,0.03714089341997011,-0.029741504814348386,-0.028216335885550135,0.025931832656572645,-0.010775225936795602,-0.015261046010750783,0.002059066190479084,0.054937882315506024,-0.028532512019291106,-0.006413284104550346,0.06640049974798375,-0.07582369753324396,0.003762796067014429,-0.06363258794366675,-0.06825033661343104,0.02941488441627092,0.05905995156482414,-0.06707711220542989,-0.014681696579842167,-0.015321561175739316,-0.009603452529821855,-0.04834779719353937,-0.01831580313304874],[0.07183318392190668,0.08570271062979301,0.034145894939798166,-0.07595870441082056,0.05932672577201049,0.08389332574662893,0.0405508438477337,-0.014964715404268525,0.019022381057358068,-0.03214213544153588,-0.07721442564721118,0.003060112799509797,-0.0778358564233964,-0.04580869319068311,-0.042080114352125046,0.003154462419278415,0.051169695756120764,0.06271688878549743,-0.01636097416666025,0.01573117236819631,-0.014639221880135457,-0.019372374420109657,0.04420969921518708,-0.023283299943563172,-2.616996654521812E-4,0.0373983827695284,-0.026147741374972142,-0.05715610088075074,-0.0537978765657861,0.03302640156342552,-0.020745274443022252,-0.010193078275965451],[-0.0060691041792984915,0.02001693588967093,0.05528958038008054,0.036735307905573326,0.0042637901239691136,0.03255561482485086,0.05617388060343447,0.05699474339182549,-0.010884797048895905,0.08078662507746003,0.042465643956380514,0.006680379708531957,0.06989437397713734,-0.008809812394193879,0.021349711228700663,-0.07019466024072907,0.05096743955684602,-0.03485084367883266,0.07962889607611687,-0.032864079850323094,-0.0260593293999189,0.015470618136631031,0.0017517584297365972,-0.02363508260313634,0.053491346944430335,0.014799744582790283,0.001009282590677781,0.02233830299546231,-0.04144489885778693,-0.05437177836749726,0.023310708505918667,-0.05659078525382505],[0.06442369571725691,-0.032106080859882896,-0.012426082117606981,0.034091895897450174,-0.08569295216692324,0.0590085905894845,-0.016619338908308405,-0.0013441750209939407,-0.009565388651107759,-0.08146919866069635,0.03155146236136068,-0.03803036335272007,-0.01233957804483869,0.022134835858778592,-0.07478143478094128,-0.08051340093012177,0.012881472723938612,0.041046709588424844,0.05032527094680065,0.007531661598331045,0.08079686674740262,0.007071650237470656,-0.00921137958142153,0.0541973187739978,-0.042221724843219476,0.014992224465222456,-0.03830881101236409,0.008541176194643795,-0.07539523781064253,0.04169101012713227,-0.014429976337937356,0.007510080826242474],[0.07398148688720217,-0.012966547328811527,-0.06715648117562979,-0.026988398421648425,0.07654005962382653,0.05176258967606415,0.07540814404843263,-0.03715491565687957,0.07701480871756336,-0.024566157532325036,0.029335739597945026,0.08432334673472527,-0.04952492057455695,0.008692055736087716,0.06235804063601187,-0.007197801866465367,0.04727473438280058,-0.017896254206377755,0.07662452978443679,-0.0764880549688166,0.004435477968067669,-0.01739770182642232,0.0457997900582345,-0.04488200813350786,-0.04570999297530209,0.03310499829092562,0.07518452576485375,-0.04382302058257101,-0.00837389683656605,-0.05667277966690498,0.0015238203974263745,0.04175984360791988],[-0.06181415178508698,-0.0739859413584877,0.009568576715132558,-0.0290947125055395,-0.028198364666363232,0.05217555781968602,-0.029605657786408935,0.03376625614506233,-0.08032269143516622,0.04771651179721843,-0.007560228366307559,0.003375937410179647,0.01940650949313167,0.001335274036841914,0.01803978136244648,-0.01262959052602634,0.07294195460681624,0.042909712585149654,0.014140068747546732,0.06228547979089169,-0.07947573066155526,-0.05695737145934021,0.029217209452521774,-0.023938477354777422,-0.04509792897384995,0.03650562842063863,-0.022540217966601803,-0.01018254557031392,0.030944190170395857,-0.06201446332471059,-0.04508849142402221,-0.015549379116709262],[-0.024971307035247896,0.0783019618892548,0.06561819953987016,-0.026723012887352557,0.0379994224704789,0.03592923042999195,-0.025903719968278557,0.0643798475706391,-0.004555901072161906,0.02777467776791234,-0.023505996856530206,0.04197699310798321,-0.029337009767960963,0.059848711007432935,0.07811840471652037,0.04880194436496264,0.030585082049123562,-0.08365985638302818,0.07065364021574759,0.006519404220049061,-0.04926660182526557,-0.07692167957467197,-0.006746336398943507,0.05350757321114261,-0.019362704398157685,0.008512083144117206,-0.033235401411607426,-0.02507753067114997,0.018253692883841943,-0.022531867021560435,0.06393032719281146,-0.06348256091127198],[0.0264967019118129,-0.005569537245495342,-0.05159577887769597,0.07940635896668786,0.044345641892562154,0.07943138126558046,-0.01458555214407782,0.07040572940438815,0.07578312061089737,0.054239541167243235,-0.05562905437661528,-0.033939115040198274,-0.04381856640135256,0.045139237501511255,0.0361052839532171,-0.03504664359548213,-0.0317128345028993,0.052724887756296204,-0.017042360068722423,0.034599812050126806,0.017934391980857205,-0.07822583751092926,0.0683616383490003,-0.07892529226448694,-0.042491193507966304,0.034979449046527035,0.06219914863734565,-0.08113593165488697,-0.059308142187829246,-0.08131630448324517,-0.03279242428106527,-0.05484756652411191],[-0.007136775657362826,0.07973894374514043,-0.010601832111676405,0.051761469802498024,0.0844709221307571,0.05509466600037812,0.007039678979215232,-0.014411712399817186,-0.015180409946778129,0.02175899063483824,-0.040432582554942656,0.005208226047755422,0.0033055295074268425,-0.03292707841681851,-0.07004377566438631,0.0873510511933142,-5.292638822186752E-4,-0.06483565479659754,-0.04846497041512236,0.05521024773228975,-0.08519737291852861,0.04947163354726725,0.05337139206907725,7.202065857585414E-4,0.06968235182642409,-0.08073450346110152,-0.03608066832092302,0.07142558605339466,-0.076188910847632,-0.0168789897714222,0.08172114307810657,9.204135190217837E-4],[0.07084834241300793,-0.024518599287890977,-0.0119642818254271,0.0706159468181922,0.06418331958893059,0.05386743165399211,0.014739993299340438,-0.03404687125640051,0.06265963341806594,-0.012489949938860004,-0.09022213219183738,0.030373072318566445,0.0731720868847696,0.033499168824344644,-0.03645898343609407,0.06046506108458506,-0.04255272360610784,-0.0010222208621930846,0.07426800718139588,-0.0479508988300667,-0.07002147756842113,0.030298293096950136,0.07852763339986657,-0.07005993033580674,-0.04468608282896013,0.04056100619934907,0.08330173660805323,0.03817887044126478,0.045233435896783525,0.05345282553546924,-0.08341645299055309,0.08058665572595063],[-0.0016234235457038108,0.06987163671716982,-0.046451305204413304,-0.012444244788224763,-0.07408173852178856,0.005409039868627472,0.03608123460702693,0.0528949696607922,-0.04033936844617831,-0.06557884472116277,-0.019936730172535975,-0.01573375524602666,-0.010471406441454082,0.06965009027437767,-0.046920878466105674,-0.006877255967229745,-0.04791064590646719,-0.00619518878480872,-0.004344393560149615,-0.036234206529531236,-0.025609002151158716,-0.059230054908309376,-0.06366442775081654,0.04150585791312788,0.0021247677711921254,0.02561312496408785,0.04397640926900223,-0.01737333240439487,0.03630387486827518,0.03774779449245809,0.03129692287493172,0.062346093525490934],[0.06777130301647016,-0.02737906518626712,0.03219996995153819,-0.010714791119818127,0.07187644603152137,-6.543750281140972E-4,-0.05714251938470856,0.06365265294808282,0.02554092633868636,-0.0756760583195279,0.07599697767844815,-0.013457995217144934,-0.07579841775247068,-0.029597519944479414,0.029315821092111526,-0.014755485525376996,-0.060152720090468764,-0.04528718511791536,-0.028134321310183143,-0.06816327868880409,-0.04875894470761585,-0.016352463200692887,-0.0026735241577698836,-0.00268840748428961,-0.05678103611859408,0.035802151491617744,-0.026822762148606252,0.018257905060062075,0.05421831874588134,-0.047549846590133935,-0.07924242481496849,0.01681869768468565],[-0.06714804899761682,-0.069016421438269,-0.03826021258987871,-0.05580443701629916,-0.03638437321527181,-0.013331275238826186,-0.05119122610131186,0.026296834198623074,0.009827497815426805,-0.04582393892860926,0.041438098958970285,-0.013393502954124604,0.08274452996733529,0.05880239652198701,-0.008013605869284011,0.004191430149723343,0.030642373392269672,0.024662507674061675,0.08428471085520031,-0.05171007572548161,-0.008671076658893717,-0.0620297674198619,-0.05585279989454166,0.017831461328908973,0.07269470130218261,0.03910995696345342,-0.05433625382113741,-0.037266023079751034,-0.06090585705390421,0.040618582576574726,0.06441930691896887,0.03884051759548583],[0.06651477610649825,0.09010337421142382,-0.05532261868012259,-0.008412304140792746,0.0061506577919163054,0.05079397110998021,-0.02379741397123285,-0.046748423683899,-0.09072926477040107,-0.002384192264395226,-0.07544052393323811,0.0050906517622771215,0.06008001334159004,-0.04265605379616014,-0.06974504537463136,-0.019768346310447688,-0.04086712002876527,-0.019675958594896476,0.023904989299703895,-0.017236906168111483,-0.09423354169390186,0.02385619850538963,-0.052858921448353816,0.05759676126749936,-0.08230652797688832,-0.017544062366556663,-0.01829019563880158,-0.01677637508086351,0.03723820402885386,0.023753341650500602,0.05991432303952049,-0.05920847496674987],[-0.04686553018500151,0.08241128272876419,0.013439496106299161,-0.0699573849240741,0.07068648900472724,-0.01484648542990033,0.06460492631813423,0.07324209356416708,-0.11480775352734242,-0.00811555889912263,-0.12519520852991473,-0.027481374857004293,-0.02588139787627013,0.011982889108833938,0.0017735648912418965,-0.027259666616480126,0.011649494048978968,-0.01686421282867892,-0.06501951659282014,-0.014923847503125915,-0.020231423783474305,-0.04319999740880854,0.00938792947255355,-0.018374256487690276,0.051784560805851775,0.006907675634274791,0.09485133435452071,-0.06541872016711438,0.10580689131945363,0.0595978367605544,0.07377565902315006,0.032613236339901715],[-0.03374113336507218,-0.07825594609360936,-0.03748830109318865,-0.07361534687687953,0.07234337547450033,0.0038502724847689343,0.007427399539495102,-0.046515666165269115,0.015277885768068598,0.09211548216673682,-0.023992057396278865,-0.07660578715760472,0.08603197928662439,-0.06720944780856374,-0.06291344290046791,0.00615795526353589,0.02156853277961078,0.007404620850783552,-0.062260541201123516,0.08712419286434947,8.558849067654352E-4,0.06140366147971156,0.0018941204648806598,0.018835404852176326,0.004574347771697476,0.01977183969472301,0.04145364656264835,0.08165415501713837,0.014547213360970358,0.07344835302166049,-0.07852572635952747,0.03887363936670984],[0.05691598171472838,0.06559602897456762,-5.363631628891624E-4,0.01991989984999972,-0.05017989037201831,0.06769026557782255,0.0050594182527404505,0.02518327769401325,-0.01371011819783177,0.06324424700837761,-0.09604284229647277,-0.05827642232939458,0.0068685929455710145,-0.05586165441905902,-0.06364355660106281,-0.02097188474514497,0.09008098153298182,0.015003559964973281,0.03306333048028204,0.0999411617423243,0.014695662915875696,0.06040779253034479,-0.04293634229731898,-0.026017712361117683,2.6256024719069105E-4,-0.0044458653158815885,-0.04524621706028696,0.02877420994835032,0.0754078668451716,0.0693958972268414,0.08098333126448527,-0.046612609544507785],[-0.06712422229925692,-0.022431056310510473,0.07844389733096152,-0.009813350183035065,-0.00667063755223242,-0.023049616524547734,0.047212975524477355,-0.013228119663921569,-0.09333139108639274,0.0034499738179042377,0.010718947661597025,0.03392605030577776,0.09307087324792414,0.015484088673170665,-0.07949772732017572,0.08202144442256265,0.040762591259837215,-0.00670037355112629,0.05358587594604874,-0.00218773752795769,-0.08470141825351893,0.09230250980454162,0.03743656082678172,-0.05273244625551786,-0.041734403186092596,-0.023203336091896155,0.01730690730546695,0.0867714352912582,-0.03925769238884475,0.09029667014394106,0.02461277880413497,0.07945784702581707],[0.01601195429562403,0.08078636547175727,-0.05300539940413587,0.01173103795334968,0.07527701494932021,0.02437490834575679,-0.031485996773477555,0.010897070285731739,-0.034445741205667776,-0.04371284500268276,-0.03029347510302416,0.06370226079196493,-0.049635267606029695,-0.04492248097872945,-0.008228320027002127,0.11881757342674598,-0.0556640899485192,0.001708048285859979,-0.0075788558693372825,-0.02756229423068289,-0.056437614764003025,-0.05003629680873737,0.05613863620815445,-0.009466867769429572,-0.052642015896043934,-0.05370857781435015,-0.030617293946464043,-0.03862825038530835,0.05493437279902297,-0.05957005162581753,-0.014850192023534345,-0.06949401802757857],[-0.07394945641241192,-0.044121110741391786,-0.06086580090409408,-0.06363830350146735,0.05244643107011733,-0.040226660920172345,-0.06445101601038868,0.10383492054392107,-0.0608610897101369,0.043744898545518,0.055983958573463014,-0.00329078343689138,0.031114700939666534,0.029577014797845212,-0.06395076666148697,0.010650706967515846,0.06414058156156081,-0.019864142903897163,0.04340470103372919,0.008312836192309093,0.024055592606106672,0.009182346037774722,0.026569211092430736,0.017196002958676154,-0.017371650845164226,0.08516553713633927,0.09405807326251779,-0.03253913573844059,0.026576406198448293,0.06780087472728982,0.04945659850391874,0.05400053258036905],[0.003581348659411772,-0.05711240043225355,-0.08656234772093721,0.012585300235254952,0.07222567890988532,0.023442420566573658,-0.07485095783024562,0.051692677476190545,-0.06243330468182762,-0.0058621626728880905,-0.037556907387131404,-0.08009457007525096,0.09502766744705377,-0.041529779804081145,-0.040375722245325395,0.06009487093275478,-0.025723770501201036,0.07343095070504477,-0.011885360437573319,0.040333032157101906,0.007328939083841602,0.02821875310526383,-0.05819942767644522,0.07833134573815638,0.023721991056927343,0.04484969764766913,-0.054812594423700865,0.08810797917985405,0.036560844386021384,-9.355743985917064E-4,-0.0262143602225141,-0.023511499140207868],[-0.10700207604915113,0.009290657964753446,-0.04881326835881404,-0.07517239640199398,0.06019614777295534,0.026099602266802538,-0.06359592512751919,0.03355229690520715,0.048137424295532964,0.013421972241731405,-0.05270154925606355,-0.06570825884050295,-0.06992259996939128,0.004366690155670671,-0.06368456450229201,0.024388152814590815,0.040979050490259385,-0.03335375731348554,0.0044662021427860485,0.07817984736622094,-0.029639849497356662,-0.0064062814081268064,0.07137520893743488,0.03808570402840974,0.04297322591761912,-0.023065552870618303,0.06873656631108205,-0.08214950383834814,0.059195872845987936,0.0055509525892740025,0.06132925305692788,-0.049907742462322296],[-0.05848004957024509,0.058123248281942694,0.06841701498716589,-0.08164151058233568,-0.03884150863053108,-0.008189383499653372,0.06332817735417033,-0.015069452171898303,-0.05190022717068978,-0.06215270278207001,0.04530764232620292,0.006457690223024789,-0.022040734055478496,0.01766028746553099,0.031173114274763006,-0.0729438389626039,-0.012818405023583872,-0.006874144014539693,-0.028621662813049783,-0.04655389474480671,-0.006694019602736958,0.04132454958830666,-0.020726626469583963,0.07274498098185839,-0.06294105661150608,0.06236743363807611,-0.013240724751637135,0.030392916638655895,0.06952966889470716,-0.027201951802524483,0.05031491194686683,0.029971157317891562],[-2.773657997161244E-4,-0.058261823664794245,-0.029800045794073214,-0.06554140882295613,-0.019867313097320205,-0.029902605530458936,-0.04867551252685081,-0.01973580462797408,-0.04416243143559099,0.022859840356306654,0.05882329363758265,-0.044239546887133614,-0.08503984723717956,-0.0834605164392845,0.04853973655811467,0.08966828684525013,-0.034706159449576564,0.06104239069861484,0.01792432175534274,0.07689969735766972,0.048316008053234806,0.021131995126699468,-0.060403049989073476,-0.04499497387960204,0.017073393845863073,0.08331496996276572,0.022738790707350326,-0.009888292381064926,-3.427318566819645E-4,-0.04053379209409816,0.0812382008411026,0.010689751297478274],[-0.006583209201826718,0.04320541380821145,0.056022310226477204,-0.01969390895255025,0.040981532004686266,0.07584810088873715,-0.027338629753828066,-0.03291863585964477,-0.06489574707539544,-0.04542812982360749,-0.056023340160990434,-0.05126991455248782,0.06984417507550006,0.044031186292966304,-0.016730549789550568,-0.006424031989405472,0.01723537917119059,-0.015403742301284563,0.08514074169590438,0.028062261491176656,0.0578572546491674,-0.010971705614500206,0.01858457062053577,-0.06267110590097401,-0.015694350735142915,0.06760897955462719,0.028076123339604468,0.010571211102322802,-0.044348511424076476,-0.03813948905042286,-0.01446905037218637,-0.053546936667643937],[-0.049497342559033625,-7.452959529862747E-5,0.0555729876298369,0.018493255959333002,-0.046537042638619824,0.05775480738793669,-0.08564087820164967,-0.08140341744470844,-0.08063715779471789,-0.06693052713434018,0.02578390392078099,0.0179068750619071,-0.08159551571771471,0.016780916179745423,-0.057615861233972214,-0.0704718903169646,0.06836245586657982,0.026193346419252053,0.04725712788839393,-0.07475770602175305,-0.0018159045612693337,0.05599647057674141,0.042305135816347095,-0.030209199765345203,0.01614332673386102,-0.05367279683027097,-0.08019935526527118,0.06299964592860383,0.08499766091462242,0.079835915498745,0.009223986247129971,0.019063106843445622],[-0.047371134776221124,0.027514903347393708,-0.05944836781264244,0.08558005405598589,-0.01101430782278263,-0.060513581642011295,0.08235192791154984,0.015472832557495382,0.08048797148028297,-0.06561159276079469,0.0799655150569464,-0.022676285796767157,0.08204451228420509,0.0046104110003104305,-0.05662507603506577,-0.05111675350658991,-0.03228353430390187,-0.058402014244561845,0.04483040041514856,-0.028254835089243324,0.05872485363090421,-0.057805128182322224,-0.029962628123881316,0.004732413368459681,0.00296099766714139,-0.05963642863510696,0.06300565305204799,0.040466980274915174,-0.058311543279104046,0.045679423361753825,0.0253151012184045,-0.06358015129573899],[-0.05949373167959082,-0.07553149036596232,0.0287430547702158,-0.07437522619042274,-0.07158369986496604,0.00909054546580764,0.05328401887214835,0.004318878468898487,-0.07104729066145729,0.02064015120795126,0.010311367464544318,0.05701580963230528,0.06561030095806156,0.022420615063398503,-0.0817566007634904,0.048138928030463865,-0.07997169539113731,-0.03454861702890363,0.0060056122417316065,0.019440329080731483,-0.012524139753442765,-0.07911628594772774,-0.05754250177073202,-0.04191287999424356,0.030306286441325596,-0.03882805466269585,-0.013004135757423275,0.019143560599014352,0.07181654909712136,-0.04768065989030056,-0.004239927034061761,-0.08540700675676936],[0.07596120142760103,-0.0238929238395572,-0.07847025497577742,0.046744617611232574,0.05698752821673853,0.00485347096172467,0.044591965882066015,-0.019880003885649287,-0.08175809526947733,0.02441403358028947,0.03687192769236625,0.03278825809724764,-0.007320639731957057,-0.0689514099859415,-0.06308560018625994,0.06199527555502039,-0.07370555081301136,-0.0600549873876617,0.0659224745429006,0.04621960071915952,0.01373888168063852,-0.05783003451012024,0.04713394706994487,-0.0777452371086579,0.045834065210358994,0.08321947260064744,0.06056024077400238,0.0030247832396493265,-0.07706841440255764,0.03325636770572203,-0.04843200376467466,-0.008049344729959041],[-0.0538558055665071,0.019119984976172347,0.060630953391473445,0.07302071185166294,-0.027851714337629965,0.05283939741005176,-0.07501912596394152,0.01195738090448032,0.01859155746821,-0.040531070585013526,0.07707057501396337,-0.04971701621895846,-0.02528687216696082,-0.0017272465014152114,-0.04295591629997798,-0.05858699555505327,-0.044544303438472065,0.03253264994402515,8.877932141732968E-4,-0.009065822743082467,-0.06924998910111586,-0.006007843551801251,-0.04690646890778803,0.0716084416074954,0.08417679883597488,0.030312019515269684,-0.04950839726275249,0.06280148490806813,0.07345865585338508,-0.03322577825726449,0.023870465463980337,0.0699888614002987],[0.04208795855706896,-0.07362710683548414,0.06923737202346691,0.05476069771155365,0.0020120805074092677,-0.06756992646479967,-0.016693844945643722,-0.019720570859270592,0.05248496263111331,-0.0436427278201203,0.028429561606293875,0.034007713556666916,0.03963355739453885,-0.03524026507483155,-0.039737670458107374,0.07367308947320822,-0.012655221057864645,-0.046316446101977556,0.0773810780538407,-0.031142059577438652,-0.06214770130992138,-0.010540562100788213,-0.042952049260537035,-0.08113547218398631,0.019807879741782233,0.07679911133204623,0.03704927170718276,0.006539943060523576,0.03772967405570612,-0.0684540641429689,0.003376495205260308,-0.0029351205413837783],[0.02396936633923392,-0.03773446307127188,0.05108233318865284,-0.06265568155626616,-0.07669405549569665,-0.06975656114007518,0.024823725564283767,-0.029916988242097892,0.06735594753920644,0.0692763471240579,-0.0804575053761555,-0.050665005531999464,-0.06469286158868548,0.03515643448704026,-0.04029071393448415,-0.07116680496242557,-0.07462259683950297,-0.06534345448427918,0.05739621235302468,0.01874448854258641,-0.01988295050987076,0.04091631577449871,0.015205746365770533,0.01659435959698099,0.048878968375644795,-0.06632947188301246,-0.04020447993035164,-0.04548891451726039,0.058811781184969644,-0.01113419539445802,-0.032638108066430416,0.03816964640372979],[-0.05801014633926607,-0.020428909322526462,0.04594203837836738,-0.07112439924384846,-0.04751302576197689,0.020735382054400474,0.05416707477497713,0.02293438613577214,0.06763087750101546,-0.04457744075029602,-0.06608432593239336,-0.003692130072454619,0.0019457480391672246,0.027126427869596317,0.050446578659790124,0.009041478560466113,0.06776940307890184,0.03119040448506331,-0.038356315276465,0.06302312944240156,-0.010609806037232668,-0.0805968737737461,0.01867746397317164,-0.07026530128317851,0.013441856488198959,0.07850774470653513,-0.05137481278541886,-0.07608296141205495,0.03137517081692037,0.025032347955002292,-0.07662836338891849,0.015592570943870092],[-0.0430553332644558,0.031075144510754157,0.04265174523396431,0.05319853943580156,0.06432134410233925,-0.05280394202619514,-0.028209304895540736,-0.06816963151555706,-0.039526978622983634,-0.029995007740995613,-0.03819541246461539,-0.05521024109146202,0.03041948134837843,-0.06513543706794864,-0.011752582321449176,0.06724948549145283,0.07930168797583452,-0.015001342318661633,0.018134485916073945,0.08369286520355007,-0.004422338768676714,-0.07053327859288433,-0.05910379900855385,0.02400070900160684,-0.030964880667052195,0.04133546457798273,-0.03215344429658417,-0.028676860612699785,0.00998696533473441,0.07959659232671874,0.009775958051217132,0.035892947646924224],[-0.06827370639817835,-0.006542429262328889,0.03465374187593232,-0.08201443045923121,0.04172030189409078,0.032924477091270124,-6.80750614348463E-4,-0.06476553671510998,0.05979143114580127,0.07265433992317302,0.05498467175227789,-0.02927228988194583,0.04743807437903325,0.021288117065157954,0.011739083867685027,-0.05862234682180158,0.05886375555341817,-0.014970960008081386,-0.0323556547852204,-0.0030491922501059386,-0.06016471558785098,-0.06054867253137632,0.02731140830948216,0.03848793987993226,-0.062347564587769154,-0.008179066314756492,-0.0660144075071102,0.036140224311277815,0.07685079005051149,0.029426327048903935,0.052700923881133725,0.059316634814117454],[-0.07489315994072936,-0.07184131888063566,-0.0527522146588703,0.0710575273963308,0.07636450466555167,-0.025041951874959334,-0.052293975751354034,0.08235129723639295,-0.08470234441168124,-0.021983426220283857,0.05786382858290664,-0.08060103983970913,-0.04981702077542053,-0.07831893790623856,-0.008405763409103487,-0.08309039798185587,-0.05546347895920519,-0.06616004649687729,-0.044479343544402944,0.08363391033143831,0.04217293840282148,-0.0015839850891342616,-0.0025517213392024568,-0.07011085096210161,0.0469480225213473,-0.031632298442581926,-0.025521759958338684,-0.0012199345258343886,0.07266149837661497,0.002534354932761727,0.024163014617375665,0.026631532952100682],[0.04030316908634686,-0.044110597840606516,-0.04881731211525235,-0.04154290539173103,0.04949152099745578,0.08055913462127914,0.07364491566245526,-0.007614468582650034,-0.06862688960932777,0.03897605554221573,-0.01978312522634271,-0.015255238077206936,0.03355681652918065,0.028530536826122974,3.860292557600755E-6,-0.06394410776414516,-0.017745859424816525,-0.06179450420880421,-0.07758907503030597,-0.0751891119816192,0.01623951063612867,-0.031588363132020444,0.008853491373133718,0.07804448514276799,0.024735229340965163,0.0075769473678321195,0.04337760693652211,-0.049709792130498295,0.06944859659365839,-0.020036133101097222,0.028967672245194007,0.027774316264352002],[-0.009644709124224753,0.019696394507382378,-0.03801721024549793,0.07249116321479127,0.04740543455540749,-0.020009808308700448,-0.0894668497776057,-0.0010185279001150788,-0.05466027331578392,-0.06788832215195739,0.06286252876627829,0.05679191199079739,0.01731140673309781,-0.01675600302684317,0.05350731464392888,0.033206120401191766,0.031348864725757784,0.023563123433401917,0.06894460450154341,-0.05124571097482966,0.037105812486744306,0.05564691119599609,-0.05468323402794232,-0.026648270984021512,-0.060458936144040486,-0.02641369180215407,-0.07539341769515984,0.0012605515148699678,0.01532715936265544,-0.06430304375678854,-0.01322830153094277,-2.0553134324732014E-4],[0.008978182474939585,0.014048325884308818,0.03073334952485371,-0.0424379207581369,0.07140039975315714,-0.04344107627863483,-0.08999045069368561,-0.001863305069585194,0.06527607518400276,-0.0160133436648724,0.03259841354184298,-0.020063139015321124,0.008374268947799492,-0.008370703982500291,0.0815813983613205,-0.014545139439796358,-0.024374001327554115,0.004842770501717617,-0.011905868941247916,0.09365269460872412,0.027954692331514618,0.01150991723658506,-0.04661296087316295,0.07476873501188054,-0.04873745602017301,-0.05522092356916497,-0.04261149595162625,0.08683918294911774,-0.054020538281347966,0.06851374992924689,0.05313269243180783,-0.00877068296630687],[0.04809941171440636,-0.026876219779893608,-0.05806642187201617,-0.040569276679125334,-0.04638999424530611,-0.10001562558564887,0.011359464619273224,-0.026906735766147955,0.02205746573170159,0.0968047084949255,-0.07424349884473798,0.006986314185055006,-0.04304876463180301,-0.09255467213072688,-0.07146090820474714,0.005751052091212701,-0.05754556783783992,-0.01824982601697944,0.07231527380282234,0.09192369533543927,0.042915891772980934,0.09594706716293303,-0.020269931325590247,0.05831646957137166,-0.059340341624756515,-0.04262627861065898,-0.05969173010461862,0.08003602386255823,-0.09671141670779082,-0.006027069572101974,0.044447283326627195,-0.07141045333316412],[0.07782384570679785,-0.03056986159367755,0.03064478762760911,0.041443973702150236,-0.008441567957492692,0.046403782452793196,-0.01618079211095835,0.11035252533021257,-0.06507904951956361,0.12263153642588483,-0.04300361393481966,-0.06128165680923968,0.009339331556781297,-0.06633579860259481,-0.06563325488895219,-0.04572714537995138,-0.05057593260919173,-0.035512280218315005,0.0458021073625435,0.07431194649925801,0.0037262634544838673,0.016484674114462132,0.04810091617465815,0.049077126304605104,0.02895681168918597,-0.0366133620718156,-0.07510768401585018,0.015685956548542847,0.06020225864593403,0.03773225718672275,-0.05522436661538087,-0.020733727114909555],[0.01627870671309324,0.02086281494962425,0.002071446043929128,0.014011155645714032,0.11759254507957231,0.007652632465416698,-0.028918513338127477,0.06069538088810577,-0.1023151732176649,0.09815413629062647,-0.0996615589050932,0.027494938929869796,0.06863733618481799,-0.020387373326499994,-0.01799836103255502,-0.04698184154723806,0.044771338324419985,0.09148391936198295,-0.05629414813185188,0.10944685941325363,-0.010001628293264099,-0.0331344913955554,0.06793023403144588,0.01599729517394127,-0.0466909340521336,0.002968129650123556,0.05673891206426547,0.11917309187502735,-0.03961851263804719,0.04767328217965475,-0.07883473465823233,0.047802434735106224],[-0.015906650301543097,0.035449214176101605,0.0074718431006065315,0.11553953451808481,0.10212065583637586,-0.03598864137605879,-0.07467915305570474,0.0030879884957033614,-0.007960642838859965,0.025832032677352932,-0.12497301043520585,-0.008034439761205861,0.03465869301510566,-0.06735319055675495,-0.007530853625373041,0.030598181556061543,0.021674430245999934,-0.009707200312766548,-0.0666394543254641,0.04618329458421849,-0.007583938235004375,0.0243377784490453,0.027371926102485972,0.05468063701022946,0.007582137178540232,0.07658581798008045,-0.04435838345753621,0.056843813073786775,0.04096067800258052,-0.06374535239170476,0.05772877021125004,0.06259172713478998],[0.07880507842654,0.015998139004807975,0.06381668428723822,0.002389183112987295,0.03412119578780734,-0.08446878963587039,0.04713728957827515,0.03709699964061363,-0.04990465328259638,0.04061888294100216,-0.02260375992959258,0.03980641967366108,-0.01396383861884388,-0.035957942456458884,-0.08292478413888899,-0.0371086470158362,0.042730743203500336,0.11798740480052809,5.522085723854877E-4,0.16234545263682026,-0.06593244011651213,0.07791376268145647,0.0673501647170788,0.07779692281883936,-0.02722053867068228,0.060250784545928145,-0.01344322668069589,0.06756983602930738,-0.0662425895290564,-0.04280236714025087,-0.044697002104453605,-0.07597534849441677],[0.011016590388371921,0.019571495592971635,0.014057679625145215,0.0501519927441067,0.022804897639601293,-0.06498293855029157,-0.12482642970228772,-0.006219778415457655,-0.05772751832469147,-0.005972014757978739,-0.13479484985760212,-0.004164933040514473,-0.007619220739818722,-0.12582000748076458,-0.022395080312734007,-0.00942824156257406,0.029621231620975588,0.08259343363538031,0.03428811597842165,0.16152482918120306,-0.0896403184018108,-0.0546788657335347,0.027258147410090104,0.06992162608086594,0.004926477467890645,0.0054390968428442606,-0.03667986530202774,0.01370706496356426,-0.026388564426597743,0.01628583379505561,-0.04403555166385565,-0.007728671727085764],[-0.026350707696709642,-0.01926398229904907,0.062437279608002876,0.09982854548051621,0.08141197434678306,0.07657517108342314,-0.025619821915417534,0.031169856648900866,-0.03515780096510296,-0.005419399806347246,-0.00656500191815839,-0.022296349298892435,-0.04426655310670557,-0.07634048400779224,0.018236141833399513,-0.006616253926125252,0.07912155703549305,0.14222347018404904,-0.061656167712200165,0.011726367290877953,-0.1068198107676569,-0.05867858805619318,-0.025381717315915306,-0.041584595007861276,0.012060926841771352,-0.029007789912634124,0.09935030100458776,0.010611415302627237,0.06178117547487046,-0.04808182553965801,0.06451145582212078,-0.05921421055565784],[-0.0807169810877936,0.018145295833460265,-0.011543213286086252,-0.02880941806043374,0.031108569945672262,-0.01907786790182463,-0.10486576686880952,0.07706845701735006,0.0322732161194249,0.0717576026212394,-0.09060493472864739,0.014084570266188395,-0.024523282918611226,-0.016738479688840804,0.050314353326124085,0.027173500168539724,0.07572330378156465,0.11510016058670987,-0.027760194506330587,0.03394499578441507,0.015113814048518767,0.0463959794393878,0.03688601291201213,-0.016133859411115423,0.06923093150439773,0.06506733578051871,-0.01661623114109402,0.0013120560573089042,0.06844454002725571,0.021886537733275552,-0.09756108201498659,0.06302304961798803],[-0.027072222856938565,-0.007522891893491596,0.0763721547055499,0.09599601810593293,0.08214900700950445,0.04654613986920237,0.010607511113976351,-0.04225773563899515,-0.11926603766894577,0.05851256124601441,-0.03795266173600893,-0.03092630709644178,-0.04651408112580156,-0.06710903152621225,-0.0733454281148285,0.05908361804706536,0.03378433947594678,-4.6875460958849106E-4,-0.07391626585897478,0.03357575653285214,-0.08674878456016104,0.028876510259002057,-0.0422912046306591,0.02712484060481357,0.05086045419787889,0.016683717306170708,0.06082142201309476,0.08631030947612842,0.03143571973295132,-0.039092319157230604,0.05057760689033022,0.017723913893847944],[-0.14218664754020854,0.0741932306602239,0.06914462750024368,0.04403600487426659,0.0653241134437787,-0.05012042937370208,-0.008970073847327021,0.026120511830468405,0.023816796173374434,0.04966975329155973,0.045460986080735954,0.053521828407729115,0.020335691603085536,-0.0989440322240075,0.047780481554052096,0.052949268210560285,0.13349587889849118,-0.0120172442543046,0.05313468402759039,0.10978606856499648,0.0033319059320980966,0.0939652755377332,0.04189190743538483,-0.03191089114623913,-0.02512726955411372,-0.008518219664290198,0.001976522620605643,-0.07288350465054379,0.10818902471071536,0.08673905866609911,0.068883703704984,0.0029857687897075404],[-0.06210278575408343,-0.06289810998747072,0.04269767532398741,-0.027905889515431142,0.024844158941584194,-0.07283708873443571,-0.12613972138014523,0.026062620209087027,-0.09076708836742006,0.012564964782195398,-0.05942851102412996,0.01924689421900255,0.008064905547412031,-0.0455738018445968,0.005717799526171758,0.04077139615127847,0.11565138617924346,-6.271752590834948E-4,-0.005678186152375173,0.12887614235432132,-0.07895875593573201,0.07527650504899906,-0.05874815055052965,0.1216113485464418,0.08110644564644799,0.07841746146207852,-0.050990195679563144,-0.05721330942131309,0.18599639893454697,-0.04544440698896765,-0.05993119788005338,-0.02035361923371754],[-0.12250215153902184,-0.02149777910987616,-0.06663494987669932,-0.01086084498618479,0.03730431198718209,0.03907584686617087,-0.023676834171780684,-0.030698667039730912,-0.001159422847352174,0.02777381409657137,-0.0411746598932824,0.06865446551071595,0.032006900467811336,0.0075094986949088595,0.05051172468864924,-0.040256053140666756,-0.032630745038491824,0.026476950036620518,-0.03540532478025484,0.08496202476125808,0.07275775918306542,-0.048286806903061655,0.019276866293945944,-0.02492302736209205,0.03568398230176859,-0.009028411229007393,0.0076661994160536805,-0.022980105649015814,0.13903929109627772,0.07841818287338247,-0.012685639630678229,0.050307735615239525],[0.016026768777833978,0.047513775207567076,-0.021612233403944043,-0.0031881478473189243,-0.004468710613084822,-0.007993888371734238,-0.04112509129952212,0.012837460581009872,-0.013212776317109844,-0.027638303086288223,-0.07857504460172708,-0.04610851964298518,-0.04726253801175457,-0.031525512025019284,0.003251048020218315,-0.026843534668687833,0.012188071175752898,-0.03796560412862511,-0.06749542436026723,0.09589709574519016,-0.010843036820429865,0.009079718379834359,0.10040918428591242,0.10146290654764133,-0.0387129724073152,0.010730514714143522,0.05531755475051293,-0.02410914233878934,0.09012822408965503,-0.025409221962204603,-0.052546009714085705,-0.058986892187357066],[-0.09007600049653194,-0.033412680333460135,0.023451274682307607,-0.099928324995567,0.06236611938424285,0.02868676292137254,0.05170109904116173,-0.029859805672023166,-0.06400458478395928,0.01605368625011279,0.011789162013125945,0.01049913328339078,-0.012665816492254343,-0.10515801285492735,0.014477469722610058,0.03179349236067877,0.04352301747262262,-0.04230896450800895,0.04127639716669094,-0.04265909675110144,-0.0428380251353887,-0.08494307473490167,0.04315904061199069,0.02439772615489726,0.07032004123771426,-0.08363281580328855,-0.043958296328431075,-0.1105445319441432,-8.915211902477261E-4,0.09277311241940982,-0.027520097049835743,0.009220903585939176],[-0.091000733927104,0.03730763846222683,0.024982778044408963,-0.003293846438274474,0.021747214545588374,-0.01785191799293081,0.06291785671709216,0.04774161295459796,-0.007545593983181382,0.034479065319238764,-0.02289970449684382,-0.0166661574031993,-0.0018693115528180192,0.06813689340099124,-0.04267703405775538,-0.0021062357955131407,-0.022333216690174598,0.054383094868576565,0.04172848047607195,0.034549671685799144,-0.06682470081699977,-0.03628325394850409,0.06541715510662609,-0.043985533392670584,0.06192207146802161,0.01370101666816267,-0.01880100508337966,0.03151791648134039,0.01877130659584375,0.0024502672448071814,-0.019143609077156894,-0.08192025518779485],[0.03777152424921588,0.02160058502716689,-0.0496604463644761,0.060677343851561115,-0.03562138265271356,0.08576743205104216,-0.02383252519785037,-0.051417805730010153,0.06011206981396512,0.00748469307734566,-0.04035413581961335,-0.03795420676049967,-0.021990351739964747,0.04920755188165441,0.07777284357571942,-0.03587623090475348,0.043696025989956755,-0.05945051262594891,-0.0304475723080196,0.07395583825657254,-0.059197153374010436,0.07524984578397466,0.06989601956195148,-0.02178959540117336,0.06702854784151303,-0.02195912462751883,-0.038213173682404275,-0.057653604174016604,-0.05524587706053938,0.07595569897630422,0.07641166057344241,0.08029028705429815],[0.003825822522505947,-0.0070785510752585795,0.04319605127395956,0.020993833979570345,0.07969363546791627,-0.052750796573063766,0.07330560807707873,-0.03665430028755551,0.014374340006788689,0.045805540570347913,-0.04919114877273664,3.713925744998581E-5,0.005212692922248885,0.020095903994736222,-0.0319628068448668,0.07815193644741235,0.04445091522736929,-0.0630859984475473,0.008602998882007804,0.012400599486856958,-0.008788322446644738,-0.06891840181700591,0.07282261029585249,0.06185286333391403,0.08584719418378982,-0.02850958358514164,0.06710260742573408,-0.015901382999897126,-0.006453931743133301,0.03783652024183718,-0.029725213912030656,-0.07715381355948756],[0.05531136015220438,0.07230282936872348,-0.06618850119433871,-0.01725035518562634,0.07478259532273947,-0.045434542336500364,0.06961226711452476,0.04379219854585255,0.08289887262006224,0.05721447649876614,-0.04551499807600429,-0.08436543536841822,-0.06837850653080357,0.07255721948986665,0.016710371372700383,-0.07133925749976819,0.011914609049859332,-0.04797738750522694,0.053398318112757845,-0.06346416982147435,0.032420355512835015,-0.036808399277350426,-0.06347204964510025,0.0810422911779256,0.01767675174238865,0.0841824390175262,0.0842413166522403,0.08331504038163219,0.05779644272237115,-0.0717330375345425,-6.337794995661792E-4,-0.0774999748859771],[0.035002849678537604,0.02042255202252304,0.02453697350852083,-0.042426904116316506,0.03773592483609509,-0.016018730394672102,0.01726837673048235,-0.07426353861793225,-0.032562172508533035,-0.031317635343620046,0.0837313123183832,0.030245880813930693,-0.051969954413062826,-0.039547651805355716,-0.07261780768771606,0.03328596344326494,0.006014731491932359,0.035516576129805744,7.542463708726942E-4,0.059089360879147255,0.06998736119495137,-0.00579527937327196,0.04121842836966321,0.06460747942182492,0.04485116714894673,-0.006014334485817647,-0.07578653846831479,0.04436723608553135,0.035748162895529595,0.07118660210804684,-0.04562236441411479,-0.05936789057153863],[-0.01437941871192196,0.025740860430671,0.004286606548277952,-0.0367729615062072,-0.007136191287398042,0.03878448406289342,0.04118801706159469,0.010455453549409945,0.017288941477226392,0.028954243171233525,-0.02070393275989101,0.041359865423639584,-0.003998293206937038,0.01876458338781035,0.06523822272956502,-0.0817491999497108,8.955067080299482E-4,-0.07142015896260138,0.08424849840620516,-0.06365036024346854,-0.0502911492210406,-0.008671125480040471,-0.05843365696401533,-0.020342427450896552,0.047506988050319596,0.03833428475916237,0.02085626132216063,0.05165988119108984,0.06806814607649672,-0.06365735348906292,0.011704552222160804,-0.009650989937142593],[-0.03861429660008041,0.05216476079514541,-0.025626864946979695,0.011148629499704313,-0.026527967540549594,0.07418071721022187,-0.049360530000063726,0.036278481514897654,0.06524755046392405,-0.08369180857673311,-0.011985058123863235,-2.1089296084159822E-4,-0.08393139210110236,-0.06597884212558955,-0.07341400273205262,0.029043607547647093,-0.03509042048902198,0.04496848449761583,0.05106091279755363,-0.08526267795030322,-0.07912609564527283,-0.006251007535398516,-0.04008908064159777,0.04913807216184045,0.08543387028810259,-0.07099947893366429,0.04113309469621992,0.06019056924433509,-0.08464096160188932,0.07458622506041819,-0.012636744131755884,0.021265455078673983],[0.04981938129299931,0.061237423256503415,0.07592784735533398,-0.04035712935239183,-0.011270997646598176,0.03534580748266667,-0.07750395923777575,0.03260038433265019,0.015218594853254322,-0.035479663346691497,-0.013560266332030783,-0.03937460241443122,-0.023020308032501543,-0.04934885561968429,0.07242181931573721,0.07659405714914107,-0.010059346019334916,-0.08250338334169377,-0.0748243289971213,0.0655906720746971,0.012232769879192959,-0.08447644900528971,-0.07855617811420068,-0.07145210021912497,0.06462661035517285,0.0820460690533454,0.04620027335133721,0.06316622909061571,-0.05938174510260262,0.006502778942460931,0.010161423721229943,-0.08254244984245145],[-0.0807064130455568,-0.0634454742435429,-0.011097373929163329,-0.07573714421702513,0.02790668897343571,-0.06115500409616153,0.024853412342885867,-0.05687925020395083,-0.03993797272344073,0.029818233719951664,-0.03690226211178161,0.018726219035291872,0.07658236379854998,0.06265818037437121,-0.007799500702925096,-8.367894961321718E-4,-0.049664171835728625,-0.05338838593238881,-0.04403480582249208,0.020151298910347438,-0.029219809845270596,0.07841893704058497,-0.010505715419080467,-0.019329363286273445,-0.03810849089652012,0.07517221521006623,-0.02342399179337991,0.06234081578172792,0.07379927038194213,-0.0764853497264605,0.03647444816147708,0.05292533551913153],[-0.04031113748463942,-0.030203039849462723,0.01571660706885879,0.0492699373106402,-0.06222441929650779,-0.0032918540671664337,-0.04178090264276333,-0.025689406360082767,-2.338898391215721E-4,-0.06572791246257549,-0.045710462772962285,0.04492150557226392,0.01314526455964814,-0.06629457723223141,-0.04573710439957996,-0.06107552936088672,0.05169521138079947,-0.06505563847613816,-0.07633070067198469,0.038483982116840454,-0.06431400134542628,0.06856243765573201,-0.00836235021140192,0.015788420424203177,-0.07827001979846428,0.0634205742584472,0.04512124001356552,0.08593659046314413,0.025161041187841408,0.023357840658275772,-0.07968000299432254,0.003185883587055316],[0.04406341031956132,0.011985583923076347,-0.021541369921541705,-0.03738953810365471,0.027244812864974367,-0.07725353937177434,0.03691778747452088,-0.03199332218545601,-0.07718629973296684,-0.03017373805114086,0.019202994490700814,-0.020093031518765153,-0.021077010867106373,0.06246621426249379,-0.008864111811997706,-0.07909180127890421,0.06895096878899408,0.05032364973756904,0.03204737641542041,0.07935817835164899,-0.05634657983627565,0.03960224167479584,-7.185697890260156E-4,-0.03480717396022965,0.052833118963168973,0.00826683747343932,-0.03466719927237217,0.0776475664747576,0.039813517794596145,0.07506914076708254,0.03758990096038636,0.044608886377629414],[-0.06645270830398829,0.0490922692585918,0.05461522328519071,0.02378208098167178,-0.002515633695051717,0.006960787459050956,-0.006255504989054036,0.007430180068670334,-0.011554849642969545,0.06330674847757242,-0.05354778242257701,-0.009503467514053027,0.06468693921010406,0.07361471222430482,-0.07052187389020792,-0.0756229400716266,-0.007051745635152136,-0.01460053018977208,-0.04850104973619797,0.0930736319470826,0.00784680961468302,0.009715512930589004,-0.07254529891480348,-0.06987023152934811,0.08345913698981276,-0.021419300772289648,-0.058462149982874814,-0.02467527906398425,-0.014229696544189586,0.050284377349658155,-0.07281466256145434,-0.05280662482287769],[-0.03259480951677627,-0.05625193697647114,0.08857609692475206,-0.0114243680294151,-0.01759760104026143,-0.013645884230026903,0.03387352380003679,0.03675056840394755,-0.021712767820460156,0.00501075537783796,-0.03291701793696797,0.006201483461590528,-0.043851889969455174,-0.04060765512115078,0.030303797400975364,-0.03514033049419683,0.006700574652108433,-0.01292666157441018,-0.02112983190360295,0.034287340904056565,0.04732939000228636,0.03663305168492343,0.002254780094327706,0.05031156363784847,-0.05058939979863849,-0.020035332633242003,-0.021932559342991036,0.05900899371887063,0.062422381315315585,-0.08679435567407513,-0.007684622959191992,0.06498138185701532],[0.010374137511515023,0.09761144106851227,0.004610075779278097,0.00930833601038316,0.07240560120446159,0.03814702084909154,-0.10053580349196033,0.04721890183539154,-0.09462730112667839,0.06592012824491343,0.03585305881584508,-0.04190338821466577,0.05017487236525126,0.02476156358225045,0.05981944992907417,-0.08718547519585741,0.03749102553310242,0.10262607321728134,-0.009854309741262826,0.0606763416496329,0.05169255026577019,-0.05971015075914281,-0.05922585421340006,-0.04108294118597776,0.051951070743922335,-0.001533899460014963,0.0878469475638199,0.04588558310224012,-0.013565523246301035,0.014930293145674841,-0.10458084354559262,0.018102103678168977],[0.12914271844834804,0.10471196262340875,0.07156705137186847,0.0817301254696347,0.0711545546471895,-0.09088518352078075,0.01607858976460896,-0.053339910578848,0.03584849953705696,-0.027845536705119005,-0.023014996868563998,0.07160232633123373,0.12356297779474976,-0.038283923348428846,0.017643927583021628,0.030287082390602266,0.0087624458764206,0.11968180696855765,-0.006673067561744811,-0.0259503798108434,-0.08013474914091542,0.08923192980877537,0.03081082891704088,-0.043087940021590325,0.02208831198631169,-0.08433467990858484,0.06588899233291783,0.10342893375247453,0.032199181543493806,-0.033744460904767175,0.027314606117159038,0.029495244466840976],[0.018910618899770908,-0.0038525502631842224,0.0067318856597920595,0.08186357690261199,-0.056858627180710185,-0.005915613975695912,-0.021063983107799757,0.025059412054554454,-0.08172948765358708,0.08236213702961917,-0.003464657847297098,-0.007178783279433729,0.1173422005520768,-0.1006663846652897,7.034128584362988E-4,0.013328577693466067,-0.05584580161888932,0.0503920336397763,0.030797261287675858,-0.029573594637433056,-0.07387798354548568,0.007211486557660955,0.022548067733643335,0.02243532590406784,-0.06388627528355295,-0.018865470276260215,-0.035344000105624655,0.004557575193814809,-0.13264966040414994,-0.08219214571182136,-0.03477186538202508,-0.08131267715578935],[0.04699850262356367,0.09777975676026303,0.037674349438593845,0.007907228400842086,0.04606143216477586,-0.10188722294250034,-0.10470006724755138,0.02052551244477485,-0.07916221696495816,-0.037549103781804614,-0.04631423445017867,0.07360120371953759,0.10575845359080772,-0.046189361225893,-0.06549398485662467,0.08933208906242483,-0.007848191106398563,0.15168144099602918,-0.0380835072183784,0.05537904044209752,0.05260812241280638,-0.0658328395848442,-0.009727557863791777,-0.11456243694926664,0.017798900715510994,-0.04493721311653807,0.05976215373253696,0.14324617067572967,-0.11824299775469534,0.036285377902463466,-0.029885381980758633,-0.029458416415546723],[0.004846273829524852,0.08406835345534128,0.09391962180013697,0.03982139964209434,-0.016036403689976993,-0.017956478730371116,0.0194586221476262,0.018304233665977238,-0.04738640110952908,0.020017887294426148,-0.08431300131803529,7.429458390154321E-4,0.031398632767685966,-0.09486293241106365,0.07768823281394391,0.022121981635582127,0.11297939611910272,0.04097683508816215,-0.03419582067265463,0.04450367711477369,0.012844811658336786,0.02267865848273082,0.006997374034205125,-0.002267517886536099,0.05047034641169521,0.011696293885814273,0.053218167113165286,0.09849480328430042,-0.011377018604688965,-0.068426580744482,-0.044699105439249515,-0.016788394787576228],[0.11105669417388508,0.14605635984978538,0.055928185746483096,0.09470413035739013,-0.024570027406690904,-0.044284563104903175,-0.023923639110051676,-0.011003107741078476,-0.10885435709303466,-0.06127544307285805,-0.1328488344304679,-0.008785421046217639,0.11578904054238393,-0.024122645031674213,-0.009566955232618033,0.06891232550809342,0.03605974457691858,0.17668595933621023,0.06160406188081558,-0.051718875012063674,-0.006064957184640989,-0.06968604574792422,0.020473646132214997,-0.0080833954603376,0.03773179541028154,-0.03370951115241703,0.16931409353522076,0.07990074908040962,-0.0750766660184043,0.001281166786824486,-0.0505902410416337,-0.015482835030956477],[-0.048791140426450094,0.2033154531995598,0.07637001168364005,-0.02532764418870624,0.006929197437379882,0.05273926954381832,-0.02154672479631843,-0.02474717802369222,-0.0633808607176871,0.01733239425564254,0.02121367204261674,-0.055999937306233656,-0.015787356308068143,-0.1297906968014776,-0.012055341175536471,-0.03135180852805496,-0.012375378625918766,0.05613462879749703,0.013853038208594851,-0.007094360679832825,0.08336271900139036,-0.019771488429096134,-0.047907643911496094,0.01934458381188139,0.019779880762025394,-0.08186630188112909,0.08390508420558303,0.1430926465095279,-0.004095557501526531,-0.008392695010361884,-0.01063626315116214,0.06936830966012725],[0.022460292390936717,0.11352953808708989,0.10294011541107971,0.1080814153939196,-0.002547601864472641,-0.04315165391955588,0.030231051897347653,0.02958028056315684,-0.03964101924567362,-0.017346064587325807,-0.06677834461108008,-0.027063325059455204,-0.025458637512993616,-0.05898694289651072,-0.04743615544622357,0.006206937609752172,-0.048569283753141915,0.011006289143369596,-0.03776607396059158,0.031868316141597526,0.09062077029009838,0.022902951770092744,-0.02910964131237775,-0.09289440745123562,-9.581525926636473E-4,-0.0872348099629197,0.07876649710378965,0.013463723525581272,-0.10152810349917016,0.04987797402451785,0.06856447502344276,-0.03732186631004907],[-0.07646454642593621,0.11560341823454909,0.0963569899658243,-0.04462909359529912,-0.030247009811167912,0.06447586412498985,-0.03288928072974239,-0.03071892796781371,-0.10469110466756604,0.02242839202176348,-0.09970589876767844,-0.07854857078827714,0.11629419153658938,-0.06449953506501488,0.07039058055990638,0.07136253981588936,0.061837411368955916,0.09231979227387067,-0.08893126725326711,-0.0499264857240409,0.07414703659209985,-0.0329784805130389,-0.026767171098917505,0.05363147971401458,0.005661562124341281,-0.018455259576247808,-0.058027892781468395,0.11339015687540502,0.019137727489636658,0.0013561435892465244,-0.05386594450790135,0.08552577499401755],[-0.1228086989032515,0.03569374182676019,-0.05172053993078953,0.07975598757195451,-0.037499186858152095,-0.02477077870927249,-0.05402624814809213,-0.03776012469085622,-0.03149767353161876,-0.039652705057407305,0.009557530976110574,-0.07959015452279994,0.027011996353484242,-0.01621329522044533,-0.04650691777948338,-0.03389623877959326,0.013154035309035774,0.022671047597767856,-0.07427554407457565,0.006972414910998735,0.05242206474742381,0.0501971814711156,-0.026560503026385168,-0.012442880209315207,0.06295388734894555,0.05868664248697417,-0.04578083807726048,0.07377607967919085,-0.014001165876279743,0.012239085290144785,0.046674414093973056,0.04920960015261484],[-0.07307486649437395,0.05793928676429849,-0.023501373750701958,-0.05267237968769464,0.05819219677501645,0.05938646602495982,-0.08182647831842012,0.015400091679060427,-0.015132124647306794,0.05389081478306855,-0.05024023203798719,-0.03293810617508688,-0.014337609116942866,-0.046947872256670485,0.04853939499504472,-0.061907498161603305,0.08797967804065339,0.05449735767903243,0.036408896462795715,-0.011452670665291256,0.026972669885608945,-0.04092768392901251,0.018244175288910112,0.07136538613943594,0.050697756531091306,-0.062465420078995255,-0.05236105375972507,0.10086498493699847,0.032310671642852735,-0.06172321716180435,0.0227025871454731,-0.05765525702868746],[-0.03880036810037516,-0.01464429286666502,0.04439874233146263,0.06845925445657065,-0.053419110544388144,-0.007691507303565719,-0.08591905608020967,-0.05854600520617436,0.03686405999398235,0.027540483119708664,-0.06821883334413666,-0.009587437604987493,-0.038180025852846966,-0.07791602993199985,7.800529552994965E-4,0.07746143830869003,-0.0071403690087786876,-0.003895665838482662,0.02497849617275494,-0.05363454881219818,0.10917401039785908,0.07578941010519495,0.07143760062458836,-0.02546131942904988,0.07011879786683153,-0.0415758352966684,0.0780289794829444,0.0437135481259215,0.05159168926914352,0.06713418335803727,-0.06750742054325973,0.013115437089524288],[-0.127974172402677,-0.011725849133854322,3.340418783897456E-4,-0.010155646197362447,0.05930622443896177,-0.08768895306041553,-0.027109957429549664,0.06833976434550207,-0.005429526884597485,0.011070002122158059,0.012667978818622586,-0.08177980942611873,-0.08316254460662949,-0.0503941804830325,0.018953661816810206,-0.04834369198331457,0.11088146276642691,-0.11481823536382386,-0.08217075628266289,0.07369004649840936,0.02627266097302153,-0.004372664931563799,-0.011091184062545726,-0.018422466140632577,0.027263906241103586,0.022390047400515638,0.009055335085668793,0.021492627685724627,-5.691251542432916E-4,0.03999161010528647,-0.06340522255352346,0.05725930093153118],[-0.11189901825635104,-0.036421857299285834,-0.05771592709730263,-0.06335661419110894,-0.020093169560674154,-0.053049775159895056,0.026959167029891092,0.04183932204357349,0.055237028110325076,-0.052897148170914614,-0.022597675574280558,-0.013127258673091396,-0.05371255533039265,-0.0016851102365606462,0.05763288917996896,-0.02267245097560882,0.03677361994462334,-0.03942590211966102,0.03170853929423979,0.028079400270807495,0.12293546806880612,-0.07707381277078437,0.06585641915698802,-0.02691146526540451,-0.030636780682075784,0.024341303472672025,-0.00414426240839472,-0.0632438544145927,0.0036583240755896566,0.04586140931135548,-0.03967952612804981,-0.03371057812515051],[-0.14329195259968436,-0.05029188732290016,-0.004646389318816502,0.03472342622392989,0.009850865651202715,-0.029674284666370798,-0.08504993918892238,0.0015566351066568494,-0.07466421307080294,-0.02956207619047259,-0.05984535787921526,0.002742298215077852,-0.013498968428219793,-0.10224481757346382,0.12711808346455175,0.0178629108869312,-0.053113715950080256,-0.03872128993956196,0.018101148117115166,0.027824317721858744,0.023706243778691037,0.07238726241052314,0.06099278812949407,-0.08649009635772782,0.022747384149847533,-0.02107504897378686,0.05067261392644692,-0.06522619282320169,0.10599620057075941,0.07556637068590011,0.043141116579154176,-0.007454250675172265],[-0.11689470349556974,0.0349483217949132,5.583995937027206E-4,-0.0675546740760521,0.0759135886253616,-0.005641072580079259,0.06059529759922333,-0.05389116431307667,-0.012794389540876595,0.08565019217072481,0.07403382111550842,-0.04738588908933826,0.018860579586656743,-0.0436063506663179,0.0990093668896555,-0.039524662667540796,0.010776633962149717,0.027408349044147885,0.00989868083990291,-0.0025403118612535884,0.08906082981354496,-0.05426355234847715,-0.03926464674674147,0.021384380789168003,0.07500670242776228,0.02125655635688125,-0.027306786726451693,-0.1052508641797984,-0.0065120774416685566,0.04497694461658992,-0.0022549366837618726,0.04523779690546442],[0.04850137628084624,0.00591004244986475,-0.08808840305009548,-3.424840762650917E-4,-0.03325722275431042,-0.009760007748449113,0.050257444856050215,0.050551594905643336,0.002499677788799869,-0.06691122669991861,0.021627009790381235,0.059554076240852794,-0.05511562818175346,0.022648762786539933,0.016376034557034968,0.03820770366438433,-0.03870949874817028,-0.08654898963912398,-0.07122270961524971,0.08379065300982733,-0.007022370778423705,-0.08802829764925037,0.04355837131634971,-0.08386466588149905,-0.07544704684938365,-0.060906506519955037,0.05458968216013806,0.02322200548759893,0.05790613627186972,0.003461850018545631,0.06613365918878251,-0.009101099166414299],[-0.07061803849569302,-0.0033966561751484162,0.059133106051244944,0.012396723307848396,-0.0332365902622626,-0.030766056177703536,0.07226592914629072,0.07097503605846804,-0.027293014058262604,-0.01814150418280977,-0.0015174236057329958,0.04032981420354967,-0.06730765644584834,-0.007891817985122595,0.09273585300559965,-0.058431773194148176,-0.010771250653594746,-0.019544362856410414,0.036431022125335985,-0.007814111529801668,0.05120671314626733,-0.034270300414668886,0.0820144339880034,0.0631612820878738,-0.04344768164185287,-0.05664498519106694,-0.0634321205337245,-0.04733021825814636,-0.07854785047808294,0.045497870525797346,-0.03802752252317158,-0.05262503784549709],[-0.012790165954034344,-0.043228611572634704,-0.07834246669000444,0.036068668192777965,-0.0749563290320004,0.0018027850027473168,-0.07013794849242287,0.08033936383536325,0.02829520979187851,0.010477714706039162,-0.015943750846123515,-0.062467347545086725,-0.06216598321599611,-0.07260861670495226,0.07178224348733314,-0.01788958422588396,-0.059264632199343505,0.018200488929771216,-0.02164904478911979,-0.07666477757195125,-0.013237289759088925,0.03557251675754282,-0.020742841558974216,0.050254319826530225,-0.0325927618029184,-0.0605160375229591,-0.01413177619582576,0.05430393389127103,-0.07475359278541667,0.06773629550158922,0.0669870548504911,0.05748410463652575],[-0.06599871104511351,0.039725245378979035,0.026978630861713034,-0.03295667062539926,-0.0494985829925831,-0.06175482159573645,-0.06589678975029697,-0.07378222777911259,0.06046445950986852,0.009977693816474502,-0.06693552870159661,0.0174256114623553,-0.07473935002256105,-0.03394282886355058,-0.005117099569559847,-0.03321361801342668,-0.0777849264401222,-0.0733991402652727,-0.0646405222877339,0.04657772597541138,0.03544239422250073,0.01328048620791814,0.05137162589369018,0.033547968844321124,0.06462943485752758,0.04423160082952907,0.008274473423562682,0.04573912308795193,0.018535542897154138,0.08307945771705844,0.08067976833560847,0.07195824668984302],[-0.00362542439180154,0.0429845825497043,-0.049711009164518885,-0.023578304150752107,-0.03764000137108035,0.062639406840921,-0.04324030382129355,-0.05976084192210947,0.04100114591277428,-0.03321897800926599,0.07555446098856412,-0.020807703920162797,-0.04327276884037671,0.06581778509482974,0.002119157046254935,0.03849728038303159,0.016999027857912123,-0.035706572301788815,-0.07145666189410647,0.05130276986947939,0.07751386617623666,-0.02348571786195415,0.039040420688537546,0.017342471094113316,0.08377174426370658,-0.05734276696354187,-0.02813253267151402,-0.006171832619266115,-0.028436302560789925,-0.07187022375187141,-0.0429558708810648,-0.07499769298277179],[0.05668311712401438,-0.05919132524084689,-0.04605966120758802,-0.016106500771781385,-0.055374828067667865,0.055589876298267824,0.059332381861252025,-0.04173684156534443,0.05060041837880401,0.014589718762894516,0.03908098101101097,-0.07107509100434761,5.233516535027052E-5,-0.035248949247556366,0.006981752894530853,-3.2340207715036366E-4,0.0382253488450893,0.012122789100168853,0.025226501529661074,-0.0781230434749996,0.0100517253516427,-0.051920208531544956,0.02465877730998249,-0.0051905432816159395,0.0683449788099057,0.0038298377603228845,0.0772152381719946,0.042925136587062325,-0.04368209642350309,0.0162056278601843,0.0140715193664599,0.03670906559067636],[0.016926523276942253,-0.054647873717793734,-0.07018632401103651,0.025986087450854435,0.07724490788782755,0.06093899213757946,-0.01815642361261714,-0.07511979451205586,0.012947187117682895,-0.0659216657488382,0.07172816565369278,0.03310223731945375,-0.05554985340018725,0.04719935587103168,0.08509124170509913,0.06885155400118292,-0.007651636077529991,0.08003740400934739,0.07312925557604924,0.06443274922285,-0.007426749165586301,0.04178657893107944,0.017528418627331847,-0.016702021717668165,-0.06261465556820656,0.038319262996468956,0.0374161071596636,0.004917548323304259,-0.01831956669253847,0.07312621378367387,0.06482580023575997,-0.06259139787984151],[0.03424211490825751,0.08743554497752688,-0.07384263325527676,-0.01813840260990449,0.05551762033338078,0.08117569586361786,0.03834545121128113,0.032495078523441835,-0.015704943648033313,0.07889382155545954,0.07927472699531084,0.038972441366125925,9.813357049228593E-5,0.02113881803787244,0.05189149308460976,-0.04626032473950605,0.08194002845234276,-0.0011970258109005238,-0.00804100449349975,-0.05875507707896359,0.04059305361016975,-0.034521354523371336,-0.06872998730278113,-0.07520640742302585,0.05286909298779195,-0.014975772665714733,-0.06610250151122195,0.013344558616573556,0.058931304244637966,-0.018771823070740483,-0.038342799369225126,0.024680959443275523],[-0.05811986685798844,0.012676919935412858,0.030140772861101398,0.032786183362866865,-5.88437522299609E-4,-0.07249788081130606,-0.0014540220375287697,0.038045027495018015,-0.030257327512420114,-0.0651657785459549,0.07652783096612632,0.04196621363014155,-0.05867486219296914,0.03674307168779947,-0.06167406047999316,0.026370972922402414,0.0536329608828262,0.01825688983542569,-0.0629772129460484,0.006292256472321277,0.006950800916022643,-0.06321749317507618,-0.05615024224664135,-0.028481164723629684,-0.05567500164519016,-0.04511560948985607,-0.07711143278859216,0.026708092363178705,0.07688216949750899,-0.02551388018860895,0.0050360995410714815,-0.06930185193440669],[0.07283765558560873,0.012617052114396028,-0.04425170073152733,0.10429579293910839,0.01585422366006308,0.0845192496430375,-0.10054915224835899,0.02039779491863853,-0.04274920200344594,-5.562588037645309E-4,-0.009584963967988797,0.09159564759653273,-0.038113002791739105,-0.03213242992869903,0.013739910950177176,-0.01657621977176236,-0.011591985693507514,0.016104874362024332,-0.011751313683883938,0.06566675277751075,-0.03764244523761261,-0.07138169632910574,0.03881695931699395,-0.03899944129016378,-0.010673268958736007,-0.02553014284414523,-0.01819970386095815,0.056684465805229595,0.020726600324759332,0.028788808178090156,0.03379262987416933,0.027709013440240664],[0.09898845817664495,0.08406085564491704,0.04730778997730074,0.08260715941190264,0.023525992699814136,0.007139322210514523,-0.10844090292051937,-0.04947931108283512,-0.01623264767617171,-0.07972683021712378,0.06221095376243668,-0.0026163237892116416,-0.0365953816282109,-0.0766426456782852,-0.05288516844468538,-0.05681367916386001,-0.08438879197060259,0.08913118988280301,0.05719292409152216,-0.05367079468242247,0.07812584644220537,-0.0066488304941976495,-0.03649466362723289,-0.017703735420337607,0.04430296493112051,-0.05662592951834662,0.03526142899702333,0.07703110915523245,-0.04459492999096267,0.0077347977954920245,-0.050071066127748524,0.03905413016436822],[-0.062459005359998064,-0.015187527905329385,0.07288062034861814,0.053212193425796146,0.054916867630024804,-0.0617296838982449,-0.1047486229319635,-0.007793017963043203,-0.08037844331794926,-0.09691175651204,-0.0029675576044372555,0.08764635987675971,-0.017427173332062392,-0.029232756813398233,-0.010962489919271177,0.0024454579800928184,-0.06978817924860316,0.0014350971038638912,