{"outputSize":10,"numberOfHiddenLayers":3,"inputSize":784,"biases":[[0.0,0.0,0.0,0.0,0.0,0.0,0.0,0.0,0.0,0.0,0.0,0.0,0.0,0.0,0.0,0.0,0.0,0.0,0.0,0.0,0.0,0.0,0.0,0.0,0.0,0.0,0.0,0.0,0.0,0.0,0.0,0.0,0.0,0.0,0.0,0.0,0.0,0.0,0.0,0.0,0.0,0.0,0.0,0.0,0.0,0.0,0.0,0.0,0.0,0.0,0.0,0.0,0.0,0.0,0.0,0.0,0.0,0.0,0.0,0.0,0.0,0.0,0.0,0.0],[0.0,0.0,0.0,0.0,0.0,0.0,0.0,0.0,0.0,0.0,0.0,0.0,0.0,0.0,0.0,0.0,0.0,0.0,0.0,0.0,0.0,0.0,0.0,0.0,0.0,0.0,0.0,0.0,0.0,0.0,0.0,0.0],[0.0,0.0,0.0,0.0,0.0,0.0,0.0,0.0,0.0,0.0,0.0,0.0,0.0,0.0,0.0,0.0],[0.0,0.0,0.0,0.0,0.0,0.0,0.0,0.0,0.0,0.0]],"weights":[[[-0.003802662043150173,0.04225624725546886,-0.06472017785164574,-0.011671664299422351,-0.03598435471236504,0.01108121125887362,0.002819179746045187,-0.0053184449297260395,-0.018429115259924713,0.054198060588110004,0.055336485055671264,0.027337854967246663,0.05459022743683088,0.06885094068654793,0.005562064952957814,-0.004650635733156,0.01522201766232173,-0.019661898398520176,-0.05176513982692657,0.07462553890020572,0.07294272621663996,-0.006626605720558374,-0.03860430905573759,-0.019855413103687117,-0.050986364710282464,-0.05610783785772423,0.061062806085951014,0.049611831650903035,-0.03958095942265929,0.03526886886569406,-0.043207116399006804,-0.06580406154065728,-0.06364040954548099,0.053526204616898936,0.038656063387322484,0.0046799020951230055,0.08140345235085047,0.012186700429540056,0.06414152904962185,0.06902161342379412,0.04853302563453927,0.040602548496394344,-0.010437008599290887,0.03552355220431094,0.011883910801653607,0.04184177499696831,0.04173493579730303,0.06067454803118469,-0.01697221824303182,-0.054621308317838915,0.02325047186839571,0.07284791859711888,-0.06795509722387709,-0.06113988764808397,0.05355357657535594,-0.06794167243046954,0.07116625566300787,0.07849782997719326,0.07535927154379601,0.021345670666900674,0.04711840230941133,-0.019059900733545975,-0.011463106945919593,-0.04591990970677337],[-0.044512511303815144,0.0402527558384846,0.061095308065202344,0.08100292647440889,0.06381580943124913,0.07201791444164962,0.04805101524798223,0.01053426930064547,-0.07067906187865822,-0.01320427548617744,-0.06579372540832197,-0.0497746767871667,-0.04943676668607605,-0.0761721125520561,-0.07109639683403055,-0.0769412469075134,0.0473422856575468,-0.027667608562468343,-0.05602253703219029,0.026355515989378454,0.05541922407964022,0.059368530459782284,0.027654101885439677,-0.08067995660617079,0.06485287465950662,-0.03233844932185881,0.07888551545071104,0.02255550421665671,0.04346515964375095,-0.04902177478405469,0.05890664211744705,-0.0350531905940494,-0.05905063987288677,0.0010791985281143437,0.08284970164953598,0.0512889671606016,0.02684414906042468,0.07814462119284585,-0.056697088260444374,-0.08180942894748462,0.009881493023302847,0.07795485181934549,-0.042006601578226145,0.013956107212706174,0.06872159115121466,-0.07215521001892541,-0.043897149275457854,-0.015124697884045203,-0.03304613495651911,0.08204105934594008,0.06872823179002248,0.07578894958654796,0.004374260708650462,-0.01572251784449493,0.029236924959845895,-0.016134035515539345,0.06317650785371312,0.07186644525566667,0.004031116756819043,2.2357750747228084E-4,0.05058803860603438,-0.0168679977759169,-0.007680237339434806,0.012903238417610673],[0.03803975523220567,0.0817674659080546,-0.06090310348814911,0.03774140466654302,0.024895826782460845,0.047286144003963436,0.0566981307797469,-0.06847130936672613,-0.058339268426717404,-0.07497487133944934,0.03625649696742333,0.04989023720625457,-0.08303704282856574,-0.07686860557502904,0.0475059675227423,-0.0013997678135519664,-0.02612254706703885,0.04332574182844107,0.028142590015891467,-0.015943651154735776,0.05423081754257953,-0.009635914497515913,-0.03168349406198547,-0.0029936988766242102,0.04278917771745977,-0.05343176588400592,-0.009478789835743046,-0.022100975503439715,-0.012854457000307754,0.021483156880644807,-0.017214904610745242,-0.059879041539284965,-0.04446895289730447,0.08183909166925674,-0.010367290797610727,-0.07149837940411669,-0.028157333962133373,-0.047356100960496625,-0.04148606302883931,-0.05504416684988375,0.018507584246575018,0.058596993229680566,0.032039580300366695,-0.08256394854776199,0.05393927266200863,0.07207735882360711,-0.06195061027816729,-0.07280768926358053,0.015819289666020718,-0.005837710339297503,-0.06351153845816791,0.06505747708219675,0.04249375180300541,-0.0751087675275987,0.08404241826469785,-0.01643312629433148,-0.03991273810821112,0.009448969877117488,-0.03302686011742682,-0.0565113313534854,0.004154978101422248,-0.014388065000675349,0.03351388465433055,0.013897479324277958],[-0.00440060707164233,0.012663976909192977,0.08007355132254385,0.07505458223795897,-0.05980925972463734,-0.0702448325508879,-0.006532723620972454,0.03703467108408959,0.07216084095172727,-0.06802322754976604,0.05572652979750053,0.009866419630314273,0.042849546799419554,-0.004856445031762159,0.06404182186816353,0.005372709957784309,0.05008945251906776,-0.07270657686044038,-0.03729593867713002,-0.03254565945681934,-0.058601862017725055,0.021301046386144693,0.037332771117342275,-0.01660628130635861,-0.07053524385070858,-0.014904242183757082,-0.0525623970423475,-0.05266261540114549,-0.06751052090752675,0.05005220566616962,-0.05671618840753006,0.08369084829463125,-0.061202788271945585,0.02468050690447625,0.05920159364312186,0.012912624724476886,-0.0023869265861885527,0.019709830982448343,-0.026201960518640207,-0.06756221675360799,-0.07612117812182233,0.0038747373688195396,0.025568782016809857,-0.05654093734201544,0.022861439072237352,-0.003379829744719288,-0.02764339047485699,0.0018044048757326514,0.043108974965643865,0.059056865365844154,-0.056502056217088495,0.02397444568656086,-0.03218156364494162,0.07464981934437681,0.06434528621420983,-0.045084370683891845,-0.061070504183860334,0.08344372563581089,0.03353437723317345,0.07413474084465192,-0.04994548713045958,-0.043585392373508544,0.007787524361148578,-0.04216634032271274],[-0.010136663484203723,0.04021025251601214,0.0019045674989259288,-0.08393655760477124,-0.08269135613714763,-0.045574985226028576,-0.06681002400699931,0.020044837007887884,0.046358619289356355,-0.006176772449705443,-0.056802500360019034,-0.01959886313279923,-0.03265230332620476,-0.022800297883456916,-0.03191673769607428,0.037414249517739785,0.011974913216653765,0.06264992678870761,0.04789688088385891,-0.04893441611490505,0.062308953667209614,0.004954036676318335,-0.015005104125470153,0.05722787082437529,-0.055759395605416484,0.03326548690623331,-0.04604893457076258,-0.04781541919992213,-0.05483092290487437,0.04988407013152641,0.08072262078790524,-0.009463349694653888,0.0832745913058164,-0.06697445999146603,-0.03052147285012453,0.07469628023245814,-0.06019083945509653,-0.00663247530928226,0.08159130326945643,0.05785463051195825,0.08070186056781614,0.039590658484862665,0.04296203343948471,-0.02972296806330531,-0.006429613542148121,0.07092431437496234,-0.055701059189006884,-0.06831181568647202,-0.06014836640664701,0.02576841908644851,-0.030233188738647724,-0.054148391912933594,0.08312883100085706,-0.04210067023393688,-0.06415429448898931,-0.035156056899606505,0.005103824286899024,0.00826664775761342,-0.008147093815561845,-0.01295097904190666,-0.06860527109325767,0.002532186247889783,0.02279272555836241,0.028633734927997406],[0.07201355405572318,-0.08179340818439956,-0.019779849501418464,0.07852269488667858,0.06275894257279935,-0.048213914146900363,-0.0390650092574168,-0.06126518566343987,-0.0810869507171384,0.046105340195581414,-0.02606362355280181,0.01593053074982065,0.0414964491537223,-0.021662081584872938,-0.06378571453352734,-0.06312249706207228,0.06988334214188048,-0.0637813072422491,0.01293981255471939,-0.025402009404354973,0.042324923768334584,-0.057087537456006573,-0.032560647766785536,0.0750533639522701,-0.04127015641826566,0.08115440719971447,-0.06442927499774148,-0.054456018527606925,-2.7244796896046144E-4,-0.06606945195592165,0.02453479074385163,0.08270141355192304,-0.041605828371056995,-0.025333340493868046,0.022076997114780537,0.060935035261250346,0.04567928850095648,-0.04668203937085439,-0.0018400012872186076,-0.006465443425101496,-0.012702382614110377,-0.08240458088722369,0.04276332765439797,0.0037633804043422417,-0.06886552423182146,0.024012661402555122,0.04445059515724056,1.7824537099707136E-4,0.06354298278333795,0.05074579797982919,0.03138760000264946,-0.05560645828214328,0.04740931146188832,0.017986118707712516,0.02014455555553878,0.06563102244473729,-0.02339123383786318,0.05622734703968849,-0.07810507406039649,-0.0629642912994407,-0.02361523130521704,0.05973719044630258,-0.038185513702394445,0.03084621861432911],[-0.001286306643050977,-0.0173382935112008,-0.06087601792116787,-0.03355696708087762,-0.038514296036465896,0.04703194017798152,0.07212079221407194,-0.00959801963903042,0.057833043458662754,1.8415962386168383E-5,-0.024918155600993676,0.017249986489125298,-0.03337569272151062,0.06912190316599265,0.06391160556363826,0.0773583253568044,0.05158715615123059,-0.03993359963648379,-0.07446227931800824,-0.08310997945760648,-0.05136858790930915,0.01186669001906808,-0.057935399656411445,0.018079135320587632,-0.014279057171413263,0.01694971889387351,-0.02442578436934539,-0.0772896437203918,-0.03619250764932924,0.045877632261085495,-0.028999011274845166,0.03747663919527088,0.008804263085416876,0.07158960400439658,0.03302438452198826,0.03778985834864464,-0.0510951996692437,0.03476090944562129,-0.026897096858150307,0.02670760704138389,-0.047853983282587505,0.05146382218670098,0.07425536916411989,-0.04864821159362027,0.068299748008484,-0.01984407367445904,-0.004128566630508069,-0.016252300952148007,0.04475250588431819,0.05120265858539919,0.012416053812106245,0.02763637798004631,0.03769791123561882,-0.03877344331844994,0.05369764555853406,0.068842302064052,-0.027036014146737522,0.07442542979306724,-0.07266446554358749,-0.06017188656745821,0.08256313387338227,-0.08113131947414758,0.056809809586354086,0.004743122664310219],[0.05749558319751396,4.573895114664082E-4,0.024232283512522896,-7.270954489920009E-4,0.006949115576236544,0.013418899227438214,0.07262800817546786,-0.051059117051949356,-0.04891580181629073,-0.06306991914776497,0.0669150113461799,0.010147795563510816,-0.04380094398032436,-0.028536090130061455,-0.0708061798300215,-0.03978703443445102,0.059436564410831,-0.016295630427702896,-0.07623763040839357,-0.05722402418824023,-0.06199753028456932,-0.0830323300776183,0.07233850296372607,-0.06565117407982077,-0.00482564186054975,-0.010301721297278393,0.046888489822001736,0.03157189033211657,-0.08115754243382231,0.008810212019977762,0.0786668311430964,0.07542580821898928,0.024513982268592152,-0.07374041047148361,0.07403265834998893,-0.03556104989887421,-3.1852148555068966E-4,-0.05001382444458132,0.01653719423524091,-0.007713825463220679,0.06872439300727619,0.028696197313376057,0.009340393431269915,0.06890149210051748,0.04855994313068804,-0.019536064955068353,-0.036390693888965306,-0.06466324244651614,-0.051026738922528764,0.06786699419085102,0.06967852622192593,0.04011816766220059,0.06038803935760561,-0.03918525938407057,-0.07091359105664338,-0.0078052468810370385,0.06297526844650578,0.01573163383373874,0.03567121427298897,0.050722327078091926,0.03279430157562542,-0.07495495024190751,-0.05263808454066261,2.5869163002347975E-4],[0.041597636069949526,0.036792938587099776,-0.0019086798853400098,0.03998406707807099,0.03950059522497151,-0.028521173820516197,-0.016393177983278953,-0.051828165407491855,0.04136518478701488,-0.033565202723330294,0.05827690330966376,-0.0806561100472341,0.047129439933710986,-0.07393085290243963,0.006818674498461748,0.007276547452829824,-0.05010710020283299,-0.006698684356758268,-0.05206673681285539,-0.05943854999171843,0.07279747640368657,-0.072497005008283,-0.045015828775627806,0.04914279715127245,0.0666824537299622,-0.06910210140794525,0.08043393063622542,0.010085613431383526,-0.023946392878944033,-0.07088023624226414,0.0319920318027975,0.061396513204935076,-0.03372022925325705,0.05729736414089721,0.03614753384640335,-0.02828857887564654,0.0713262939606505,0.02404967432197324,-0.03255746305015732,0.0561936303600459,0.03150411962988382,-0.017142229591856684,-0.0526524512291662,0.06170943779391175,-0.08022531491469961,0.009171806642438185,-0.04988242402259727,-0.041708526445395674,-0.07561312344731182,-0.04519601045175706,0.028189510086317995,-0.0584874561702642,-0.06454325954233738,0.01018211377367087,-0.06840635346876897,0.0017272511431351352,0.08073116862732642,-0.03492597671594648,-0.06989936549660475,-0.02971570541677382,0.05242361451782637,-0.005439663195963251,-0.07335411590891588,0.01915977312177995],[0.07535137697821494,-0.02322359274829331,-0.018551889314189565,0.010168544884808237,0.003537653511236579,0.07884203577804301,-0.05841055897232324,-0.08068363577707414,0.02801956990131341,-0.0838231985007194,0.01960753521690012,0.015355146241391225,0.08399345580705223,0.0457953984075886,0.05431072867097655,-0.011051368089000885,-0.009316498533594633,-0.030262072215694266,-0.022806629412845447,-0.031111365135218373,-0.03127386673401983,0.06202488109306525,0.034177279037571305,0.03422191634719145,0.0372345047238842,-0.08275320205977264,0.03346846619115993,-0.03039400086466065,-0.07578532198153401,-0.08190436770207632,-0.04914725496000249,-0.04861419996075499,-0.05016634237392299,-0.024782688213252295,0.03455587447507477,-0.032205635011584584,0.049200644854999885,0.043438105771839486,0.06670014924348419,-0.01539192258154814,-0.038662857300219844,-0.053061733934643265,-0.05308626906526944,0.03607053224986486,-0.04983390685687276,0.019926158209261698,0.031830863188467465,-0.01969755817981615,0.017860176871361596,0.07862883066801828,-0.04580933931226537,-0.08296924647221286,-0.04638042267081643,-0.05071634947392274,-0.03361058507756709,0.01750765903591365,-0.05370542928765223,-0.0025074728808736576,0.027258640202024186,-0.004089938284220512,-0.04765267754813766,-0.02236629204290375,3.8288541526104735E-4,-0.04278381426455441],[-0.07451686637550835,0.056405755905975734,0.016899573252658895,4.406511199583411E-4,-0.06826780851716813,0.0518285379172805,-0.06962909157897947,0.03786252130508616,0.028885619167293194,0.031062858279094708,0.014826707883692569,0.015507522407859718,0.03972993775658548,0.0054759271999125034,0.021463670772947707,-0.024246542884594685,0.003871753799881818,0.08312467759225962,-0.07037839807636191,0.030675034421540213,-0.043301738547237116,-0.05359529924666465,-0.012426329797150418,-0.04061218790524921,-0.009860086559963554,0.028698169659870897,-0.04206835092774881,5.920602852543309E-4,0.05503852364555654,-0.05002043310975574,-0.04580927099046083,0.07117379319903261,0.06187992100937953,0.059261750585535275,-0.02776513226121172,-0.08313347637592564,-0.016829742069751297,-0.04471827572083989,0.016047009132653146,-0.0727090231317188,0.053220946165744666,0.047869743573705485,-0.07390397117186347,-0.06324694310876931,-0.060379490315230835,-0.03792870787304366,-0.07718577608199584,0.032038492193014155,-0.009058173122898798,-0.00106027772103803,0.05526328406959171,-0.016871276774078816,0.019400679902017232,-0.004421010162822639,-0.036661586597700246,-0.007733505034582407,-0.013605716222852952,0.03619350779540151,0.031475533272710694,-0.0453937218387134,-0.04560091159951187,0.02115894941340304,-0.04481572642454273,0.05106602816945456],[-0.005267803607348239,0.04769679291699192,-0.030994994119811922,0.04437571440990873,-0.07074123429627965,0.032892476115305144,0.0175848440106756,-0.007191346154850271,0.05982964618223959,-0.009841414173159894,0.0014464737853050209,0.035496313145010255,-1.3317770051326692E-4,0.07759554386896948,-0.04954719982763638,-0.05595297096242544,0.02301196395973039,0.04616145401210792,0.06704020527544888,0.01528385300839676,0.0576622224476062,0.017740704061897043,-0.02772498594600467,0.06642159342712178,0.07102484076877948,0.038283077530376956,0.06878879339973781,-0.05345394182878232,-0.030216149763661455,0.05648355722586282,0.06012581897700815,0.04910422893043202,0.007860055596953401,0.06960229904963572,-0.05524058791471849,-0.05049969100175152,0.07183350617990412,0.061872194635764016,0.05580985659112217,0.0232942160663931,0.05583192081420908,0.028117873089552766,0.06717913648396492,-0.0061360055346439644,0.04507498638116031,-0.024832952876166242,0.052497124617002684,0.021085396248340472,-0.022982803282871223,0.008688896171276802,0.07574584406975296,-0.07032257074769056,-0.028175679684517577,-0.07083959605924307,-0.05465590155320999,0.021798933989245563,0.07749507809489602,0.04706757721120087,0.012511071860511213,-0.013681205918471885,0.00265169889890597,-0.07793592283723955,-0.06840935737956982,-0.020772168944849317],[-0.03977406885485996,-0.04210402310828474,-0.07090652892915747,0.060680434251787804,-0.010208762821562552,-0.056018272622266954,-0.08164736743124326,-0.0617763337831039,0.01897430013151723,-0.05763546200058331,0.06714689528278742,0.02686158411822825,-0.0214822002155219,-0.019044722988144237,0.044179106929479045,0.05465076929352924,-0.05908565045540168,-0.018418025764522023,0.05396899879447826,-0.022842356906931326,-0.033166821876631815,0.03655940745085262,0.02024631750623698,0.03832764286809356,-0.032634437358802906,-0.0569084002904718,-0.028783171886018397,0.019110467904151666,0.07756832556538051,0.01661275082466493,-0.08216327569940303,-0.06412368832663878,-0.06266068598221046,0.014784319571731252,-0.027817058535575725,-0.0316311289344292,-0.02617692351659779,0.037558889432115244,0.02385940812820648,0.006667194069709422,-0.07131978324358233,-0.0551053047059827,0.04386121136188983,-0.007907182925352089,-0.07641264176508752,0.07881169560744615,-0.04829890325005919,0.010579535196955083,-0.039158291715926434,-0.01715271759530605,0.03800463917492043,-0.06494013182056393,0.07333813421899639,-0.039802773213324684,-0.0715388605338053,-0.049328086391261905,-0.03351072976323625,0.06497581406974924,-0.030796381400892466,-0.018591905627288904,0.08410864157462732,-0.0052442395787336655,-0.012279005193715846,-0.01810756154998052],[-0.06467041205909754,0.05576658390306864,-0.05285538218513866,-0.036405082269973216,-0.0202689435232735,0.017519040695624506,0.07301738812149342,-0.06927755410063632,0.0073901308341975495,0.02800744287053174,-0.006574804622773751,0.055621829841151896,0.07084223571668918,-0.08365155440459045,0.06168681643300263,-0.07790467677086957,-0.0014317476302661734,-0.05625495015342898,0.035359337508425286,0.07798869326325282,0.047311280807824166,-0.045739995406574495,-0.06157161920004551,-0.04910614579546142,0.07033826621279021,-0.009440994013026225,0.07480158380877959,0.06731175641899126,0.06551205805131198,0.055878217706032046,0.05352666652995717,-0.0215165291429084,-0.07645998433134052,0.0097814544643664,0.06738151727215574,-0.07312022430112951,-0.03034419410064822,-0.03557501120028821,-0.07135058250229644,-0.01021458180623917,-0.005430317698783455,0.028213177487304404,-0.06924377499433437,0.05404008273511958,0.06241768348477539,0.03069647970414226,0.0033002885080073113,-0.006853375908242304,-0.06899922841808526,0.0776172940340235,-0.02568535537425788,0.00364647353435033,-0.015348468962122644,0.08229544638388783,-0.009760471702997108,-0.012678935954864417,-0.07214841692038262,0.051804299918730326,0.0660459113713667,0.027514610289329132,0.04470073151026069,-0.08021600214688274,-6.148111803584944E-4,-0.038064840331970384],[-0.05082035001597151,0.05671670374228436,-0.06809886266601034,-0.05847366010108722,-0.04110117122083376,-0.018469996784331776,0.03317160868550319,0.039867890166023816,-0.023139413573838634,0.06866311009057065,-0.0031335253263149094,0.07621269788223226,-0.06742148280054758,-0.08007972363229789,0.059434076281874734,0.07087572133430199,-0.07178778999851673,-0.05507923341751553,0.032011655450137254,0.02419444995057177,-0.03154324149476663,-0.060599418739861174,0.05000849691669186,0.04663036922720734,-0.05503747604671331,0.03182537770256718,-0.020434565066596824,0.0244256991122381,0.060587377899436065,0.031424919065872275,-0.08001226081960085,0.057688780117347294,-0.05243013557224004,-0.03418146166648748,-0.03206532954440774,-0.06042298867642789,-0.06342894567136606,0.022110352675100076,0.01756077014867727,0.06905758449848054,0.08266790290054139,0.03424682097280935,-0.06472522493392797,0.07769285960718363,0.08094007146783308,0.02581841102569896,-0.003519231720164342,0.0013037435306232903,0.032369693516608226,0.083792431986411,-0.004796393132403808,0.07619714499468773,-0.07341451736350207,-0.06944771654360138,0.001605386211153067,-0.02670548868877331,0.07494085103389833,-0.07724968855515663,0.02860256783597842,0.015265794916262428,0.07820933505098676,-0.052250176568929316,0.06489135425896883,-0.06821892912389445],[-0.06908789378584787,-0.00975635921009462,0.055676162521723874,0.0627560117341482,-0.0034690497326540152,-0.07291254886143016,0.04408609428763591,-0.04612202094996585,0.050573583419420184,-0.07009406430884482,-0.04367044285400581,0.04188901806075453,-0.058106138347768385,0.05768573235282022,-0.04505789045363508,0.027073668748773587,-0.05304790682086266,-0.01842329830376251,0.008919560108393846,0.018477772750967496,0.03597138989665558,0.06752099259652362,-0.08308861376357757,0.004013358240754834,-0.003353968979978184,0.05271674624430347,0.058396212798748584,0.018379409037981617,-0.05907944513615998,-0.03698715171859551,-0.016275253112351746,-0.03334138232114181,0.050881864965880465,-0.04687892970588337,0.04562769451286839,0.05607972565849012,0.0056855971111123725,0.009402796973213662,0.004087356565563282,-0.06936733921915493,0.01742943749112708,-0.055457551710485185,-0.03872675642429458,0.015058408939826944,0.060724127537658,0.04983987053288428,0.03624286778828255,0.049629687528953796,0.04564704689950401,-0.04226158145441917,0.021332843039301722,-0.02796838368400346,-0.008625746385370272,-0.014536125257899277,0.03166837087681888,-0.0016501699508718638,0.0077650051924903684,0.07730346649228084,0.05301244109846809,-0.08309021394182223,0.037568075032434506,-0.08379835607305612,0.06869504740252143,-0.04442461196485213],[0.030354033900007647,0.057988470110116035,-0.0184608511960425,0.04937812188733906,-0.012723732924337143,-0.0018655978526085026,-0.06456746462960675,-0.06881397685590843,0.0026548606644523826,0.05229000799407111,-0.014013939126922255,0.015126809081237211,0.005991078341964153,-0.05287922351002956,-0.06839736824375472,-0.05715563706869424,0.06806282107019462,0.06066410371709311,-0.056386055573380486,0.02907070741418731,-0.001494754183481447,0.010965780510377084,-0.07777188794945349,0.05727691910490083,-0.05867191814540514,0.031799629087875085,0.011306516568611005,-0.022541612688469742,-0.007053339238056982,0.05930321568517423,-0.05724877605610778,0.02605962922052724,-0.01696069962526929,0.05896978009181974,0.02894262778049316,0.035020932374460974,0.04152696645373522,0.043450870792383044,-0.02266158208820539,-0.02980821689081261,-0.06071261144617107,-0.007693609507146359,0.013861203909764584,-0.017433803281296286,0.025068312040340913,0.07360644705762726,-0.06118131839662848,0.07693535400862657,0.04450951541396594,0.015911038380853167,0.020073019254219365,0.004126410676364361,-0.04133798737085002,-0.08310496439979054,0.07960249088820116,0.006161113988690828,-0.025169115444505116,0.07967873650899153,0.033174478010220915,0.06494908667685677,-0.07621395293238428,-0.051152006444998344,-0.08202499056533111,-0.0768778063865596],[-0.07067470114638826,-0.012904352658307324,-0.05895015404455496,0.060628318203459916,-0.028112377210978885,0.08130692516471942,0.03078583838077918,0.06968445413784645,0.0835544830786706,-0.03644949608791944,-0.0010304562204893476,-0.05843799726000776,0.050031779656302025,-0.038929914985518115,0.002327004161887875,0.03389193293156412,-0.08301500986000372,0.05767243601065485,0.06273873249497472,0.06836817380165273,0.04127486678401422,0.07456024834569269,-0.007292974753455862,-0.07080642719022956,-0.03267062861974316,-0.03333277038823081,-0.05683232244439222,0.07717185729489362,0.05447962596791198,0.07121806346969806,-0.027444940137600998,0.016839230971311712,0.027102268484417477,0.0775235229285933,0.08079221020873259,-0.04085550347886776,-0.03727498101699057,0.08135509749181802,-0.034312285668019665,0.05749709263669004,-0.047581610230662194,0.015764092031965618,-0.06871775716361664,0.035006602831614345,-0.07677179712249563,0.07943314463865582,-0.027057223414307153,0.0566657539392404,0.04337691636694311,-0.048247541510285444,0.0738482325168011,0.08012698498621905,-0.047342295064023175,-0.043781387900662286,-0.025241451024994862,0.07295265638482816,0.0162142925236467,0.030955818689530762,-0.034444873870732376,-0.08331061584323936,0.03840775340602051,-0.022851184841010924,-0.052559441634400426,-0.0032502442689490065],[0.003488359134498185,0.0658890883856273,-0.038555823546398915,-0.03787247667326342,-0.04678149012591134,4.5199642276201444E-4,0.03834672169626,0.08066354150392208,-0.0051147405672351326,-0.012793661494082498,-0.05604871808338081,-0.0713758731306999,0.001364676255634563,0.07641173120015123,0.07789035325351774,0.016944858607218578,0.061406326590420585,0.07937887656973108,0.06923676041100177,-0.033133332468602256,-0.07086670055826029,0.04427512206338321,0.0035611562276798413,-0.04913385753772062,0.046653695216092646,0.0684572881536719,-0.07264106746294904,0.009496547613655882,0.003635445672208755,-0.008846962121220566,-0.04671563981661231,-0.03644581378600568,-0.025533930432374764,0.04080040542644191,0.025705759208561937,0.009243826144513297,0.06270350831116896,-0.05354581546590736,0.005117624416383614,-0.01674294024052036,-0.05926075007110402,-0.010858738218131046,-0.042047018883979735,-0.06053032965646559,-0.04889191187275404,-0.08084108895948777,-0.08119358601479824,-0.06092961572086403,-0.01835956181648554,0.039598949099361375,-0.05621479841360908,-0.019018612235965113,-0.07833159615444141,0.08144343214659885,-0.050296784754385544,0.013206015462228483,-0.05221173552497869,-0.07756126165452973,0.017532445718996842,0.01518970304587872,-0.041648496827967535,-0.06516671129308631,-0.02171417132195296,0.048785944870083836],[-0.03927662967394055,-0.007463176934689732,-0.06602163748170606,-0.059021140036889706,0.048683003538392576,0.04760863545444003,-0.03955595377269126,0.07214001663177654,0.05127253352070295,-0.07700680000782727,0.041715995099797225,0.01947500196865433,-0.05801450160205033,0.0685750113471782,0.03527566270515012,0.06131624850595907,-0.023289775726300213,-0.014560430880794877,0.05185211440270992,-0.011738764622529676,1.882715802465831E-4,0.0546709862081382,0.015043973139328022,-0.005491726070056718,-0.08078377021203716,-0.05301997438096941,0.0741115332468127,-0.06556307007055859,0.07952378002307382,0.07926359654314666,0.04278651219666196,0.07654100329467224,-0.04975226737029452,0.0767323467354279,-0.07713177715993533,0.06986898285493172,-0.015481489656941332,0.027537813224389213,0.039331600944633165,0.07422342943386599,0.056830159193844175,0.048950047790088824,-0.028351023076273643,-0.04132630546537983,0.03079430747224007,0.013359429999643868,-0.022440104915156,-0.0701631091352042,0.04435426060314772,-0.016654455152577075,-0.020784419968159034,-0.02396278050534706,-0.04120911921780486,0.043500527864325775,0.03563652168634099,-0.005243022719477755,0.018377947827510982,-0.0015946513037372622,-0.07718638823205448,0.0808846544519214,0.03422250852438969,-0.04758233770732511,0.059460455702221145,-0.05980809320853296],[0.00297801180140316,0.07895872856230769,0.018736292963081273,-0.056756887286266176,-0.030210914389507224,-9.578499143008355E-5,-0.006352721318342721,-0.01366751798258567,-0.0130390492952336,0.08253960686929572,0.012347730275999043,-0.033052512027056384,-0.07546635764360349,0.04252157826640901,-0.04575045837169632,0.0581475953070533,0.048983769507333436,-0.08062924339972152,0.04877929161021341,-0.06954239796819478,-0.027591063878544663,-0.05774211622801309,0.004330198905611991,-0.07969027259003704,-0.08176994890194787,-0.017142474348708456,-0.07407373656380296,-0.08249933426767035,0.025317978030932872,0.048592962116402606,0.07202569448194113,0.021159711119090045,0.06105100306439177,-0.06924367788199923,-0.03376735190962148,0.007960317141117676,0.0509398531532071,-0.040720368898013684,-0.011901704581329945,-0.0422599169416962,0.03323641437827265,0.0155803059294554,0.056543746448534854,-0.048022635296837556,-0.03698482647540096,0.03178014871174763,-0.0015015779935730735,-0.0724334898104346,-0.026462775188280902,-0.04787787051672106,0.00839855967801229,-0.07594622556776501,-0.05032339703285954,0.06545588772661191,-0.03749566454693547,-0.023729020034924875,0.05283065853224046,-0.05876472050850241,0.0591689234089659,-0.03685531365097974,0.0286880150009953,0.047028177043862834,0.031318743917986724,-0.03257262584118723],[-0.030662481851700753,-0.0687404456031409,0.04004705780400999,-0.0474276366109441,0.01575683209876577,-0.013001105490125682,-0.0758159938816788,0.04652672539409345,-0.05056736705989994,-0.030200049553979865,-0.015267782805247574,0.01687408331784474,-0.04347955949716029,-0.04566328505417181,0.017474667781477635,0.06727410749998201,0.04516121516389806,-0.001628321497045824,-0.05222433414316947,0.07713242291777077,-0.06275595134994849,-0.05529189908015131,-0.06614009682665874,0.02330169155993141,-0.0549554625298686,0.007956752091856934,0.04000237193486542,0.040100617988948185,0.08187327014087427,-0.06748344927865854,-0.050109723650894764,0.037585750673259206,0.04273133281636166,0.0014904501571615574,0.04816932160055839,-0.048517836151386794,0.0710578910514033,-0.005623360875809607,-0.016172711286242435,0.01799820490131066,0.00785490262271345,-0.07571926661765271,0.06685794723672117,-0.009523275476093005,-0.08393579935295795,-0.07098765501484078,0.05210115340586521,-0.02936063150672093,0.06179100345236898,-0.06634696928207116,0.07979155247385893,0.05653063966565658,0.06145494218499654,0.02763844027742353,0.06850070200801155,-0.014123203348837085,-0.05906091517373272,0.07531767044667873,0.0026910722941028233,-0.08109024601233145,-0.058136199766309,-0.019544401852379437,-0.06957293611173808,-0.03653719416547562],[-0.00682043826149728,-0.009900076749587225,0.059524003954862216,-0.06761960847484293,0.048356800895585465,0.012676868657005137,0.037442281591225375,0.026319522803973962,-0.021059502358808067,-0.010342875656415517,0.06020601164186862,0.00909905671538904,-0.015442543540117915,-0.026021198247586353,0.07415896339287105,-0.0770682201571548,-0.06158949805255727,0.0031474857464480403,0.05920053582378888,-0.03771786144840989,0.007386940028119653,0.054215781894177154,-0.012085731941122247,-0.033862715913131794,-0.04193140664296702,0.004602328691941233,0.03780189983602719,0.005261921600878918,-0.03743486411794515,-0.05720347696941416,0.06800021226474653,0.04182212936064639,-0.08244925961106221,0.021167005202725832,-0.0039584495464759254,0.06336153129047628,-0.0025616303959084133,0.020445516622600298,-0.06478171805771805,-0.007646494723643832,0.0034674729044048896,0.05144505090786065,0.031666777632048025,-0.03728775247984549,0.07356509762230412,-0.029220677957743153,-0.006319634745180931,0.011153213489360716,-0.04109313032261502,-0.07122512871960399,0.02569935628775979,0.07871984193515463,0.05403488502528322,-0.0013788224125445695,0.022558762229092474,0.06333688837021696,-0.04186711763962823,0.04748417616894698,-0.05800757057209406,0.05016474412551437,-0.004457545940801283,-0.04163200042380564,0.0579079667645773,0.08110798343834245],[-0.01829240835099134,0.04289771723905045,-0.06028610900490042,-0.06375533402293218,-0.019166741908354813,-0.018867432762359127,0.008693202527235875,0.03294722512927643,-0.00726344215241022,-0.03987605664183386,0.044437322503468796,-0.00742458747402355,0.046816406425725945,0.006870585084934746,0.04486300462801565,0.0170859924277551,0.06059316467726883,0.07712200284311733,0.006737698414563609,-0.005290200267893278,-0.035459475894366724,0.043783106268435595,-0.03196689479099249,0.0671150794680649,-0.04300107054840785,-0.03636891231363839,0.019246992398220742,-0.07904939496832701,0.015139152695178107,-0.008826959614849488,0.023197996564209948,0.0725647100644118,-0.021593888990195667,-0.07692316170290017,-0.02298696094731666,-0.02103642939868249,0.07858235447977327,-0.07722791901557827,-0.06793152917447132,-0.07711354669936614,0.08020084232107133,-0.06849165716084499,0.05501241497154886,0.02153414868762083,-0.054226542160069294,-0.08093563032404863,0.036420504029093345,0.025325423506069943,0.0019471220115810414,-0.022277233774021746,0.0353132005753771,-0.04704556332966709,-0.06274010209616711,-0.07495594490653881,0.07031640554983516,0.033986138283771825,0.07678036438585192,0.030916704606551413,0.0736225672419952,0.07787820675446133,-0.05550490622561583,-0.016329623515268895,0.03839440137218049,0.06225580940529954],[-0.06335759627862651,-0.0769591524020435,-0.0828640656691252,0.05007674042141071,-0.06963589067179372,0.05972013486457608,-0.01917510492314184,-0.055238805142690535,-0.06246815394439076,-0.020212468202351775,0.02046504489960801,-6.963875419111026E-4,-0.07920584314272441,0.05664865209634806,-0.010155891479980783,0.06398037256279801,0.07710277012904841,0.079797357844186,-0.026638913146270593,0.05434227567459235,-0.08342783976499715,-0.0017985474864970804,0.0342855502032593,0.06472797333989355,-0.032951654695564235,0.07890991082255465,-0.04186261898967121,0.07401230197917656,0.028317717354286807,0.052113742023685065,0.031745917695895916,0.06514095540874434,-0.06810076943719887,0.03608724577961291,0.06169707747888573,-0.07411656031739597,0.001996272901341371,-0.052939200022433866,-0.02284662222859733,-0.06965898385729748,-0.016708393691739886,0.06554968157198009,0.04778486270432925,0.02157781875261743,0.036121514217586505,0.06778684143046335,-0.0214359474717979,-0.04433660703824321,0.02185187847264923,0.018184869003191106,0.0501282784816094,0.009050544706723887,-0.04486379031942103,-0.005636506104035598,-0.07516117171735828,-0.04440284170636838,-0.04958322314822891,0.07850702443295302,-0.002514228357761194,-0.042900689554704774,0.07008951158549055,0.051022483733448164,0.06599534980204136,0.021210898530572522],[-0.06154956177941525,0.04086840571358941,-0.0023006677167091484,-0.0021706937331214832,0.034057531173579694,0.03231305841459986,-0.04023996381119739,0.026324768945636803,-0.05804365192257068,-0.05059940285188871,0.08057959476884231,-0.013498053997536313,-0.05130077180139532,0.08321799430866884,0.009168801247511574,0.05169702251711233,-0.019516950557023342,-0.05049655547209377,-0.0714793634934747,-0.0609044418859335,-0.05472136910059679,0.0038742652479942354,-0.06754407162653069,0.06922342277711932,0.023174026982851915,-0.0675363019623926,-0.061273833513627085,0.031184393178484756,0.057186587297933335,0.020868311204192188,-0.011719699625166268,-0.0380880580861985,0.06018660684008633,-0.0666933971080749,-0.04396266654140727,-0.0068098887119982686,0.05604174993932444,0.052794389107366634,0.054570951338906236,-0.011936624291494136,-0.03152725763219094,-0.07120139476257675,-0.035702323971116876,-0.033870869217782186,-0.025101699219136377,-0.0767648254318735,-0.05531776820177217,-0.010401812266278888,5.939190309326126E-4,0.07982020245539723,5.194799984482974E-4,0.04531948155450817,0.06536614807396403,-0.011788031911412665,0.012584189265568813,0.060550659476043635,0.07559411965712083,-0.019088703927313207,-0.03719331237185399,-0.012640146004223026,-0.013103066367365804,0.004893381954576834,-0.03674993795611526,0.050396668482663935],[-0.037659601322691826,0.06410367306309786,0.025047378087113385,-0.07517517318451643,-0.07151467491453789,-0.0014830733144223628,0.051031601808922626,0.029425390597643816,-0.03567601431688638,-0.06536908517638326,0.058203703343245664,-0.05299144037188534,0.01229021266729953,0.029038194893834024,-0.0254063598150227,0.01609526879591756,0.0746561982894885,0.06614743973835087,0.03294969685333416,-0.020028275829536278,-0.07761719933542922,0.006871626373673194,0.07177774416817308,7.887303054028565E-5,-0.01392584411435045,0.034846368280792746,0.05583226227499066,-0.07288044832928486,0.07095985825750734,0.07621794240588282,0.03885054372999937,-0.009093987142278187,0.027586223552938195,-0.02754459278304062,0.07904185175565724,0.07359673844385506,-0.0634576750800147,-0.060479986061477656,0.029854021981850623,0.032403950316852975,-0.054956340959278385,0.015701037152509808,0.03886372513311213,-0.05070518436787525,0.017562768877517627,0.08090120590877178,-0.05067584310023415,-0.003040023090453809,0.055406983268295004,-0.025918426298782257,0.042317160218691634,-0.056335289763705665,-0.07642355766649683,-0.01838920048901127,0.027662878237204886,0.025079250139652898,-0.07443868926252417,-0.0342371335457004,-0.07291546863572208,0.08191806448859737,-0.027226517544113232,0.07054257605029939,-0.07760126465257232,-0.005705951031119205],[0.0307231982812176,-0.04646979909805548,-0.08286680695137254,0.003462587666188862,0.07976436232908998,0.0634923352494749,0.023432045209780768,-0.023596784151528886,-0.054907447033447056,0.024115884260537547,-0.06730017589080418,0.0196834483756501,0.02179898803454673,0.01364126970271891,-0.06562740420492734,-0.017017984973240353,-0.050238727906020006,-0.06835319670255789,0.034082543536860604,-0.02616057308971961,-0.0015431775616493446,0.0074480961044685896,0.07919297960964522,0.03286708920562272,0.031111157619102454,8.789508249207131E-4,-0.02151042470415136,0.07009282078195458,-0.06279175061812883,0.033834971274901565,-0.023663354114272266,-0.06493742366542037,0.042427341529142834,-0.02370071890222281,-0.051189303626637456,-0.02613732888902637,0.0768649540009533,0.08252534722110019,0.05477771402333551,0.07311940384066443,-0.035206572764817326,0.01565738214524802,0.012981078561818475,-0.07005881384676954,0.01958217989534196,0.06475494311053641,-0.03463904607966959,-0.0231566480685004,-0.08168089571431787,-0.0065716511673049,-0.047775338589491,-0.05178448579609374,0.04516800939609058,0.03279306260188775,0.009571510214755807,-0.07917233141572584,-0.04672776405162398,0.0510318763944538,-0.03909950035211994,0.04639225266023646,-0.05630142276630968,0.03914798136293321,0.06903169505879267,0.06453845462788939],[0.029208583736935842,-0.010721999948384095,0.0710271460406578,0.038925792241783254,-0.08276323940187105,0.027777806346462312,0.05028397885873314,-0.06591015721473155,-0.04067635230228629,0.019285406195266537,0.06594588351315918,-0.07311607980238408,0.06839065148422872,0.023454562090773644,0.013369524920265234,0.07851376864868514,-0.019532702762649293,0.046763591337488516,0.00732506524390899,-0.033237500574338406,0.08245548391249205,-0.08190275350081644,0.04531771233797664,0.03673156545221269,-0.040386615336796626,-0.0782110400839642,0.027680972742412692,0.04301375341936635,0.0790139732724482,0.045495639295102086,-0.018280104142815546,0.08379235806793207,1.2056022010371307E-4,-0.06813824113002427,-0.06680349021181395,0.029890401501871337,-0.05016821962405751,0.07680832648427457,-0.03722305483130741,-0.03268862005908009,0.037997411603040154,0.01693025497671308,0.04483531627132108,0.010327805094710386,-0.07464466591666297,0.03584723929532827,-0.007670140561167424,-2.2231801037466437E-4,-0.07022922128602271,-0.071777229648983,0.03732063108575158,-0.06542922215159001,-0.06100385695887679,0.041258120438619796,0.07507374253068395,-0.01120848015831356,0.06152919557982069,0.07131145790617766,-0.020201420575019308,0.025626127031670595,-0.05730184993020807,-0.032981311654293896,0.025738547881605036,-0.059068078181024504],[0.02729672036443721,-0.04404849794388743,-0.08282386558831975,-0.08395312909410535,0.0047095726051285995,-0.08172909267192202,-0.0633739547488124,-0.044021328046019284,0.03267929517857902,-0.03465694624883703,-0.07517378438104362,-0.07397517378957955,0.07192851228233262,-0.061913042225798326,-0.02329266592868088,-0.03332792733642501,-0.03565162868134847,-0.08138910362877076,-0.08029605044450971,0.027938681547808056,-0.005823856071409199,-0.07369883624079322,-0.08014036482120698,0.02125184160209009,0.024261635141212667,0.05503327455797195,0.06706088051475474,-0.00855004516688336,-0.05488580246120174,-0.04756029381415556,0.019500398131778125,-0.0024737718030756377,-0.027918968519070494,0.016710491690478984,-0.027704539858700732,0.03950608472457589,0.07072821424029632,0.009216488576474478,0.010217143469426029,0.034523464931825606,-0.05058608805632615,0.028235718911682705,-0.06351456945512346,0.041814550548735736,-0.07932751063027564,-0.022562245794683782,-0.043453321223861335,-0.018334141716920944,0.013453366952416472,-0.06582561689401374,0.025781630460146674,0.024895956885821316,-0.05785310752219909,-0.05771052169961227,-0.01815056939934764,0.07679270492011973,-0.07632549800909462,0.04056721393495469,-0.01913869649013043,-0.058835776847140815,-0.04415870758919369,0.033649526177627835,-0.010157826251768195,0.059466641356583326],[-0.07385682024523738,0.010073997655653472,0.006527445702199815,0.04617277503892213,0.005903301433717382,0.014514435431243287,0.02871526756792328,0.02439529434144948,-0.04258140032559505,0.009320585916486407,1.237851170674628E-4,0.07882234371120804,-0.06656599441872929,0.06130999575258129,-0.02896132366353988,-0.03094460033638924,-0.05272981055482592,-0.06251285441671008,0.034674057318598364,0.02363833903984271,-0.046818046221282376,0.01612169682653568,-0.08357452937541872,0.0786138811236827,0.07215921181992103,0.009426119723617938,0.07599431635317679,0.0611025143677083,0.012909097188846582,-0.015416760358760781,0.074272810840711,-0.036029587172548304,0.02172510598799673,-0.047683160119440016,-0.016745369348574613,0.04578811779324659,-0.03724856439105186,-0.01996174413389025,-0.06465153809852983,-0.010478336698620368,0.08367066943930979,0.005029488040581296,0.043366151581529774,0.07172694261541487,0.08048036656558986,0.05774443644586641,-0.0523184557786041,-0.037582055624706324,-0.002999334265243512,0.0539312929214315,-0.023615547478392465,0.025398485039970768,0.026543831397009464,0.06970425839065758,0.03799697106030358,-0.0818869163063449,-0.022791372940944358,0.010191771946207902,-0.05717779367119058,-0.06188278226654824,0.06470018138477086,0.06331231637520696,-0.03941539081272539,0.04041052041651026],[-0.0525178439430459,0.0334472366502389,0.06009310488471605,-0.03651779728022815,0.01453337804576597,0.033824414030609595,-0.06348202068133775,-0.007332153231494746,-0.05044739307173142,-0.07833077878911135,0.02431617577851698,0.02523272294604117,0.024009938788977562,-0.03027744544194253,-0.08003653907829303,-0.002340350086537743,0.03938666808839141,0.057309140851761205,-0.02892732517282906,0.06406977772751758,0.058335188606132495,-0.005513350321667022,0.07617012158894017,-0.010682843378446286,0.0337551283691966,-0.05095321525038617,0.049669360623003825,0.003513080934080702,-0.07785798880500179,-0.05435343855444349,0.05083882406431233,-0.06911302543358133,0.020466957094890603,0.039731957627158435,-0.07138386337275462,-0.05722576985864419,-0.008213204534656864,-0.03894254526680112,0.036039755195347044,0.06208630928676672,0.06363998195874934,0.04402477833588423,-0.003221117846620597,-0.05093678363195351,0.016647139527445766,-0.01669686160981349,-0.049360265424481846,0.04812155665554042,-0.06731949674293491,0.07513470514160978,0.010386949094259882,0.04142475194875209,-0.048592003155890004,0.004517878565809837,-0.0072441073224740775,0.08305472520892457,0.062165322497449986,-0.07294067000775703,0.06264158214636162,-0.009130995885112021,-0.07411657877075256,0.05603700126300045,-0.0242972220254204,-0.023669274702166735],[-0.05507182879406908,-0.004099084843719481,0.046683866234961964,-0.05052757608437726,0.033843475134173455,-0.0012655140109813438,-0.0520928988520057,0.03199233354121515,-0.03985400063844365,-0.036295936375116356,0.04930957480557215,-0.06498749015871536,-0.008552766954522534,0.05312185307787741,-0.07116374490203664,0.0017434479330665287,0.06290494527390758,-0.00987012529125322,-0.05091487314752712,-0.059145312215218064,-0.06443774739107223,0.02217092734540455,-3.225015293933322E-4,0.005503226340172864,0.07530405324846795,-0.05340078181377993,0.06744125327221484,-0.040607520377069,-0.026787446305319654,0.0805986959743178,0.010782903017282812,-0.047040868333860085,-0.03158982905349863,0.008251454163603778,0.052892868652642304,-0.0776732122749916,0.004782931065167623,-0.009928815826298598,0.060501180775820215,-0.07020745008453548,0.08052016652345141,0.07301518994351988,-0.05014266930926377,-0.06040872530910067,0.03981222131353702,0.034643678319021376,0.08213740830904279,0.01674893479733499,0.08162298920650002,0.0614000731565313,0.0434088278203057,0.08316717362252843,-0.07958727333498201,-0.052916580535704055,-0.0539908155518491,0.0705621746292324,0.07826647234218022,-0.0037248535242747354,-0.017307649115049183,0.013478721466418772,-0.06711414799074952,0.045666187533710205,0.011540971945417762,0.03780076190870276],[0.061130937437037375,-0.01842112708514818,0.08302166907561558,-0.03426023898381412,-0.03916618519087531,-0.0731811714620859,-0.08061528078659114,0.06890805068167587,-0.00399132383932701,0.07273206377633772,0.010087946147615452,-0.05480600219028558,-0.07792526304549352,0.026704841841508932,0.016647111265044263,0.0782301842278832,0.041008604388932786,0.0735829813483021,0.017430654996895174,0.07858836646516658,0.06793512897187604,-0.03284386923793149,-0.07530551404377392,-0.048032091444120316,0.07839964361428527,0.009698245160343065,0.024713210868081682,0.06432776962888598,-0.06621663701254961,-0.07567798867975598,0.07258474128555917,-0.034270025289640134,-0.02142398093057469,0.05109147596408596,-0.058477275287112815,0.07983987852242926,-0.01309336904225637,0.028944344318533162,-0.051445121876867894,0.0060338977945575386,0.03690560577356093,0.04539256826666144,-0.027014966643311288,-0.004907521183373795,-0.034006954230041186,0.08318616788376441,-0.013880856815375743,-0.06674609537639518,0.05689058880265305,0.042139995734442645,0.022007427934277037,0.00783457541254028,0.06121703352331437,0.07045122687704822,0.08016410761889833,-0.06729072408252619,-0.03084958933410378,0.03453515004063037,0.0367257012374109,-0.029917253621575726,0.022695313655436623,-0.042090282616404774,0.051394947952115966,0.07910754622474894],[0.039077065020765724,0.04699363935863151,-0.002611193921521309,-0.06738672070157982,0.07518437987133099,0.025209996813205043,0.01735278460130732,0.06393125884480125,-0.06430760531908956,0.0565698549257927,-0.03871121628622361,-0.06597605556346299,-0.01147579328131313,-0.03325574236020444,0.016134007654306254,0.07741507070621971,0.013854305558764818,-0.04868426095469012,-0.04652511402809891,-0.037074699937246526,-0.07064845604691489,-0.06438830473590763,-0.0466831610779207,0.009489850560114064,-0.03933386707243013,-0.06107591162599033,0.03774382854426112,0.05448934479107078,0.03239827906639225,0.010214911466648114,-0.02473154580303826,0.06423612950365262,-0.07533154895862651,0.010516665393298737,-0.06493411299943633,0.01994638549921656,0.04577111259012378,-0.010104158737642609,0.06821071446509511,0.036339426710310783,0.03570995673430263,-0.03356682128764463,-0.04609218519549186,0.031995313722511014,-0.05802842122033549,-0.04600949562321852,0.07972355680795816,-0.0764893951799038,-0.014672060963981062,0.03885039678214899,-0.007978192806720474,-0.033482518926856324,0.07323059004911395,0.041960177893431046,0.05556972778932942,0.048637908576929435,0.04306345152757722,0.0011070680427935887,-0.02763798720998395,-0.01470325287309619,-0.003515791497114887,-0.026905876819907772,-0.014375611378537661,-0.08311492780782459],[0.047476563484376594,0.07908098469254067,0.07089861766679541,0.007788424747463581,0.014093319064139019,0.0439585337462165,-0.05470102085343238,-0.04627444875435119,0.018413976705994893,-0.043706757260057134,-0.022684442910744427,-0.032171109376209595,-0.07073632235020852,4.11543419061656E-4,-0.02140973969687296,0.049830467344172444,0.022800068264577648,-0.054871545167435296,0.004500518479803908,-0.06670236968413912,-0.012456978218926027,-0.03828220455828308,-0.047898369342746376,-0.015925653227854084,-0.0035501065076053093,0.027035180405233276,0.007296238275586114,0.04995952263111451,-0.06667926366400918,0.04592988999608311,-0.012095120658423759,-0.05951679362931621,-0.07000267919450606,0.07705294292514327,0.01992740280044697,-0.023690106829957577,0.0592010199901938,-0.0699835719073985,-0.061842752990327134,0.049934014414329014,0.027931171060705664,-0.08041607845229991,0.0025411901247408566,0.041777402285408556,-0.07517234782997315,-0.04326251082542709,-0.06068904364963927,-0.05174779387175944,-0.012904837479218426,-0.07683490351957369,-0.001314789845061608,0.009895210795532185,0.053000225046991895,0.0589137380272428,-0.07998076451299653,0.057338480719759256,-0.05230166817265626,0.024116628871854187,0.028824852907413354,-0.050077270936586746,0.008532745153348216,0.047753916169388844,0.016460299288104416,-0.05478862039337973],[-0.007935448146531082,-0.010282236570393634,-0.07178193712725663,0.023802468342201136,-0.06587324420854082,-0.024754257744994488,0.021530704796936372,-0.07026448846487397,-0.012874625031109707,0.07252341262727281,0.052450194854351914,0.07495386975582295,0.042215594070049225,-0.0044002619069449765,0.0739769813054639,0.020184596364799707,-0.0735980922664034,0.07187076689541584,-0.05333845218058784,-0.05253599624522922,0.005986699982734721,0.03395154244790663,-0.04312535270980577,-0.07794973098476693,-0.04011050705059964,0.07586444354103455,0.023445528373085854,-0.007792021388669431,0.06661521605082664,-0.05095037267410583,-0.03143416623359167,0.0032376716220549376,0.015243369312392957,-0.025384536714475336,0.06493294271582928,0.08086845557444522,-0.004075996146618632,0.07755489217031998,-0.021577737876031042,-0.034554569370108756,-0.03488860870600412,-0.07548313707429204,0.014619508078917976,0.03313587822276479,0.002630546306393609,0.07085679641480454,0.05112389778253275,0.08170458175509529,-0.008335471046542092,-0.05216306776596961,-0.013262473572043222,0.030406246628216588,-0.02625671000744545,0.03370793741428734,0.008862421965964535,-0.022558186932918587,2.756461972242665E-4,-0.07786119697126223,-0.004104808689119497,-0.03218563370629965,0.045762252328037205,-0.05908224880433541,0.05342253758965536,0.06838902963372169],[0.004524477445761294,0.07847139663389807,-0.04823499132240697,-0.06510017981402798,-0.009247865440438959,0.0796698875663052,0.06989766951160134,0.04389380431317169,0.08213182812157259,-0.017676777894687308,9.655202733992E-4,0.019701149453781635,-0.008636419129124745,-0.07632703369357617,-0.013659404127274625,-0.07046807730031744,0.05756871249472742,0.06972785441425185,-0.005514395990885378,0.028374885832435776,0.037523471818872625,-0.0468584799620945,0.07284285857349693,0.052240457005569625,-0.049697779434115644,-0.07269954665615266,-0.07077211829599792,-0.07727458094849567,-0.06994093334276831,0.041604814189307206,-0.06263685289099237,-0.025655926763960286,0.08268652217900477,-0.0038153023531774196,0.05790454134691742,-0.030458308196295397,0.06803064036067029,0.017046023807225297,0.0646320762981136,0.03776964616896394,-0.04820310023822734,-0.03658455527220976,0.07650339566304458,-0.02584224096636267,0.042203980254649616,-0.028186827188595116,0.029083196890066415,-0.05093827090271029,0.058512027679066235,-0.06813428017181296,0.03700103887105395,0.04088189035273113,0.00603922407806674,-0.0434191494515364,0.003959903812386513,-0.018842116789692553,-0.0058493839469617405,0.07164226165413569,-0.044817885464580626,-0.03841592535704214,0.08019514531572745,0.08155288021587648,-0.05010444585490869,-0.02042121976724761],[-0.07797855523504066,0.04949618434255779,0.0041991646689730185,-0.07256595884533748,-0.01389678886036464,0.07137415837201513,-0.007169069577797064,-0.017440108185224623,0.015930265987138672,0.07956823671902989,0.030164317017399373,-0.08257282060030192,-0.03139774526235403,0.05398428949112099,-0.008453170808683661,0.08213846059909119,0.030168988361970673,-0.07079845151287778,0.028059837661219927,0.038111277610498914,0.07212301154262435,0.031680584335868775,0.03824357866554629,0.05520549384861891,0.03994905734358796,-0.005731430371084887,0.06191128764203581,-0.07480606097116782,-0.07608109004409482,0.06697047909854026,-0.02343887012458625,0.008516909817581329,0.06866580349291221,0.020702741036227705,0.005773073089319259,0.0702543162285336,0.04227613389962976,0.06144998590169148,-0.06718105188025687,-0.04091703027853866,0.061534759981877914,0.007260664324079169,0.028828881286534425,0.07095360638124841,0.009817686854231697,0.06678250731480155,0.02898519855882949,0.01450933255772672,0.024882347826300576,-0.040288951818469955,-0.06997039306377484,-0.051514997268725014,-0.0026371018525993477,-0.07810119387574979,0.011417107295271454,-1.711646468584973E-5,0.024199585802322916,-0.08080928984185476,0.012003602856844826,-0.048763332975317195,0.05318317600153737,0.08076650849102109,0.07616744824999741,-0.05587180725744687],[-0.055642884381993135,0.04720939277396445,0.001461118681341136,0.025574930903040444,0.026134912575495037,-0.014508909738175724,0.007918634511231672,0.01808028672352434,-0.03317252544303175,-0.0810835574886752,-0.03243480752325947,0.008481315543048679,0.0050389218570345,-0.029227994245800106,0.016234926014589503,0.07826226419363196,0.06911232842104456,-0.08060345050723729,-0.002161700632573212,-0.04348160129653153,0.02111201941454327,-0.0578094875186484,-0.034384834453472034,0.014803963866354084,-0.07820031877766057,-0.058836063623680435,-0.0245135182616936,0.06765740283948238,-0.010674261142285433,0.057310409270579725,-0.037542624564286226,-0.03741555128897754,-0.07219237906301808,0.0440544558473726,0.002922344077981126,0.031021712939507774,0.06546683332711611,-0.06741467361498306,-0.07930824487160966,-0.021366050596747614,-0.015362213229817059,0.04211728441591294,0.039546460494843526,0.036901321644092856,-0.044584302157235856,0.006853207357958337,-0.02431235740546991,0.009310292862768042,-0.005287892871300405,0.07111515913065622,0.055610984737051776,0.0015753000894911254,-0.03899215648279535,-0.01378909447166659,-0.042998222093219435,0.0033329066734655638,-0.0336466006317088,0.02650887535573572,0.02726738493112688,-0.003660256070374847,0.02786737926025849,-0.06428647197808762,0.04192089250644569,0.06881540236417191],[-0.05472862827343521,0.00965084917760312,-0.018883543684762742,0.03347888325784737,1.5669615960504346E-4,0.036197114297001357,0.04332355823452186,-0.05843095977359637,0.05847343491197883,-0.0755890818583515,0.002173269656668487,-0.07255038184129058,-0.04477814949258836,-0.05470097045879462,0.04262507266471236,-0.06605466845089882,-0.014812196759587577,-0.05861997304584171,-0.007013933261382491,-0.008392323634810864,0.03786582936462399,-0.07857026142806631,0.07367781549344572,0.023899520548817485,0.07138226326374802,0.05599087392860597,0.023095841179574216,0.00822852699123591,-0.07103350252959569,0.023400055480204164,-0.029809838028865648,0.01058565627626293,-0.04628264660338603,0.03712201289358129,-0.03693009077617333,0.007973445919982136,-0.02423807283023877,-0.034963290849644564,0.026590210900589144,0.0037555070385740957,0.02180272878567861,-0.07281163092460848,-6.613744354237687E-4,0.044206381181556884,-0.003155376032999709,0.05916556347868505,-0.03208291678226333,0.05159664365132238,-0.013605155405944456,-0.049074132675769405,-0.03297388049425913,0.0589531473607274,0.060314527074151185,0.02630360400240662,-0.009048597635898674,-0.059285704118988716,-0.03347941611224293,0.07798892548201762,0.02227830715247315,-0.03003759991558034,0.0051747068396836545,0.05588269981635085,-0.05780121654391831,0.07578785740850541],[-0.038634431383350945,0.031232444131776376,0.0024682041467605515,-0.01784578962410691,0.06975576070632329,-0.029927823071267238,-0.025641156814044767,0.01446800736157723,0.007626318398881325,0.06991285234595927,0.07989771175869913,-0.008821620432198942,-0.013936495106291344,-0.047250795941796105,0.008630832721603796,0.02318396256642431,4.5048716137215925E-4,0.05916274800909275,-0.026739953599584358,0.017032207322338216,-0.002658262113830309,-0.044578695207677925,0.0827511127300025,-0.041700384225625386,0.0486953055407878,-0.0692041085629538,0.07952435955505593,-0.05335087951720118,0.06423894862683761,-0.01908727313861217,0.005619279538068136,0.0812456371606341,-0.07795060508107683,-0.02792891128388024,0.024074481681389467,-0.06540292785487264,-0.04017168634093885,-0.04518042727340777,-0.02217099036240372,0.04673024477019795,0.05894865623465592,-0.0742035752498394,-0.07357276263158534,-0.006854365608127362,-0.032381352347768635,-0.04442357195171129,0.010149686045742068,0.08384497069194481,-0.08299070189149113,-0.03522737763731796,-0.03652192035964295,0.0367248697098966,-0.08002795101772772,-0.06628146838258774,0.05162234933631049,0.020357327983261616,-0.07987927376490642,-0.08363345262698046,0.07885080945181559,0.005540546102833693,0.07627795620600888,-0.05647030859614481,-0.07894662019985939,-0.08234072034538077],[0.00809914443349007,0.05256101132815939,0.0466693130465966,0.07163151067138232,-0.019901250727070278,-0.06645584910348888,0.028295410578787407,0.06955896876656713,-0.05046100462765876,0.07361938245889271,-0.028104175848056717,-0.036677026514583363,0.05637388657551896,0.03497677850102608,0.04443490775610646,0.010709274611771553,0.059523148484850824,0.021290346062946858,0.00558472219212411,0.0189520518503576,-0.014997777170426425,-0.026029287529244636,-0.043975306253243494,-0.07637917603219128,-0.0034792752369756795,0.00203869771156167,-0.05399299130603336,0.06176552156882967,0.04185843541633873,-0.023294216798142565,0.07367011950516414,-0.03162233901192706,-0.08410634155879339,0.016868711626906466,-0.05664655259716203,-0.0313965518079039,0.03237394215947781,0.02682457376574221,-0.028031522048687123,-0.0012708156929285704,0.056140197212415685,0.058743000126974566,0.03491765742860607,-0.04106738717086831,0.07407439053052808,-0.07166472760242458,0.08095533758442881,-0.01672156393483594,-0.0769890104630491,0.007731195047395182,-0.019185374437686205,0.018704764181569515,-0.043900392344111534,-0.02249801194928755,-0.0661660060226791,-0.02154001614277334,-0.03899232573191392,0.07370208747047223,0.07118972729236805,-0.06564766226974603,0.07036076321324222,0.07051137262027128,0.07165878822532137,0.05614330718437293],[0.0640179251209432,0.054956196176132364,-0.08316490863789286,-0.059792545660364974,0.05354989911570695,-0.005519903639607049,0.01154782706521251,-0.04217105519103972,-0.08250761334953204,-0.0709552645814544,0.015843756295965877,0.005908120368402667,0.06932045328511248,-0.009670672050628076,0.036138310645859394,-0.028220931031291297,-0.01794381666949968,-0.03994391454052636,-0.004067015262401491,0.038204609221320976,-0.05542005640773161,0.045183758094326947,-0.03209763067277898,0.02922754374525904,-0.048274445002356094,0.0627935824804543,-0.07673218809130614,-0.05099597299557375,-0.004292310097378661,-0.05312481648311771,0.07844614032442689,-0.054019884803098085,-0.026459403964332016,0.056874500279147866,0.007385188219979064,-0.07059785304972466,0.020376103306768135,-0.011822825627721655,0.0722321119799313,0.07667706601394363,0.03181581029366948,-0.03763674523973819,-0.03801538626347243,-0.034343753110695534,0.03844096492046276,0.06344381676257599,0.033110105985674564,0.008732089787342712,0.007997197337657571,0.03530478830333185,-0.0036643833228408936,0.030353836440769444,0.014621597515409928,-0.010667101271114436,0.03013940731450622,0.03074821377939746,-0.05899710419603772,-0.052881379428462036,0.07069770364410576,0.06884677490907945,0.04354081839013824,0.05402389939858279,-3.9883335115808114E-5,0.05837071755730922],[0.054982389491349044,-0.08149502069189797,-0.020686080625576454,-0.04753167638783399,-0.0037221767239422063,2.408169953293606E-4,0.05094499663183493,-0.004664480255496838,-0.004744615160324078,-0.06869357993896735,0.0066590725982772336,-0.051428352129389246,0.024888072841306202,0.07286052305127981,0.03056775498815557,-0.0021150585938466563,-0.04834915804898064,0.08132378137490358,-0.07409812787635549,-0.05575666561004656,-0.0012306888219523009,0.06528943064146808,-0.06881199960518342,-0.006060899038363501,-0.002278125991991594,-0.03803780389773682,0.03870570229382161,0.07662609106205301,0.026370172045043497,0.07950497831959817,0.0598046282643888,0.037480283043008544,0.07270944643134994,0.05759017348559055,-0.07756830969554741,0.08143007924830134,0.05200464278807186,0.027450441869763406,-0.06061259805488543,-0.07573550427198686,0.04701607467086881,-0.07579799132241401,0.013837828824150739,-0.07154875372819872,-0.0757735124170358,-0.009521089930899167,-0.0015963494850153243,0.06989665784124441,0.02693526174169983,-0.07852139669925048,-0.07109453037486595,-0.01904984634078241,0.028422491556659376,0.06273560958066414,0.053316290905966464,-0.02651193831922803,-0.08118131010736707,0.012099560630267847,0.077855990979323,-0.03280743884616371,-0.07336513286985247,0.028742088418608473,0.07063910989065579,0.053144611786500005],[0.006627625646250954,-0.046957174895173696,0.0544098176490913,-0.03616113037504692,0.060105291723117876,-0.05956966277959125,-0.010852319832612157,0.0642189634652808,-0.035150145475365976,0.03048482949089623,-0.062228555690195315,0.07189311999045306,0.004107270671396294,0.009226444952003594,-0.032843517836031705,-0.02930901868353365,-0.004607444880825995,0.017887392160966905,-0.07894332812865723,0.05023471589987993,-0.07124016285429172,-0.04684223234795392,-0.061643825132738514,-0.07064167478560522,0.08046344716437118,-0.03297696568445228,-0.05349301400961743,0.04558221363480663,0.017126713609323385,-2.0473172934917336E-4,-0.07476250560802583,-0.042095275938593475,-0.053455106034068944,-0.07728591374192305,0.06050415719811467,0.06693197940201276,0.03615530778370692,0.06802464365071913,0.07771144518237984,0.0682031162005396,0.021380326544380306,0.06814171857721757,0.05644459814207352,-0.06786823462428081,-0.04778528138166017,-0.08173138035224856,-0.04871162518741032,0.005952190024352674,0.006854144784877505,-0.01029903708794292,0.04376056022826464,-0.057777470033645084,0.001575108927579199,0.07467112310072355,-0.05413069757062144,-0.03318571823982395,-0.02394517428628589,-0.0017732529447405142,-0.07766307794257406,0.057764921220402846,0.014081915950963754,1.7901446371813723E-4,-0.038626562057318396,1.8418983487919382E-4],[0.028591573484633388,0.08328164535875142,-0.0105785047892248,-0.06432074978486464,0.01734766418118015,-0.026817895479199043,-0.04231244884202082,0.05956755315096431,-0.036294505217186496,0.026141089630663916,0.06946676403045185,0.040174315098314886,-0.014949091182269671,0.034361669995330205,0.08275164072342142,0.008899093366699588,-0.0319207606927918,0.03337874776697755,-0.017188251999924777,0.04583874889734393,-3.773601556356171E-4,0.013049322429219303,-0.07479860649332144,-0.05442134209536027,-0.0073259924451813925,-0.050840595590928205,0.00537933155025007,0.045767156801271545,-0.045352919293679905,-0.026030082440801443,0.022910332774591882,0.06543952437293557,0.0772352285691942,0.025122365798635714,0.013622303256383712,0.02575229924191701,-0.016858670439274703,-0.03739489926012257,0.05278694462237091,0.009847901616280722,0.053838224168113284,0.04422538017431079,-0.07966279545915343,0.0051301149721678235,-0.020001592091928817,-0.011748166395669904,-0.05454482240076973,0.032433394134352894,-0.037158925781564975,0.029779634161232575,0.011463440575466515,-0.07771075937148515,-0.006431084906051832,0.04828660315424029,-0.05162581226451632,-0.027794237284943464,0.033195183980396004,-0.07514349565749442,0.004274589286169912,0.06723117053274485,-0.06121834219859242,0.03920386147723705,0.07703397794884431,-0.0312415789748166],[-0.03771994502496603,0.043327627768794404,0.06344975650404519,0.04568706914442196,-0.013800621182919007,-0.05324976446106658,-0.05938365355865779,-1.8040756255535253E-4,-0.03580681938741024,-0.06993345352252148,-0.012158632192103084,0.021231119964021026,-0.00470592783328783,0.07660720831844794,-0.02943146644694371,0.07395608299808333,0.04114450545323753,0.03916386216186325,0.056774642998850045,-0.05123080453470484,-0.06485113780020901,-0.04848849847006389,0.07564545431875912,-0.07487714862477914,0.031002123513511802,0.0824722024268134,0.0010427045934035784,-0.04296794596053548,0.0814499201853635,-0.07382710860658877,0.03238500136501424,-0.042252510223011845,-0.0020758389090117088,0.055533572680204694,0.008011630454165107,0.03281064487821773,-0.01107830142983926,0.0242033112510362,0.07393114686547747,0.017915606449248955,0.07037475556000984,0.06433258783375255,-0.026348053609096395,0.06166715269321785,-0.009097488598251479,-0.03569883432713618,0.013945925967797014,0.01047340394492459,0.05050147486131023,-0.0029053870506264316,-0.014363161585675719,-0.023939966302983784,-0.06469335179783085,0.010969911016447753,-0.0051047321732035494,0.03111919313772808,0.0020676832779979713,-0.040825801830275024,0.0167557868994655,-0.027889044537772058,0.002175914472733763,-0.028135177598223975,-0.06428756122102533,0.07985642450151285],[0.03802161912216325,0.07589403069328092,0.04635171597163396,-0.042858850911421956,0.07849894992330281,-0.06950933540018414,0.01108163446054866,-0.031066225669534677,-0.07391510070081529,-0.007431036588651546,0.018999319464057977,-0.044362674692056334,-0.07208925505147287,-0.047771620023180354,-0.00561211534563094,0.08045565804673187,0.013959364189125344,-0.04290756938181672,-0.06714146893683376,0.04696395255071599,0.07969946288442398,0.08128626310485629,0.048923338427102635,-0.03019169941063354,-0.029140396127204662,0.029107879338148755,0.05573169841047305,-0.03571860685322319,0.03897279857974192,-0.030550640597449004,0.042353603845228266,-0.07177665773841008,-0.04074443431169716,0.05818480309587681,-0.03694234199480973,0.04027214713498816,0.051097803344050945,0.04303327534332392,0.053150059266939755,0.061265278585980604,-0.02350984267994092,-0.08092412543249183,0.012851731001674487,0.012154287159453332,0.07821247122801245,-0.06806427008623278,0.06926591112704186,0.06190074959144919,0.04549229749400163,0.03888430130817249,-0.0016188333085772656,-0.02082512573050148,-0.050204108354562745,0.02063581020142738,-0.050438765313366225,0.03892778572193335,-0.061695791090629795,-0.062214503471379905,0.0235540003217706,-0.059053361197127646,-0.019144606883720078,0.0786018713705474,-0.08061803961183461,-0.05633711656726299],[0.01813759846032043,-0.05080250944171834,-0.059988497515856956,-0.0613065668145683,0.047493980642157804,0.07291567975059614,0.06320761725956636,0.058559554146642864,-0.050986323246778285,0.05583211353817015,-0.04845667229556951,0.0035899374248625163,0.030397004462454774,0.06462755956018305,0.01104677881476999,0.006540462953358273,-0.029012919165509986,0.08224730443452394,-0.013447082488974062,-4.028087392714111E-4,0.036580341648476754,0.0017431594267765668,0.05731718690337434,0.006454106068549241,0.06003965794666554,-0.02506548930191143,0.02361306857153879,-0.005051564542926535,0.029422020852018074,-0.07266302066914818,-0.053943993312692506,0.06700585428581302,0.07244353631868373,-0.047577100145780184,0.06434497555041557,-0.01205052178804199,0.05314171060637922,-0.014275737601178217,0.009945839349706075,-0.08069973654691198,-0.02210851280353462,0.0134767566263888,0.003996753982822542,0.041827145883065485,-0.07529242282256927,-0.011855951926286855,-0.02827205213394384,0.00671477929495628,6.769114552788958E-4,0.015836786080102305,0.02861864056475285,0.07486923355216019,-8.592323946379798E-5,0.023780505008511334,0.011372500582422252,0.023554952686477504,0.025568895512682262,0.06592914442303982,0.02277856444288158,-0.059989647318168894,-0.04805380000067861,-0.05708855255028994,-0.003611976594432178,-0.05241839217080404],[0.02232863283663588,-0.007365900961610669,0.0466843512839801,-0.0346188831895595,-0.05500400460182658,-0.044946469855336214,0.04867089372327861,-0.02625575997335202,-0.0797614373404062,-0.0833347079851732,-0.05392288818351215,-0.017615405105782737,0.04774108007713156,-0.08345441998609639,-0.05652230024509885,0.004304087904520652,-0.07045180937226445,-0.0683908403632375,0.06964621716096635,-0.0431287440962449,-0.0018762032276711947,-0.028981308514447197,-0.0748894746270496,0.06551475182296769,-0.006444696710273917,-0.017098593461771422,0.06382475603236792,-0.002371113749366034,-0.04115733316733012,0.033078659201447806,0.014318892341810916,0.03491657800003,-0.04296261557666405,0.06368562847991664,-0.009156908570341021,0.08193651708076015,-0.08314389334728946,0.021607025878742425,-0.02857072187653992,-0.03470317184887859,0.060025980554831306,0.04739878856271151,-0.017143019943575068,0.048221012032880074,-0.03548924463434843,-0.068793050575037,-0.06574022099179058,-0.021817380279556275,0.062121723484429875,0.03307095234788484,0.07043736934764916,-0.056782110575439845,0.04086839913900568,0.04999949157868688,-0.0586128834709525,-0.08058698756613988,0.05509147851691246,-0.06562672370899045,0.015218778123492576,0.0119376915309525,-0.05912514927759181,-0.008282547045941922,-0.04197578762558871,0.020784363835652943],[0.007207993291244721,-0.05455593576255827,0.027950853659472953,-0.002739674492827277,-0.06262289613641688,-0.0374121942949589,0.045044554028268326,-0.01550676929232872,0.00356786932602004,0.02571608071996381,-0.06937710383106883,-0.01848745602049098,0.04780987701379328,-0.013103974083263492,0.017284293368655793,0.00549814430472202,-0.007719597497015302,-0.047340823382774753,0.08326479247937747,-0.0025079117796894014,0.05699020271908595,-0.07708737357617614,-0.0019093828209158783,0.05501881201017798,0.07548917441511635,0.01932531118184667,0.035893434277448684,0.052482893868010784,-0.07395817494504693,-0.05348112023420902,-0.04549001866341867,0.015020090538920162,0.07100307131104304,-0.02783367915343955,-0.00735955037869237,0.06385212999495744,-0.07693414261787457,0.04430504189406533,0.040663892028558,-0.06904702178671324,-0.027690674524594356,0.05122360280837285,-0.04497542626778472,-0.08019552019678318,0.021463688550826563,-0.04008964450908305,-0.0821784025142851,0.028546261476365416,-0.05137047583694383,-0.038272250419557965,0.033203832307276304,-0.07907318203976256,0.004424111272317426,0.07004209644099914,-0.027776917163376668,0.014268511201522926,0.08282214913585494,0.059786434375195006,0.0726879986459796,0.04966641373171842,0.07382817399629803,0.007572642227292295,-0.0084287410869853,0.08107619538254196],[-0.08123845901514877,-0.007612197089620097,-0.017549083772901125,-0.07842352460590664,-0.04666501890649913,-0.03370955042935405,-0.012320995800002333,0.026782154819530297,-0.04933915818493459,-3.282729931271521E-4,0.005428829706709469,-0.031632288406446385,0.06911395898829642,0.07473496099240377,-0.012072761443563139,1.659376931978998E-4,-0.005096400719971678,0.03558039131225596,0.046217080620295774,0.07083962037879846,0.02216466908637761,-0.002130861458204297,0.03427102671985662,0.03920264139980978,0.025600276805313335,-0.019823409475234036,0.07277353493307376,-0.0230578372151674,0.038585229145076616,-0.041988579581111726,-0.01172797835886268,-0.018132212934269552,0.012635056075138694,0.05318489856081186,-0.05010135818627141,-0.005831210389789412,0.022919721045636575,0.0344840014758608,-0.039684908761792516,0.02618038672876862,0.053512171495244405,0.07567383959634169,-0.03574196111838812,-0.01715522393486297,-0.03371831132445401,0.026904877402830086,0.03621344327302785,0.07119291952141707,-0.05464234207407117,-0.030048669869167016,-0.021861385670667317,-0.06588631099794826,-0.04863554860272309,0.022097678834495208,0.035244234984831445,0.050254372385344456,0.07719656207860986,0.0604756550205596,0.06990446877842699,0.07507012706626624,0.05728666309744562,-0.0038969624458973424,0.07571457632358633,-0.02293420788670562],[0.013039272189581216,-0.05112611843503646,0.0095329543021323,-3.704127047289316E-4,0.0045844400920893235,0.021234537808148567,0.07450935803251246,-0.018809456198542986,-0.0735857932041481,-0.006601489167351554,0.006618136705270275,0.06688036568103466,-0.06319581289185983,-0.001526279644314744,0.05022658033454809,-0.021187161821910182,-0.004856931007658708,0.04423884623438744,-0.00489396837881251,-0.06086188216563178,0.07611189560036388,0.06456805288157055,-0.05483766860157654,0.012449072004810708,-0.02705785059755351,0.053828724305678574,-0.023735215117012938,-0.059193121125731635,0.060562240464223836,0.005315661593944222,0.07870866200677859,-0.01986845884517139,0.018869374205039646,-0.010610755805257487,-0.05410855695426012,0.026151279136063257,-0.00964973794949064,-0.08209363583722612,0.022152512767858703,0.040116506063521455,0.038366906180634604,0.04986768300021493,-0.007405350587039786,-0.06581175408560318,0.037245259405619555,0.03322367698360415,-0.04850727955228291,-0.00894294515998314,0.04688806702016979,0.0444802853000427,0.01842888422338398,-0.05482683224134373,0.055718918593271216,0.006313464216700415,-0.0028640006575997327,0.0071984730434109705,0.07159574434021017,0.028525818255592993,-0.07893293251958758,0.012896995376020912,0.0034110046649388306,0.04406249277503982,0.04888833649507995,-0.06496920149864775],[-7.746051628269594E-4,-0.039828183771597504,-0.05886532365372579,-0.03221357396351461,0.001854078230122464,0.05661719679922968,-0.006758684557758728,-0.04846450520850206,-0.011504516110002213,0.0533013621696791,0.07922817497265243,-0.005007455537009715,-0.08017341761298563,-0.0413716122583388,0.06554761320268693,0.042808292084538235,-0.07950552249828367,0.010701423980817595,0.05267322792220168,-0.03921520155091655,-0.08215377139084842,0.0826743475248584,0.03234785478087152,0.009689452304854967,-0.06460378894990657,0.07441791349024916,-0.0417171218909196,0.07195280994759608,0.06974072817102857,0.0363460870600723,-0.0012714510757829817,0.06677406770533603,-0.059877949641104856,-0.025337070292081022,-0.0011143436814351297,0.011563787862817287,0.0792287335295847,-0.07181916226288614,-0.042227383598835516,-0.04377845674032874,0.051185795055787374,-0.02416330054361243,0.028694578818173628,-0.038947750794239656,-0.01672983484227333,0.022800285215182597,-0.04829181093829587,-0.07674594762721346,-0.058544420863265854,0.016933872727395057,0.05110919170472707,0.06317894149367176,-0.08393501446931421,-0.025382538349123508,0.0647127775662687,0.04479403939865884,-0.019657250860275113,0.05139093399303728,-0.015337308204676194,-0.03059658100097693,0.07780705131513244,0.009155578084763987,0.014082896918755486,-0.003606749384804379],[0.033256470954517565,0.02300330851114557,0.08305380093159256,-0.010959244234379613,0.07557784730430704,0.07027741418743491,-9.148531813063073E-4,0.03881038229883979,0.07157129085102798,-0.02462161047533754,0.07262795040351092,0.016218319277747636,0.04222403347952229,0.059411051624276,-0.03339173445689162,0.010092907454170075,0.057147109853667236,-0.006709599179106453,-0.008551954852191719,0.023130330574109452,-0.07521853019927768,-0.03910731287431401,0.04643790373609858,0.04857401266682313,-0.027868313168165217,0.05282421375535831,0.03627701531388706,0.06203836618522155,-0.06289960188455754,0.0354584661894641,0.07231603356012954,-0.08324398403884403,0.06567561462628871,0.06748481631096576,-0.037746469263159256,-0.052464784735147894,-0.0017965249271526763,-0.0398780093773484,0.01633265901329093,0.06268047168360852,-0.08283730063505165,-0.04518795991400324,-0.03204665912463646,0.010268951090413932,0.057525576041803195,0.04052316083972824,0.009854189746908064,0.027018922661489857,0.004566054859643932,-0.07343853646236718,-0.006362766858743928,-0.018640836188745357,0.053841172068743545,-0.07476371521973654,0.012103834982772774,-0.05992492642348567,-0.08060576900672578,0.06994865801466789,-0.04581113719629306,0.006292738921714203,-0.02094082690286249,0.05101872103682882,0.07072560017688993,-0.04011005846117765],[0.029123124398381085,0.011828455449365298,-0.06256101361590582,-0.07774288705784935,0.05542839496538432,-0.013249377452178803,-0.02629008738358831,-0.05310804626931532,-0.02846437883153113,0.004433684718930809,-0.05467448107379119,0.04065592635648915,0.06736457428527554,-0.0014472824100973585,-0.005945129618815095,0.03027540437603164,0.02482226299530346,-0.06536201225063876,-0.02498165599773015,-0.010655867860661056,-0.04066237479995919,-0.08028307980558573,-0.07165953465502128,0.07164222825843482,-3.977455111831048E-4,0.03472608406289281,-0.06665764534940039,-0.05016677572945983,-0.016012319578248415,0.0497360562793334,0.0652537451214964,-0.057172133954713315,-0.06971414095411314,0.048983603039355464,-0.07071979894158631,-0.08127045856520176,0.0725497189385071,-0.06750025584505663,0.02350492419025645,0.0534151653084016,-0.012240422705981791,0.045278984255018404,0.017309196609625176,0.06691898490536612,-0.007727509338921376,-0.009709753546045754,0.02044639943472449,-0.07681825386539946,-0.06262847446866082,0.04652877223817745,0.02046959975240072,-0.07134333263990607,0.04702725195855682,-0.07101864584997634,-0.07797600751688268,0.038976596391053046,0.022337067063123484,0.07301815305508541,-0.06411230005342386,0.0828856322815789,-0.06765157500316986,-0.015420176044827314,0.04656159097941616,-0.003330613256237924],[-0.02043837905788587,0.04159523425474112,-0.04654961750305226,-0.06273222327715085,-0.04075970646070108,0.020018161575118227,-0.0017174709223969,-0.0658994228078969,0.0026647065823961306,0.019205266497013124,0.0015437321949086271,0.07185307092657227,-0.013135389736783996,-0.06525227825742169,-0.07635197130187557,0.02210805425846272,-0.0613769505204354,0.024435822756689284,-0.046552002642099286,-0.022951963950361035,0.02609579275207134,0.01302133270945541,0.04583694757875973,0.05672485075111689,-0.05599404428277445,-0.04134505724592346,-0.012277650153845132,0.06338867526248841,-0.04304588782093647,0.04704414611201281,-0.07360671724892721,0.060078758252773985,-0.019273417500639694,-0.046081027228113414,-0.03495553036487853,0.03951620002455757,0.05077635659803538,-0.017442796417039868,-0.045484234610056795,-0.020355343458962716,-0.052686757004951734,-0.04720015807955589,-0.07757095732577579,-0.07172982863368596,-0.007518128972924656,-0.0022415542616333927,0.03609757203442292,-0.01780877661023058,-0.07148002309786254,0.06904579782084443,-0.04152071034369587,-0.06102720301277792,0.02845733145466029,-0.012696541684733408,-0.08234557148106639,0.020883499199574107,-0.08007828135944002,-0.044585365131340995,0.012395084313899265,-0.0017095272260691206,7.54229603105608E-4,-0.020728968888259324,0.07069286433862816,-0.08046439540089709],[-0.059717866654488166,-0.010669251594364371,0.08151894653545183,-0.047651801793726044,-0.022761684875553096,0.026866895495219416,-0.08288309104099535,0.08244400946182631,-0.02754457014391587,0.06334622403826608,-0.04982552025685449,-0.01925433604767613,0.004817188515170068,0.009244989329414874,-0.02423504993909806,-0.047879662295197016,0.05679940016201676,0.052794583226866254,0.06808428468161845,-0.03597661930196777,-0.08043686506358841,-0.013884800802090152,-0.08392687601628376,-0.0408857287663639,0.061976793802922814,0.018744632244478625,0.04353133359295955,-0.04718185726749346,0.021374517479550412,-0.057683739216255255,0.024230973753714385,-0.035429824005113845,0.04593306229434681,-0.07126387423660743,0.00653128973182064,0.05967715873109731,-0.06998755001482715,-0.012398075784961233,0.002489720447656328,0.02382386544267479,-0.025114819682137576,0.06569002830421128,0.045442360605438666,-0.012893872339576088,0.047136375362800305,-0.06806511791732517,-6.016294891330808E-4,-0.07956813923398945,-0.03454293812134946,-0.02718873525760566,0.02822641480637578,-0.03843061621659509,-0.002878447963959872,0.0585789310945242,0.0627551498870721,0.018422447957454166,0.070143676064047,0.04893049067268841,-0.025378529332457076,0.0065002784759987334,0.06948267727359497,0.0806199898587423,-0.031004219876794005,-0.03372328456311566],[0.014197049041071174,0.02512237366557231,0.009922178901738514,0.08108230453608781,-0.0484292094322945,0.03787035156311908,0.0789446784958225,0.0715561527878157,0.0070118360250140755,0.035247614289357146,-0.017487344213402586,-0.04747686624109944,0.01732536428241909,0.03567094711416348,0.04258533348290567,-0.05497902879743381,-0.07618188181257846,-0.05877488559204969,0.0469754090958155,0.06684466282770958,0.04955939753684138,-0.02504445259365831,-0.04378029455085214,-0.009801809377960097,0.08365476003270043,0.018091066517667127,0.023793568230442413,0.014783995420069663,0.07274870512578434,-0.03969636858661665,0.037630439440174954,-0.08333546265603363,-0.005843085827847915,-0.07861131299538757,-0.06902414754336991,-0.02049613287946426,-0.05976449591366937,-0.07224460884502844,-0.026132971363004315,-0.0628809835611019,0.05556325054478023,-0.03278055986075977,-0.08079944962454506,-0.003724880699094658,0.0816902543591375,-0.06384197043681164,-0.020506892437088413,-0.07998412309459817,-0.01311397564450759,0.04929880519170216,0.07114406681085628,-0.02852920065236847,-0.029373980748464194,-0.08383579484276515,-0.07468584748875928,0.05493729240785907,0.06015527906087964,-0.029000022069169684,0.06302258936413158,-0.08259513130903866,-0.0016735600610143183,0.06830439920244157,0.005391757460534317,0.06890873961005202],[-8.140597582220415E-4,-0.03452263703950776,0.07428647128524593,0.06983793315923861,0.03346445693789987,-0.05278838761829807,0.059406089497375726,-0.03797437111581277,0.030578471318128766,0.05078795172774161,-5.579523957284034E-4,-0.0758961572574591,-0.06680624403606043,0.03101064934091724,-0.07533290192505315,0.057636621302612795,0.03690759881518854,-0.06284373206576084,-0.053858805712475366,-0.021645030716636385,0.07959202745189854,0.027738441994658032,0.037731613595950134,0.05493503887675555,0.0380723750254504,0.06796496571382181,-0.001212659804161565,-0.07941688334057692,0.0573930211421306,-0.011065172405033045,0.03355660955996707,0.010268988077693561,0.05365768492869302,0.04408820099936162,-0.03932899374404873,-0.008032347869215452,0.02380482842346705,0.08047086785156363,0.02967431003109315,-0.009032106359890262,-0.035310060087451065,-0.024016528466948912,-0.0020625379491840306,0.020250297899476938,-0.05770234865943553,-0.050311023418079,0.07219220387396202,0.06625863450441878,0.03522762054014042,-0.08034672347451897,-0.04565428362693762,0.07986594738043223,-0.030578907141830838,0.015840242976907094,-0.00825529673837681,-0.013340530895073225,-0.06365282580042683,-0.0031614411067544877,0.026553673467539615,0.04835110673410718,-0.05764363627603533,-0.01286685169890571,-0.05919849313711187,-0.035922398379989916],[0.04525043898988901,-0.02746437390938932,-0.019921976227944477,0.08109544843928054,-0.005473829725780392,0.043664456906526976,0.07524731871464314,-0.03066548683484108,-0.0819996729556842,-0.0350755305060799,0.016242729965056095,0.03100041403550699,-0.005379869783194489,0.073662316280514,0.07221711003658782,0.052850641359944675,-0.020261958863879083,-0.032705473241698306,0.04968554777267119,-0.08077375513418313,-0.07952565980111213,-0.037046496972263206,0.05938705401978857,0.030487655439918358,0.06915130757441196,-0.058828501390305994,-0.08207421792547849,0.0724020858485814,-0.04333133351160759,-0.05793478041412081,0.030724850493990787,-0.053225871607510356,-0.044227126187942715,-0.0733362733855989,0.058384753920564726,-0.07980488276612697,-0.012078539114204322,0.03742970100012242,0.08094211013879997,0.07809200269925971,-0.07498272522932406,-0.005432329865207046,0.043297068076622806,0.04083678666585382,0.052967472300240924,0.07046089808213964,-0.03637863355846048,-0.04661429173450619,0.07261677539788555,0.07506179467982721,-0.024567389775214648,-0.0284162920305534,0.0010296543978517364,0.008013910570309953,0.05291298717061186,-0.05042671704453507,0.020344943759497705,0.07633924059394472,0.03217178684458883,-0.011308260746825846,-3.1356345184152046E-4,0.005100849997656863,-0.057352634156329116,-0.023612250763210885],[-0.0341840551083449,0.0756609783284402,0.04856850550536612,-0.03730849538152749,0.052129416835226886,0.027489680388398413,0.04327468241852083,0.06956542525823228,-0.016353949134351755,0.07090588656906074,0.06270352337827806,0.044795153230030485,-0.07973454656408928,-0.006739743368511659,-0.028881205223981618,0.014700016850944011,-0.07926548585028592,3.7346483229255774E-4,-0.07124931449828181,0.07543468898749912,0.0510170674115804,0.06859670824890515,0.015631585673414147,0.0448569496179248,0.0834673673165805,-0.06050529144192346,0.014564269533402691,0.03140274035552324,-0.06055840668379674,-0.04600516060935897,0.06794511234910236,-0.01338574431032125,-0.07146386487763165,-0.0795304294847849,-0.004295617867729228,7.96774090350441E-4,-0.006448620996973867,0.07668070271269559,0.02528063556939044,-0.008869808915151326,-0.08199151831393915,0.04052889067426249,0.0338357738243037,0.06757370459007501,0.053938491176350266,0.07667033924224367,0.007955562900592341,-0.02744355980682268,-0.03486915227830731,0.05249178537202131,-0.07855199173382958,0.024884841644277293,0.04427540736310136,-0.058374304107830656,-0.05459122323334253,-0.03487699474732713,0.052079174758528454,0.02859040083872407,0.06025334874646073,0.056040600258970764,0.02747045459847093,-0.06502088050002791,-0.019729184021713784,-0.04881736847354121],[0.06311812383209459,0.029495704033662213,-0.06067404324624988,0.03114767496533369,0.01248436708542533,0.046111154006214336,-0.014837961653085766,-0.0584281130958687,-0.04375364795050639,-0.05106291098950266,0.08323445986480286,-0.011762978729132643,0.06710370047189707,0.06988762968400006,0.061824364933054786,-0.04591754662029218,-0.075621325473734,0.07343997199151801,0.023946044865816876,0.035736230040178,-0.011828138987814337,-0.049164948246184184,0.06492226294753807,0.08258896853299193,0.07094209233995695,0.07882544957582521,0.03318630218157614,-0.02602264802650341,0.009847520200057691,0.06929127307970011,-0.06399729411479699,0.050279503871594355,0.00797892828903029,-0.05295005416011272,-0.0739245079093335,-0.01512083570253499,0.034958858921394026,0.01130479916455974,-0.016544495261653032,0.03773565356249196,0.004529582570785735,-0.06378181021245986,0.06513489840379466,0.07990451932874876,-0.03647083892312513,-0.04224168613584791,-0.05009004131239195,0.07641278894186491,-0.0282871385397834,-0.024937977474233056,-0.021620483324891922,0.07601080864205503,0.03351115229428997,-0.046027381298114255,-0.043647135896476306,0.05061488783108145,0.015171950147278682,0.07285693923733669,-0.027061749178897324,0.06082144543202222,-0.03740642766637049,-0.06647067348269,0.06150823862361669,0.037873305437061355],[-0.06519032547997049,0.013173328844442934,0.06441209329239374,0.0044509172678215735,-0.07220726680388577,0.047475447292151626,-0.07243676105839725,-0.08146143024334436,-0.027487833534324355,0.006550135787958632,0.00521087740781832,0.07741197982100254,0.06879696492118983,0.05097278030348621,-0.04284917863274079,-0.08084161418070593,-0.06456295328218108,-0.018322861247315015,0.031375946953620705,0.07969003807472289,-0.04642399448373644,0.0743775598540638,-0.0748548623093777,-0.0730547148947411,-0.07916062696051132,-0.05278403500018835,-0.02932581456159676,-0.03900757502102642,-0.008479797779134624,-0.06738743686439214,-0.08107098052082062,-0.0030504887553268988,0.022358843104913154,0.029120115710731788,-0.05154882967782857,-0.07862652399751502,-0.07606525200593804,0.05685948160215908,0.03126857743823327,-0.026643617352983498,-0.027385615155323083,0.007993595701459261,0.0816814816727907,-0.03065255729230521,-0.005865749330228695,-0.05930347826367109,0.0024739114186993127,0.05771297515726945,0.05547320091829034,0.07363386684182632,-0.04165504627320134,0.03428076436161518,0.011078715625045508,-0.039468884638216996,0.05058290652507677,-0.006844125261121146,-0.047066497252796914,0.013708213291514153,-0.08106276099445522,-0.078635092532803,-0.025867761149872284,0.023093881461094232,-0.035428263031643564,-0.04081775862289292],[-0.02772657033875939,-0.016321780459003656,-0.025590066435945167,-0.04638614327095852,0.0804760692111051,-0.0254303408667048,-0.029543741611966573,-0.07923818898720368,0.05666799300088248,-0.009194354943007037,-0.0244508143002992,-0.009013193132467134,-0.0024547396766144967,0.01873363980166229,0.024708866164090234,-0.06247863119932991,-0.06857904819643892,-0.02238296146739553,-0.019626429125403928,-0.05779261582377996,0.016622497087762027,-0.061786625132002976,-0.04865075644042223,-0.056768417922901174,0.07892031713846415,0.07701923456130487,-0.023578513722775755,0.04819070777974346,0.016514659787120092,-0.007385065631743548,0.021187387451315223,0.07135874217070234,0.08108280347905311,-0.019610711940070615,0.00740445194427973,-0.06902574693182248,-0.05304866017009827,0.016506752458514476,-0.06856125068628854,-0.047204543488135915,-0.00538066858438151,-0.06511520551720187,-0.05478761128508245,-0.013639275202123751,0.03175818310422521,0.011578604752346854,0.0740968241749341,-0.003803186844943897,0.03614954210917397,0.04017089073005195,0.040863051716611656,-0.007506459070571848,-0.05669441142072606,0.01770655366905411,-0.061002446294920895,-0.0352494173489941,-0.04740950714530746,-0.05976915181101431,0.06541273808307956,-0.05745782098211811,-0.05711244564859192,-0.05034924104977659,-0.02068019212629224,-0.03729646408042895],[-0.001002531244650482,0.03859508634329555,-0.059147268260011564,0.0766134700642567,-0.04198584124909764,-0.04006072866511077,0.019023984583491003,0.07074653616835279,-0.06355145501007695,0.023968851284970224,-0.07564396806265276,-0.009999034319335319,0.011851520351201116,0.08000065836486168,-0.05883779890805739,-0.04163158544212337,0.07504642380099404,-0.043731311195318145,-0.03461823672487946,-0.06665646801540812,0.0786883086088775,-0.04755393405359344,0.026469181918336845,0.011578167643234336,0.01758673631255697,-0.047604583037137646,-0.084017778417688,0.06012992213516654,0.004840515049307741,0.01415416013352859,0.03601718451607542,0.004808598787611737,0.05424040385106061,-0.06345824336568837,-0.038527577363115025,-0.019921858159009143,0.008232428280063384,-0.01977409493491994,0.043104312546248816,-0.032313561848584624,-0.06147477153094968,-0.047499164101258165,0.007753360521283905,0.009586439439120176,-0.04329337136840552,-0.05809366580824969,0.005263923783436439,0.032524422593168234,0.0790300740551828,0.06341494044908226,3.933280703781243E-5,8.663989814752739E-4,0.04119650224417428,0.0126561001060819,-0.011941229270806982,-0.040223284927438464,-0.038717352861903774,0.08408326281564651,-0.006603626242172675,-0.08322287056953283,-0.049691523592590665,0.05025793628477549,-0.03378841095935168,-0.0780849087924497],[-0.07227001688278648,-0.06229975846351661,0.015178194805051278,-0.03236508385214745,-0.08051022254544711,0.015511040939126681,0.020229974856576658,-0.0375499203624903,0.03671689766496085,-0.04313076480319267,-0.030264317285507908,0.018878769178289657,0.004286591479883161,0.056039679824897076,-0.06180684432638808,-0.037097950300635264,0.025535932441737012,-0.013900805389452238,0.04606550661642882,0.03930988200439798,0.0255943235391504,-0.04950500721567058,-0.03386748122874828,-0.026194732980177195,0.07065751725658545,0.05437780943848049,-0.0558901137311978,0.03704806475264688,-0.014846425506537893,-0.0542699941793045,-0.04975875221602688,-0.03327229358797062,0.06152714553282986,0.045059793314150276,-0.012036379410627764,-0.008814114748780875,-0.04955513002324413,0.014636441039001538,0.0443138654429146,-0.04310458038190748,0.025092092941434524,0.038158104600760266,0.0023415848479725683,-0.007284191601787963,-0.03572195040373811,-0.01219761458178188,-0.0266963597971436,-0.026016688535531997,0.00625518897448228,0.014014097262832025,-0.05416319907683917,0.009205385563187911,0.07173513029126787,0.026038244699772253,-0.05771721722036634,0.07361873274874357,-0.06147732254426414,0.004623643446282571,-0.05624539927379921,0.0756065700921279,-0.07374318486917798,-0.0665135890940355,-0.0706541053495981,-0.048724459783272125],[0.08117085345678743,-0.029593999658126504,-0.07115904415065855,0.0733266924138669,0.002195444483600762,0.058879190012858976,0.031162580500154764,-0.05069430006055225,-0.050392037754676315,0.06811327841835603,-0.018560780100798317,-0.01593697222569643,-0.07781920447401176,0.013533095198078734,0.029688553005859167,0.07473230429446673,-0.06776347689978007,-0.0011433591211523963,-0.020807271309288933,0.032875985759774864,0.04829691850902081,0.05653974158790592,-0.07653280576927313,0.08028834660255084,0.07174374701562926,0.03661091901017072,0.0684066215848721,0.008802144028426821,0.07898411155895324,-0.054227601414648254,0.012609953664425785,0.002147307687912415,-0.048222221863359345,-0.01318508574089158,-0.021624443931663396,-0.046695640470435965,0.04362181816810965,0.02105259629528447,0.009760314335006333,-0.08307698387747618,-0.029070798506869274,-0.06283348758083544,-0.04747195061979322,0.07489120800329485,0.0442970819732868,0.07513831658398218,0.05603678485293646,0.07781698518951691,-0.046027635149589206,-0.02449617904787697,0.05595674124136816,-0.02269264670191898,0.01503893895671165,0.02183566325818115,0.00197405447217359,-0.059856717090664646,0.00865622975608246,-0.03895068411257922,0.04437456849646992,0.022460742485623922,-0.030301179215662007,0.019791226287144758,-0.08342631886446239,0.011931342282247874],[-0.0014215910963807368,-0.027342974072010095,0.0028148996570490333,-0.047345451972275486,0.07409334384694855,-0.06040838450991909,-0.04908426627417072,0.07700308780791869,-0.06715842040988221,0.0809808109942894,-0.014328087501196289,0.032648714774853226,-0.07991612646613398,-0.045597267502842785,0.0800838367992045,-0.0026478413341888673,0.08238481698363277,-0.015912061532047956,-0.040095007990262437,-0.07976514007485691,-0.0458103490002236,0.038879737472177094,-0.047249326728530175,-0.07726140549910618,0.01140358051327103,-0.07074181410365016,0.049435678375992796,-0.06296144951823952,-0.019729794440257506,0.07246435977775471,-0.039012878711977,-0.026128326869729605,-0.039878840417140606,0.01174393954108948,-0.056797889142171674,0.032348585855227964,-0.039998872029714264,-0.06999879536256694,-0.025569963133465125,0.0123064077637994,-0.017886729453360662,0.030273929316270997,0.07248998744867417,0.018181598388356087,-0.03465720958912191,-0.00594760287539033,-0.03634264237623718,-0.01599457034231796,0.020101145566654058,-0.06587015535967936,-0.02874374018815537,-0.014638015429919462,0.048587502248096305,0.04187309850908142,0.05041117071678863,0.01972275456486669,-0.059604787028376134,-0.07070696215541569,0.04204495095963497,0.02068685844437956,-0.003529846111562703,0.05371282812507306,-0.08038950209001249,0.022118799760502135],[-0.06591747181999498,0.026143091574495573,0.03831575111187545,0.06961998287893174,-0.013724731712659737,-0.02986898987806042,-0.07460363033418936,0.025658734118572016,0.05279257669164377,0.030869412259102946,0.0652056949652207,-0.010141596856636242,0.007529960897140061,0.010327700267186988,0.04093879952209023,-0.03430221131767102,0.04417705759795418,0.015425016460513755,0.017135018386271177,0.05140500048014706,-0.007510219380052104,0.009147016652400601,0.07775405772920341,0.05868976828950324,0.02137051564884425,-0.0029434553801353435,-0.026239532233518707,-0.006173292889920664,-0.05102408579791507,-0.026435122793160935,-0.06814766691831672,0.009343375146322403,0.019281963834661953,-0.0442546718721109,0.08027764273752455,0.008617159600400635,-0.06412484243513679,0.06397117498669272,0.001946991486089809,0.013094758746570295,0.06549013644600868,0.01409919833951065,-0.005783233589286647,-0.009088854879757599,-0.0680964542139768,-0.07006925374305965,-0.05176510998745583,0.0032886615096032567,0.08032978481796109,-0.026633981670802654,0.04171390160264951,0.007890505702696067,0.026755810783538413,0.06387187859159049,0.058654223623668685,0.02732080782379909,-0.02779568221158672,-0.035227486245761816,0.04372662575066402,-0.07367040677902253,0.05996747282863768,-0.028678492172693203,-0.05761939311170028,-0.0324339278159298],[-2.4531393298297656E-4,-0.020109643154468972,0.05807176959935208,0.05311413568434201,0.06188583055460222,-0.05718881006015421,0.0792052258616267,0.06137618019565489,4.874055724186344E-4,-0.044882681803014725,-0.07697167453023869,-0.025860766620600325,0.03326588752442437,-0.03566434626852227,0.019281701920133724,0.01539234376243345,-0.0031494242791196407,-0.05959227799720257,0.0819508009327797,0.053010873271302,-0.002691676908121888,-0.05610250991684482,0.023622910857845302,-0.06511119179582592,0.02231839098053575,-0.07555563489029286,-0.014174631831248048,-8.654813117459635E-4,-0.045838692483676544,-0.07791499762423128,0.023950108084526595,-0.061881250131006836,0.08027225095735493,-0.06010806245972325,0.001962863836528396,0.0601208569161928,0.08289246590617468,-0.01392184994407377,-0.08354648306444973,0.07817781393959466,0.012903048102011056,-0.06319179221148732,0.013475500680697408,0.005134630895218336,0.06391037665997758,-0.01500140839550305,0.030900310943176346,0.049947216191993236,-0.05942483757868849,-0.0362627862480433,0.04892059267752266,0.02414771866188885,-0.030262474318681624,0.027736124391808423,-0.014342706684601995,0.052284298002154714,-0.04462892435366793,0.060444928316498336,0.08020184756436534,-0.028540300406367253,-0.0010865659545560436,-0.07349640770008635,0.06936107442957563,0.0118951979371997],[-0.01839540017793321,-0.018757534021898493,0.03820455601609155,-0.015058663222530001,0.07096088119198632,-0.0027784898324435493,0.07928601307314828,-0.030973486612647105,-0.08300935047950983,-0.08071037122254382,-0.03992262473248789,0.0028699614154492326,0.005942740378104053,-0.04998444555132419,0.009490092559613365,-0.07508366013018472,0.04198547457492612,0.0796966075370772,0.0558996960053731,-0.051925179426305285,0.04480490524572917,0.04736042068758313,-0.04185206832294844,0.016477598507603327,0.044552960798400904,0.019469196164179765,0.019836537306261597,0.035925322099527236,-0.005325939522168086,0.0014157991041927824,0.0301707139708196,0.0751964836880716,-0.07161189398460212,0.06025394875979475,-0.018889526281472703,0.0318264177495096,0.035822812911255726,0.04043553725431187,0.04388104420033157,0.024529706961079978,0.05834752950669062,0.05616845482997578,-0.019466344823465636,0.027039479721293707,0.044501946906592045,0.03637480774388818,0.07019007380603592,-0.07956418413926869,-0.005862323087374071,-0.07443120341121787,-0.05264967292233752,-0.039707638537142216,0.04777323861604689,0.03007059307868145,0.014844171057424574,-0.0041813126799250585,0.011160703705709388,0.004861495068921906,0.006186706405945861,0.03341778085567903,-0.07372011674718613,-0.019215658720045173,0.02923095217388312,-0.0659024790065537],[-0.0032649108133941678,-0.0025481583966561637,-0.02342683773834667,0.0055261835805916456,0.055814009757790405,-0.026413522381028114,0.0444277584153678,0.0038086098519492864,0.04117002578623315,0.04346448771568876,-0.0022688416590904057,-0.06546863334619903,0.07834415110581763,-0.026891051007049888,-0.038365100228594365,-0.0010637564622455805,0.019501268724447084,0.07573759448920646,0.04758418393697604,-0.07004422222299685,-0.06727887099079387,-0.06343360545873186,0.055414133301782915,0.046846888181665,0.044008526500845004,0.06245241159053739,0.036337667932988295,0.055864964314460454,0.0833777255974161,-0.036617107897964254,0.010589207704140083,-0.014433532388367908,0.008596157841951786,0.07772174350646634,0.010019371453203783,0.05075350870821788,-0.05382468557038064,0.032587528654146956,-0.0655589838744305,-0.05769411205200603,0.021041433719932345,0.0246769966267711,0.041429717160363984,-0.08088385509967491,-0.054588920504444645,-0.06941023023194028,-0.001378120411550429,0.07671197345995005,0.028307976995945935,0.05527284884355608,-0.06729571867271492,-0.031979221420019986,0.06068382327415429,0.01400356540909776,-0.05047408607836509,0.017853371566761814,0.01034948889182104,0.08138024361890445,0.07337017576571642,0.08167960494627546,0.04528453193788336,-0.038617496570183936,-0.0638580435965062,0.08009394372922056],[-0.02712457717207864,0.010197505720768217,-0.03888179926959094,-0.0803793764026152,-0.021198462505232777,-0.05625310328338636,-0.059317680087575715,-0.007738721132374053,0.02099806574175664,0.02382434861846077,0.0190794308157523,0.08380317973585476,0.02691964498909941,-0.06220385379253282,0.018056192384157854,0.0010849699513076618,-0.003419892116885265,-0.0715619470437582,-0.06368895513995276,-0.03194364111501604,0.005767072629177565,0.013486685494545063,0.05945000623078977,-8.034562590428447E-4,0.054707877974259404,0.005202002451078108,-0.07767754890231653,