{"outputSize":10,"numberOfHiddenLayers":3,"inputSize":784,"biases":[[0.021518931472469416,0.1511905738035722,-0.06423169372000771,-0.10235752993036952,0.05339045836996054,-0.027529773489081668,0.03398316442469071,-0.035668626571057654,0.0649436292725929,0.23228280518710862,0.2705999776256413,-0.008912751020815016,0.003082890364737206,0.07740875953359592,0.04543124473760295,-0.08458159231859473,0.074785827611077,0.16555729651164972,-0.1476706927310725,-0.07633339294331037,0.1179882216510173,0.16439060733920888,0.20342403326549155,0.0193138287875055,0.14942050359467982,-0.1253717742091597,-0.10125164602476876,0.3943827251360993,-0.055787329190370466,-0.042085097042653445,-0.04656829820076532,0.01838936676816725,0.14755093572873798,-0.009057344919747688,-0.003972783477497216,-0.12874064480496425,0.1720847707577804,0.07569123086226165,0.11950180028595601,-0.04115612181445917,0.21043851201287758,-0.04692330937232027,-0.02419764016775343,0.010167581356781976,-0.12878335355953946,0.13435325562219105,-0.01170495392924948,0.09169393605823588,0.016891494108137863,-0.18132908220431185,-0.03830890663320197,-0.043444498369043155,0.15712814103281655,-0.011957844335451384,0.09631714115516107,-0.07868817455448858,0.033994797145831604,-0.029663417322369243,-0.03517444979816001,0.09144723883771008,0.08383093693814514,0.24043340766357776,0.15101794716353917,-0.013451808682373638],[0.05585878894074431,0.012166378271381884,0.020696483126760642,-0.00961049407044169,-0.11900921762278811,-0.02830934845341007,0.04362037208517655,-0.1700323181241888,0.10421126319830952,0.016623177948804697,0.03284663689005313,0.02933880297930006,0.09963865022101957,0.060361900653348746,0.055339846466498685,0.21164630556778027,0.051045566687064566,-0.06736876828473409,-0.014975840494916055,0.38178896039033666,0.20352407639386993,-0.040127916725340086,0.32901086749933933,0.01604619103011898,-0.07556320302002464,0.12761363099717268,-0.08549588403855157,-0.006612799435716205,0.07395740813087616,0.030945401848490175,0.07284015884224666,-0.10061520035686848],[-0.027025887795728714,0.09543170677868516,0.0033886249416949735,-0.03553281433236209,0.0025535652310218217,0.13960240751826078,0.17715996449114102,0.2985384499553561,0.22552440281943198,-0.05206467132487722,-0.005539308044903049,-0.016380171806807897,-0.027786034527792658,-0.021180911537069354,0.3091252025697595,0.22720499315236228],[-0.3820899375245549,-0.2578990474788274,-0.10719631366929419,-0.22687632399465682,-0.17997002434871576,0.016396628236531534,-0.39577230958855936,-0.20385503233596441,-0.2209157544573355,-0.17109577024785844]],"testSize":10000,"weights":[[[-0.07493087439908663,0.06120874887488591,-0.016436508048609532,0.07401743767977932,0.036243040493778286,-0.02922696748721619,0.06401876017137256,-0.06303666280413436,-0.019581721175819473,-0.015236046906666282,0.06064144366858861,-0.014984533098081732,0.07180710144873843,-0.07622414802154076,-0.01595697858490424,0.012523712421602416,0.006878748443284141,-0.03495672060931425,-0.04071002882325841,-0.07720211430173608,0.06393880203258082,0.05825197782486286,0.04114865027310016,0.053602138290994424,-0.002798471954930403,-0.005814099446899612,-0.014329422628434844,0.05212001818401052,0.08403287202193452,-0.03536254927717789,0.0689593288476457,0.049285320016434146,-0.04269811189304153,0.0024887495473336504,-0.027607149857857748,0.02265161389314521,-0.007975984860823305,-0.04290424041169121,8.43289580697637E-4,-0.06645436210945474,-0.06248324943399475,0.05287059596445326,0.044781600178100504,-0.08370344438608839,0.06401744336855675,-0.027716988988866036,0.04844269127357546,-0.056614390464780354,-0.058851346232683864,0.041740982929612945,0.013371961222014728,-0.028360234814708864,-0.03495053493670915,-0.053688865311543356,-0.043746491512107195,0.048843448186681036,0.021130573915332112,-0.0836790324674763,-0.014891458035418331,-0.0621488182254073,-0.06829416163370798,0.00927870567593658,-0.05423913444439018,0.0011452415867658332],[0.07654552512855858,-0.053564128072904234,-0.05093539541759991,-0.03817554084239159,-0.003735362384349358,0.05641852789546066,-0.05164664569399276,0.07326216411741648,0.08041430850946633,-0.04206854080676396,0.003883288569525882,0.07566820261246962,0.0235856199629992,-0.02071462253053012,-0.007131257654059089,-0.08251714975254203,-0.0018621307441567324,0.009787451072055671,0.07626261675987013,-0.06402006109825424,0.00939326009145367,0.03191721341935205,-0.05480480122684921,0.0723979907754493,0.04389184044710114,-0.007889072192013584,0.04064385531122333,0.003695968770174921,-0.037573298630842765,0.00780276910550695,0.035811552751569185,-0.07307307008618423,-0.05445110823050666,0.03827268895358381,0.014699037601198292,0.011955474258018907,0.08084107410762309,-0.01689408792319024,-0.04788849273369512,-0.045699625253848034,-0.031677861320634354,-0.014588495406575723,-0.025655092919650194,0.03244742174485815,-0.04347724855637415,0.040242315184934895,0.03429091762691809,-0.07926658900938247,-0.07165370897028506,0.028916886656817783,0.061079784599144156,0.07179439722672432,-0.04293820512405841,-0.03917339984777228,0.08051588184739854,-0.04357107879443001,0.03989549087154591,0.048072837826887704,-0.03167187173589964,0.05969318587666577,0.07029547623420944,-0.08093416856862967,0.05719310158481929,-0.021142356748074798],[0.07980207428293855,8.207083927453355E-4,0.04132673205363365,-0.05442168612408463,-0.05002317652358112,0.05233209767026936,-0.013507420002549389,0.06604792241965582,-0.044267320162169776,-0.04167072734486958,0.03787837947600699,-9.040173377880017E-4,0.07385238219409364,0.024105905549263996,0.02642698243026233,0.04565362171313304,-0.07168168955641888,0.07443464131167371,-0.0490607922950939,-0.06235098286289587,-0.07006838554729576,0.07300343071154992,-0.04969827315555978,-0.027740816816268374,-0.043185646549403336,-0.014087845624172032,-0.06612865466880305,-0.07964598442834146,-0.044386247311949394,0.03670918332869811,-0.03388591486973358,0.01103773027600303,0.03526754586910311,0.04153840001727543,-0.0558850248795126,-0.0712242463187997,0.033169101397193534,-0.05257735305726529,-0.020180139166346804,-0.029747734961668344,0.06359184161159405,0.07069353770854167,-0.06867655616229783,-0.015030757510031661,0.004503241343071849,-0.0506222014059694,8.831616543522714E-5,-0.055230399763290174,0.027024480904215605,0.0241259588133569,-0.07602174735006768,-0.0016782421079341618,-0.02846528596582566,0.02275866254913564,0.05020122418152934,0.041949942635984484,-0.04636174325702369,-0.035938242834602244,0.08348510830207574,-0.0747070401000795,0.04112285511970949,0.0403918969482889,0.013589558854883254,0.06327091168380691],[0.002802174249827419,-0.048931008629159174,-0.004347945763312532,-0.04118057514500736,0.056698448278971664,0.05272884525306743,0.04979084403442461,0.05710275519415045,0.07015067343726925,0.08068141299510707,0.04437303839583302,0.0015127419791257657,0.06903965771789748,0.06576072390815628,0.07265682136005601,0.008403063580054567,0.018995992938897022,-0.04454574820969195,0.015742582991639945,0.07408144796018172,-0.014549710863475286,-0.03557827278893922,0.021100124765960827,0.0013268410001420177,0.00785970217078134,-0.051647678750249844,0.04855216839170595,-0.012168117089175636,0.07505688025140933,-0.06037052231271513,0.0030203345543975296,0.045794220282151125,-0.07883757204217712,-0.0738373319257855,0.004667986733336435,0.016794030665467467,0.01243929154119257,-0.03137799368172129,-0.060197387673007224,-0.021262272736544414,-0.019661781909316275,0.05995920653248078,-0.06411810138771161,-0.026946553545639247,0.07197520610188092,-0.0315219886951129,0.06315646494497583,0.06104036055886888,-0.055787979814980106,-0.019877620498485977,-0.008137578857588468,0.019035902637019847,0.052217655249910296,-0.07047797340601226,-0.04297610659984573,0.07329577434040109,0.06941241502783335,-0.022332820980298852,0.006438659041110408,0.03151511755237302,-0.03673493700699562,0.05030060342160795,-0.06431663362333566,-0.029239185498808874],[-0.022079320328486102,-0.07942816482935046,0.05089793008178341,-0.07418382976215039,-0.008893095998881469,-0.07151636206994992,0.01142000784517377,-0.015252507419803885,0.03249735877176921,0.007439630473931433,-0.0795973014565996,0.026112153798282463,-0.013307630834721074,-0.058337577875489335,-0.009459037138966564,-0.04969247994048996,-0.06288160484028556,-0.04753984603135459,-0.06428673528240926,-0.06315700238440473,-0.05285113389781278,-0.08104511130714245,0.07278166223115733,0.03736343487944609,-0.0797955349205185,-0.03303987689240457,-0.06718383751995592,-0.03601241382445054,-0.02953456051258409,0.003821853433087697,0.025353434036037976,0.05754903279624117,-0.025182106873491886,0.047394200609556965,-0.08384963040373898,-0.07576230297882129,0.05756225940377693,0.07074214897805904,-0.0763413920990518,-0.05550784551705463,0.07425197340783592,0.009791881388981105,0.0050737572241586785,-0.020384371395519848,0.009493531683123254,-0.011440129397428733,-0.058887233129496036,0.009771560254959968,-0.05052746154876618,0.06102802953942555,0.036976329052270746,-0.0662152588739348,0.04605242646138733,0.03720544806643194,0.07720474627105914,-0.04469941171677178,-0.0831324268995167,0.05702610528187099,0.0736631669433368,0.02939407804741762,-0.04583342745068083,-0.01460822194550763,0.08205616583514,0.038971161684149956],[0.0810273895247412,0.014083858452262878,0.07151800930018815,-0.06494623553284835,-5.68310510146603E-5,-0.07880090266339489,0.04603199519786187,-0.0744377932553146,-0.010178101439082697,-0.060685300941486615,0.04618618333617944,0.05478813951846889,-0.01721673056279807,0.08141254090544277,-0.021999998845134015,0.04971491902435831,0.019941241283642927,-0.051806144002914216,-0.0824380693701519,0.08213088443187756,-0.082228170174328,-0.004296131382921873,-0.06570370894113736,-0.07052666437325752,-0.07498379896202065,-0.003060057415756479,-0.05476032482703712,0.025214933002473443,-0.013499665960117051,-0.004486891781112431,-0.05273113873669048,0.023624891902260713,-0.05383993865574317,-0.054626505808163424,0.014940247868509659,0.05499037015704508,-0.037988456407870075,-0.06380689282694312,0.053718939317534666,-0.026861232075103682,0.0011641492637287198,0.035025543523094185,-0.052191050392782434,-0.05521555351388221,0.03793013405927337,-0.05129498473061995,-0.07554036521359223,0.0722842212295803,0.08106142408912954,0.05877896988087695,0.018370549959785695,-0.07913448665276482,-0.013048322003357048,0.004091623306606423,-0.006487774966102955,0.07146400646959263,-0.02211898837947776,0.08263776172641266,0.0678260146086006,0.07524447338090555,0.008722744621066217,-0.005268866600854908,-0.028820806810340802,0.05444954450539583],[0.042338911825808796,0.0706329385536911,0.015456486292223008,0.07625986204801376,-0.0600629299962653,0.059652076370262645,-0.0799684699441705,-0.06858823449203617,0.001782146098246049,0.011722898348550406,0.07070349804659158,-0.0548395175076318,-0.06566687742048861,0.08208981034116257,0.030396810055749377,0.019307100864524935,-0.02350954149476259,0.002592530797300768,-5.782295120158635E-5,0.017251294135300133,0.04246041696368788,0.021229226286436767,-0.015521422062069712,0.008054965268006255,-0.03238962718757192,-0.04945505280912973,0.040423372836477144,-0.06945749798021107,0.032467639307901044,-0.07780170212663706,0.017917051314470488,0.04580349157429565,0.02016184947757049,-0.05140927762772562,0.039579364363940946,0.05976430947408985,-0.00593465397960417,0.004519740860780932,-0.05844863938196185,-0.020017420467048345,-0.05801721051894293,0.06165456198990048,9.798051154782945E-4,-0.06060949859864965,-0.04536910223129362,-0.07456714261914436,-0.0013743843068467988,0.06686188409824563,0.02500932018377909,-0.01280655787845473,0.045101529856610846,0.037587083371756286,-0.025117614069086417,0.05765177964552886,0.07254651626919358,-0.05664483141939403,0.05155636437589028,-0.06326331509786479,0.022145152226165983,-0.0052398252959737004,0.04659497280393892,-0.0754715894478552,0.026929063715785916,-0.06916886466471465],[-0.03333960181918697,-0.07887506541703944,0.06557907666112868,-0.059033156212901,-0.0019509702939589193,0.08093509233441244,-0.035834643236240686,0.034703104895858775,-0.08027189144614244,0.047695775424163145,0.052516696215787965,-0.05947300586181511,-0.00857918282597054,-0.02475525465094255,0.07196751948426834,-0.04748472795984017,-0.055732780917453054,-0.06253289087936631,0.016649831606448104,0.05642470575501686,0.0513728398448544,0.015387451042690613,-0.06237451645512286,0.08066817719535713,-0.07700285956559429,-0.045318235223045795,0.06865484832626123,0.03628077020332822,-0.03390297050022846,-0.046217863044202126,-0.05651550168705231,0.01911944067747649,0.022999869737300345,-0.08259436479218409,-0.06486934799727129,0.018979182428807626,-0.06526819581621207,0.0476899684390693,-0.0029872443588364332,0.031730929398242236,-0.022918472704510896,-0.08379324452208813,-0.04849789595884289,0.001991917102864856,0.0218890316250833,0.05384201043580919,-0.024603660314167042,0.02693443556770976,0.0035955153242958663,0.0031132840947884588,0.002967612442569701,0.05729553810314838,0.05494936301934958,0.07452885234227885,0.08208569632261056,-0.08181357832171754,-0.025534637139500233,-0.07087094615084116,0.015356766592272222,-0.038801910378535656,-0.04047416439645372,0.0804370133540674,0.027702306297805956,0.05055922758060575],[0.04423740347705521,-0.017588319596184513,-0.08005424242483052,-0.026377763396068416,0.0658586234648847,0.024524297362383977,0.02733167291347273,-0.08282084340730266,-0.0612879271002458,-0.016283485834394134,-0.08172574879771417,0.002194171499058104,-0.048428081466344336,-0.020190594985519193,-0.08097916176689275,-0.007686047410569758,0.03186815380090927,-0.06942969487718904,0.06451723224290218,-0.019810033221129043,-0.020073989007444854,-0.055759250817255884,-0.015682763521797302,-0.058013567693928306,-0.02034019921091742,-0.06441136324699809,0.07557124874282088,-0.044573806953935945,-0.022679755203510347,0.0072571269103386925,0.028014609306880517,-0.026419199600082082,-0.025935449409715726,0.0063471884470587,-0.015390797195314072,-0.0566756291729622,-0.03377764059779185,-0.06760557398582033,0.045595316036307974,0.01528742073294506,-0.03461694632801579,-0.08018859715729819,-0.05932733087884653,-0.024100038895319476,0.00487035853938708,-0.055943241251270176,-0.03919119603566119,0.03810370217137071,-0.018495150428678542,-0.008917949494638571,0.022403305587899134,-0.020673636583762974,-0.07175287910472992,0.006373848890014618,-0.004556699750195566,-0.0035509508905001187,0.0044262808760963486,0.045407540839025956,-0.033317024803840634,-0.004059521487339727,-0.004882461469572914,-0.02892610211486452,0.07900453598480157,-0.07571068915961779],[-0.07485555690816467,8.108841587551189E-4,-0.06736837584597544,-0.037238865061449924,-0.0448886245750475,-0.014810724639061789,-0.055525594166438284,-0.07543402219576015,-0.028122856936142665,-0.040907020471259076,-0.06939466482155283,-0.017033914059458963,-0.019999589226851796,-0.0814561154552171,-0.08393603334309235,1.4928650007283216E-5,0.02983719913012439,-0.06795692176418969,-0.03808239121761173,0.05005142301632845,0.0478790490439588,-0.02233824799033517,0.0816900660999529,0.05198061134182167,0.013943359865096311,0.044671754821249084,-0.07110468924432904,0.0770032380080266,-0.03734036648054309,0.004308274144397286,-0.04101449655846117,0.0794263217088915,-0.03495638991064148,0.08056003799113014,-0.06897664048309098,-0.052752163040177685,0.04634034661805022,0.045882824186265346,-0.03544754353973503,-0.020527550218317533,-0.07186241051803018,-0.03181759750384057,-0.07732626040746668,0.01913119324584555,0.06008669880462348,-0.05177835964036673,-0.0181125968561542,0.07516903147044245,0.04960616908627422,-0.010818622764567345,-0.0630163195427986,0.03426168161332603,0.008564884541395777,-0.030781091667471224,-0.04533235792470996,0.005402151682938534,0.0266608480202865,0.036324363170716606,-0.06450556858638215,-0.026247808012016857,-0.037011157370841354,0.07970910909898826,0.07195488068991927,0.04669440934525554],[-0.05577832134023286,-0.01736259130373163,0.06753634238935953,0.055653308052818894,-0.05027114819704084,0.03413444507182248,0.0044774740379392095,0.06244009380024463,0.0342357070934904,0.06886749944744937,-0.021607443014263625,-0.03113509696538726,-0.01600273595469463,-0.019664055544761624,0.05784370083414691,0.06521942859807849,-0.037324306932377344,-0.07798065126058253,0.05312263683703362,0.004346256127349264,0.03372185601358823,0.07401162894585879,-0.08336447469856927,0.027091458857948864,-0.026167027657280757,0.07495174039545693,-0.045438734227347545,0.05723682096503789,0.0772382680284244,-0.03931387070956797,-0.051869136667979876,-0.020543909623995542,0.03900558435400086,-0.026590762082684266,-0.05003606921375049,-0.08224991384772026,-0.04420387601878758,0.039483819997096783,-0.017438592763460013,-0.027951182895143593,-0.07199361609817814,-0.04254534824641245,-0.03576440355914613,-0.06326185418852782,-0.05844722142984512,0.07225299779840597,-0.050156750486324016,0.007384537030668222,-0.03242746040485599,-0.05805926182147403,-0.08044972332123888,0.01626090396991696,-0.044383056570954635,-0.00361294190180992,0.06550949383738484,-0.059206829940060234,-0.06242730320475464,0.011859281170043815,-0.08372197890013902,-0.035498806720410864,-0.044983210998790046,-0.06514092963320332,-0.017051443698242987,0.05117422093729642],[-0.009231468414961617,-0.05288694151306195,0.029815108110762906,-0.07759777610353728,0.011965579389368526,-0.028091168053206394,0.07220588637402404,0.0014857579322624906,-0.04647872320798817,-0.05150501703950014,0.04466622859696439,-0.052075154891447734,-0.003291133391407732,-0.031584146211382925,-0.047454252187691705,0.006380409287446038,-0.03207411643566714,-9.37908524487758E-7,-0.006119747979635915,0.07289162601955514,-0.005083170718060884,0.06951316189070758,0.04662135190328114,-0.008660042088465464,-0.07373091378004776,0.05513164761400163,0.0587559466086579,0.002431069765024201,-0.05906317187264231,0.07557988161835974,0.021712672918507238,-0.028089696932253487,0.0694833134345768,0.08054824349214859,-0.06012307098542851,0.024336347916311486,0.018448817426725744,-0.07263202131923435,-0.030004010186688877,0.04497893996635223,-0.05185478969550144,0.04178874736417806,0.03960423392456721,0.02722477207220068,0.05749126436770808,0.0652120298808203,-0.040263204221223724,-0.05982035913204603,0.052354622152652366,-0.04205784420261664,-0.05928451607943085,-0.03875543687127771,0.06821096345828855,-0.04036635034949218,0.024158123419233662,-0.027884862748240237,0.028525799689037196,0.025897736371297855,-0.02993217844453872,0.07018417203160271,0.05618856351004347,0.05020778137972781,0.005087890828319379,0.060965516826543456],[0.060553791418813285,0.014724484205978206,0.07023621342375747,-0.061176204884549286,-0.002044500117744759,-0.077123477112025,0.056976247170670936,-0.07633344498821897,-0.07794816021966355,0.040837503121397556,0.001986453361541988,-0.016318940112356847,0.05570327281006416,0.06369049477534365,-0.03738441549888108,0.049027516852931774,0.006982532695042479,-0.030473702972633396,0.060533729161568475,-0.0286878775771008,-0.021247953500038975,-0.06330158339610296,0.012933522041892354,0.07714218392651273,-0.06376899961420263,0.0025070883885624433,0.027209649330873196,-0.029862382255979043,0.03156174301766238,-0.0199798111133314,-0.01627944222009289,0.006336886215988668,-0.02397924527233136,-0.06494815026056275,-0.010042175713238493,0.05203018452675082,-0.028273513169406086,0.007689176725239903,0.07505250438481777,-0.07678122400300218,-0.0604804841006719,0.0475438592153631,-0.006259297604493997,0.07841384046224101,0.0036091347768565664,0.013372792214776982,-0.0827861195887162,0.05365772312588437,0.04787361889699671,0.061965020222893394,0.0685251771660349,-0.016080110712856453,-0.014290030716325494,-0.005017294753779608,-0.07840113901317977,-0.05683103012763826,0.02409042439823753,-0.0026277504348925793,0.017411274544885984,-0.07451065710073292,0.05576150612814807,-0.0041894490182633765,0.00673759786275766,0.02100186373887538],[-0.033332544504134545,-0.005231619304749616,-0.06100949535593422,0.014082102942263705,0.04148464425735502,-0.08121846125851555,0.04236829438825343,0.023488388160955057,0.03977093707779555,0.0032209040661945166,0.07918414068077913,0.05219522927166098,-0.08470392684992849,0.07005349695945899,-0.009663743155032512,-0.01024660101490459,0.08078271998668728,-0.06774270886527683,-0.06458411914782951,-0.07998009607961777,0.06967788181225928,0.03964440898755338,-0.015468014168927189,-0.07483807625423915,-0.0541790467505836,0.012345056134937972,-0.005864849636092898,-0.027294453897769883,0.04984019201678679,0.0033453521997874273,0.051997687796320816,0.025316454038853898,-0.060280236197604954,-0.020433575946462286,0.006887597242834608,0.07763794826519338,0.021323660857589553,-0.05743219862883186,0.014022487801393223,0.019364157650187404,0.03645123514733748,0.07375484135397736,0.01021535972004647,0.0456311097173109,-0.043853268914729945,-0.07509967464543828,0.006399974057995216,-0.06921722852574702,0.013483505880754887,-0.04996659598927698,-0.07303690672368356,-0.05342521973331402,0.08120065625438495,-0.08082661517914265,0.03858076549967692,0.05024729802558222,-0.030384700973640818,-0.03213286363000378,-0.024532248427344854,0.04891568188722379,-0.0015635866125758057,-1.6324747881971396E-4,-7.096072726648537E-4,0.04095765130088101],[0.05976247100535928,-0.01967294986296414,0.026512228656613658,-0.06759006787901296,-0.07159380373311906,-0.012329868642484976,0.08064618769038386,0.008733246041127185,0.02520578465923502,-0.02557061356981471,-0.01703510183309841,0.047312789243117805,-0.06456467848334078,0.0074625715340951295,-0.054277343687463946,0.042579098727068804,-0.05942035866018934,0.04087018264628831,0.015824689515326174,-0.02201539839853591,-0.0681717086231345,0.044925304409031565,0.04776151658355913,0.03518165650705697,-0.0101918535701257,0.01076711326806872,0.06931625664596582,-0.018019597581230538,-0.023858040946100896,-0.08345713028178281,-0.01971812620961844,-0.03030080437799308,-0.0541396821084067,-0.02658042285814729,0.014495356805718427,-0.030336562498327842,0.04653585246017236,0.02508531096010627,0.04388191119400818,-0.0751732459892382,-0.068992660550494,0.07889052260540343,0.06971227290990734,0.056960929685027896,0.04618336132987713,-0.012544637148138863,-0.019827057535907012,0.07534074890480648,0.034874274933361295,-0.07927963168680974,0.005003331097478147,-0.03097004490965078,-0.005276255939722601,-0.008040349729476709,-0.032342266113542746,0.006233469116390344,-0.05822461684305889,0.022759927841866055,0.05940343285805731,-0.002558449721404005,0.06303513660253303,0.0279723710139212,-0.06796984129474436,0.06448862847665833],[-0.07048328519026871,-0.07906667115639336,-0.019174824167052785,0.03129258324654881,-0.014920410330430173,0.07989972405357086,-0.005418661255764927,-0.05595736267280839,-0.06599882597095956,-0.008848025766530935,0.04371092290214531,-0.04584815636678951,-0.054667496134885224,0.04539866413773637,0.04618412007665601,0.0035548874371672877,-0.023928771978816404,0.08374316366264133,0.03217746409263595,0.029695427191851323,0.03408557253507789,0.030403740726328007,0.008350233727067955,-0.07618430475255845,0.07471584915597529,0.01238852224592402,-0.039578697399448845,-0.058248166161519746,-0.050458819126528366,0.03324938000759101,0.03079477267233878,-0.047879901767366034,-5.526957613205156E-4,-0.07858756514329986,-0.05127398829434323,0.07461667755700332,-0.00716486084037534,-0.07719585050136413,-0.08389936710515765,-0.07082844770127243,-0.07029513083407388,-0.056733794983484215,0.08146017708808634,0.08204231794858438,0.07108213968869348,-0.015359191831287776,-0.03547940714361825,-0.08407708528921698,-0.06514273619780972,-0.05402415261656701,-0.06250677551569711,-0.07079872718926514,0.0264422711241101,-0.0039065626246135455,-0.07775901388898787,0.05524866267274011,-0.06852967214943537,0.044131132321632356,0.049043971418736856,0.05415081479937652,-0.05931366744317174,0.048289053280477355,-0.0075346677684785986,0.03711821767547364],[-0.033967030839615206,0.06557206418287594,0.016595197686318484,0.02910359916183385,-0.05193604902381053,-0.017503816833441547,0.0038419917608263953,-0.07615451244400367,0.0404900431607044,0.07735559174543352,-0.005933085352294538,0.022592010202903433,-0.027537450934954234,0.07006745609924549,-0.06143444727588518,-0.071747874204411,-0.08243107168545216,0.0790224480694306,0.019478077711432916,-0.015326357297084866,0.015079698740509968,0.055665713328045714,0.017552705486605404,-0.023951044672563985,0.05790493502610191,0.04145984276580129,-0.04812635202173254,-0.06900070845210925,-0.021331918376314665,-0.049906628947512244,-0.07194865963937021,-0.07420696450196285,0.004294031030363557,-0.002393039538353136,-0.04269711429885311,0.03310984327401379,0.07517182865623497,-0.05523767544548071,0.017463242289441138,0.015984184729386654,-0.00856379411008854,-0.06668647348010728,0.014663459523265341,-0.0626738019678112,0.04573134949926578,0.05830137389081765,-0.08295493696014698,-0.02669915601198064,-0.006393445682776149,-0.058354435209564605,-0.01756253141971223,-0.02694810639202217,0.0063352557438931135,-3.7569495961853935E-4,0.026871820575575526,-0.031480744550242905,0.05395292525331068,-0.031631046486372355,-0.04114259691743814,0.05586882142157868,0.054581378228198474,-0.057928675301467246,0.06398558807480381,-0.08054797608976473],[0.06130088146179632,0.03248410871539084,0.03717129849932966,0.03975187727268908,0.020857806245814674,-0.08287519305974084,0.020998497987829903,0.07510245944763065,0.04234260493008756,-0.0028051796813034937,-0.05441251184367225,-0.0686265254088746,-0.05184532971496942,-0.047718940826756706,0.008199898787497953,-0.03081843798009691,0.06036464861593465,0.027532073494559245,-0.05530453020916301,-0.06438832103307869,0.07622711339807697,-0.07668356888803964,0.03652982479179347,-0.061078570440648974,0.03134866027946203,0.05297351632284333,0.023194499339678425,0.0069703073661633785,-0.01095387765211693,-0.016207931424810543,-3.193218591166072E-4,0.026204654728878472,-0.02143097422910301,-0.03990988581453626,0.026463777971586118,-0.030469630186747938,-0.008835371351554244,-0.046775057020037654,-0.012584769690551686,0.0363644653268043,-0.05698412165721469,-0.07293364379795908,0.029933136143674967,-0.03574291601575302,0.08202856056115167,-0.043261577559730625,-0.07337455084714332,0.029813709543299115,-0.013348490749948936,0.017535104034025886,-0.025192409713855984,0.01515459260416021,0.014439388026732048,-0.05942243153684046,-0.05604236058244514,0.05902393875843758,-0.07359213914905027,0.04377398349553612,-0.018999697376386463,0.0712932369606783,-0.07212681454747305,-0.06427661746649609,0.025949326001316365,0.024213316966466322],[-0.007024571071848423,0.07844182243546083,-0.06575175697567025,0.07324396581440944,0.0800291642982544,-0.04427151058266071,-0.05007582914783304,0.058465204808781396,-0.05060423591594403,0.017311545122961913,0.014612456213450318,-0.029024296265855516,-0.07564489034235541,-0.028960517726769323,-0.0037456817483847923,0.044509009713653194,-0.03359653951976547,0.0021469380631188944,0.006294919224143136,-0.0012073350919358824,0.019756275349853095,-0.06056586933128634,-0.03351223941155356,-0.06437759717446535,0.03248734731940224,0.02206390569662358,-0.01875211223631741,0.04086177483602126,0.03862179937485398,0.08249122103749354,-0.03799615061373425,0.07169730490215116,-0.06612047383998716,0.08194457425214083,-0.05583973166494562,-0.008892206219428428,-0.023644373003461023,-0.0422477810616025,0.027115479512375935,0.0506433104664078,0.031190633148579772,0.013287208811752656,-0.06220876688688146,0.02514210117379472,-0.06855844015530875,-0.034758740962982176,0.008385474684657826,-0.027458847794458997,0.07329811068374219,0.06371280118109614,-0.03733215659827371,0.08041229228155738,-0.07653071403098027,0.05279063586478961,0.014592804895922103,0.009129429821681205,0.06041786635550242,0.07877404343111752,-0.05162037909797012,0.06982900393936403,0.08098455916335644,0.015880720581511066,0.05329402242497879,0.013141593638654345],[-0.02361300061456761,0.010488124954477417,0.05576083547989315,0.04094131133529794,0.05899987473916085,-0.05834653196616536,-0.014542096312207545,0.08290995709612241,-0.03727086153983788,-0.013181840342482412,-0.05100716919148571,0.0394848460656109,-0.0473072620762836,0.06174326072911843,-0.027680620835649622,0.011541719650178566,0.02565722381159167,0.0689342260205667,-0.07549232063070849,-0.017120370965564374,-0.03107278339466785,-0.006446719205688721,-0.051659796674745885,-0.03394725165514177,-0.07668871790483216,0.03337436814338176,-0.07186506218339549,0.0595442328514946,0.028620228018656286,0.08336982273281009,0.060854705861708935,0.07341664652676623,-0.07741335522620535,0.06297894477249226,-0.06381637256867523,0.02493933693514945,0.01033693734073842,0.03634087947288574,0.02147735069555493,-0.00282250503432287,-0.039435270330234286,0.07612816918004875,0.003028338227902249,0.013102793867848007,0.04170444869551208,-0.013929691363945815,0.06689282828222867,-0.0332041798130498,0.002797347806011151,0.008125238627007305,0.002142902712058219,-0.02714801006434418,-0.049172448809945875,-0.054103786997743625,0.04413644107047835,0.0534692353306035,0.058730755827587335,0.03599219661068392,-0.029258954392026276,-0.07316348839613994,0.06011783691401919,0.018782805940371988,0.07502787429300792,0.07987134880710424],[0.03892995349390422,-0.05176450727313679,-0.008538273756221937,-0.07095086514008912,-0.004638882932354056,0.08371649711880101,0.07190857136649356,0.06983581746052006,0.017284900288864206,-0.06863446131783775,-0.06755214051944662,-0.015685753613125013,-0.0364383791815418,0.07379806615348405,-0.03885489701177332,0.008448766923601287,-0.010646468367555671,0.04006318462144197,0.08215167086269967,0.06709906145918904,0.07888225145608509,-0.015499065738094772,-0.01055560902241198,0.08031380132911484,-0.057629260609485804,0.033966738995537794,0.05616155411767963,0.08258762819458429,-0.0809078458945729,-0.02975519069705685,0.025389363206104475,0.07233701072215781,-0.08311112752314935,-0.03974210494955723,-0.04356242286125679,-0.008521202606187004,0.03229592804673774,-0.07989769731223935,0.00706296941315437,0.03407022376090479,-0.04969505304205494,0.05273470563047715,0.06674472011979513,0.02556399703774619,-0.07818413161112384,-0.035706522273419784,0.027590137757266174,-0.04331412140000448,0.002819228249633665,0.0742025238502033,-0.04761446950195771,-0.04619139488975236,0.03299334870245424,0.040548519771687885,-0.06166165852198236,-0.025188985958124407,0.008427757671349248,-0.04661186603527331,0.06140304459867962,-0.06641668229262707,-0.0013465059944572871,0.05610940985577062,0.07389176936635215,-0.054200582019496936],[0.06737778190844451,0.07677572340455426,0.05020553061238155,-0.027894676906615616,0.07818852023390611,0.03618803235203732,0.034485991770673276,-0.005214717848414301,-0.0025854379664606475,-0.025715523625383332,0.0430694144147585,-0.05607501670107307,-0.018332182554286626,0.028219399451506446,0.07407192607319002,-0.045176642757300434,0.02668074962322654,0.0678731146082212,-0.026254014170393022,-0.03466005471288646,0.07926618993955474,0.07800142333857546,-0.07319957069363475,0.047501321531893334,0.07916458264889759,-0.07730562155598668,-0.061888850833075604,-0.04071307819509744,-0.055539247652369894,-0.037055862890578176,0.04067539103630618,-0.023713004539463615,0.024368861755480406,-0.05898803595294002,-0.013399101725375236,-0.02197456919202138,-0.01166964319559335,-0.07620621185152443,-0.03294911252680246,0.03973342817368158,-0.059702475182806185,0.022618729295668542,0.014244569649804448,0.033047773839557544,0.039902263286907234,-0.022840791365129638,-0.031774070947871366,0.006835539368808547,-0.014390305912678565,0.029073122604393885,-0.05652913694652085,0.07425562462260937,0.04106920779325466,-0.024520107737527733,0.0030015993943454393,-0.049527949614343,0.02354370553663185,0.03363126095578782,-0.0677754249744394,-0.038656870240270876,-0.008461284263475024,-0.06857293040687464,0.04955859143747399,0.04296375087962],[0.023429888611709183,0.06312640773625597,0.045526670589554355,-0.014688919032846179,0.022430754943872724,-0.0024448200194446125,0.0471952047898289,0.06093313873569564,-0.04757422523526856,-0.0787362105836884,0.048289666473728274,0.01661980417595524,0.005112888703824715,0.03877400140306155,-0.03246489369889825,0.06163500808361398,-0.06905508793753257,0.06131984461742073,0.01925833670145923,-0.05919916115252275,-0.005531935131244186,-0.0451087844608652,0.06317719201367152,0.03388931310835723,-0.04677624765543185,-0.023961469169445367,0.0045287997072944045,0.04684592117368618,-0.01208980892660987,-0.06624676492201913,0.03796455832292837,0.06990162917166674,0.030613652715703793,0.035547304680261856,-6.732441321885634E-4,0.0757495491127518,0.046995174015732596,0.025801771421489126,-0.037332925507492176,-0.04539170668455108,-0.025073419169392434,-0.03943164403502806,0.07469863518388803,0.05266231684579325,0.019984909440397974,-0.012993733559624014,0.08205397908770869,-0.02882101131779844,-0.06823093607326354,-0.05413649685443644,0.0031324234476235065,0.011830681257826908,-0.0036721896292340795,0.042727026935801035,0.066023696955076,0.052881545718387685,-0.04408108193483919,0.060547166970868954,-0.03380573909602342,-0.028651996271990724,-0.025629096677844413,0.07072041649491434,-0.018167441862858024,0.0052158428723468875],[-0.008973234377611038,-0.013237767443700471,-0.06823475503993877,0.04271475651242639,-0.04261709559032163,-0.04126348503031823,-0.07689080235842477,0.031417111121170224,-0.024334163413980748,0.022649983781018505,0.041007005407867156,-0.07066291479262586,0.05270902937749389,0.0648896420856734,-0.01611444559633903,-0.004671447498893154,0.008043132686807723,-0.05641954322145918,0.01321954538517194,-0.02991108289201032,0.022704635244449326,0.07811346394696837,-0.047309842482117836,-0.0647393378801171,0.03904792918826313,-0.0719084908945444,-0.007164249064971109,0.038012971645054176,-0.034835938212727076,0.001483035286965736,-0.0056445463750232575,0.010489755901829639,-0.048775236087264605,0.05838710694114659,-0.07855796303453608,0.04848646051417933,-0.026308917489538564,-0.04248514418449463,-0.07184741809942828,-0.04534584318763406,0.08215763884094456,-0.005747373330295058,-0.05681468828624838,-0.014872478273961555,0.035148249090585205,-0.06936322677618773,-0.03189397395662467,0.002912593214842418,-0.062432829983955794,-0.04339209690669912,0.019961471866210518,-0.08274895006164991,-0.05070450311640435,-0.0688491449207626,-0.05470922838212337,-0.0816254266488784,-0.05279072281421644,-0.0068143741723262485,0.003008207326733471,0.02004557898587389,-0.06105553274523017,-0.07055126959529837,-0.03791980255170475,0.019331122196002016],[0.05543346632522126,-0.07570689356794841,-0.06450195408700415,-0.022225865380179843,-0.030693329707088945,-0.039313203425385544,-0.08127352116980327,0.07575333316620642,0.08360518852565009,0.05343043417887877,0.06632207517956334,0.0522979361922882,0.04306259160473071,0.001028170163682511,-0.06303235433094329,0.060702892657486934,-0.05384279182412737,0.077889618431073,-0.07091887525777711,-0.08329117472357497,0.07864061476001848,-0.06845700437045359,0.046317166420189855,0.05509098898284777,0.03110424405248344,0.06931963652348701,-0.08008137584841844,-0.024271901186824294,0.04003219759930793,-0.052083580201880336,0.06422446411055995,0.010912776308512348,0.07913332193599704,0.034107962200009445,-0.06639003915969482,0.01092030188326261,0.01913792835133893,-0.034376520829895486,-0.029573824291595843,-0.048089207462439,-0.01561052389220072,-0.011100379203670897,-0.07848850024991312,-0.04350446780056725,0.013696801650330352,-0.023079053799663133,-0.059755702960552895,0.05505717884581238,-0.07420476200990346,0.005158111333208867,0.04306959576392417,0.08310757267016378,0.02706741596043622,-0.0065688567355069475,-0.083428117375288,-0.06992916541470148,-0.028493563435429643,0.055193662611704386,-0.024804086846059465,-0.07210698921972497,-0.019434028070057497,-0.06753284237562351,-0.011801975755859008,-0.010892021162941745],[0.01409149524456064,0.03883720143254206,0.014042915549335781,0.06154026943337718,-0.019486118869517784,0.01553837892251836,0.024243813495058043,-0.06606463998932222,-0.07331071073097095,0.07553301825602513,-0.08349454699186701,0.058410288229533786,0.010120878237407293,-0.06570978407443206,-0.08352321612686756,0.02854673374026428,0.040690303919586654,0.011059494181771457,0.050646235047741676,0.0410148900354909,0.008935445107247695,-0.040092538089201976,-0.02721870296473625,-0.06781566023011192,0.06876393365664624,-0.009916861353607125,0.04532874955671876,-0.07808306653155886,-0.001200777086758445,-0.019892102527398127,0.03773015211921972,0.003683664005902401,0.022525358751694542,-0.04975038998710315,-0.07116552439227446,-0.07085366999125038,-0.04270003691916874,0.06033474704792612,-0.004179638194661157,-0.0637810519569286,-0.013072495914543642,-0.02686718211438031,0.04025368942967502,-0.01305531997807747,0.022933608305980627,-0.05675645294281641,-0.01902905649016448,0.053946924369779325,0.029544313924364688,-0.06344348520077364,0.07705642400519788,-0.060267963818791126,-0.024072254605599943,-0.010413627184309632,0.0037917538707953682,0.045510385109857984,0.05088463000644952,-0.016969630679483448,0.03955124752687509,-0.042459194867683674,0.008906002858436549,0.049314914072639666,-0.07218812942559438,0.04531993565646166],[-0.07137112619461566,-0.0035325448901176925,-0.013110272590499088,-0.0014751580657903936,-0.035086699263737975,0.02774263412885542,-0.0732444488099914,-0.06891872462255384,0.014275268337024558,0.022504254776225703,-0.06464480174009643,-0.06208401652893752,-0.017744361267108367,0.06555662442766487,0.08292708283117721,-0.017945959977845247,0.06396058257151523,0.07693761124234091,-0.07412085556837793,-0.003921550448841327,-0.023978249394428868,-0.024156054561078347,0.01583501924656098,0.028246900983285545,-0.05754072338326584,0.01586236746665878,-0.0066767571649174184,-0.03725202838474353,-0.02953370450268149,-0.02140158790529797,-0.0230608196139772,-0.017312502016866543,-0.07022152258464233,0.014919673747938069,-0.019645487846207264,-0.03760854598461893,-0.026140757953092855,-0.06348617423116339,0.0097440162210468,-0.01952240043605578,0.015909043203845535,0.060112510721608316,0.021957298322178773,-0.003963270037026016,-0.01998790077068251,0.05780355124914023,0.04109065140928855,0.07271824518078376,-0.03340616341518562,-0.07712753722035515,0.045208929575150124,0.07923414906783294,0.04982306038663922,0.017505050318759402,-0.0577698933023132,-0.029857498862902954,-0.033747478880772216,-0.04350177961318967,0.035636828937159526,-0.022068162310406394,-0.03645403495954924,0.05182002091133503,-0.013828852886114651,0.04627793462872986],[0.003943653772854106,0.06497449966095999,0.0035946679766789328,-0.058652717717107464,-0.004674239707061141,0.051674657841553624,-0.017157168971533417,-0.026698940816604896,0.07963062347701066,-0.04288599835548748,-0.027993677083286424,0.003648035139735614,0.029578223807529086,-0.04229672886158036,-0.042075910787898026,-0.014382010110586483,-0.014557068921435183,-0.028304892288833455,0.012421016427212266,0.010566639590597837,7.255566795611504E-4,-0.07780140060029979,0.06806962486527629,0.05082776972131332,-0.017843043324778752,-0.04922229906945113,0.061917530331817086,0.045658143138980756,-0.03062868506561728,-0.07674829582898994,0.010793988579658352,0.008438700060458089,0.03208205300140037,0.07324011995036658,-0.03161996549948914,-0.03642345583538942,0.040604161557056706,0.07244690917432717,0.07988170287755325,0.07766951567147982,0.0020817674704026964,0.03221392345845188,-0.08273742340054074,-0.023794246538028366,0.035714513110949,0.03959732242888401,0.002909996568110686,1.0373827318480613E-4,-0.07211497928739326,0.047880382537130645,-0.07906758137231662,0.07374739082622461,0.04828761334099403,-0.07060783802723428,-0.017120798737164173,0.003741175572224935,-0.022405064643015737,0.015189529536604842,-0.04632169326991316,-0.025746497710108354,0.0295248637919395,-0.0600643486964619,-0.0035784139686024364,-0.08044911319187377],[-0.037407518018349156,0.025618192637008156,0.0022845931843805505,-0.008702948955131377,-0.04566397443603213,0.04454303359548937,0.0041513883763772295,0.057648766185289274,-0.03159338602504443,-0.007503113455947924,0.017056686717842016,0.05512962632688977,-0.025208549858255987,-0.02917270641730141,0.06968059766244551,-0.07814344295699312,0.019084115334464278,0.020821328017397167,-0.041527227032260305,0.0528413847992009,0.009581429471328383,-0.038600275619014975,-0.06942213208025186,-0.03203392899306482,-0.07294829370450416,0.008120843420115598,0.008463133183904764,-0.015389925669432538,-0.05749592272464124,-0.017372622232487478,-0.03815118140077174,0.045106626117806886,0.01782581989407725,0.033183612621149265,0.04798628872013657,-0.010731402033770406,-0.03725535387921777,-0.03133384810760458,-0.03707028857973761,-0.02211313144343373,-0.07188114839698947,-0.06490477533909046,0.06810393732182725,-0.0019846188745278543,-0.051159508028193135,0.028949905408450532,-0.020099965155368545,0.05038436339436626,-0.04809058576710791,0.059969558704288405,0.027413135679033876,-0.0052289321360474966,0.03668507092108067,-0.07416280584907221,0.014484960756235135,0.0362724430079996,0.03012978854917914,-0.020372119573891213,0.06599531505686333,0.053194983513213036,0.011727894542415872,0.03111319223695873,0.05573116370702574,0.00368620224005898],[-0.06673602139301847,-0.06457272629515147,0.00931969126746733,0.03535926300801676,-0.0819287585045679,-0.04423710285726301,0.061749103742296335,-0.05908352901927958,0.022416677681966864,0.04506205374269954,-0.002465316274506848,0.05675793486580944,-0.05480032383156715,0.005767000892212608,0.06566786005464535,0.001564701678705944,-0.0023086550909006266,-0.07735630262448646,0.080079235707388,0.00444829742545047,0.05037927421476959,0.060135873965330565,-0.05092013268207134,0.013448200257671855,-0.017728673853212938,0.05856963387691401,0.022236874972097514,-0.02995575352235126,-0.014946934107041121,-0.06957263260484527,-0.01760435518796712,-0.034227191435345056,-0.07892676999628441,-0.045053412425376485,-0.0606134291274008,-0.031525304793299035,-0.06907779080309004,-0.08036079152183795,0.07718526988358203,0.0347467101444589,0.04416576940424632,-0.0011610696341023364,0.06151941437230862,0.047184383928376025,-0.025319560620621517,0.003961508085877252,-0.05656764500268872,-0.072511550637157,-0.02797593957116796,-0.033787871223790025,-0.008572268430575547,0.08196425098037066,0.057060368728005316,-0.027739397206974093,0.03144120778050231,0.05784660349383093,-0.030145119738792317,0.04533611712057546,0.049042582050181,-0.056490469613357866,0.05512815482357069,0.04028542647481718,-0.016205522705550333,0.044077135010492846],[-0.006601036837391539,0.04834078274952777,-0.06573887579560717,-0.08029646172257138,0.03528443562821668,-0.015439345469027777,-0.05536958807127038,-0.013950268411347454,-0.05066992037759177,-0.07613374901512973,0.07656186005258077,-0.02517027042602002,0.08356067931230018,-0.07006179698432233,0.02166807556680772,-0.0721866307153478,-0.0750576311083192,0.01532232474995202,-0.02152470849966408,0.0018371972049309882,0.003016197433822363,0.07872892908763139,-0.03226745527312599,0.019138470817626745,0.02503360360588622,0.056024425149099846,0.014713632110408612,0.0694413096789494,0.05125731869363172,0.07602724601239097,0.012968548109054286,0.062383129972187305,6.449762336647832E-4,-0.027909339486254087,0.06875304829603548,0.04436252535371109,0.06383016665738482,-0.07447923838340696,-0.04833896112611958,0.03302665838234434,0.07399721727679706,0.05439838851598001,0.03870314752272063,0.02984392571118158,0.07117245649735636,0.03811220197567863,0.02244169390567889,0.007870457624573148,0.03199828378161283,-0.04649550380058317,0.05239574100860019,0.0754764404465724,0.007223219726232362,0.05651851644272448,-0.07124263153570717,-0.004256226345210164,-0.07267366661743241,0.03105117979333281,-0.04400086001700462,0.010661583740431727,0.019175219025994342,0.010397828024160087,-0.04104134008235004,0.03937827440180997],[0.04827393284455471,0.0634228805322662,0.037765311727375045,-0.04036379401026339,0.06997471902756933,-0.0035795560246595446,-0.03592616662571193,-0.010216679139770184,0.047608587733826806,-0.0753181900569928,-0.05637433324093311,-0.048969746063126485,-0.07752580434927546,0.0031705900659127185,0.06851043352742606,0.0788282567045168,0.02270061048945065,0.020369889843907394,0.01737002870814055,-0.063075582345798,-0.03672505096252064,0.028738806086138196,-0.03474443516208237,-0.07506869987611418,-0.011575240134145333,-0.04125051796070927,-0.08077105093295012,0.06434766655230569,0.001721565223115404,0.007996101986599799,0.08200634366012793,0.04161518567063879,-0.053724106565910625,0.04445239138457463,0.017331288885602734,0.07482268632950287,-0.04916612969415995,-0.050242769826484374,0.03983256790741177,0.035080408449976314,-0.06474115623999376,-0.04056586676200301,-0.01472187219053004,-0.0539735706841574,-0.053782518301961756,0.053171699097562954,-0.03806967683995112,-8.495512546913797E-5,-0.0031344478312998105,-0.026754538967036452,0.01618905304432824,0.062363029585935426,0.02452654631121093,-0.058187486863711356,-0.030047276116536955,0.0561344416714763,0.028510456325113735,-0.027207887247433487,0.01173598927238854,-0.08376915364988373,0.02980523925603878,0.06531833902457719,-0.023272230232527467,0.07853112108028788],[0.04654788597382068,0.055380664672635596,0.05362503548427496,-0.06453234311693379,-0.04660260283265055,-0.0510661462684429,0.07568636616961522,0.029057758438186237,0.07620371802173971,0.07821148693030465,-0.04460006618109896,-0.028772838918492517,-0.05422651408433374,-0.042299672573959515,0.018807148739558903,-8.377639479995241E-4,-0.06282561884416256,-0.026820759178689705,-0.05970710734861129,-0.03295424532593128,-0.046322695201020024,-0.00588817616560005,0.01812906787182223,-0.04775291813535923,0.07694624329657775,-0.013018330828364552,-0.009355652132767735,-0.039674683872950055,-0.01280531619746691,0.029322842978119504,-0.06741138877557323,0.03952540609168689,-0.0646799870172479,0.04751566365108343,-0.00127560009229108,-0.025814851810965062,0.04513676461823526,0.008462546220322439,5.211408588128587E-4,0.049631640157918634,-0.044985954602725066,0.02415023160115413,0.030958817768183856,0.06315448533802295,-0.053848877230846706,0.07680406002744823,-0.07267439202100746,-0.04141615622289035,-0.06329807602745274,-0.0010714510229115992,0.05949056026614566,-0.02285239895939211,0.028487876769454648,-0.07101073035671301,0.07732915794371532,0.05640980660068846,-0.06258844448581391,0.0450014549686406,0.07132050261721497,-0.03096510962175251,0.0220616968233048,-0.005482840802238643,-0.01880927099127436,0.009564104418504412],[0.02757745158139677,0.05923731421138529,-0.006873019591860735,-0.06107219312241879,-4.0813145595888014E-4,-0.018801624500461588,0.010834446546627859,-0.03841827829580989,-0.025190656048228188,0.07122988100334458,-0.07864665606331357,0.03895942754239299,-0.04647808705268248,-0.07129901217187751,0.003079369156993634,-0.08096259429132122,-0.03615114957065048,-0.024059215676525105,0.011414547009781739,0.015505043743924276,-0.029195276022504695,0.052301135538214104,-0.07267526388933795,-0.0636508688378014,-0.027328352053513826,0.03937985512530964,-0.07261868420274616,-0.007786085436618585,-0.008828314807411254,0.06916674616043753,-0.004975097197607873,-0.0461202138482926,0.007139094925338805,0.030018029429929483,-0.019065875358649245,0.054948173084806574,0.028772007034675633,-0.07667767006043243,0.0069462860956480115,0.0370312854858802,0.07590089025147656,-0.07695416060493988,0.0762871942784285,0.08013983337673407,-0.074568242487344,-0.004522404646583098,-0.03701560118725057,-0.045790441250448385,0.0057212417568200955,-0.05272195527961745,0.020064628987017042,-0.05645753328970511,-0.06366628499636694,-0.06347625908937929,-0.036597868612384316,-0.0648654072927608,0.08104276731002631,-0.023008242903402906,-0.08032096980834873,-0.047241104164891065,-0.044358945408318244,0.015375261701854406,-0.003576751290870032,-0.05046159882347523],[5.031996633198995E-4,-0.010687683533846463,-0.05998057370362092,0.04196005461066407,-0.05697461756792487,0.0010231150436511031,0.08166767528324663,-0.0639604365471062,0.08028920955393258,0.008914139331350412,0.07709613235125866,0.012462909394237838,-0.05030746555709281,0.040646867588773984,-0.07174511964002465,-0.08155809342675113,-0.08267732526628552,-0.04943051256604479,-0.030640941130217772,-0.054944602364990665,0.032850912341611534,0.027733250115723352,0.021951900793603554,0.005449532923724245,0.060089036427636286,-0.04922134948001464,0.01248500133509462,-0.04432265903066139,0.04500985016451341,-0.05972190948966495,0.004200903101078878,-0.045843185582262906,-0.05781383853020451,-0.033053683477464915,-0.01397653237356158,0.023308916606662542,0.03693863919988816,0.0839081953482058,0.03699852436105423,0.08274639722541963,0.07167891627920492,-0.0381039511732623,-0.07593628996350756,-0.026201144302957405,-0.033540328658840206,-0.0196931270003983,-0.04460763837052149,0.07785958484856294,-0.014933585033874475,-0.06596956246674132,0.03287714849714588,-0.05675738473994861,0.0467846245056478,-0.07364449067254082,-0.06499018965764444,-0.07446704488744024,0.015268141776684837,-0.016523168178771978,0.07591035482228922,-0.026484622717196406,0.030440837038479253,0.02195534487514231,-0.07963962742236942,-0.04578780721677919],[-0.008440604287306103,0.07097464699697702,0.013711570576480519,-0.034504610048163194,-0.003542235148349969,-0.0648489528396178,-0.03513209452384767,0.06017427245446138,-0.00621229107706208,-5.790883718907488E-4,0.0356755712309779,-0.05361638696309835,0.023154537972389564,-0.012752010282480067,-0.05449628545660383,-0.06761991483611267,0.0194490813901373,0.06443311567801989,-1.7277234812782474E-4,0.06790414018459216,0.05795164460780446,0.08473075089255674,-0.05319736867756452,0.07905653733628451,-0.040553585706040195,-0.08240773782188178,0.06653165067976606,0.055510824355677085,-0.05978648525353887,-0.06649107640720049,-0.027814906218186664,-0.017947098293943527,-0.0177501093575135,0.016899160751605607,0.05331594730635682,-0.005066763053000694,0.034249208591684836,0.02298296741520462,0.004662201660485724,0.06615410150143193,-0.06899551534744007,-0.010476099205333005,0.08370486250024478,0.004109804658855573,-0.07650935528513637,0.07170520225358039,-0.06716054219374856,-0.058283705778179075,0.002476459543296,0.03187806036849242,-0.011386826740392087,-0.010585414223319352,0.07797078684853646,-0.006738143423969963,0.015754943644655562,0.055960890646816676,-0.01720415705764296,0.012790044788700227,0.07386955641044396,-0.04295091855803291,0.061000199487888776,0.009177279928401415,-0.003247581528158681,0.020852675275565682],[-0.0767833330662648,-0.08908860624924658,-0.004408622449371602,-0.07440945640234861,0.05517280697834511,-0.0012753193212772657,0.013091300852708862,0.06974535307036682,-0.022109613528998807,0.07567673980039874,-0.06541560507757156,-0.07151490457542112,0.05498557499106244,-0.029479650566756516,0.07739912218335482,-0.07561274348861172,-0.0618925892638199,-0.021308176864304945,0.02578245540417858,-0.028434596108309448,0.08056510728276688,-0.022068576148590213,-0.03293322349456161,0.04108796743449244,-0.08394023406340714,0.08338596151178307,-0.08385950188912444,0.06572612641903161,-0.0568648287954258,0.06488578712447989,-0.016515249495863128,-0.07504578681691967,0.036778891707528925,-0.059882666997437356,0.034363263945871435,-0.006962078284045864,0.027437700898821065,0.020222314579392133,0.05929116990556436,0.0022621251767007524,0.07284292564367377,-0.006542824734036695,0.05212604685817255,0.04654345526263982,-0.027635692879215322,-0.06766566488165023,0.028838634349240725,0.03200787829328375,0.07533350201583222,0.01618057379045026,0.001493692849119078,-0.03627793348216594,0.05624107518972473,-0.05046411072097105,0.07748182436301318,-0.013546032127044678,-0.04172203728845899,0.00463844550927305,-0.059111896701120145,-0.008397542039264922,0.028541033737515972,-0.0029579015503754425,-0.06648512656481916,-0.0699638943064769],[-0.0024975756852402015,-0.03469846996988771,-0.032850612557699055,-0.03241186411956029,-0.08485929363110993,0.07685628052670694,0.03388467002895196,0.007418488178069527,-0.016831020109328063,-0.0541885088165244,0.04306837744769213,-0.08203037348407495,-0.050254224520721744,-0.07932681410334474,0.012087865470110365,0.060087009855411745,0.008843054101974513,-0.05292489592403484,0.007207201209949781,0.04646523335927187,-0.03874112568378375,-0.027996905391554274,-0.06137640726592837,-0.08281051354293553,0.02552645016204857,-0.0477795673090683,0.03178116601607703,0.024592337506610207,0.02215685568105405,0.0017050274058472592,-0.01133831988902315,-0.042988201235417786,0.06594353969959336,0.022450387399018588,0.06080186078977522,-0.03978285331108207,-0.04760004176192925,0.012630989304601895,0.045782818492351836,0.0468572653500954,0.048514147084481075,0.014937326125823281,-0.040737543360780046,-0.0662163599254851,-0.008476999726553023,-0.0541375722122832,-0.06035143466698762,0.022796279312690054,-0.010379632043332114,-0.01855192804964158,0.03631050823487653,-0.04195356765604897,0.02557649596484872,-0.08094547302837242,-0.026871184980727436,0.02616912661530907,0.016439865009920458,-0.021196824464255026,-0.007931340745731789,0.001916538803762691,-0.04046345209913658,-0.0574581430022763,0.041016908159308335,0.07545927051656721],[0.07154924370336556,0.03752089887926822,-0.06716766304393358,-0.033069720753577045,-0.011541591670157713,0.061696609452601144,-0.05743916585757911,0.057711834561144336,0.057275569499341684,-0.07187489530466228,-0.07611020199314206,-0.08286143354644797,-0.019443940125025535,-0.01381686703026091,0.07637030554809958,0.03915974883763058,-0.05761076564758239,0.06286695872856252,0.0733536874666275,-0.040053265532808996,-0.058498542626588934,-0.05222675559892579,0.07674728927161309,0.050310513278003066,0.07631818670943802,-0.0012453491280299688,-0.026577001670577534,0.03452796077248366,0.022561009020487736,-0.017304344817474233,-0.062167442588210095,0.04137586364225677,-0.039185063361843374,-1.010107688755079E-4,0.0028731184388601856,-0.08017919913124064,0.03984829139165969,0.022840928100375472,-0.030191450837180184,-0.003000416165591892,-0.06600573338150699,0.07861695582812285,0.026599977499159246,-0.034320569621040804,-0.06855752037710693,-0.03959190440782096,0.06642372756207517,-0.020840203450396513,0.02134854825133264,0.03979425718042153,0.039439273398342085,-0.05671931278764202,-0.07101437032640556,-0.0780433697442696,-0.0028834162534090496,-0.04405898309372452,0.07107549040819093,-0.042660212895496034,-0.05362488332774246,0.08638369994699499,-0.02526067223457271,0.018230638487958695,0.022296775402642605,-0.009138252352670831],[0.0404357426502592,-0.035049546113897115,-0.04499327343634948,-0.022446879268183326,0.014172998779269865,0.016125817286506725,0.03945137775581399,0.056958484565041746,0.028371284099334353,0.026876047942662136,0.03353008166294385,-0.022511734589072543,0.043666223667085925,0.0427525763805356,0.020626683503114553,-0.057743076919357914,0.04553513684620337,0.017597572034175547,-0.022062847318957756,0.028832236776936693,0.014150612763788623,-0.03580481476070485,-0.05367953162115684,0.08251402212041889,-0.031669936236015495,0.06870794467643423,0.03907804073865889,-0.029451114741803237,-0.07934317582954373,0.07582693014632018,0.07914958085107582,-0.06493397204582728,-0.07363149796425479,-0.024674199745416285,-0.062432134192042445,-0.0067111275881495125,0.040377143738240286,0.07829789143523137,-0.03756617686939958,-0.029689909626187953,0.041216736423202394,-0.060681661090852074,0.025472387772223923,0.07334413999006933,0.04549865032739419,0.05131553286436201,-0.03633229899810194,-3.5215328942228883E-4,-0.028105579058111507,-0.02856185676542023,0.07046598052064411,-0.05718165965948631,-0.009285517769183219,-0.0359839223355416,0.022919012784702437,0.048370632488496754,0.05819618698711303,0.05326831382949328,0.0810288420135864,0.01283682085934973,-0.004346209420253517,9.116742733333432E-4,-0.05221804475764434,0.0018724059544262613],[0.052028281852934684,-0.021719393760594074,-0.05133292213690682,0.06187684814304214,-0.06649717945142194,-0.008004046372055009,-0.016825018950577045,-0.014554324871742779,0.0733490951513385,0.024340227742502076,0.0366286260290724,0.03713025261807963,0.004517415692589524,0.0038801999275137346,-0.00683965544524745,0.06808533702119991,-0.07746408681508733,0.017012817207554896,0.07817966587860418,0.027079454645545262,-0.026969156229008005,0.03604380162146653,-0.07788170534178741,-0.010035914632132511,0.0744100776897438,-0.02467674488495719,0.047882230962441784,-0.034182134895346675,0.021511018963114633,-0.07256919118762682,0.08075324725307773,0.03281873493357002,0.0245826696227798,0.012522478836547828,-0.05655573247359443,0.0628721557796701,-0.06232365263122352,-0.035981159511544764,0.07665803716342685,0.0725777572484127,-0.0439218474297786,0.015375419816830096,0.0818787638035902,-0.0073557853016906405,-0.07940812043204129,-0.06400460775032135,-0.015334987831169988,0.07763618837369349,0.05933535831244445,-0.05858114396172854,-0.07120939125058544,0.03753072835450681,-0.07702702561532247,-0.04221684631737708,-0.05028835697918926,0.058246850388789476,0.011244941694614083,0.055425002681129036,0.004922484770580534,0.07891163781797893,-0.033157299024133086,0.05826497014007671,0.0370098618994397,0.06754900971537563],[0.051377202507798814,0.001682795300372159,-0.021892617486116626,-0.03879417785991646,-0.05050974594853507,0.06675102517618388,0.08165362578735579,-0.012919303409657495,0.07569651511067899,0.07224190018655757,0.08368054773194766,-0.07559022966117904,-0.058427169733292546,0.04513512164528669,-3.666061207459848E-4,-0.0716060497891237,0.033503907856201415,0.056708737716909416,-0.06147258276665833,0.05258048614677855,-0.038831933009957645,0.0415566134445446,-0.019921674097842252,0.0676161481006141,-0.03291684688637822,-0.07812865457759072,-0.019801934975153306,-0.0739539741684294,0.0071132046452728375,0.032163430280850676,0.0037450445571021707,0.02917761397699262,0.05298664189956103,0.052034965377911024,0.06310880550181186,-0.05440574360817319,-0.0031356840801437524,-0.018203943747736477,0.07945956697650784,0.06570264586338861,-0.06847109334850099,-0.030419108949052434,-0.03371993475378112,-0.05761665012869509,0.041724034510055304,0.07517985867837881,0.06932576159067427,0.0878325500344066,-0.046690370983579386,-0.047928363071183026,-0.041582764032168616,0.035775325643642934,-0.018316633063639117,-0.019811144158163235,0.02900431665610648,0.07692089036497268,0.0807780256634623,0.022378507546917104,-0.025422677978760043,0.08539165696884479,0.06471783003030278,-0.022406621715849943,-0.014106222724631245,-0.04516155151262582],[-0.004728108159795477,0.026027006126234962,0.05614244605548535,-0.04896257978089658,0.060482758819682673,-0.008562723630119827,-0.07218296394853271,0.03216493991225387,0.03569468739221358,-0.05682621851231455,-0.02795706770344939,0.04283432104296536,0.0013188761939736519,0.04447858842016298,0.027795512844987477,-0.06433276863378672,0.0701918366457086,-0.028379421836819154,-5.097826640092395E-4,0.0065799856837877296,0.023840651351027548,-0.019505792510516415,-0.010964589330676011,-0.05701885405956372,-0.05623535281662121,-0.07127208414269592,-0.06517846808719897,0.026908349365999645,-0.02543745681070147,-0.035731733927297386,-0.07110002667481716,-0.06885850414771796,-0.07075059971653638,0.0037176823518327534,-0.06956042021162923,0.07039149184737188,-0.03733709543572011,0.04283870542313978,-0.07716252906907393,0.048463505710686555,-0.07465625215274214,-0.03353149647815948,0.06642488833227925,-0.04356872800449701,-0.017569788855963754,0.07805698942367506,0.036849211747786714,-0.02917763435661128,0.0027759529855248153,0.05822764422994569,0.0019161781906804635,-0.01852496106479105,0.005161475985185369,0.025449821202904996,-0.04604024261114999,0.022775532294979958,-0.06742480940884125,0.03551720554160196,0.01258757251551859,0.04333496205226453,0.07932272792654063,-0.05496656026001997,0.03855432817102955,0.08251749157750156],[0.06761877804327251,0.05114249556676464,-0.06488236717275983,-0.005992872983463126,-0.054764559273025794,0.0852348964079128,0.0362724189119991,-0.07207387600728822,-0.06621613083420998,-0.04019540263752879,-0.07502039885617161,0.022110464797950948,-0.051729136667878435,0.006487234829058066,0.013538371670502166,0.064065426028368,0.0058651297654041985,0.06742599217465237,0.0062206630635652585,-0.05907844833524143,-0.01933353708262888,0.07253502832436223,0.014921592528476448,-0.08047833236253973,-0.07795028792250802,-0.08430850551674118,-0.07441149820635645,0.05911676650492534,-0.004522388676260558,-0.009735220487706153,-0.08009697862256476,0.06926261197495398,0.0741560866845266,0.004575592960408109,0.08148463190767447,-0.02225512484358317,-0.04000177493162525,-0.0847208714837544,0.038411265040734596,-0.045718720781037656,-0.015862969002091425,0.07876692932765622,0.004652800464201579,0.05771544490965799,-0.02886508233162704,-0.02959301047489897,0.058793249020515886,0.070992589925984,-0.06315652557132702,-0.026437352404483562,0.03545479351308383,-0.007909754370269164,-0.0335359041879272,-0.07375935434394838,0.02708487442807261,-0.015634644799363107,-0.025222921474127212,-0.04809338263911719,0.031798435061341605,-0.010495284343951694,-0.04027769157432859,-0.045090402755485995,0.006910472402957177,0.017536661775755167],[0.05402453526129217,0.03377300353068073,0.07630517561215204,0.08655006063325511,0.020135701327412842,-0.03766947726709431,-0.050517334159887683,-0.006035755792743841,-0.060205818269107994,0.0729571289288755,0.04944490746127358,0.04849273640181924,0.06793346365594025,-0.046549289097544064,-0.01838441690109186,0.022470676127131255,-0.031015955206552197,0.017047937306183165,-0.009672368052630088,0.08936811793301717,-0.030583168092282016,-0.0027405299355132053,-0.043382825735383684,-0.04000775399035104,-0.004710002298883801,-0.049057333671140915,0.024638431684690605,-0.0650857184905551,-0.006087510897132765,-0.0242640614751966,-0.014084102238443934,-0.07843372773273488,-0.05586768051778518,0.006589737697851073,0.06673544260834477,-0.002321376087460805,0.03669692290602504,-0.021163923874327764,-0.05015265754354564,0.060011062360380604,-0.04591720127061445,0.07318808979157297,-0.053055002485984534,-0.07254705224310945,-0.06813012190617808,-0.05377987369222274,-0.036193604111068346,-0.03266909466981058,-0.08013258185061584,0.02004270475563824,-0.038210883024748836,-0.07213404151991586,0.023967511664422472,-0.05225370865818493,-0.06321383171078629,0.0710951624762452,0.029052340859467035,-0.0016415741698494433,-0.011201903299391013,-0.0014682028643590273,0.02315464726238339,0.05507755042965184,0.054883626454297146,-0.016507438879923585],[0.06283284393028815,-0.05814212002503246,-0.05144586831508687,0.08065860882580111,-0.036579255503769545,-0.01652631172943701,0.06933240156918422,0.04434407671185174,-0.04794526014632698,-0.0471339548995353,-0.02300705816832966,-0.062227341583371086,0.019728261175279833,0.061920469538744666,6.380292406205094E-4,-0.06607931521380113,-0.05220290464437133,-0.03914231777755723,0.055983237474227836,-0.023632796892232008,-0.0016750113213379366,0.005345351476830964,-0.001376729431894514,0.06187232000598205,-0.04481564664184206,0.017950504169108303,-0.03598159777616522,0.02414719109233884,-0.046012950275742426,-0.019682926984452204,0.043239256064823484,-0.04567895421881723,-0.0721300540121066,0.015097150012985505,0.08451714087293967,0.07789124473848646,0.032769533644833135,-0.01104472402632558,-0.046260042217654763,-0.007392837381871881,0.03286566163999862,-0.05089313514870098,0.06142870796099565,-0.08289864657600851,0.030132404520016656,-0.04658134933296979,0.004741159767411305,-0.008158460141225095,-0.07187423696284186,0.009604058890658072,-0.08200863724115298,0.06936914384932633,0.05274470635542767,0.035695580585592517,0.06022341953140392,0.06094760004965921,0.07881321008203285,0.019657077480118034,-0.03166348855278615,0.012726390554516694,0.020668552824600808,-0.03436859424412461,-0.0037190274304159097,0.03601085379841264],[0.06627230829989246,0.025987913987975193,-0.012720613728428668,0.06480419159979563,-0.04724598048318705,0.022532312502309918,0.07813864003466287,-0.07279348855125131,0.01570329534507304,-0.07895988862099859,-0.020953350295097015,0.050439954255528434,0.0664632373171792,0.035788443667634784,-0.027916140292834544,-0.00531690116374758,0.04284697770112453,0.07594380057014989,0.017597397806652232,0.0016801532665496033,-0.0015470774370874181,-0.033131914994783726,0.07547278905034015,0.055651753810202716,0.02494975313760452,-0.07063061939170989,-0.033396104437324346,-0.025801381392856725,-0.02802991413073511,0.009083844746118086,0.054173865640769765,-0.02461197706869291,0.057856355611748095,0.03666306981139232,-0.038998938784300226,-0.04172681095220015,-0.04081416017566017,-0.016968575892074237,0.01940257101037146,0.06439040279441831,-0.0240932367025778,-0.04588841497918399,-0.02311844308024219,0.047622791209582335,0.05004988443189207,-0.0480606375634565,0.015233243959825532,0.04653402127141165,-0.03709757322687864,0.02145402381421787,0.06171327389738844,-0.054690280543129785,0.04136323994014061,0.07441674574679168,-0.07481233082458572,-0.06745551350035868,-0.03037411699036816,0.07274586716960826,0.06478219889955023,0.033587636027749695,-0.008788814055117476,-0.038729053849488465,0.04471059434265249,0.0615773360922884],[-0.051397310126038244,0.0641757227845941,0.05627444249390094,-0.005699530144333469,0.030333305052806625,0.03143311143869961,-0.05759004944662224,0.013722211526315722,-6.399625134649601E-4,0.027229010440636137,-0.052454774939326175,0.013472212049466283,-0.05212011297140777,0.06555144163862049,-0.06078540514047475,-0.010596400151772403,-0.027410141483456413,0.019884798916462956,0.03235322864604528,0.05968129707811508,0.03091024365357877,0.007458306459721984,0.006158403245458259,-0.03305553160000019,0.06571179330339419,-0.0778142681470564,0.022896862121883323,0.0813056188047719,-0.03374983713182702,-0.06540799083998573,-0.01975890075785267,-0.04205706824507409,0.04395154948226265,-0.016154464085562287,-0.06895559817408395,0.0221533078405788,0.06287780376853715,0.05154245034101751,-0.04240636571621238,-0.05780291804509125,-0.015066223636686941,0.07580168436580141,-0.07644756243226902,0.013047623622466475,-0.052120482058150466,0.0012095123546748436,0.0323457009327676,-0.03987229168766959,-0.06858812061943893,-0.01832420810444514,0.03277659319288938,0.020114261631329764,-0.036216026962841874,-0.024084381417580826,0.013483553865375588,0.0251687394306565,-0.035164347793474666,0.010692653354660294,-0.07101284269767164,-0.05926089112151929,-0.007516295930684639,-0.01206609629756184,0.00673446098562622,-0.045889321899457214],[0.0582654710509882,-0.03771470289764037,0.08180962511376673,0.04638970860692377,-0.012839783408910743,-0.03720586658867986,0.021209750403174476,0.02416608599187204,-0.015158351392631367,-0.028099002716347223,0.023058478927253965,0.04950074702313778,-0.06869671896802597,0.06152260009573064,0.051208382932244036,-0.03904961115155456,-0.031695076590743214,0.014417471724457648,0.05750071692654416,0.049933457043370086,-0.005043173072994173,0.05850996242496411,-0.04057680819098744,0.021151784535075605,-0.041116291345573236,0.07968574542820529,0.02105607238014864,-0.05479011873693538,0.06158237979514818,-0.07354842957073843,-0.08015158585489174,0.05224589545069443,-2.9987073191496444E-4,-0.058630777765905834,-0.06294909998770903,-0.0480506841491919,0.028186119921502474,-0.07916147063969063,0.04517252813475112,-0.003571807459645061,0.08238933899591815,-0.006564139958482119,0.023434249000415065,0.027060795500841305,0.06420614747857975,0.014734583334473458,-0.07320014186952957,-0.006915808799786632,0.030182946547879157,-0.07490848960955429,-0.07286679079493084,0.01686677547686637,-0.0011227257482378772,-0.06300573701703198,0.04491881192051335,0.03160502946688163,-0.05735379310493489,0.07795651379145667,-0.07592381922512305,0.010374043141395027,-0.02401552546616783,0.08153333796096796,0.05981430542915606,-0.04530199573691465],[0.07731639392204918,4.4206057255228367E-4,0.014540638655773104,-0.045059464199077276,0.07912583536510548,0.04452456069215504,0.03634827666151474,0.05078486924597595,-0.014446960087121267,0.03827229912839105,0.05169229255415958,-0.015406654254547273,0.02079876037198053,-0.07869339364804759,0.015061095230882079,0.049758363905963436,-0.011606781460640196,-0.07479886462258736,-0.01806999228944464,0.06115365734976438,0.018531168809443395,-0.02712861895813981,0.08098975332332686,-0.023766524317007497,-0.01607902825743153,0.0750618212362687,0.05080723436524703,-0.02350602800711214,-0.03697436214718786,0.030292755664536413,0.06971201211715747,-0.08132034244063606,-0.013868730743881133,0.08033313129567628,-0.07120685672781683,0.08014850977550754,0.02533304078695702,0.04369460507197806,-0.020149842374305164,-0.039757836122806325,-0.00955799809585509,0.019580466597680042,-0.08300007847182875,-0.012800801376318493,-0.0043296798233912895,0.01722457544755001,0.033679787780783545,-0.0021531366498391065,-0.04919686529914673,0.07792779320928107,-0.07842865055241481,-0.0680441802775716,0.06900664269694638,0.024977224529107587,-0.04964426720563454,0.01943794647066191,-0.029853044632450993,-0.01024624357165387,-0.06676643256954456,0.07874428404587454,9.138372074574487E-4,-0.05318450956429958,0.035442011056524635,-0.014934073404579978],[0.07814444048742535,-0.07668990123489654,-0.03805241012089692,0.021403871039826387,0.06523031279483336,0.018034584021313946,0.035336158241906473,0.058279240289700045,-0.00904071072511949,0.0015181895116356079,0.04896775452511078,-0.08004895404179668,0.006930713202606803,-0.053449488823847265,0.07031383588571645,-0.007849787470895214,-0.06602987308486388,0.031119520235610897,-0.07563699660382095,0.04054956417804291,-5.779960107748589E-4,-0.06713836997321848,-0.04853493071845305,-0.03539615252746649,0.029810489836992856,-0.062359456856793366,0.03018940590054852,0.06273274460651262,0.012568846707319717,-0.07642776175663908,0.01448625662321504,0.07770776601165515,0.05706918879564592,0.07544587733679288,-0.005786092880820834,0.04843840038677058,-0.07828489705419651,0.013122625520741962,0.020720441408745363,-0.055594064583061396,0.018878653940563303,0.00598351001834673,0.07225492430392005,-0.015204109358777359,-0.01144763901285979,0.06561048938855739,-0.058264181449997204,-0.06677241234176104,-0.06281673773988129,-0.05751541692932142,0.06963186270886146,0.040331736657383294,0.056935775217980975,-0.06994505663082475,0.0022114562393348294,-0.06835647017646541,-0.003900190058587502,0.03048727102469247,-0.015014076070020503,0.04938058371842883,-0.053170965236703005,0.05586654827093963,0.06325411630607093,-0.012035643737964391],[0.06611901812959264,0.04311807225749295,-0.016725810296707232,-0.05570410494427066,-0.06682274358595698,0.0600838862931426,0.015642247339566834,0.054111352837190346,0.011952860717504054,0.06057972206158531,-0.0021799043543530624,0.0653478936594787,0.018583104101833,-0.07717319472549151,-0.054089748018220044,-0.03048479263379345,0.027470335749249113,-0.06874844205881729,0.02957184436478692,-0.036998118105537575,-0.012621610033186898,0.036579613765139025,0.064420485917115,-0.009666313206037896,-0.017421389984993,-0.026875918878139237,0.0036193413031703993,0.08309070643949304,0.05933297911679645,0.014692667071643468,0.03736099090534658,0.0642941540721414,-0.029233236760489868,0.03981798424460969,-0.013830916994506864,-0.007067912959167946,0.003443838234484997,-0.005957585128226878,-0.0573067972193307,-0.06265485176677503,-0.06422174182716121,-0.06819614543012667,0.06562013082641314,-0.026242875648797834,-0.022856715366897155,0.002018153613352665,-0.02812587061395226,0.03610708774500163,-0.008750091941428164,0.0753583197288583,-0.07161066726383511,0.05960566346331742,0.022933317878946168,0.06381524248942184,-0.061761746704730544,-0.07260328850790809,0.05988674004992935,-0.03403777345280717,0.047291637419562965,0.06824473235222882,0.06504268515290403,0.05721956076762519,0.027847539421314266,-0.0663445828943734],[0.026905145772383413,-0.045174356900421556,0.052137660935463855,0.002082108144274166,-0.05831964506694217,0.0527399887756446,0.06713779387189048,-0.07614036540691112,-0.035316229394046314,-0.08183855416339988,-0.014302463429104361,0.07663181099834628,0.05411270182792233,0.07018933321718497,-0.0017722508760020393,-0.0611489596952542,0.018034921554882476,-0.03134982697586375,-0.06742667778099593,0.004797290469271804,0.0645039419220971,0.06695822121349507,-0.061356836949270355,-0.05191569260370466,-0.06897371134446077,0.021886983404260478,-0.06236978892578947,0.07568029419573284,0.011125128606145344,0.016980457559328428,0.0727407884681667,-0.050756543689261566,0.07839465393333137,-0.06001190283733909,-0.009678062736329523,0.04118476206380657,0.009221812373099592,-0.027424203562978814,0.00876380701300507,-0.020733335268320188,0.0237906282036892,0.0010742327674381925,0.059215952740769524,-0.05593708022732469,-0.03710074688207344,0.04784924755913918,-0.03948186877668102,-0.01478964424604764,-0.07960725917939439,-0.029086291653130265,0.03551292708022971,-0.0035349916711842353,0.08252552515439664,-0.033346597319356575,-0.06737756449661347,0.049740775135662614,0.01777577169522235,-0.026216270394121725,-0.008974897011105938,0.02485921398560396,0.016040959771098467,0.04734799423760859,0.027531863595492083,-0.005936306746407345],[-0.026221366397063548,0.00886361647290923,0.02051449160775223,0.04863614016033224,-0.0037352793486982562,-0.012995492896472446,-0.012356292449291009,-0.053364339004776544,0.04863834751850453,0.04748103472201639,-0.010260404002730218,0.06890557194923709,0.046154695403514294,-0.07511941446409964,-0.002820763596198265,-0.024806630378144207,0.07614367804216837,-0.0031160659720706834,0.05731226473571144,0.045989061585526514,0.05530075553214201,0.06369617929312624,-0.06812398318032313,-0.05013463565753449,0.05550720314901119,0.035890254483378244,0.020586171285328074,0.07678005342783825,0.05012466075959242,0.048019128466839645,0.006458871682177251,0.006030007287621818,0.0251416970363996,0.019277324945298838,-0.04812084354184675,-0.015957239901407842,0.02231787350703128,0.014052233258086532,-0.07619194531025596,-0.0011383071118840702,-0.050245858669395564,0.05446364061386081,-0.07709654847910494,-0.07297783367665432,0.06795960878390125,0.05199090451892841,0.06460350736241409,-0.08357016327770274,0.05776539490226406,0.022070922801502454,0.02196865626906489,-0.016300963335672616,-0.05050110284935977,0.07935927818933514,0.05493150241554868,0.06387185291940221,-0.07889000391987044,0.05980330888760394,0.060032172641975634,0.06171480051540439,-0.07345134986508527,-0.02122069168748068,0.017064836575511295,0.0414507231518013],[-0.005058802384371586,0.03357903598343727,-0.08218553497510245,0.02296416603903175,0.03301163556600203,0.06391683401084156,-0.07498127878530414,-0.04461131256736467,-0.04414796688041495,-0.06876430542042018,0.014169674684081868,-0.0510887229537152,0.06706542140000249,-0.039373214209095744,-0.06926539783701777,-0.059766102854799025,-0.004503605602008501,-0.04021328782999655,0.07210679547189755,0.011048240431400005,0.07911674587095409,-0.07951470060490738,0.026547874830216027,0.001682468565392146,-0.002968341103385584,0.010423023086392057,-0.04744106414671854,-0.042332415183097605,0.007271922242790428,0.04614033715666071,-0.024872089052382328,0.04382491644530778,-0.024555277218160577,0.04805974854594212,-0.02474653739378261,-0.047505269077736445,0.01186609283229013,0.01569953323000647,-0.024558235824821847,-0.013156233343581968,-0.010299978604903797,-0.003883946326351541,0.038641874825331164,5.29875316819099E-4,0.07448209114225941,-0.08334778827455924,0.051876260920165965,-0.07675285067921728,-0.03628235245037187,-0.08371432856994666,-0.07892413619048594,-0.051007188910582264,-0.007577442691145079,-0.01805773993526461,0.06503887540464219,-0.03368223649495738,0.06347897834436941,-0.020739694316630242,-0.008927509657903227,0.07454231878943883,-0.06773319110123947,-0.07719532392277031,-0.07042737957209877,-0.008790577170651338],[-0.0356276581348964,-0.0673423359786559,0.08248471758232949,-0.045243429159786394,0.06588549420482014,-0.05911055881704519,0.0028415052235521046,0.015876257250931485,-0.07279660513027425,0.001475254232522789,0.05232720612055792,-0.07504675694385131,0.04135536582447024,-0.007389798154240278,-0.03191555610336544,-0.0077021285808661025,0.08231875480617447,-0.01673213273229606,0.029421032380603868,0.04251359240076997,-0.07556738698940092,-0.022947792718022643,-0.038893847935424025,0.007532952812667397,0.08322522569442627,0.0715704784105914,-0.08183635542041369,-0.06548490350470808,0.08250999791468147,0.027967423169944182,-0.0070242574950351196,-0.08258794196563789,-0.01270827767172516,-0.0825829009073111,-0.04920036152523697,-0.081634497101421,0.048515618864535565,-0.03578902803416902,-0.012167456808964073,0.0012129187570346213,0.06677758348149047,0.05128800393980903,-0.0821651629826249,-0.04213887252960342,-0.02286640825853877,0.023200562122887805,-0.06298141259004987,0.06192830764990319,-0.01280461541287708,0.07244030142772669,-0.03652509476780045,-0.043352256094210305,-0.06379738848381676,-0.002910843462405118,0.04927845787311176,-0.009561220087464059,0.019085377693366667,-9.184417751207547E-4,-0.013079773593584048,0.054402490371617415,0.0568618542734229,-0.010261790843124742,-0.022333192336238292,-0.02475720733277097],[-0.07439220194555872,-0.05661623787600791,-0.05241247710249587,-0.03042351100686894,0.065817327092801,-0.001702415453358702,-0.05304199495549938,-0.07269226868539823,-0.04153750558033454,0.04665875498544695,0.0497538654736733,0.007460299244499565,-0.038439204296699614,-0.060721156073612385,-0.08185551758180858,-0.08132525473589168,0.025121133914065,-0.039632243068932566,-0.007591874392413542,0.0015897369821281074,-0.06266476215986236,-0.0694815223922528,0.03439733824627008,-0.05735643082996399,0.029912567221054304,0.0606335963402168,0.04501750587466492,0.06899152312150253,0.050941609274443245,0.009558986034395135,0.08327635998987921,0.037127870437097685,0.05953702748177926,0.06494780405490778,0.022708814097333736,0.036097076801250474,0.015308135880351938,0.025118357126872073,-0.04217428094573195,0.004281276919231118,-0.03319895016089667,0.014563425560268578,0.015077737900302153,-0.014145109741993796,0.030496022998125212,-0.024318436082602996,-0.05515177742413567,0.020332151321187573,-0.0327974222704479,0.04830810378366627,0.03563155724286222,0.044607160750527196,-0.08122273621176795,-0.06631592500471449,0.04717213632485954,-0.06124172545476658,0.03572584868729465,-0.022135446446746806,0.006719657477862253,-0.07540278853901058,-0.07718257278937077,0.08166834700054272,-0.05597430223653164,0.010708436009510812],[-0.02917697857321062,0.05308658543680206,0.022779394375442786,-0.042346278277919834,0.00801993033738562,0.08299916619041456,0.058070663945298515,0.06875977665603301,0.01583770353252738,-0.02604589762812744,0.035624561143098574,0.01424300979111103,-0.06444106119587441,0.0799511350693794,0.0339131082426595,-0.017966365656469224,-0.04859636362776256,-0.022905881583233385,-0.0018904197429733577,-0.0219007036777232,0.05944293929865193,-0.0658364193726246,0.05947645577436168,0.02695939530680309,-0.0021775469979777944,-0.04003452883653276,0.030475864671033595,-0.06294352661204805,-0.016929138454035878,-0.07244969412624584,0.0733175709165267,0.02826542630968777,0.01098481160120312,0.05005520794965226,0.047512838322753125,-0.02492071411979618,-0.008543653878187245,-0.04076148463695894,0.01814365392221743,0.03616194255118188,0.058491279418787956,0.012153291544339537,0.009040643261718653,-0.0027553245303836775,-0.04477676580809757,0.03604524715285172,-0.031177166003860085,-0.03567418594856178,-0.046956963319733154,-0.024220427499420105,-0.02050039212517023,0.061481921906817144,0.033737037253408,0.017339724970656948,0.014629105637802724,0.02937820533205245,0.07271632855626439,-0.04005455191995284,0.06564776921183825,0.0506217315376026,-0.023628932857025383,-0.018169091322715103,-0.014248158946937806,0.005275794112662176],[-0.04831494954322752,-0.07973712080071026,0.006962291950155907,0.08383694076072788,-0.08069696969071999,-0.06579256272126653,-0.0026879799492588985,0.05858041405600022,0.08331498085744564,0.0668427892463358,-0.08228349866977504,0.08044587750418764,0.06564274048500207,-0.033430522570313946,-0.033725060735290906,-0.08370930519781836,-0.029710895974167064,0.06533181794151144,0.02065460171886371,-0.04072312718371537,0.04347737683221931,0.013874723397487633,-2.670300935252967E-4,0.05748217464485093,-0.03302365931296752,-0.017632286176846763,-0.05399781111221033,-0.019949592315482458,-0.04434490164444263,0.06498967763165163,0.06229529322198597,0.08218484737978546,0.03240902340099896,-0.01082999594825825,0.06197855029106262,-0.06571464199974698,-0.03681104517565313,0.0532148378042275,0.0641217801167971,0.05179457695483584,-0.005062257321877719,-0.08165789177640148,-0.056710881301668896,-0.027620933384212096,-0.005259507985824997,0.035901276037883824,0.03893427501115174,0.038318372702376445,0.08340388747487139,-0.022707903958358408,0.060419718468382975,0.008270934667420267,0.04118596553146709,-0.029619399907087247,-0.04462315692910875,0.060085753622937006,0.016453254133140534,-0.07169117056511312,0.02989597753564104,0.06782890922315779,0.02074453554780264,-0.05134079998989682,-0.07535521591995224,-0.06938497267750997],[0.03136260520050669,-0.026609426319459607,-0.0708955265426594,-0.04830732538455691,-0.07376667912302885,-0.05439607987140694,-0.0729731926309392,-0.06268342998200221,0.041650768965772585,0.06518937366407511,-0.05002880582484846,-0.009113657250348926,-0.009754318344813122,0.027248456881971427,0.07308446602532272,-0.05874377193932028,0.05139763274972796,-0.04449280836564085,-0.06554764905989893,0.0032579077228033306,0.0051379168865662165,-0.010772911733881186,-0.06833661134087221,-0.08148868911510847,-0.04785140126363491,-0.01207060000030641,0.03213541725632782,-0.003913117613884105,-0.06933432665506088,-0.03675471811627468,0.04804956552195719,-0.04781001972893468,0.06093522038895215,-0.02795389735563978,0.07807523659894657,-0.025422630821243325,0.03868169481264187,0.03239791427327158,0.05337122035912119,-0.0737973386562891,-0.061464797664969824,-0.050444114324033874,0.021251923701971803,-0.03552103108191857,-0.04711937624184034,-0.028787014195152845,-0.05156171519663546,0.03414654744518366,-0.039255842734667465,-0.08165081963585931,-0.07909401325464158,0.04361839580453757,-0.0802368462527382,-0.057625728950920614,0.0523791821261049,-0.08164583233469155,0.06413240778303776,0.06219241699594364,-0.08373664601803288,0.06452332481670936,-0.06361443696831968,-0.03599346950661481,0.0514576392086775,-0.004114051812035208],[0.05891838850170997,-0.013794290120025633,-0.056791818800134744,-0.045397853157825366,-0.03794392589256813,0.07749638663008121,-0.030446681318751258,0.004491814937371085,0.052244522382084393,-0.0728594419147278,0.024310735733142737,0.026438908577258516,-0.05507628030893112,-0.027086696309360433,0.036444916933039063,-0.0732660057143148,0.07296319146127002,0.00825957095767952,-0.017868997131548804,0.07610263840302206,-0.033978672212961886,0.06783114859590281,0.0100802130139944,-0.07806598707470157,0.0505843424979781,0.07597161684130907,-0.011418945872347515,-0.01428352419468885,-0.028592534360474396,0.02474344833275869,0.0584955311451674,-0.031871895957301125,-0.004515259571492485,-0.01634322605664075,0.04617332026600649,0.02423341471739546,-0.006331428018536049,-0.014007227581532018,-0.03102188194424382,-0.03555434707286863,-0.06462771939603716,0.08077021200182412,0.06472539824931646,-0.06333681450346507,0.08378154594796657,-0.07952463371084054,0.05823984374797115,0.06924020949442668,0.04446311708232681,0.003603080967497267,0.057974626937880566,-0.015623899629469465,0.08201206690731873,-0.07342214000989107,-0.04183085803850967,-0.07728682216086379,-0.06998431100985732,-0.014698079849413799,0.023720788938588148,0.08114792178354757,0.064767462821621,-0.009019104022578175,0.08017474780310942,-0.01992710559375235],[-0.046944499484496076,0.007925675313730453,-0.04495432272805224,-0.0648205771243097,-0.010882037623230947,-0.05383722468220799,0.0016031010158216899,-0.016806139630730174,-0.0682554217717129,-0.08074843767293935,-0.032137759727563185,-0.040065124432485034,-0.039246409640341026,0.06513574140519587,0.003604350410874526,0.07065113180759808,0.03606056088891265,-0.04406492335776468,0.0647167161805048,0.05699351220286054,0.06888092351530761,-0.07523623207843638,-0.07706568515587693,-0.02610482399797398,-0.016138195365216254,0.005540490568698324,-0.05276333414770358,-0.00985084769794281,-0.04778116690766929,-0.0787185296074503,-0.05343787841610008,0.03235450266425194,0.08082220673493481,-0.007662798292294312,-0.013586009731881107,0.051844979368158524,-0.013709293200310002,-0.038646231109432695,-0.04914518804009162,0.06567447366178213,-0.03745339367116046,-0.03313376046700008,-0.018247745797513815,-0.06456301160569071,-0.041014686599422874,-0.02886599123626234,0.08234543027636215,-0.08123633077928111,0.0158797437923948,0.021228812648431843,-0.06427169351051072,-0.0162127409491469,0.07631992530686771,0.01754275359558874,-0.06448464758468064,-0.012443836264629719,0.07040658736035314,0.03280558360252629,0.0553599633409277,-0.049873053811660704,0.07798927711103963,0.06282866488345723,-0.048561011981579846,0.07842141604040055],[-0.0833015628828254,-0.054352872518548284,-0.07819180444687136,0.03157930319741771,0.038240754294392575,-0.0721162120652077,-0.04277299792060548,0.0337255670637226,0.04149090947310684,0.03218208875410591,0.015306111698272376,0.07078801082930551,-0.08339426509308281,0.03226769379509439,0.045062580294597886,0.06302611590651035,-0.055182711729662506,0.002826683045181416,0.04199005194924948,0.07817296993955936,-0.048389427113756225,-0.028061169591348658,0.03412654289293395,0.08434615442317255,-0.015402680255825314,-0.04464550154777835,-0.07013759658694108,-0.0733095223263562,-0.05983468737800868,0.02754534623654985,0.025327492508578877,-0.038668527558743664,-0.05487671290025113,0.04094946815839188,-0.04829865690809038,0.07209132793864932,-0.06256865531352179,0.04588577445960418,-0.07753104437975951,0.06478482138627535,-0.024520037884011615,0.04101664028455276,0.06628103925060276,-0.07230439444493196,0.03038148611724468,-0.03198452735851249,0.057911925934484174,0.0333926577243391,0.003649575841730472,-0.06315416155580708,-0.03234148123597656,0.03204713670834858,-0.020500277049041827,-0.004206135584652642,-0.021297245043937738,-0.036249164077466964,0.051500026983395716,-0.005145878009287961,-0.079012954991408,-0.026844022766456702,0.035949831552515285,0.03731732391709608,-0.035645695498541366,0.06738387703690611],[-0.016525504522536292,-0.006139902390967212,-0.01646087733362155,0.010532189798748714,-0.07017031381680146,0.055718648917202414,-0.04924338717348617,-0.08005763483534671,-0.013584720572406362,0.07036378808651467,0.08943405904246131,-0.02738985341284935,-0.07663102798112278,-0.01392388067691437,-0.04965225710582172,-0.06734912079570567,0.021807017774534882,0.07138606966030381,0.030091371145752468,0.031352284392001044,-0.024865174579098433,-0.07036686891208425,0.0024821490842467245,0.032611176843421026,0.01079560784551911,-0.061811146394507625,-0.0187114406834444,-0.06869034064787725,-0.08340458797547054,-0.0010466030330601238,0.025257800922072547,-0.003832427370479261,-0.006417848544689535,-0.0021598478631829183,-0.008130039885998336,-0.01804019516369899,0.07554593477598633,-0.04586181670417281,0.059409525913620684,0.07472140579564301,-0.044799607483709085,-0.07766849515591762,-0.047829664788266175,-0.025722062812728957,-0.004704317814220668,-0.05990447900044406,-0.017163099834547325,0.02204863117480035,-0.043420477834298386,-0.011550607556749281,-0.034697242380999645,-0.03850240396474516,-0.06043278105273792,-0.07809943698084482,-0.05305435143153685,-0.019104130185669022,-0.06834588434839894,0.04717814635650585,0.04144156255968452,0.08304546661049814,-0.0718964296922063,0.01892079247496273,0.06689540119928161,-0.018291381574411927],[0.05905937117402179,0.05637547262116751,-0.08090172111532162,-0.053109870630380744,-0.015602980267355173,-0.04555120940787052,0.08205069299636725,0.023157023655723915,0.008858950088844499,0.07915059734762958,-0.05435233197435501,-0.04089966927859972,0.035731618396572094,0.015554709255208932,0.03650052938058388,0.05360424931342114,0.08255194632211282,0.06630918683898665,0.031006240111448483,0.07300842917825157,-0.0816946983897325,0.0949714990522712,-0.08190445921273501,0.04336435815461332,-0.0525240861099207,0.061057146436195954,-0.03753455258679373,0.024974868295531714,-0.023310137737114846,0.03442161391615999,0.06711782848839662,-0.034999250469375465,-0.05856921565420219,-0.018883593450703697,-0.052634094548978654,0.07003021404496128,-0.020103109925928113,-0.04576296513047044,0.07516291083518455,-0.014947973275107225,-0.045174271544836546,0.021738736661103975,-0.07814367770617571,0.0669884932735246,0.023627507597998632,0.024532560224553038,-0.06504016494144975,0.005224997494644094,0.029822418138923473,-0.06155919739034546,-0.05817704179778939,-0.04340210203888285,0.055834695312823805,0.05760043985713388,0.03291966544351836,-0.05172418694615009,-0.015417125406384992,-7.910529547287771E-4,-0.029854751240552056,0.013304346169240434,0.059945463920684644,-0.05334022343849996,-0.008617844881472285,-0.04869894334584798],[-0.029605510141430896,0.0041684280807209005,-0.042856405371237055,0.05288095105113769,0.060346832440934854,0.10382085569380194,0.06008560273685396,-0.004089250475960594,0.02443951448402626,-0.07683522299967047,-0.03641400830086506,0.014973177279646836,-0.03532221505185449,-0.0630730946275575,0.09733455289892937,-0.029363275267141553,0.08509457511350657,-0.04473283146274601,0.06405036215534655,-0.04355850441829393,0.0456937806724195,0.07973964705617463,-0.05743689424212404,-0.037308242843042905,0.00648211834943647,-0.05364554623760372,0.01980161291145616,-0.04559343715276588,0.05869843915717797,-0.0393980626697153,-0.05485165627336011,-0.03675548056110614,0.03715500650342938,-0.05639995529881178,-0.08226985723877171,0.01969903668585378,-0.020619676004747255,-0.044188556613438054,0.03537419531978049,-0.02502647763699345,-0.022363183105712454,-0.0603743442695427,0.028597256666507375,-0.03447627718032974,-0.033725511192730026,0.03921956585647171,0.03459523370258039,-0.04650364596872873,-0.04410241458062665,-0.005880371928296722,0.07467383990251066,0.0550875571758164,-0.08276356108272434,-0.05419726470068048,0.04786085843231958,0.06909371763118921,0.05972026727568583,0.05604405897195976,0.023841328676639344,-0.007059246884838526,0.09107275668894259,0.02041344459647604,0.04605060967818914,0.036051824425969374],[0.029700086337062646,0.0568739382660032,0.06474538765793306,0.013904465621383456,-0.0482797630362381,0.05956918252957453,-0.018341347435568714,-0.05396377767338646,0.014423706685848362,0.06556724863152373,-0.057142577675368365,-0.01890913924566364,-0.05350000818404703,0.08163372429723434,0.01046564922056035,-0.08091924991620672,0.013681577350837032,0.03148604390685563,-0.042483491950274115,0.04063156600036648,-0.040772604187837035,0.09098557216163956,-0.08281022843553847,-0.06710259753018559,-0.0750768012703435,-0.01939278979167211,0.0393279257033569,0.061473926499691495,-0.030281222400354326,-2.1379252153124116E-4,0.0932975624827289,0.0218103870009271,-0.060591778446410206,-0.05375360567076062,0.059185549044121204,-0.08379688147635454,0.011022215561468662,-0.06319886976508737,-0.01790249753823263,0.014305007367892891,0.03935053726225927,0.07685919514268215,0.05942835760334748,0.04402292217796164,0.044136406031389706,-0.05205215792677462,0.06834299282044182,0.05691526903763164,-0.06299017374797607,0.03916600974016815,0.006674844900669547,-0.01630905591622767,0.006090244142387005,0.014042429513651427,0.0560672619010088,-0.004300238029899536,0.010483851735669649,0.06767376420444123,0.05469296601602399,0.06157635307749355,0.06896509897312368,-0.04606029458345768,-0.09437001049203825,0.06033439703210917],[0.04620955824299865,-0.05520529326793998,0.07202014814018869,0.025912347692440645,-0.07893265640546836,0.0964617506545786,0.023339883356511097,-0.04352816499958255,0.06301020451767966,-0.05189849117599906,0.06604049755760963,0.048863849998644876,-0.015047459061018448,-0.007248561118719386,-0.06734380956616992,-0.01250989967195338,0.08775900238862538,-0.012020864539154684,-0.017345802262211808,-0.029454342886972996,0.006885440006925937,0.013381579282822876,-4.1041944344289837E-4,0.04612712689443013,0.011956176731806508,0.08129223728179089,-0.044198462670124596,0.051010615203755494,-0.05010083965296329,-7.108354375203723E-4,0.056236752400632285,-0.056386184643234624,-0.07022513569130484,0.05064919157801027,0.03619750266730138,0.07543681853141881,0.005032441961811563,0.01159574717928452,0.05192363569958637,0.03236052607395085,0.016428872954015742,0.052037195918826926,0.004271986006441833,-0.0498986843344795,-0.04795634036927731,0.049253822678478595,-0.009309211926969823,-0.017008578372325393,0.019705253983587755,-0.06267704611189932,-0.03461885925520979,0.005650054871916601,0.050258002594083744,-0.018465531831601115,0.032872100538881795,0.009659253971507192,0.024692846495626215,-0.0465317178418299,-0.03338877165459081,0.08079565990893528,0.014121956022102226,0.05305375938803164,-0.040617222979094605,-0.02540623382224765],[0.0699327219325959,-0.066619020442564,-0.02355751000753561,0.07615065187074259,-0.08830836349141573,0.11539116435457997,0.017776630120825334,0.0655048039853582,0.07307943993837603,-0.047159280421254654,0.04208665759017167,-0.04363803310021796,0.02878575883904218,0.07185687790617742,0.06146336057521679,-0.04638047426619196,-0.02668753403327276,0.025960666489336096,-0.01177537422134067,-0.007367746516147244,-0.01362004476185824,-0.022026654822910774,-0.028475876779811483,0.028952215842798643,0.020091865520114986,-0.05580937882193313,0.04012476245959803,0.04265667683735427,0.045328153878127636,0.04114245464148912,-0.03504682271862935,-0.021337182247557797,-0.04137649698507161,-0.06743099011099274,-8.533625920113316E-4,0.061020502741964494,-0.059101409453698454,0.054786253454313635,-0.053013865270585804,-0.07517070844923156,0.0553528450780758,-0.07909878624568907,0.017591885075614093,-0.043526619174953665,0.020083229109726583,-0.04795415489841243,0.0065709752941872715,-0.05476749830127863,-0.030945985541093308,-0.08583859958538029,0.06941849293879523,-0.08405411014668646,0.08575640161758205,-0.042024188214105904,-0.06930657512790275,0.0367193904958844,-0.0010303350775336991,-0.038742901900968844,-0.024503468139764815,0.06996488309474001,-0.0498583834964966,-0.011617684695224107,0.022782330002899025,0.013868325791537546],[-0.07585736852570601,-0.03467281930350229,0.060698968028318694,-0.0023200759708720785,-0.05515625723525703,0.15160788675510334,0.06184866511367892,-0.054885193995198686,-0.021952881156454454,-0.035225350541043914,0.035553383312808724,-0.03946938661229945,0.05905364664063149,0.09823223334325588,0.08104640806591773,-0.02195455163778557,0.009543368680241634,-0.06732895624249417,0.01716721324226981,2.347051628746976E-4,0.012524043633534262,0.12550567783387948,0.034424856545594275,0.07488944922471646,-0.09129857739471797,-0.02982578063484155,0.038124074136841705,-0.06834138543500731,0.006568035409830286,0.02443742914874443,-0.02264211769780572,-0.0010835561272112203,0.028367777747932716,-0.054454878626420365,0.0447656554915538,0.016832538260402867,0.04766199634851317,0.07149937291079955,0.06581449679233885,0.06264242803819203,-0.06361838290870762,0.037842377770357344,0.04469734633634131,-0.04306441043896045,-0.05573079490795676,-0.02237169723861638,0.05739138240278908,0.02734372559238705,-0.010974334029827029,0.022826269581213775,-0.04184665458230683,0.05737183177001769,-0.00812510763330192,0.02875634175925614,0.04578209165473975,-0.019957502654890876,0.10688650171971732,0.08281719913093472,-0.05256305958013845,0.04984729793692557,0.0884389720702028,0.030600840680347647,0.02566793673201105,0.01630236159961433],[-0.06677130403411906,0.02289212719234593,0.06341554237689617,-0.02006171422625966,-0.019770337570558082,0.09345794577698215,0.031462650748466936,-0.06793108185564635,-0.024542415215474844,-0.00433430368318366,0.008762212877013339,0.06037987685076885,-0.07144227377898843,0.06444129219205577,-0.030801580181408262,-0.0847240618545164,0.08178983970020787,0.0066700981963169,-0.04490708108229076,0.007048378530312271,-0.07426933401409759,0.023904461728515007,0.0812751298788443,0.035438924322180765,0.004436387855972277,0.009235754846567846,-0.04595137434595246,0.007278793188138457,-0.036272577000260126,-0.08124704619214494,0.08502745642693563,-0.0075079683367266685,0.0722528214274722,0.059946303362212315,0.009574024680070806,0.016117961857079532,0.02033971390247954,0.008597487334203955,-0.010730748030398186,-0.03298945484882893,-0.016214486873336518,0.0037608785224180043,-0.043561525675643,-0.026117265336337583,-0.0014677356588383833,-0.07763217391589983,-0.03649255602593364,0.01904182863679097,-0.0644251618509516,-4.092047142419181E-4,-0.07887821480400309,-0.02253181533022947,0.07479343940509119,0.0054516196067329005,-0.06382609499449947,0.06069903097980771,0.0011009012064780626,-0.025498002324984746,-0.03680200234581765,0.0640989974575272,0.08428340679693985,-0.0034728206003570143,-0.043560875451288436,-0.050528657260625866],[-0.04919116629776207,-0.07507693405568856,-0.075520437169314,0.00493512985957598,-0.016161934788006007,-4.019511403756749E-4,0.050497709049574124,-0.02955419308137346,0.03181397198491485,0.05393390148844227,-0.015348873833083193,-0.042188214576655385,-0.07422485633640906,0.051627351351417806,-0.022069319780783657,-0.0024169631358637103,-0.017309559873630656,-0.026503093658018374,-0.022111319687620323,-0.024351331788629128,-0.020475220829325,-0.04856679467758962,0.035576624568278904,0.06824247889192975,0.046475283002870266,-0.018672942404942848,0.019347646830937554,-4.835339718847917E-4,0.014419865692892442,0.034015056317321275,0.05179514651632033,0.0826638166422772,0.005050437219564968,-0.031245470244935184,-0.06923812536430182,0.048777346921717514,0.09568101074514834,-0.0011060442158538019,0.06269794511186927,-0.03469695881034227,0.062273411303483156,-0.002823689151538752,0.01252767710613269,1.3090736658456418E-4,0.09405344035863712,-0.0387780888586445,0.018067229090381793,0.10444986818237632,0.03055780285588616,-0.09986090672059052,0.019499506156975016,-0.050632557487407366,0.044362009805081114,0.023192384431554747,0.0741711083514513,-0.05931483326878692,0.08931630331691282,0.057003443506185636,-0.0277498663127649,-0.030782867330203138,0.07450834723242333,-0.011650355214732223,0.013334012964459692,-0.07927856086727511],[0.07217344398470642,0.05761299838926198,-0.07923184896412405,-0.04875558737127497,-0.04871768349756117,-0.046240973706935654,0.0875923190964428,0.00904250479349987,-0.014028874827720238,-0.0697010729152521,0.052836629976248176,0.02369819519864397,-4.1926841231525484E-4,-0.018056609133732495,0.044258574542638554,0.015697368068169733,-0.0022366608900106057,-0.09436328981706778,0.035976632665465046,0.009968804983648298,-0.08393678019891522,-0.020371074605260584,-0.03668272178169299,-0.028302712385067534,-0.061701615637378124,0.0815168673129206,-0.008002572638691608,-0.09176099025464618,0.07099660283701643,0.07748942120542596,0.08430886812444888,0.02264205880061288,-0.07113505158971385,-0.011032684630902467,0.01384808074109286,0.035320431769236306,0.05961008558032866,-0.08647474910473536,0.03972484944540622,0.04419197797169418,-0.047289049847027066,0.012375184237630404,-0.012873268651854515,0.004701503788403179,-0.02705175202220888,0.08702958641356447,-0.007408140531556129,0.011017937054435184,0.07646121318202219,0.00392308408372088,