{
  "outputSize":10,
  "numberOfHiddenLayers":2,
  "inputSize":784,
  "biases":[[0.1609835911127982,-0.09944432079288118,-0.05149678868545892,0.06349798346962016,-0.0069532661879296905,0.175241235427623,-0.02096646650454805,-0.0365416248442739,0.028816174963600068,0.021772248960276224,-0.0560209069451508,0.13256749225974118,0.19804669358576898,-0.011613366731703807,0.042922619897740176,-0.0032415157704290287,-0.02331714538401127,-0.024179699158726923,0.08385758274291344,0.1276945115399706,0.13242989124489205,-0.0018818424765913062,-0.017594052498350454,-0.029652980263741944,0.09540126757572097,0.11128322671256312,0.05101778998580582,0.12565506394990797,-0.0334045722751725,0.014078234208697816,-0.024545339639044962,-0.020036130291531],[-0.14961903331886128,0.48571493819871403,0.1095562656488972,-0.02868276264484585,-0.1465135705990294,0.07011430401946271,-0.0023471422391512326,-0.04766326903438895,0.11059726772347608,-0.07450740643599396,-0.02711793102258073,0.22809640844460502,0.25163258574595515,0.22292591329243217,0.16677439405261754,-0.007068262846940742],[-0.5031107184441919,-0.19101233521008817,-0.4688287328751495,-0.4414882584722346,-0.09790372811430624,-0.04488881267278664,-0.24197772027327277,-0.4309153720568501,-0.48893537200415765,-0.28692307476317835]],
  "testSize":1000,
  "weights":[[[-0.0704459744619999,-0.058278727279464974,-0.06362569226253195,-0.03764668696792189,0.025985096992521165,-0.0120842426380384,-0.030271492831242874,0.03136801048039868,0.032864041766614074,0.039670661927815286,0.018936178862166645,0.02641914006166807,-0.015745761765602266,0.059770529172592,0.01757974952136085,0.039988132083556414,-0.06832457208470316,-0.03537952674032614,-0.049110117589991155,-0.0030847454492819635,0.04236827905947876,0.039032864655961286,-0.05684887613382146,-0.05804376744985935,-0.01467905886021046,0.01104474150451418,-0.0724378879762131,0.07995347947181336,-0.009302246159907662,-0.019297937105004492,-0.05053416127389111,7.264389792453583E-4],[0.014931109630973745,-0.026913482900234615,0.029728331123672257,-0.04974499541820655,-0.006322819656455646,-0.02059795617411135,0.0620483589952918,-0.08116731126421306,0.06578548649975997,-0.07566129919198897,-0.051828002147468376,-0.08410499789050424,-0.004733107706750179,0.029100110869365082,-0.025151615046390866,-0.006593707743760952,-0.08152005108333311,0.010471731376249004,-0.06609193423243455,0.0583611155366518,0.053473707467231804,0.07104080723608651,0.05651228476379695,0.07718358250683902,0.048003056663357954,0.02980134266782531,-0.01844552365504893,0.06309685921167082,-0.04875320584655556,0.08318318246314499,-0.054322066351595144,0.024854215246886177],[0.08424422628764121,-0.03723856325624975,-0.04433677089647872,-0.07390330423112007,0.07541005414279622,-0.06419414481283098,-0.04672861575239754,0.03101907420219686,-0.040243774025602995,0.08164295849064676,-0.017274366661845904,0.050008458601861004,-0.061286363225981744,-0.018691014251528852,0.07124476633452644,-0.005104195474776481,0.05554260842677023,8.286525537080102E-4,-0.04005481416002855,-0.027932317864941582,0.023885478941901562,-0.0408547709273605,0.004998687448477152,0.005260569265752295,-0.043011467316602506,0.015095716646064076,-0.009777861117115056,-0.017477881639307136,-0.019456859529908752,0.013635460552914648,-0.08336174864962646,-0.033976803585946555],[-0.06610870079517958,0.05599948497726928,-0.005801820867678401,-0.011838647343302184,-0.03141247542367349,-0.05213666794225648,0.06559906407040196,0.02717785477294729,0.040497892569896575,0.04265656122920036,0.051557361875691335,-0.03464100590833434,-0.020326030339793116,0.08265801987468091,-0.022965423208529203,-0.07272425181951284,0.006263631442740402,-0.041834172795692584,-0.02032033588984153,0.04446203729534722,0.07166416326796939,-0.07039148699147975,0.04071227147914069,0.026902732710872533,0.043946144941131325,0.08376334779546143,-0.040908871231755455,0.02522233288010625,0.0348738389738826,0.01935249572851932,0.08261020588766907,-0.004423935961965922],[5.460744050446981E-4,-0.020802586494333714,-0.05793667846881313,0.0523243146672399,-0.032718163179696516,-0.07864059485442963,-0.04430623758828438,0.07527547725993199,-0.021065980254942857,-0.014357801276929675,0.08255258519964963,-0.06452694933172948,0.020267565620498914,-0.059817017837256674,0.03628654685873056,-0.06021941063802538,-0.058575584448284014,-0.01908187467149904,0.009581073698865319,-0.04216244710950541,0.02029881079169556,-0.04685061373063128,0.06981972168088084,-0.012719462120363331,-0.03460213417663299,-0.06491900940607793,-0.04600632255972675,0.05706839175115765,0.05786361026242881,0.04472952617081654,-0.0024236715955971576,-3.214657990312118E-4],[-0.051527982548833604,-0.0026267740019011135,-0.07854372523722519,-0.03456335693279455,-0.08065857534017887,-0.08171730613244256,-0.07802447538500697,-0.07969200533596348,0.004576047406847632,-0.053611764667583106,0.007378727802331252,0.02303986953413997,0.08234397389594053,-0.06031503198689301,0.012286600886100034,-0.001286191852610236,-0.0803176203620674,-0.06384344567470916,0.018861754707774677,0.019915354869567695,0.006488581800487197,0.02178586274513778,-0.004952793258431235,-0.0049929107837361755,0.02329147043158057,0.05477383345697183,0.0416131547843334,-0.01727842641741803,-0.044144594715261117,-0.02404961898444074,-0.02568216773185848,-0.07684609457620463],[0.04368822242113937,0.02803432669453167,0.031183191411859087,0.004580271330432612,-0.05864087732008864,0.026359296459477443,0.08231474068704021,0.0534725718580583,-0.06769766842634778,-0.07108761629205565,-0.019284648752368547,0.03251491544065227,0.04705265065240695,0.05411668251240597,-0.06619030491817697,-0.004528110340897923,-0.003065202471168578,0.05263172010596888,0.030801664185195934,0.05530024078410558,-0.06969111917029168,-0.045942930897935524,-0.07044883318718019,-0.016489599136904308,-0.044030987562122814,0.04642133650028351,-0.07009353597976714,-0.023077848221794033,-0.040837185734221834,-0.0714509418280665,-0.020109972452442948,-0.015306308638055008],[-0.0014687991082098294,-0.001589588065199482,0.04067446620146656,0.047209139173465774,-0.023975068060968635,-0.07153594327462548,0.009095221140099986,0.008737680549373173,-0.053002322056606634,0.059040027900720674,-0.04363540982752255,0.020093688142777285,-0.04821662420359209,0.06683208747591848,-0.04472523648581604,0.06894158045993622,0.03556014916910803,0.013204648405563246,-0.07604931515745689,0.05479710588621009,-0.022756310362498887,-0.07088596716609452,-0.06083198694783302,0.0012746595575380975,0.001491538384907544,-0.0787862980177171,0.023389769766187746,0.07265832650325031,-0.002794424076910543,0.06335023708205545,-0.05403892622323108,0.07744997215747532],[-0.08292569366466009,0.07406241835862128,-0.015631978242875932,-0.015344945819974412,0.07834779613684825,0.05839374910511561,-0.049360829292147426,-0.039238913014411916,0.05907881313528469,-0.07663573742709398,-0.00776942166165995,-0.010932727045584355,-0.013015848458559333,0.009209237113066534,-0.08322282091448874,-0.058219731759222654,0.07102980259201169,-0.0233633078580807,-0.03780003529066561,0.010109085327545843,-0.017397571893197863,0.03469364982660563,-9.629765451404058E-4,0.030460373914928736,-0.05414456257770033,0.05859427986485692,-0.051179901554810184,-0.036291621504462565,-0.025987315124251845,-0.06921138857733411,-0.04947322338700962,0.06999529798403266],[0.08293176055343462,0.07287321531731576,-0.05852569719457,0.0070096075408953296,0.05875765602568893,0.05553753305314156,0.03752380516451586,-0.03529773863228582,-0.05410828341491221,0.009063613620736856,0.08367774062444756,-0.02895031193095965,0.021357992471325783,-0.04484655950838603,-0.024012676269289858,0.014556844524605688,0.03540007379990378,-0.07273175805921422,-0.004260841315571396,-0.03709108179675411,0.039301547847317195,0.029465850768119747,-0.006902070945851776,0.01989774044525486,-0.0709307029407274,0.00928652941206481,0.03922751770536489,0.05054756579877062,-0.08489844427573828,-0.08391402522613428,-0.07199568567592171,-0.02134130218220846],[-0.0675556600095328,-0.04909559348993288,0.030114510106228065,0.07338784422763694,0.026575086681155467,0.006399431955037017,0.04626835260728488,-0.07509620735341883,0.03647363147423865,-0.07187873498540126,0.039763757500789365,-0.02141868333790885,0.02742728057401223,0.029973658624410555,0.08243376831988784,-0.06971153217625557,0.03817463021970681,-0.07493499325757387,0.07687706204004331,-0.07471360362242972,-0.051969287498163416,0.00574833763975987,-0.07203831636644549,-0.0390453026171709,-0.07788329829806409,0.08517299254902845,-0.05465396421358512,-0.04334909182861407,-0.014266768976227124,-0.016674490844678622,-0.06330369214902676,0.011237686102193101],[-0.013784284828795852,-0.011869327852131793,-0.07016227667376439,-0.06043771048116219,-0.052635931713331204,0.014009602432465032,0.06338863248688104,-0.050555382026749786,0.06671101955616443,-0.057107926728970984,-0.08315707325790081,6.069475849575433E-4,0.03547701432789312,-0.05236221205793723,0.00915677824717297,-0.07417070233116252,0.004047251623388486,0.05554174804796893,-0.0817532588133692,0.014569009599190027,0.08228225756209706,0.06610448438780728,0.018157341220646557,0.006279566663329078,-0.06721196342616967,0.0765729743892655,0.033896502424126215,0.0031465147320026087,0.03754650119847036,0.005888058324344779,-0.04536616141126014,-0.032409357789113066],[0.050554512817166,-0.011942821812331687,-0.009500060324710931,-0.0855339960906489,-0.07084623514321872,-0.018291174506992375,-0.008163811879423465,0.061573555948373035,0.07835228079191946,-0.03793455595498831,-0.019451603805403457,0.04082851920508799,-0.0411258676522378,-0.03710873583639972,-0.05826770707364378,-0.003347698068413781,0.03951352998795716,0.07956353424922688,-0.06262738402223612,-0.054977062140606346,0.066773731144987,0.042815853853297114,-0.04323938609566975,-0.054575946634127896,0.08288835086294061,0.07037787706346964,0.08476677651054955,-0.017633734751501214,0.05555958942646852,-0.03173560614328406,0.06129124248868491,0.05509246175363563],[0.03426983269148624,0.06369896010628244,-0.016962440194609688,-0.055415599702907985,0.03703914845796709,-0.04569658974584577,-0.04219500815772764,-0.04598252087052441,-0.08259208503957563,-0.04850848110184397,0.024654723341426623,0.027433863695426306,-0.023242773394834212,-0.02023411580936139,0.08117900302306641,-0.03800138621521281,-0.015135681321769012,-0.016485475848407812,-0.05686803372192967,-0.06558266651804692,0.07122383838666906,-0.05377627735942805,-0.05611703877639692,-0.07616903492259157,0.04232551444554208,-0.06092749300068651,-0.08244899464290524,0.03225409872902913,-0.03794787500953531,0.039243601786651434,-0.02381876137424203,0.031979041714560896],[-0.04915151945532091,-0.07705235357221901,-0.048901457655631364,-0.0582881729083421,-0.020842273900138267,-0.012401005724670977,0.07441845395152195,-0.013345747539934115,-0.02408461725320065,0.04488486170611919,-0.06669481965430077,-0.06280127827621303,-0.06939063383706974,0.0749519509550656,-0.0532570905625059,-0.08410127879493502,0.03804533685364131,0.057845664993667195,-0.07692587238999277,-0.06152258339889359,-0.082478576646931,-0.05855052040587824,0.043049441833863916,0.00420646429536558,0.049560303150304214,0.0731211174567384,0.06096352277132641,0.010161718432364918,-0.0221824401311189,0.001981742379381928,0.012313355164195409,-0.0629463416467459],[-0.03649317501483597,0.08329726574298613,0.07655670727663903,-0.01791580222821978,0.036030989104348425,0.06080896014809063,0.07679247811138701,-0.002421336784397529,-0.08140439006620315,0.011408436087334344,-0.056883489822261275,-0.03753660615537267,-0.03580427228003782,0.03505356455829634,-0.048961871602344685,0.03507393727479848,0.04940272688183424,-0.010494483685761072,0.01612140034601612,-0.042796266469840596,-0.05524503792239764,0.02499251113702749,-0.07655158439538541,-0.057734403658712546,-0.08305191376295513,-0.07325349608722119,0.0641472327294814,-0.06148955556431583,-0.002701327158570202,-0.07256475484078341,0.014544016314960155,0.0047750612067957035],[-0.04137840559819387,0.0424702013101829,0.07340491037671874,0.03389051193975923,-0.025202502088840326,0.03183753989929026,0.028964707747720368,0.04352750088529937,0.024862910544320105,-0.03337766402407787,-0.08083315818845734,0.03498968802318149,0.005885708083738138,-0.03428994925413418,-0.06891216353271418,-0.08478319968604932,0.059793362340927456,0.055228747564925136,0.013648850397660704,0.041068873880881894,0.0306322404005327,-0.08429867365699283,0.017044543115404653,0.034343931610059004,-0.03456036429948806,0.036555438998960604,-0.06216887346085015,-0.021168057633823806,0.03558926715163283,0.033176063482493454,0.05578708675433039,-0.0627741009984709],[0.019528174968724124,-0.07811054290240446,-0.0034884440705639417,0.07065621147412209,0.06430362529598198,-0.021565296618108305,0.04470688040709622,-0.01731087079626725,0.001230782326346304,-0.07418294565609085,0.04584692070818019,0.07868687765389139,-0.020155934974211843,-0.08539945410429761,-0.04827856133547707,0.008129109424648971,0.024076879789260205,-0.04328090423673818,-0.06756974253778515,-0.002908320344435749,0.027763398205830465,0.017610804010631195,-0.025410907204103654,-0.050099146522241705,-0.05582649032199325,-0.03292729927911606,-0.0766233533880618,-0.06581213081509071,0.032316146413007465,0.07058567460800746,-0.024390994697643727,-0.06605838930743269],[0.08570069886132119,-0.07645600799143326,0.06426025063065136,0.05600256779794457,0.07508591713637952,0.06772995349594255,0.05121182648372165,-0.042119346180746406,0.06607396112603,-0.08528283550240547,0.01709872760770403,-0.03778490467011968,0.06009669483957599,0.05181896391421226,-0.04864369971482511,0.014760076950643655,-0.07952047992191404,-0.07181145374342171,-0.055535607376523216,-0.00472098324598516,0.07131999966263962,0.02467395088854041,0.07998081430228059,0.007877690240197808,0.05092614793560008,0.07211865140384689,-0.0382985089017693,-0.0050457508848705925,0.04139293072453103,-0.0445861517552099,-0.009309959396513787,0.049628127335889005],[-0.0021960937621345036,0.001227242729777916,0.009568331096264399,-0.028719258373037418,0.03721397708259608,-0.04585499220452807,-0.06134769439990043,0.06510682139647767,0.01928208003098528,-0.04843894706619545,-0.015485417106979886,0.008959185186079703,-0.0615204693653326,0.03563070223302568,-0.05485011381091779,0.06509650803011349,0.07433119662022705,2.8676984228923714E-4,0.006678741925738232,0.017452094851976956,0.07207583490082137,-0.0306515676234322,-0.03647586001796233,-0.07654831127246634,-0.06254643043100146,0.04058829985580497,0.06257099882558877,-0.016006790231736102,-0.05084724593902403,-0.0732836908476001,-0.023828454186503704,-0.062248596052398526],[-0.0713831653472899,-0.08235246976727399,0.017267317355950784,0.05757905689600535,0.012016466853588589,-0.06483301388842982,-0.07588693516740264,0.06499353497694793,0.06977383708527754,0.0720553042317126,0.004823639262270788,0.0063898643294996,0.02194654712275735,-0.035408754320336674,-0.0719706334961418,0.05444317261668689,-0.01881003269958859,-0.007100496061245692,0.04800364763295751,0.034941790107258536,-0.061683283152373265,-0.05793086965602801,-0.06945925348736168,-0.001355142495155429,-0.012810678073992806,0.0575838335919777,0.03076984570268024,0.01668808466742615,-0.07865006617537854,0.06267267798487809,-0.009632079568901815,0.008990251316975123],[-6.617600964101918E-4,0.030407392437071388,-0.010627825376040513,0.07161342097699704,0.07818033604455081,-0.07948539497450223,-0.07059398999328073,-0.005411024801284684,-0.009100018496410919,0.0542065676952068,0.04474879464195038,-0.02671454071506108,-0.07122496272957543,5.507437992255713E-4,-0.007905550715408476,0.051569345502137556,-0.08318152018713271,0.06531736933003833,0.02782252915862963,0.057660004092581846,0.012123494798218856,0.02509387934859946,-0.06812435697558411,-0.04517274777554415,0.06333831209350893,-0.049561259503534516,-0.07885728160435906,0.0033630385870588846,0.035543394830794474,0.01077768509017131,-0.0151396785476795,0.06008505038399472],[-0.06123335664079691,0.06287456508814139,0.05371526432589228,-0.0435189295939898,0.017727538796040644,-0.012333658229499342,0.030751580771446116,-0.035453585382924376,0.03370674201336448,0.043520978743614845,0.028738198358440593,-0.05916329048910603,-0.05687852436753827,0.03453323510059089,-0.027600882551828264,0.06373564247144173,0.01755631489660318,-0.06270938052675479,0.03729669980960427,0.05454711006571398,0.005042463961293166,-0.0737732770604844,-0.05073347148912696,0.037576504533275525,0.014831121400873287,-0.07889613330929224,0.022013899945643484,0.052070260418574744,-0.0436453006705286,-0.038602916212351686,0.0719607692103419,0.00354414802916643],[-0.014154862457966771,-0.02408935595331038,-0.08503508494831201,0.04079320044071791,0.07385789546502955,-0.04872832201853576,-0.07765677658988976,-8.183031614877097E-4,-0.0034104680024020576,0.020588151673600247,-0.07042853698879945,-0.05187514590695361,-0.060026730639221565,0.08148485113057456,-0.006899064210859818,0.01609409363590962,-0.08193727829938885,0.039443001408766894,-0.0709308713070242,-0.08310598194670199,0.03461343597272892,0.027404472468934873,0.08059064887823265,-0.06506959872586322,0.053654399594062006,-0.050580582813372854,0.023988540821038216,0.05675891046982677,0.025589440868852276,-0.050787615299681683,-0.022442043461407376,-0.04576947911512245],[-0.051403605598502586,0.024981427902171113,-0.03649555158577239,0.08019215576690523,0.03668077279512528,0.004428537001522589,-0.0337262231416407,-0.08059465530954824,0.05280708909901656,-0.002465860528620878,0.07333907263558213,0.08047431936275523,0.06796097945209317,0.031902326902561465,0.02749348895394096,-0.05453855627772108,-0.024578743865952983,-0.037417119129324286,0.01883433740278294,-0.02096532193588731,-0.011213402757922788,0.07517771316695226,-0.018008034539481382,-0.032004279980207224,-0.025434213063070664,-0.07474403296592931,-0.053385535903515344,0.014313014370674398,-0.00574693246696003,0.05503316272410243,0.08032499669622563,0.015825969452337368],[0.020918177047749523,0.0026490405751281106,0.026205662392852665,0.05672909911035404,-0.08469135337245341,0.03084666652888165,0.055854932015879113,-0.04547632111468375,0.07738304402122634,-0.08564811184687535,-0.05619081827031288,0.036184344012036726,-0.06844204158505209,-0.03916806843412916,0.015409203878511208,0.06546853458803302,-0.03635968288590461,0.036863564775481444,-0.056701513380603974,0.0384259179447568,-0.037794469810332625,-0.027950490482773115,0.06786880910659401,-0.07654849579687152,-0.038829230036164286,-0.004971310797899134,0.07892707347967434,0.041466859173321685,0.02692297173448373,-0.03551035009264514,-0.07867698191928839,-0.06132867966557114],[-0.07273236834826464,0.06742590834951905,0.04656140328004635,-0.00787515341547929,-0.03316902392237191,-0.01112281584573926,0.06529855315464408,0.02492588713584636,0.045873626665196184,-0.07889651468485401,-0.05485499392714425,-0.06337468609124947,0.045636213603038156,-0.03475274264976085,0.023496862594357654,0.017091360393651014,0.040509885480398015,0.03834230021299486,-0.03800566770512607,-0.037910767224656985,0.04937054594924345,-0.0753056213457814,0.009758818911567012,-0.013089977784843798,0.0628854800169473,-0.07790528913684147,-0.06612256937062541,-0.07990073438353022,0.03400936017267534,-0.05841131549422761,0.014952541461307782,0.020971394390384215],[-0.003295311607364995,0.07201614310225789,-0.0498001309378082,-0.02459608533899277,0.08216842495424785,-0.004580392795590062,-7.244703672515136E-4,-0.07486135709227532,-0.038485759237028065,0.017002743149349773,-0.05097625723900318,-0.021280359827851,0.074423797209856,0.04430167843456447,-0.06612203946788925,0.04854125993305383,0.042347114630520086,-0.0036030374839690965,0.07248920913257499,-0.007069969539540827,0.009178081408129077,-0.050942399218765116,0.022075910597071924,0.00416651178031966,0.05777133965939917,0.03351241099512336,-0.010387688988213656,0.05739120378721784,0.07588230457215984,-0.041340162827648706,-0.07018938688685522,-0.00510838200644011],[0.05032847181086271,-0.03657689624345971,0.06776930237472598,0.06190461869992072,0.07229457148388235,-0.06179223869503025,0.013850640835204946,0.06425118274585269,-0.003260673199974187,0.07536957311294785,-0.05738684112346737,-0.04120124730348387,0.028812811054717478,0.022455451629104225,0.03317066301741293,0.008548123480663692,0.022106630855622953,0.01502585639981572,0.02596058159276518,0.06994002105616946,0.0013262156940336515,-0.06717507828159835,-0.03875976103606041,-0.014186327635074655,0.04423865569455423,-0.01980627772212436,0.043657216608874505,-0.08362074187438405,-0.04761950681171288,0.06966630306916773,0.013892888201677086,0.01351226459090595],[0.046574227399360776,0.0544329607400247,0.05721005132158268,0.043665251150929583,-0.002667635375234862,-0.011536730753031554,-0.034203649055353495,0.01973337000643228,-0.008417535151649894,0.08295760033176723,0.033428478846234046,0.03982475737550783,-0.036945220766920896,0.029973224520764653,-0.07059744784482863,-0.07399450759867206,-0.02712744766742631,-0.03447638789474139,0.07164059261488327,0.048767163400901,-0.00639378110997328,0.08376405477146419,0.011170129773573723,-0.031263548837592574,0.04663338403211097,-0.05908869997969999,0.010954232657387578,-0.08064454246292746,0.03568472267950617,-0.0311024873644048,0.07569581319331493,-0.03432848779391909],[0.08339055966042366,-0.03401570221776255,-0.07311567040441212,-0.05132075530666385,0.024029387545602233,-0.044066424552901655,0.03377272060314203,0.04960437082490348,0.023942688845202495,0.07915926230963588,-0.017431818815265582,0.017999540412151384,0.05732783542085323,-0.0026953484229621486,0.0842767824427845,-0.05350399144130604,-0.06277766189677796,0.07952461329082872,0.02914938739500219,-0.03483971321835172,0.06956159927625187,0.0489521688292513,0.03965993396978878,-0.07951850355267372,0.006695696430569989,-0.017304116444495705,0.07878017029812667,-0.03582995297643393,-0.0834155418376373,-0.03547494235653832,-0.005322100575253082,0.03417324897569368],[-0.07120446645130425,0.01339248874340979,0.07258908711303029,0.06852921409549187,-0.016889361367772134,0.05879332402785263,0.010393322691371033,0.07499720753734304,-0.006266101391613394,-0.03341304846892764,-0.018685482284109725,0.004237162360503851,0.057184211422141196,0.049832626330969236,-0.04165879654254686,-0.03130569030326139,-0.012033301164322427,0.04143383112164172,-0.05280962151881218,-0.0017088414266677727,-0.07847105921713655,-0.036637542602282275,0.026624044791266305,0.02949841025019772,-0.010608230915393882,-0.021395942567453502,0.0470464636590442,0.0413919075052476,0.009094941614150875,-0.06294975242233414,0.031598478422810446,-0.07511917341871245],[-0.03370386791044191,0.06296997745205579,-0.014545151011801129,-9.585307869105568E-5,-0.0015025246151212678,0.021434509397330527,0.009154473394738112,0.07758663249985852,-0.06409672276522639,0.05052316855827267,-0.07287858911945652,-0.05197918923915787,-0.04363750325015368,-0.08349539380839588,-0.027999010174444543,0.009638912315842563,0.080265554034419,0.010216736739597075,-0.052372793474457634,-0.037544551513801726,-0.06995941790473376,-0.0021619219461958394,0.02071983449180252,0.00926413454624997,-0.08287552706846436,0.08285643540442164,0.08346234644788945,0.03685073263140127,-0.060524129619144613,0.055612177144031535,-0.018759004626331018,0.025169909951071066],[-0.04629925359717494,-0.02499152158377631,-0.0818048383672802,-0.0415271673192724,-0.041088926534977276,-0.06988286459924772,0.013748988641154163,0.02539588829390923,0.03332718769384327,0.07775802510368994,-0.05703287536730859,0.06162734330060279,0.03648015089467136,-0.0751741265387242,0.07943419993318557,-0.07311559909666178,-0.053381351047447144,-0.03092199843364824,-0.059063229515167875,0.04213845873503804,0.056620417608147476,-0.05005925862066571,-0.032653377823780326,-0.011230728904505582,0.032813061674440265,0.04836036978771565,-0.021914539702654893,-0.0799490078654052,0.06509923473053746,-0.00631686135830148,0.08299679838605897,0.032777196748525514],[0.054287901614868794,-0.08186280668275783,0.021751893308602,0.07764894786092347,0.061342076743614735,-0.06899557971213466,-0.015249621331753888,0.012976705109701132,-0.013412639557469292,0.03328727100749249,0.08208861565917297,-0.08476223646210429,-0.07939078955928236,-0.019255578432703438,-0.07113071126776989,0.041021217911920003,0.0637223241725786,-0.024492216979012157,0.070531247871188,0.02646821185058811,-0.02005565836401453,0.07816404281698318,-0.07748354370972386,0.0738903415119538,0.03385879492339294,-0.040903995779992666,-0.015765662015668567,-0.024539452779604395,-0.05078273790051342,0.07412317149370969,-0.08365942658683552,0.028503955336420733],[0.02436521101635198,0.04056139263508615,0.03931094469990231,-0.07827068575261259,0.025406200356150585,-0.02892735906172429,0.009171666515323454,-0.0700318154844915,-0.02989099297519779,-0.049106550382106214,0.07559055452361654,-0.024097438900068848,0.07070679165674008,-0.03660083575282741,-0.076769863038119,-0.08541438446006688,-0.08177643783506307,-0.06029312382061792,-5.353340702466613E-4,-0.04146813855554743,-0.039130212549718414,-0.07896157514829522,-0.03339758791701091,-0.04836329552048792,-0.03602890709185391,-0.02361454006880145,-0.012710310184684282,0.047682412248654986,-0.03442042850562236,0.056129002818781554,0.08315776282386171,0.048306963826985336],[-0.012809751461894291,0.01267701305623766,0.07218411726395325,-0.07160869537468645,0.0655603244407345,-0.07510718781499759,-0.021596894321088488,0.030023266086161217,-0.08381228616251672,-0.06189972753913984,-0.01957808566361482,-0.06909143679040815,0.06944714019293993,-0.008755808817348984,-0.07732441358990544,-0.08217834750629374,-0.08318100823649403,-0.03961769388146775,-0.04500003394512678,-0.029926157925312787,0.035353957039562296,0.0745867233172068,-0.010537102815131885,0.08075939639696542,-0.052621783437513614,-0.0434619340918516,-0.08313954917761093,0.029991238892639216,0.030448973730197317,0.02304071541483589,-0.011520806935005963,0.04126127400818782],[0.04927594148761778,-0.015451401720704758,0.016576926922804425,-0.01958340368385747,0.019708805899642568,-0.06412198445345871,-0.004981112181642482,-8.7744321523487E-4,0.04238109926238259,0.07276031020385329,0.01273428574754292,-0.031048771949622397,0.031902855156369786,0.04505336576563353,0.04870486748806309,-0.07815811741484129,0.0807553835250173,0.017423180615852133,-0.07036882407385599,-0.014078567143121857,-0.0637588747481199,0.06818691768239973,0.03293639276004957,0.009758645969651236,-0.03472531776023405,-0.031136805081774438,0.030325866741591084,0.05147717173835304,-0.07902075379206694,-0.05896566958359158,-0.04844505029993139,0.04189616900411493],[-0.041437566381631874,0.04233368779773844,0.07222261642267552,0.08853694714347804,0.0641717135900876,-0.0552674597982576,-0.03503444877082287,-0.046752743385830534,0.04978641613862979,6.005990113678973E-4,0.08111764046850407,0.04175427825541478,6.529353231435602E-4,-0.023203313592472352,-0.009374906024115457,-0.07885289617823843,-0.01630507621206358,0.050448393279858325,-0.047380547878577144,-0.02015946937533862,-0.08458254220277768,0.05627836817568492,-0.009783501542623396,-0.00376082101146465,0.01296368499642233,0.0016677172843067647,0.03876213602923811,0.016088149581332555,-0.02053531854218825,-0.05159078849659603,-0.07016876258926578,0.04240863079670628],[0.010376463095343624,0.05251331772058859,-0.07809791507718561,-0.006971426361222632,-0.07195959162047968,-0.06374836951043451,-0.08138059507824587,-0.06456053253410822,0.07917866025119508,-0.06416054135710628,0.04870513339878819,0.060499179568201084,0.07618560343424759,0.0758871089777792,0.037412760527859204,0.01302644196178145,-0.06705478367975433,0.080228965938782,0.0655595163885093,0.0015255110313803317,0.0653532431137145,-0.019536041526488013,0.03409595718943952,-0.07483721269055782,-0.00292461760768724,0.042706768542817596,-0.00927043699451078,-0.0727830314145385,-0.026020143738437338,-0.0058149606651214285,7.876872372957652E-4,0.07925003470345107],[-0.06708202875047978,0.058447145281174714,0.009240891798765104,-0.07170859972710404,0.036892245025958295,0.07983494403152784,0.031721403784251326,-0.02976711356761776,-0.0049625231256422465,0.023349984059532813,0.03727470927530965,0.05233485882362639,0.06627232530966996,-0.036683881257679525,0.015636629147178043,0.0768349107090157,-0.03591769640510302,0.02998784977997587,-0.002699551956782218,0.03785887313358843,0.026516910777013753,-0.025023036577688954,0.059093798092376186,-0.015038588484948911,-0.07865796453133805,0.04488597024253874,-0.0015557661859489547,-0.08381811893726251,0.059877069409295734,0.04292132186375966,0.029156431030698614,0.021548899518648974],[0.0408703637687634,0.04636878006619222,-0.04231939372960196,0.02613878088242863,-0.044597461741542,0.031103045498453753,0.0031923505442194066,-0.01054043143212747,0.08443738515764254,0.039465288178524786,-0.07858184454221533,-0.0644538681325661,0.03817477078865967,-0.07035583577859604,0.026943629269121187,0.010641338482170618,0.07893847954236909,-0.06742843330139954,0.06546512621954174,0.04268942880234106,-0.061846179057417766,-0.042470359472082136,0.02395009812223053,0.014536161250522534,0.05242848017452399,-0.05437219903078359,0.006824375083784566,0.0507090314046794,0.06917258262238479,-0.01157672476486813,0.06301013273272107,0.0784070633061786],[0.04831108176419593,0.07824393082138638,-0.08065996141001161,0.07142897671037256,-0.040194289097216625,0.004029680910071332,0.019309995604126693,-0.02757007317270107,0.08382681334434479,0.029114060629467392,0.0563942086549545,-0.00857459741286273,0.06384849694879735,-0.08511446935634695,-0.04358771650986955,0.010750970219557366,0.011968932467533708,0.008997897095142628,-0.07264681698093321,-0.04738536685269575,0.06217230641648873,-0.05096920639362455,-0.006944417850425504,-0.07787745810628048,0.05418315669719878,0.027457267472938127,-0.05159150597755392,-0.03591302708582454,0.043297589065253564,-0.08011893860158649,-0.08415284762946502,-0.0056304331376921726],[-0.03586763081517241,-0.04302051884839641,-0.06524120498934913,0.027652237473770724,0.08075230923842289,0.005370787680037403,0.04577493493183727,-0.04251120110171816,-0.036332390660098794,-0.0572576935422892,-2.8620922721918953E-4,-0.023890930811295903,-0.0029826666586030893,0.074755136829314,0.005727544614264364,0.0366098006178654,0.06848459941217344,-0.06761470089298895,0.07412755119984193,0.009496922548141294,-0.07529876611265321,-0.07831772862430485,0.053800884220701846,-0.024468313214187635,0.02785420135440931,-0.0034181656030394347,-0.058851811565310205,0.02424123089401663,-0.048769084153232986,-0.04887805688775467,-0.01092496933103281,-0.003020260833173014],[0.010095668155021323,-0.012597033271828722,0.016962969984545405,0.08053072081485388,0.04653358843713193,-0.04960297418928913,0.020144072921558842,-0.0750524522957028,0.06995487296790236,0.004172249910109307,0.018030690306500226,0.03368986075649701,-0.009209187018927548,0.017801295302418127,-0.08020786546190822,0.004577864199143533,-0.052223397712074224,0.021241380665901803,-0.02413715271216105,0.07685212637866114,-0.08036274502359528,0.03181883859328453,-0.073892077498317,-0.06522382383377674,-0.08170871443913072,-0.032350974896996045,0.014579830348356837,-0.07463371479890835,-0.034997881348453795,0.0770163306800181,0.08440976240161543,0.056486128120112104],[0.06563843423505676,0.04568403648181144,-0.07472990119886,0.07586663757139006,-0.04482489150422759,0.0053733951630066685,-0.0843598248524008,0.06588800978371122,-0.06337723832287169,-0.07906151346168853,0.06097969523454812,-0.07530774968415498,0.01666190613874245,-0.02810244154942143,-0.04019639550405933,0.024577187635458783,0.010095563817309054,0.07464588781722248,0.027348429331807988,0.033170701893370395,0.031219768914278124,0.04321829963933688,-0.009633332782759308,-0.05744366087599943,-0.020225283818370528,-0.04464003982414541,0.050369504707534755,0.06775607012942887,-0.07942370241675195,0.0749658819508567,-0.028177003582028078,0.059608560413352066],[0.013048542207443918,0.04853765128813014,0.01862846231672801,0.03395249480808339,-0.03958658487195264,-0.047008204424691696,0.019334612296692227,0.06484955929404718,0.05630085737387853,0.023983139572786864,-0.019012282620956635,-0.010231105736220287,-0.048829180229742274,-0.06437383310056218,0.02741323412923048,-0.006379964349611456,0.014026747262119792,-0.03470588783225558,-0.07818131532694274,0.039982752550599146,-0.03968758915927376,-0.013223901715442974,-0.03805748566145971,0.08563253155574344,0.07051401570845289,-0.07857799074786674,-0.06276884542264544,-0.07963347187799073,0.02210366615202866,-0.03624861214455177,-0.00268905920409737,0.03396649429852421],[-0.04598526424345936,-0.014714048779401849,-0.07935872866212797,-0.01839980050594225,5.474263578900205E-4,-0.06022520905553263,0.05271468824913555,-0.03112191222113118,-0.07902365462346221,0.049245504448102904,-0.03312283821364426,-0.035611129325032104,0.03909019018276962,0.07302628169763509,0.04808597953793253,-0.08179382236307757,-0.04527709688063354,-0.06758215347246811,0.002931655384695956,-0.024575349231536533,-0.004088925374989251,0.003894232054785403,0.0030802484353739945,-9.27951729604367E-4,0.035351402766978145,0.019790224618047043,-0.05978203391760997,-0.002842313881706544,0.04555648557076773,-0.009674841741028504,0.022768522005495336,0.058399986246901785],[-0.045444010910622674,-0.04094153576453764,-0.028557111679692857,0.042676712981741916,0.08466017290985567,-0.05454200404856773,0.05011143839871764,0.0704581276707042,0.0499982679060178,0.02010937729598559,-0.008647601044735073,0.02715682360592615,0.040982561866405844,-0.049273286237368145,0.03827179093812168,-0.06340241508464972,-0.08397977111309317,0.060087997875634985,0.07990878280476939,-0.020486041962536325,0.034990145363453774,0.07547668572166505,-0.006496819608253262,0.05685795085665604,-0.04168605132326933,0.06760035360669035,0.08389689963662535,-0.04572240906437615,-0.042770662662014715,-0.02457835541304001,-0.04927942982531456,0.04585246819738605],[0.0043240827348033075,-0.04838150586427547,-0.021527696954124754,0.04316945968440722,-0.06427912182414804,-0.057332354303910676,0.07951199934381636,-0.02417330554959351,-0.055009603586335915,-0.027765109078649666,-0.01264473455188734,0.033322693425724526,-0.044875030874028506,0.047434970991863175,0.05412789357603326,0.040970632741450574,-0.034571026801933614,-0.03010950627452614,-2.308958502301458E-4,-0.025159887441800255,0.019093455708705378,-0.049852300599689224,0.0446347341030569,0.03289377044832208,-0.06842827978942635,0.05465403552251982,-0.07860498206127477,-0.02909534086948005,0.06061828220668498,0.07194191215307437,-0.0512377530244813,-0.07718188636058648],[0.018780831378198453,-0.027949792752500244,0.0681042897117149,-0.01745326519092174,0.04855034069116871,-0.07471330300757718,0.006246617836422746,-0.054356632749529434,0.03210620400031959,0.06426220887630886,0.06729517309354366,-0.015673093827211246,-0.07615561708245905,0.047827770702528506,0.01296367032661709,0.013941526715112668,-0.07949986503987802,-0.0715345345557581,-0.07974597775370582,-0.07549726633770068,0.07095199497903466,-0.02067963594241707,0.02747491650677987,0.03436445915570087,0.05179683272166406,0.006348876864826773,0.06130633531665523,-0.0476026805858209,-0.014315437586439543,0.023803973882173354,0.031028800671836804,0.010392065357420523],[0.05574854631873113,0.0628481614837954,0.036667962550077385,0.08022685190269527,0.0466836114769877,0.0043928515814631594,-0.014455352774290626,0.049053429974468384,0.04568819932273974,0.04539550288889722,-0.07233904015456438,0.019149869837638257,0.02160365104047761,-0.0767064106131579,0.06247753681627248,-0.07753786845900522,0.015559678908221582,-0.06006192276906368,-0.060584140056543376,-0.024222319267299577,-0.013111469866788595,-0.06353312601953931,8.443244728120557E-4,-0.06551527786104955,-0.06008976796960316,0.08481299000480184,-0.03549557958260775,-0.020640638612738463,-0.04952542187044949,0.010717487149701272,0.025537158820714046,0.08394796954145807],[0.06033938431254246,0.016469148979680947,-0.0551699639627071,-0.016808863369160088,-0.002416729158891949,0.01686846055427737,-0.031026332806585503,0.04661998457786057,0.027280669228980908,-0.03364832934165293,0.011493233880371177,-0.060299809851610084,0.07866344275199519,0.026558368980963896,-0.0295474843901643,-0.031403898967400326,0.06783017780073883,0.08171410312751616,-0.06027999453174815,-0.050979645045284405,-0.02659367274364453,-0.0629188321858026,-0.0034915036187903453,0.048612092603491724,0.018771557705013642,0.03193609024560203,0.07129427438386535,-0.06224242200521252,0.0076314610139885655,-0.007457349294433985,-0.07260070270502779,0.01665641682432215],[-0.004243486374542222,-0.0101870487202889,0.06885841956801929,0.08250347758603337,0.05574149556703633,0.03951357143465709,-0.060252383460948494,0.0021250595099367706,-0.004471584710963759,0.0756907876399621,-0.030246005327106994,-0.022943130253676326,0.06377197476515004,0.028695730616900846,-0.07075450740141133,0.04017248475584193,0.05841576990156716,0.025657209908856803,-0.010484050479481569,0.07314249815852446,0.05448064405329377,0.02952750471857721,0.01867545487849661,-0.03324978795872351,-0.08278033066231887,0.030379486797752472,0.026971423233982963,0.049364429703123755,0.019775658263049428,-0.045985734111975804,-0.048086868055308166,-0.04778834059274205],[0.01696992701020703,-0.03891232132583864,0.03726751800828735,-0.04658577198831481,-0.02284182744809133,-0.08506182539386366,0.01941095452525387,0.07975242659008078,0.001947274313133531,0.07302685496235618,0.08104686630661524,0.058510813040832624,-0.004766391700408413,-0.04300512254675205,0.029588213095406914,-0.009691657388615667,0.070167392150551,-0.025870421740603233,-0.07014406861900352,0.048385227551258375,0.03622065791581779,2.622930354147114E-4,-0.08513065025110625,0.0014055447563095164,0.005484747377030602,0.06397344672989344,0.037230143729823494,0.07448271964500512,0.020757321090082458,0.020788349436623835,-0.05546630383102689,0.005373966409203985],[0.0012725635936473051,-0.08445594130311306,0.06832121621633004,-0.0735184758337996,0.048682363508745455,0.021463550725791668,-0.06859683820054116,0.041147922634335816,0.05807072876284198,-0.05139952667057941,-0.029765410125578245,-0.02545851984327674,0.066350688421443,0.07521306632157308,-0.050756334306405713,-0.04019404476907782,-0.07457444613838977,-0.07607868821737886,0.033190191229046095,0.03863259887824424,0.028901770786696326,0.07942348137099543,-0.024326947497300223,-0.06565863829863007,0.05753281798847864,0.006983548969600203,0.03696477531822524,-0.07089395589252635,-0.06621100299510922,-0.06761453425542838,0.03420903841001508,0.005559155726055222],[-0.020795996598961274,0.07408440476955594,0.020928885746609314,-0.04241010144643364,0.0022453846609967725,0.027915284240894258,0.05098512896739922,-0.0141555319954642,-0.066027446611101,0.00823321002344753,-0.05759003705944093,-0.06833463679790104,-0.04375290562696518,-0.050790245414738214,0.056525799301353846,0.056430407171671075,0.06712777923262181,0.0020460165677475555,-0.010049002484437769,-0.008385976139185345,-0.0171189371292155,-0.025691252266534584,0.03385815460635436,0.03568799086949722,0.014267964437859625,-0.07224972962877906,-0.0690628459264543,0.001956683881916601,0.018447312143082928,-0.07000265626829676,-0.04239787879097357,-0.03070290705975377],[-0.07764554965390223,-0.03574388978245099,0.03190330731645988,0.0843307680281075,0.029951547405119103,-0.07922753320551502,-0.07443858249100005,-0.06592832558269504,0.028655637537295553,0.08366371011997131,-0.041238791623165974,-0.05233101209209006,0.07005088617238528,-0.04356436041591569,-0.015784930925313773,0.07706175314716246,0.08181055333972007,-0.013081926142431548,-0.004005608474461873,0.030972789192062852,-0.04661826615932247,0.0037113624158920597,-0.021621716445030973,0.06794468523329603,-0.06788376586825744,-0.0792925443858869,0.04881731192930383,-0.029089080299988825,-0.011439365286968518,-0.027817669894676586,-0.03032537419735933,-0.07042950597071969],[-0.08295944712519808,-0.06489999579475515,-0.00439684046715118,0.06776468655518236,-0.04444088811440807,0.04520011336624711,-0.0751482870384168,-0.0330641551170191,0.05383383730514357,-0.013751454486375533,0.02730069426314381,-0.024289069127143337,0.07797423074599218,-0.07717966119652388,-0.009673952223443727,-0.04128378224791125,0.009463264558607448,0.07289469141575752,-0.0035679267017170477,0.033716329966427566,0.06515500023763153,0.04564907050699491,-0.031760096749066276,0.04784198903383866,-0.025515779306934046,-0.01872455319697075,-0.07188708225684627,0.06327913036768472,0.05945578615754528,0.022426962067687222,0.08215952410794372,-0.020473019414499024],[0.037858706359742186,-0.029104040906191578,-0.05605695296567639,-0.06544886261293104,-0.007676825778752117,-0.011533942214459102,0.018460969938348278,0.06647743495086084,-0.009929913415276359,0.003537715979559153,-0.04952604496857602,0.07129845817752183,0.06974673423507027,0.03201638515361616,-0.03923055137853212,-0.07055515628416859,-0.01872906773682631,-0.03729328793932423,0.0013295066598752003,-0.0634645196182898,0.005520922702387869,0.07145490805318976,0.0032534054038288345,0.022087237583495786,-0.06840349057705357,-0.0763711451180438,0.05544938170827559,-0.042019585172281715,-0.019903594359246577,0.036585067773534444,0.030902663757326355,0.016068593786658678],[-0.07888420619895406,-0.08022814347010396,-0.04521753642607996,0.047457234624529644,2.2588837402703562E-4,0.07871131830608505,-0.031687130121736705,-0.0013968237878746001,0.05679763139934858,0.0667360879084986,-0.02686373519757476,-0.08385551175832746,0.0369375979120183,0.0625319589707804,-0.0016239284507601165,0.01611245928810324,0.07173017170218925,0.06074712916671397,-0.07021712513585013,0.08499836625454513,-0.06772748983998367,0.0367483271306344,0.05215461606001344,0.05748330191342537,-0.016302121537800845,0.027333300653802125,0.049254257363916684,-0.03992659588872734,-0.005419599417376135,-0.006808557842652933,-0.02792666192764643,0.040811708162985155],[-0.07537811426610597,-0.06370953250784685,-0.06830921633779437,0.020261703078723967,-0.013428520505164084,0.012025811142583654,0.07845370925880088,-0.07511282036927702,0.03922159614898153,-0.009968975956784663,-0.07008338563582753,-0.07202697052483903,0.08503845678483897,0.03972698897172437,0.02645284709827175,-0.06195154227693876,0.02214124110222369,-0.034743151522917924,0.010930580876032579,0.08261430718624575,0.05246583578870182,-0.013795082483700252,0.052102358803157535,-0.06907522316131162,-0.03635711684968437,0.011868890680351619,-0.02770914368253446,-0.011319855972354612,-0.03997243078252694,-0.0330034261358372,0.020759401853524807,-0.010293256808845023],[-0.07062264582302602,-0.061766119589053786,-0.058917348548697165,0.07494127963450947,-0.0365384670424567,-0.07731895487041136,-0.07025211508773133,0.028255182610294242,0.0300838421430411,-0.07570677516219682,-0.02106421199117096,0.012522102726734423,0.001678810909465565,0.07319095397580624,-0.05081465359509869,0.07256372943192589,0.03596619032850886,-0.08113893018096155,0.027666524737312927,0.08338364022386376,0.07254858302042595,0.03017261593341285,-0.048949345342828486,0.06275896561152502,0.03430091217197498,-0.05943273065856636,-0.02791935431169333,-0.020221989861765724,0.050829184914597425,0.07363323726496794,0.003935611570468264,-0.0516937254820797],[0.07061910585043277,-0.03132709893977655,0.07773229689328752,0.01610550800216089,0.019643518015522325,-0.05825007732409855,0.07276994315714354,0.010044837398872651,0.013812405170962433,-0.0038406936379174234,0.006310302099440808,0.07823190864424144,0.05617621542737145,0.06549675152016642,0.01797077083184883,0.062362059287097996,0.07357445918698943,0.07249869611337345,-0.019779928163554367,0.06344732556644526,0.06276799392511982,0.02875743033078871,-0.035505822944093844,-0.07945733463775023,0.03598244402342099,-0.032148654206168456,-0.03560682439941369,-0.011321102196792651,-0.03771507208103005,-0.06128777689944225,-0.05769904695332018,0.06334225772595681],[-0.03174584229716168,0.07024670816558275,0.03016527742751803,0.04001353950095929,-0.07926178937824059,0.004744903688647103,-0.01089082449899081,0.0019293531134455802,0.008041322647153919,-0.010011005535821568,-0.06900541355492225,0.06450273300940011,-0.009715046961901948,-0.021675028617529173,0.06466128936283458,0.03830493776630503,0.0473559972528657,-0.036275017882505096,-0.08085646055388902,0.01085506755993487,-0.005638693989614654,-0.017109346886754348,0.017595405025065,0.06714394879001484,0.07846413844267211,-0.04195379086131394,0.04747442467176049,-0.008736124609943939,0.043598910806155175,-0.06258679275812358,0.06049488875205315,-0.006942609406442926],[0.05815091940567711,0.05418520016175035,0.06091361162074569,-0.056643333825567785,-0.047168135717909544,-0.004024961872406584,0.04936654526621628,-0.022771499482251465,0.07650651998242611,-0.06955283602911798,0.05521290069558623,0.034939884634522585,0.0840294205793434,-0.030035792114097775,-0.04340468671309359,-0.001433417546340282,0.059709043401285807,-0.07562674356149181,0.019868336241969042,-0.03910482085368174,0.010318982499224368,-0.0282751647531556,-0.08381922847475436,-0.03574607411755909,-0.011868890371417353,-0.017112842212804208,-0.08154794300082122,0.0771862626823493,0.0727701486444977,0.053141648554012016,-0.017304727358714207,-0.06629952703648793],[0.04965460798411952,-0.019036693720823113,-0.02833754119974166,3.2896639365161476E-4,-0.07754143940098775,-0.01802773547826639,0.06736877596915444,0.06258718688158489,0.041819171039384005,0.023036330668447673,0.07689827371936278,-0.06368020565359771,7.174798459649639E-5,0.061190312256167244,0.09171507509424072,-0.08334204274262487,-0.0020917729743197165,-0.04138748411129932,-0.025456328248388664,-0.08151718106617444,0.02283854214298482,-0.026280403869462194,0.07510720648043254,-0.06526078613133424,-0.05923801779438996,0.07628008108519838,0.06864029178403071,-0.016422880257259704,-0.039157861795302444,0.018113999515983262,0.02907399240404575,-0.025572714396257416],[0.0032118525997616187,-0.004235802201978064,-0.004720166566276199,0.06145852592485346,-0.08555689839093145,-0.0652640261776548,-0.03796942442746778,0.03503576482975085,-0.07289192580682709,-0.06016344701752899,0.042646785142495515,-0.012860376138059921,-0.010410033901687248,0.015518813157319978,0.0438733136960402,0.06371746234390449,0.029340221448925546,0.03586835812771853,0.018891325829135497,0.04917100175166831,-0.073155096397734,0.03765330255979609,0.06002174032260848,0.08089450108751833,0.06074002393609718,-0.0791664777092364,-0.07275221705766179,-0.07630591682241879,-0.01546870711102445,-0.046788889199883166,-0.0171658917544975,0.017510488663595624],[0.06871576192410125,0.04528010349914388,0.017727448790849202,0.1210052802968038,0.06240213809437932,0.049775381063571426,-0.039392249091759556,0.06241507644644739,-0.07395913888793877,0.06715881616427058,-0.03667894593243118,-0.04436866111883954,-0.006490784578161781,-0.05167361905625246,0.061378249013383554,0.0021167378740486074,-0.06087604662748933,0.0836213653889543,0.07597030085538806,0.0494575875769022,-0.03555273512624961,0.008458617358607765,-0.0840269062587356,-0.06843587098342564,0.05851188405649968,0.048257428660446904,-0.02753786979680772,-0.03941656260570526,0.0327385367294473,0.07894925708511316,-0.0428251648413977,0.07681575548576418],[-0.060581571605637985,0.027455502350573032,0.07015346562335088,0.02014723114330589,0.024375714752586323,0.01983425718141016,-0.029602538354640454,-0.05681112708943434,0.07272275373230082,0.009232673165526055,0.014527841953530215,-0.01863938666746145,0.06516299715622338,-0.05014461290683712,-0.06029107556364806,0.023067508992170176,0.05409272297726525,0.023080160685724636,-0.013163825926486367,-0.03721724587080596,-0.016178484181072747,-0.0039858996665779155,-0.004589349369633177,0.01862272457145341,-0.04644134996191122,-0.06047205401750276,-0.041656276406184696,-0.05341384713621054,-0.0761721989055428,-0.06439055634028854,-0.06499269773629586,-0.07458198580368496],[0.054735534770340044,0.006893549177137959,-0.057880557247778165,0.017950137482169067,0.03861343729759666,-0.011370316750340018,0.02841957487524465,-0.06738185266193866,-0.04551084191965898,0.07690662884724128,0.01628242890343223,0.024700297444273885,0.07200606394380431,-0.07740828384916,0.04457254474269946,0.04953289617776567,-0.01983062057085053,0.01922769352893765,-0.02729280944152554,0.10612709180230055,-0.07941585930063903,-0.03825414038010437,-0.02972353163384804,0.06635878670156081,0.01782794881634314,-0.05067214818480698,-0.04915529217787226,0.049512204770709,-0.05996375780713468,0.026018241205111394,0.036504892129356176,0.020805839787026256],[-0.08908460661504042,-0.054660323016807295,0.05816835603149555,-0.0010602076165377116,-0.04015149615237534,0.08108066098131494,-0.06295145013019895,0.0683228661549548,0.011140077275984255,0.06645577167280609,0.06841315784010184,-0.0069654687146699515,-0.035114462860547285,-0.02398701741858692,-0.019716758790487027,-0.029766117980444883,-0.04490510766362225,-0.08375078380961117,0.06600216035762495,0.001905218706842,-0.08351162031401384,-0.04088770548204065,-0.04918333231641878,-0.03228969225423925,-0.0560405408112504,0.06591795737817448,-0.01901076196641089,-0.017440806318444937,0.034035593652212516,0.0724207334987415,-0.032396876801205766,0.027751677765509655],[0.052551190041318446,-0.03543337440746589,-0.079968258246914,0.08184740352548613,0.07023246661522389,0.02384976852696233,-0.029057315519232962,0.053214072156030655,-0.039115928354646334,-0.007310577037386014,0.04444820662146687,-0.05308769615122616,-0.10259539689447454,0.006718438166303965,0.023737204099520442,-0.00935051170954465,0.013872814408558797,-0.08367496389000724,-0.0475559625232139,0.07504644500391472,-0.05235886315658566,0.004457335387504614,-0.07707062267389111,-0.054117929999490715,-0.0045904661786558285,-0.0040035376358585045,-0.04270053926509947,-0.08402045273552929,-0.07181289294354139,-0.034816728669396065,0.06697647822171296,-0.022763882789881344],[-0.010389699710051095,0.030967312108469,0.05870060242557958,0.02073488217820451,0.03263040991389569,-0.007716012922350383,0.08336070895906166,0.038793578089286865,0.014532619882924534,-0.045209726278125584,0.0307220659007878,0.03056954444644932,-0.04489797192886644,0.007427915450727231,0.06950584801304424,0.02009517724224744,0.05828245460982676,-0.07069077869018703,-0.08260426083844358,-0.03053558128783429,0.025040420938955983,-0.004100553751264367,-0.08044882865473153,0.07284326653115768,0.04173214587012944,0.037478945756901666,-0.04602380706193886,0.06114423845783944,-0.05382939104596338,-0.05395623978108857,-0.013642060475410904,-0.054910709299850625],[0.045145250758256913,-0.04478976617534506,-0.02086106917155866,-0.0068192995799667725,-0.052974340542826105,-0.0038590420550035187,0.012845962633297955,0.07933963369140659,0.07376857385254164,0.07446494358630408,0.06323755898059802,-0.07231031887276142,-0.05055470330011922,0.07585818649751346,-0.06080898829739957,-0.04868932963362038,-0.038719573308999,-0.005725541523401902,0.06998524559996058,0.06553429024608488,0.004621654891404285,0.04862177633030964,0.06291881641528206,0.0021983847166105897,-0.07252620861643336,-0.07272257453821042,0.019271460783680208,0.043963252566118265,-2.821208679394135E-4,0.06366667411162043,-0.025755446712311548,0.08089492971494705],[0.05268605420663584,-0.04267866334821729,0.08097864148018169,0.12394732627854316,0.08046170249626679,-0.05690506231269598,-0.05271900917097145,-0.02803562328910773,4.952934973602611E-4,0.0018752700435291053,0.06308852578341985,0.0342525919606359,-0.10270049230551886,-0.04802171786282725,-0.0702802587528027,-0.019170457268998832,0.06538915924340095,0.05793722506537594,-0.02204803180352641,0.044900467363381685,-0.05586321694221959,0.008561760969448195,-0.03194392237941134,-0.05457721839450601,0.047541994149975286,-0.005494520171901346,0.020573872159189772,-0.072463710058135,0.007361741180619483,-0.016686242004132747,9.995776243771095E-4,-0.022985321378267348],[-0.021552892190399003,-0.004639468325880601,0.04072677980733956,-0.06750071219853994,-0.04689739937699103,-0.07739146996604741,0.030326649270961514,-0.002961110209882193,-0.06956045373481803,-0.062395953907556444,-0.045529571885384514,-0.027527389114712145,0.05030628386448219,-0.029871932272247315,0.02358749573731237,-0.054101104491491636,0.006054377981266872,-0.03254381930757466,0.06751373446600842,-0.08053828038576565,0.0041383632929222255,0.022014106453902723,0.067180475042265,-0.024012917117447196,0.03125422727754407,0.02922640031225745,0.06351003166458663,0.007884043535703794,-0.014854076772064472,0.046868676524778455,-0.06562026705423622,0.04855510742070352],[0.010001280311302747,2.735523326923835E-4,-0.050730008014028584,-0.08473742167339135,0.03890164904991535,0.06680414508066132,0.08223449166275547,-0.013492954819782533,-0.057047927012809654,2.137626951739842E-4,0.0162468477007667,-0.011283124411379419,-0.009942768526470563,-0.003971497093755423,0.02495662098428831,0.07560922789582289,-0.022507888584970756,0.020600983880036363,-0.07758707340388285,-0.07078715794649705,-0.03728502356309427,-0.061358643438502676,0.06688446386384121,0.0623505667740648,-0.012246850296972086,0.008437451165833084,-0.07750649762384915,-0.07860897057350481,0.02571815626153078,-0.014134004021576918,-0.06441804548070065,-0.005244392957731988],[0.06315192755543564,-0.05607273029834818,-0.03366136646433946,0.00466719874451118,0.07970152692643669,0.04659682616507164,0.04952810387291029,-0.021438760336689084,-0.054739758668115035,0.03939948662499008,0.06745933002696267,-0.06912779372947196,-0.047169589787894664,-0.04984622634137035,0.04949022063238274,0.06980139741926518,-0.015078474632418378,0.015308451110279252,-0.03228874026848604,0.07986069690331651,0.07066018024009577,-0.005877155986356723,0.019513883313679824,-0.027669400486857135,0.07531254737256314,-0.014519133983966872,0.04461100824456359,-0.05263760801108017,-0.02641174729513835,0.06272311583306435,0.04114967563259047,0.0011007168720313007],[0.009056205252868443,-0.032580856439216474,0.014745779291628456,0.019304879986476266,0.014575736485933636,0.023458174479544076,-0.016936657604719116,0.05769987879750208,-0.057388168387737803,-0.07002461654933316,0.07672267138289425,-0.07260592855220926,-0.04431211996185477,0.030980924029169413,0.04515244843369444,-0.06325947212180567,-0.0031966194548542493,0.05709925256129179,0.07086830524854883,-0.022472754721362113,0.060614443012030235,-0.030130068209168206,0.06541762809634047,0.07783965366420287,0.009690694871220134,-0.031147283453791044,0.03766447295074883,0.06677686429993715,7.537116315020412E-4,0.013575616310101474,-0.041184190402953035,-0.01292700595639137],[-0.07638030543095606,-0.06918803797228422,0.03179432203525021,0.07070815649190744,-0.07694680129366852,-0.07991048102673087,0.058963224845156294,0.06616090761070995,0.008296276232734826,-0.05385389099108701,-0.04577022899646595,0.07003666640721712,-0.06676825203928871,-0.04787739654507249,0.03988408804233757,0.01362038964897106,-0.03154538422166137,0.03738054807272476,0.06082419800509379,0.010960530204490315,0.023991873047602225,-0.065235887985887,0.04657340716122574,-0.026984643702786536,-0.020905346588064377,0.08079664491583953,-0.05819616986802383,-0.062886524485597,0.02470989023944188,-0.0548464592502235,-0.06478808746915592,0.07779143036146167],[0.04480863878097399,0.024321875899133757,-0.07953421685329713,-0.019361466063932478,0.011217501006340185,-0.06627870261601605,-0.043566870634659305,0.044224326233515875,-0.046456629335512804,-0.027557138982863834,0.06561622206312334,-0.02139203425172889,-0.04689656935555681,-0.06267965432824583,0.08206220485208138,0.005045881027631398,0.0800361096641684,0.012116211081409027,-0.0419483238070681,0.04096075472573867,-0.010048631140956613,0.011039945350143942,0.02058105977511207,0.05070114173121785,0.0785639296834505,0.03838472681832593,-0.008463917473441317,-0.05654434388456875,0.02682776074007968,0.07097735458646139,-0.04853388902503136,-0.07550017869471716],[-0.07804005085332925,0.05974976736811237,0.05814182444206442,-0.034489452437777485,-0.04531357681466048,0.061894645992182966,-0.006563535728976624,0.027395016997540943,0.06928816520014519,-0.04257578212281318,0.08562681156474619,-0.04291187438860434,-0.04225288148250142,0.04332658178701798,0.06599531527968633,-0.05331930960817713,-0.011576406389345324,-0.0626226615327279,0.0774510283783597,-5.762958565252031E-5,0.06978278567963536,0.006815897195537516,-0.03996241741546671,0.034827005859565184,-0.0378877540722579,0.05935575819003117,-0.07861068874800461,0.05186213183174882,0.07060912088695387,-0.03839873121121687,-0.009332774378251415,-0.05745040405324062],[0.001552090693183437,-0.002463745171930846,-0.03843384784824837,-0.030860409040048453,-5.480255094976907E-4,0.01457358330961548,0.07576341865499195,0.057958806156369426,0.02432603128796526,0.06725447711834623,-0.058358769507768506,-0.039717616794588115,0.06125538845085245,0.04015714003679933,-0.071329984318391,0.013646685190573441,0.008437681595420292,-0.03773681936001324,-0.027800460171870784,0.02795318394597263,-0.05464212759188739,-0.04892556407016653,0.009282597363120926,-0.043354892938640796,0.07756558113553404,-0.07791940153235916,0.015333995914749368,0.0853161405541153,0.019819293921606106,0.08028566960433778,0.005206333349953025,0.029173359272097625],[0.0010303342673852424,0.0024392685068243642,0.08173643062627582,0.07486409681885736,0.04761207634254514,0.02677862044841963,0.06096300528003274,0.0679145746108323,0.03582402508712465,0.024663676719358537,-0.051484218037980596,-0.024829072511331093,0.03169136989687608,0.02021264103861836,0.06918237983286954,0.02894760885074059,-0.064031703923477,0.07870237031350955,-0.007185710646588582,-0.03311494346536425,-0.0501012496326854,-0.015631432803607972,-0.07347452647282006,-0.026650081960145785,0.02878420576797318,-0.0460724499399217,-0.02279321313700371,0.043163450579451486,-0.01451118654153897,-0.07433824673402076,-0.07300700337137389,0.03484871316014033],[0.06859943599926571,0.030655838684883332,0.04018201025223477,-0.06389274874354066,-0.013533047793842467,-6.06036965627593E-4,-0.00634882708008425,-0.023720383965522753,0.024723825126853637,0.03426956797047257,-0.044052662242604096,-0.0693623233196549,0.016775625839178725,0.02128310833498889,-0.07734646958476947,0.04246946621950971,-0.028043196573648534,-0.014372614096834857,-0.026386323678044984,-0.0783475974615157,-0.03922631896364679,-0.050329618052157965,-0.05916414461831372,0.058074418998626975,0.06773385763505416,0.006891402934257933,0.07174554498830193,-0.05587093480595008,-0.04170318319596919,-0.008797015088632731,0.06354329990833536,-0.06427199224282987],[-0.07209205802037369,-0.02776273030966033,-0.004909149808858534,-0.03923737977893403,0.06049018227363652,0.05465687258435055,0.04069641833962356,7.682091773601431E-4,0.014509466553728069,0.03578836339067994,0.08219922851404064,-0.006929129574251989,-0.05954102602839297,0.03542433481382589,0.006991562835590413,-0.07531567398848549,-0.025733065357170168,0.02501515736912489,0.020036613749332886,0.009791413461936972,0.050153296354984535,0.055085818492708834,-0.06297708924460868,0.07575815913783661,0.05695279522750466,0.018180427693001665,0.07901738582180114,0.05825932748451173,-0.0016751312610359494,-0.0051415204737325325,-0.0065447129014255855,0.04882345486478246],[-0.047908446569870096,0.00832202120582748,-0.007671954111568604,-0.03316046423360005,0.08568431163099675,-0.06592966721994027,-0.04521574600482979,-0.016646663538594727,0.05835391320985531,0.02911163731345929,-0.05278549823013583,0.04734536784041091,-0.0286384653439357,0.06070893438628299,0.06806065258012622,0.03204474237858784,-0.04707955868389071,-0.06867925975741192,-0.0331523179364295,-0.018215042134446642,-0.021948566378982504,0.03595680773949976,0.05537797414423609,0.07338846844060483,0.018380774477871856,-0.07201584278900981,0.0067072449797271685,-0.019404908234533925,-0.04681035386925926,0.06698218306647916,0.07723777199674615,-0.08189630680184465],[0.05120958305580574,-0.017394602744666948,0.04481165936938362,-0.0603642605910403,0.07879977882207642,-0.017322322496113887,-0.04715497575777543,-0.040806841724523375,0.03764172471492547,-0.0722378692528564,0.006586843538404296,0.07817254374652342,0.005196381467690075,0.024353435002365975,0.011702171773087343,0.029322310472813293,-0.07778693693921045,0.0247657927942035,0.07970701556973356,0.08475225230878326,-0.07126935313393601,0.07515126625605861,-0.03769690058241357,-0.07287793474264805,0.03906831398738604,-0.01632399565948668,-0.01160377282207282,-0.022902192654037465,0.07654320285000468,-0.07674996624924106,-0.07596065514660598,-0.012557578373884425],[-0.02545531420395494,0.01292664256345222,-0.08651232148184465,-0.01746926422832216,0.07193556051355202,-0.04852767742389911,-0.07762948040031757,0.08243774251436206,0.017862133566882446,-0.030280046523732916,0.012922411590678385,0.07765151668237515,0.051821703577562994,-0.07978138348879547,0.024507324124418438,-0.017561304348158096,-0.03279627809589772,0.04652153879821312,0.08233096464570085,0.08505552516557134,-0.0820438531798398,0.047163147801933265,0.05029872157185535,0.06127275011490963,0.04821418109094657,0.0560466313882631,0.05117010868810947,-0.027177542779526897,-0.025537954480514758,-0.03155422768313406,-0.011773543794020744,0.059430484917552436],[-0.0012255702151236301,-0.04404429719198651,-0.040761660191607485,0.08962163365740933,-0.029985524137897443,0.049473390981614185,0.042593890967009974,0.08041475716952577,-0.03861762251349229,-0.029366668021196748,-0.07908000999622562,0.005775701795800643,-0.04403098535360203,-0.010815530109447255,0.034801307020923634,-0.04830616354267233,0.010081200980170242,-0.0767491964334099,-0.047897605359873786,0.03673367654401229,-0.07153934933868074,0.021046455244106217,-0.06315138409386654,-0.0193078322916636,-0.020762645286733522,0.029407957776382207,-0.07278906793364534,-0.04515217924890248,-0.004308974817200469,0.034042411023676715,-0.0496368704049064,0.019387537330597532],[-0.05549476282851033,-0.07615330537467856,-0.01999179360699462,0.0662577482296115,-0.034371122099558664,0.027044302861556516,0.07486093816321909,-0.04885608523382187,-0.002408509664342906,-0.008260717791483073,-0.02008501436814688,-0.05670520561249943,0.0633055799413321,0.084903973547757,-0.06598126508573926,-0.026486200793884612,-0.03759736467726267,0.060028913369350664,0.04913524886583783,0.08849288683420566,-0.08144702621878509,-0.0764949807056521,-0.0783554709031956,-0.06700024395101403,-0.0262180217185245,0.06578858574608493,-0.057645184450306954,0.07206150584990538,-0.0792154710492094,0.06339771854058725,0.05654117918434959,-0.06842271363681324],[-0.04784810655806993,0.02018303891985602,-0.025344173805717775,0.06254862565689652,-0.032230503674027855,-0.042797661006269215,0.07502244158545121,0.01701310022507214,0.04992437894574698,0.02241814008228312,0.015514638045914492,-0.01947940360038224,0.014314277362451376,-0.060134557983249404,-0.00625290389879235,0.08377142868123148,-0.07979335808417652,-0.03884656109067995,-0.042447696561211584,-0.04571454784990472,0.06004736268724683,-0.04682211146070522,-0.0859618933883567,0.04120855006628356,-0.03754896489447006,0.032587613335985546,0.050964276396257856,-0.07956167299734682,-0.07639608735265034,-0.045994331578916185,-0.07189362105595472,-0.012406216536062172],[0.0882948752703518,0.07000595156074588,0.07909114227431421,0.015420674636594921,-0.06910874390592495,-0.08426143728047038,-0.062158175543730904,-0.004653037901590955,0.020748411366364707,0.051571701809512156,0.09495034662595175,-0.06322661226228644,-0.04944621688407448,-0.01092783469451613,0.09748810640289336,0.0345576661087745,0.05900393405045543,-0.019196909824241798,0.061341866925270605,0.004294856473765578,0.09498859899433519,-0.012820025024573335,-0.0525986401536679,-0.00627860732740579,-0.07578139004318679,0.053974540344123835,-0.05745065555943082,-0.052801296508936016,0.032202324319280044,-0.011963369601520111,-0.013262023324399,-4.914573265959086E-4],[0.017083460734383757,0.09896060747790178,0.08047154757812397,0.01840252725997204,0.05547038886257596,0.03304010115055211,0.01896902400511045,-0.004890328708730372,0.017299986535289146,-0.004757678891735255,0.0774779586672956,-0.01638592718039971,-0.04687275583654138,0.0068505323969472506,-0.06091313949417714,-0.08163893899078253,0.057146832289436275,0.029596700102054806,0.09183490932758505,0.012533212143394219,0.034415611578238914,0.08003287394248514,0.05054425400149282,-0.02230811891642196,0.05837227126765969,0.028010800298156235,0.06933832128724908,-0.0341366126449259,-0.024418660155367936,-0.07636310961794707,0.0069450172331808144,-0.04820398687516966],[0.06669678166154254,0.040139202568114374,-0.06171878229289186,0.08381558265788161,0.0013406299738866802,0.0151223748732014,0.0810465986285898,0.011629605065183908,-0.06335495444798181,0.025401164523638328,0.058163978976514534,0.011581786548144653,-0.03098277056011125,0.015902407991915828,0.0375702828475205,-0.019780554370488954,-0.06609019369239935,0.03898513702773451,-0.003282568486388689,-0.02986615874701158,-0.013902437275039484,-0.02422140512051695,-0.011872033923308708,-0.059725878584393426,7.491341979612338E-4,0.03851352587804463,-0.043242477231420585,-0.049935372341050305,-0.06918483393296486,-0.010798631358095674,-0.05666863536714022,-0.0739935822370531],[-0.052427549491748986,-0.03040785964592622,0.06421177417551915,0.006563225993433964,0.03341136048204201,0.0025939467021825697,0.006362794060449648,-0.016580436311536034,-0.0510955624787232,-0.07633064445211366,-0.0032123559374920285,0.0866694865137266,0.008119231614611937,0.03912965218796605,-0.002148201375567608,-0.04848126238944815,0.07333527018459776,-0.04612679861646957,-0.07622596107505565,-0.014000370306257016,0.02785854472074529,0.038505521824767554,0.07662376728843011,-0.07826137171489897,0.04259860309190595,0.00347939968314206,-0.034209492735031315,-0.08026930928932755,-0.06037027835219658,0.07328593790926247,-0.0659805874640213,0.05588527693817093],[-0.06969564376873273,-0.039927295743147156,0.044966885881511376,0.11952857414351867,-0.01925065512229024,0.01228845874173396,0.031140524345885504,0.06087290653077808,0.002923148857030565,-0.006029797109298864,0.014118384109195184,-0.028144979210202446,-0.02560971834351525,0.06562703043926464,0.0919327745094641,-0.031316091003979675,-0.08032404701666085,-0.05922648623717454,-0.02701973822343879,-0.03466360974693641,-0.03434983768634887,-0.05876647350820223,-0.018361954830354025,-0.08303288153961859,-0.08818062524952047,-0.025738127616228977,0.053495011984800805,-0.061955514713203846,0.05741807216881571,-0.029193697270035426,0.012073006609563766,-0.008819433692170196],[-0.032934424369190925,-0.012824126539482675,0.006865798982216634,0.16018590597606977,-0.055165270745169755,0.0385686752402719,-0.011877474889485068,0.060314447507828425,0.041485525762468514,-0.03302718754030515,-0.036034776607754594,0.04363228356453447,-0.04381699953472189,0.059547549541861144,-0.0674909158754101,3.790849230142843E-5,-0.029924398177927327,-0.04932484000380328,-0.0692664728577661,-0.02624883261426735,-0.02130045727854855,0.06290371021887946,-0.0370472943852822,-0.048679455752882184,-0.01179820015823192,0.07351826594821179,-0.0797997073400797,-0.11041584981960453,0.03552949973454975,-0.012526553317054467,0.04106687641158466,0.0019463398196228345],[0.04525840783720128,0.038268435400523285,0.004144978396567236,0.1721531232994287,0.029291206836852726,0.08607204935810832,-0.013748102509701324,-0.012256367664339206,-0.06250567672595235,0.03460226600208669,0.047910082923307076,0.016124605829168262,-0.03297802904511053,0.011664106570491396,0.007902809736475454,1.0357831020884497E-4,0.0424507155616577,0.016244997032297665,0.06308721530645232,0.030616239629748524,0.05789745861978873,-0.05701783548768634,-0.07309964854792235,0.027883175878141864,-0.10715702094523871,0.07010894537605367,0.07669323367772073,-0.060795397395146535,0.04935394330457953,-0.04776746357856737,0.01539964887311523,0.032199369852997636],[0.0151882807991724,0.0039399370632653375,0.06218045930337987,0.06503537703916032,-0.05281341809888928,0.1098280644370134,0.07299431998667431,-0.07499943389465785,-0.028257831565150462,-0.008968677176130086,0.09554890974657121,-0.019413833012120067,-0.018954738829609033,0.03426046750781571,0.07623524008622176,-0.07020029962924634,-0.010431772571908315,0.056416191856341946,0.01413887927763628,0.12072863605569321,0.018325393951506938,0.06191378297168347,0.07744402162402313,-0.05391724920368541,-0.01637433005701823,-0.05251695869521644,0.004072510991019405,-0.1039642699895569,-0.040440677056774316,0.05878831794395165,0.07160540891312218,-0.017356593241013164],[0.026379855551724937,-0.04093235280421721,-0.044665098077346935,0.12697884636638232,0.03077781396213812,0.0918146490210185,-0.04454109271259204,-0.04475961798653962,-0.006077494319144512,-0.005633415156362543,0.002825199782725567,0.03869101060564767,-0.032593421591362005,-0.015891430797956966,-0.06878138238745375,-0.025601000633328267,-0.07124159926182859,-0.06285281472089504,-0.023068023252901717,0.10667064356496056,-0.011827738227678186,0.030968435826777125,0.049764173521984034,0.0206643685911346,-0.029412519831672146,-0.05787376559746991,-0.010700849658219462,0.00263834138962467,-0.029872742883953012,-0.09913285809597923,0.030623227943025022,0.07137502556761958],[-0.014140979050637978,-0.14193435993910608,-0.05797053457531292,0.13618675365152777,0.061738623784056285,0.0177978847053942,-0.027783039233543798,-0.041491876360808685,-0.010130899215523301,-0.00727918388116599,0.04885478582560306,0.06087499091428315,-0.041489724146773106,-0.014291240191761522,-0.06083693217004023,-0.006986171251746097,0.012005481287562873,0.047397886588774286,-0.035526188569000756,-0.031106796384876487,0.037050475008752776,0.024888206970875452,-0.02351692943541061,-0.04313261191273298,0.013793304227508055,-0.004764255799619348,-0.06751791059527,-0.006652111614688148,-0.03799645544134937,0.034285949304416787,-0.006898022604349977,0.008686450533631348],[-0.04910592086762627,-0.028312054560759674,0.014034002714754348,0.0803654245823442,0.03354096796837436,-0.03167413725853677,0.04070947093902068,-0.03299838827905396,0.020729580551914,0.07005010516219864,0.06870146515732595,-0.02841146619346519,-0.008067806081636302,-0.0313966927248315,0.04228186863840165,2.8903704830504987E-5,0.06390671144067371,0.05827664024377531,0.03834633536675296,0.07258272940063307,-0.11463176832027719,0.002602413675282354,0.0756330705452614,-8.326643718402468E-4,-7.270191431104319E-4,0.05840435478481636,0.026177535192178813,0.03605996400163829,0.0669815712136594,-0.031367088956695426,-0.006146118136613194,0.10127114441084799],[-0.037318466663130795,0.02165668567401351,0.04876877567565254,0.0479780971668213,0.07940203160250994,0.07512305919970763,0.02376593289759353,0.04800358554799116,-0.0013415550899725007,-0.07988529564656982,-0.021542633961820455,-0.08451068887108511,-0.062137875222601946,-0.0664993450206521,-0.023781940835123184,0.016441633311390612,-0.051144230721157063,-0.06427696060784581,0.05741628192309988,0.0520192619344668,0.015985889933729305,-0.0066340837945854225,0.0803853514676641,0.06236247010445873,-0.10257396880129595,0.07081750181904799,-0.021483749655944823,0.038711560209407726,0.08556733638940445,-0.02983522639119123,-0.018680808365917304,0.05984070325408668],[-0.09870933103566552,0.026837857068037145,-0.008401273178957346,0.09559459131603196,-0.044431778150850434,0.04412554756159185,-0.04242065339424307,0.05818985757903628,0.057428239195791146,-0.059368586242331545,-0.059692408331710654,-0.06794956165401925,-0.023083472843416216,-0.08172282044614124,-0.08781420933237433,-0.02846244641303101,-0.020374218990915707,-0.018753862307104373,0.06184514529858887,-0.03774130217142891,0.016830370543384585,-0.059948675130932064,-0.06975716966130387,-0.06334996237370175,-0.07839611791073763,0.034204774999195844,-0.011843700926283821,0.04881439551419201,-0.022729456190065195,-0.014515452162279811,0.06019011559466728,-0.02805251711991526],[0.001639833428701493,0.09406211885127999,0.061690509752129696,0.005116480012787547,-0.06828925998410462,0.03057391181575444,-0.01111794921213425,-0.04469208614316571,-0.0797015928611029,0.027215144631240792,0.03982408843282462,-0.04816264008981273,0.006133750637296859,0.006853567530870276,-0.039737887856488324,-0.04020777180722804,-0.0015961589299934454,0.05269245190626498,-0.04981647286363556,-0.07491311170228815,-0.019412382644326657,0.04221785511483326,-0.0222880214378173,0.05019982577967731,-0.08615806958048641,0.009337187596883857,0.036120089132904244,0.07181826200729789,0.0503584509523468,0.01393553689689726,0.06796427178349147,0.027098545048159194],[-0.0565493819799898,0.07406049931338902,-0.015485998821071293,-0.02809574710541492,-0.002845323123666036,-0.006477569878453818,0.010090984377184515,-0.018768451906026645,0.026881591948553583,0.014803319919481386,0.029176280743157937,-0.04725492108661578,0.040162855907543905,0.037948704401042706,-0.012736750150271692,0.07356469796341064,0.04274369785455332,0.025318702094499934,0.059961501792615314,-0.07965815798023211,-0.013314485130740487,0.004580235922987748,0.05075917756528189,0.04365565478209497,0.01906086857595907,0.051971635123670215,-0.08545184759109552,0.04501614082808921,-0.006005804799252741,-0.0378330429454564,0.05490438812226839,-0.061844452754788094],[-0.08258972462254253,-0.05491529505552514,-0.0376665794902481,-0.05661169420827962,-0.021791578815548406,0.03266735125317002,0.0264920275152469,0.030397224637218112,-0.04032239563323111,0.08077987037676632,-0.006581467755736941,0.034159764334991786,0.018651597867382068,0.042702502612442954,0.048841473587541644,0.07136363962742619,0.026519054220785654,-0.03849720851057281,0.030182255301327107,-0.07016709615065551,0.07575892245981972,-0.036560363053680586,-0.07784074370673946,-0.03905096941034279,-0.02574792595095662,0.0015598552074681826,-0.018881404695973655,-0.01772507385684602,0.011232832078808966,0.030345812914037238,-0.04694560894597647,0.0407698371238909],[-0.08321816768485156,-0.05926405632636845,0.06700676592694028,0.0692816878582293,0.03875867557602099,0.05470320202670917,0.054047086934078926,-0.0813919859310957,4.5659832211244805E-4,-0.07287116568785942,0.026722523561606926,-0.04812991167596373,0.0265970178038294,0.03917908703449498,0.0029936873694568515,-0.041409766609889646,-0.022088635088729217,-0.028140226943136875,0.043533860832509784,0.015504959929877882,0.030056973992984782,0.024990783371836255,-0.005012617797578376,-0.06070465426016713,0.023678802802149262,-0.029220065971147634,0.0701427826630917,-0.028503522495090947,-0.06309101919196722,0.05319997518701971,-0.02694632047581015,-0.023171994471426264],[0.07907467291310347,0.05856670743307623,0.08481267907532157,0.07595219733644172,0.023249992730598818,-0.02970823144904772,0.040143260069363425,0.03770934090680416,-0.014460517327189537,-0.06386798649378092,-0.08354313484094845,-0.07764698277320185,-7.378849967344379E-4,0.04124317160049966,0.010334625269788606,-0.0756268125066408,-0.02272490216567794,-0.04894050196697264,0.06226051994800716,0.0618197007397939,-0.005736072028912217,-0.04592792070168387,-0.026997389310700316,-0.05793526265916881,-0.05519528416954989,-0.08407737728943918,-0.009176033047129729,0.06508821594424101,-0.05811361437137329,0.011344816874193977,0.0136145643506157,-0.07584829199492102],[0.039925118167011386,0.07657997240185022,0.0706105850076624,0.08237567686972698,0.043029051900066215,-0.05281844281361645,0.0216679731150282,-0.004843633259492841,-0.08106112270105564,-0.05122003505401298,-0.0705322589954795,-0.04893693562405307,0.053667832308110786,-0.061187486934676974,0.04466226288306222,-0.022627320026957158,-0.03362095820592909,0.042408591740386734,-0.01475094055013522,0.06773870405521094,-0.01057928073475807,0.021692053084841113,-0.02511376744895983,0.04902333974643094,-0.00462120837751252,0.045532814266226636,0.06804723534323526,0.05132867746156815,0.07969202804733223,-0.009059292385633263,-0.028843915058010296,-0.01164061319849133],[0.05313806155536472,-0.05433920777056968,0.07333058048191367,0.013342775930832098,0.07657208428426578,0.028275142696997185,-0.026460944377154846,0.04043336723928326,-0.05761964233957352,-0.02439754358780653,0.08221344250360113,0.03321567848457639,-0.04697174859289148,-0.06451923032935142,-0.02955459229240272,-0.030794851103131456,-0.05648055579229398,-0.05534954334291954,4.44085596844406E-4,-0.003456100237681627,-0.04816810778320835,0.04331370887313185,-0.02363106005504773,-0.06804372111300105,-0.05132575064029072,-0.06933525363976595,0.011058298287244814,-0.061089287637623654,0.04752346348568463,0.047650169217274926,-0.07807923713185572,-0.004080005246117437],[-0.07900193790563831,0.06405416243339913,-0.07995142852064134,0.05187433804183705,-0.044415897161474795,-0.04348913365339965,0.043673040214948666,-0.03813100572000918,0.005201163216827255,-0.07849966943380904,-0.023763444325006964,0.06506514291102686,0.008363882925676695,2.3493324157627122E-5,0.003223709756812081,0.0017876377940261381,0.030009225937881225,-0.023371667888102635,-0.041540808075920414,-0.009306192353692294,0.0017182275652232654,-2.6865905506756013E-4,-0.01877302271292188,-0.08334745341426726,0.07265893054390482,0.05176539801943908,0.054498496100954745,-0.027817566004001638,0.019122323374419558,-0.06297927631369443,0.0035668700461372457,0.008177795454855245],[0.025438052361334146,0.04771877337449874,0.06761745073802763,-0.0630187571330243,0.07996714001994992,0.07334302093866775,-0.0263250013076865,0.08430919137643177,-0.07987926161010248,0.039446346309207556,0.04638560420805427,-0.03199342242937978,-0.0394212320452266,0.04677309905114186,0.01239222309747526,0.02107033111009893,0.06504604162260115,-0.04465713435999205,-0.011602432808186779,-0.0499694122660712,0.06488149511934879,0.013790957754130785,0.06365435137723449,0.029781523089058813,-0.07903622770236264,-0.041767865991747866,0.08433144609080287,0.005703359286532185,-0.022964791888078238,-0.08339397350825864,-0.0033617983233663173,0.022037504067550576],[0.0013364763625627735,-0.055244611715877696,-0.07428712461273863,0.01994968335843764,-0.05381850761625469,0.030660209741900427,-0.0656082963477153,0.08018315429165689,-0.02361831901081735,0.05507198848158515,-0.06280574037059951,0.026742189302544246,-0.03638615020806814,-0.01263009866082731,0.06768236607978219,-0.0320647898728241,-0.07055062138978757,0.003368811274779787,-0.04421361794817326,0.009597881249072052,0.05206118209352327,0.0274120745268719,-0.06098607464554716,-0.05386293543249987,0.08190083921287376,0.07317922849147009,0.007134440269648597,-0.05009375147700913,-0.05475787800660963,0.04779690312216002,-0.0221000083733183,0.056550976692202194],[0.02475454671680066,-0.050637279301904946,-0.006205160034326754,-0.038384158191313425,-0.023045252299587503,-0.053599688771977516,0.032350766112658275,0.05292554287186752,0.05227803550217368,0.049262713151899756,0.007769040479215102,0.0707055775016387,0.0666783334500706,-0.00311359700598709,-0.0010599008316876444,-0.02789215689360957,0.08377085985060452,0.027157657846638858,-0.007114126526951568,0.03189320625164075,0.08019416542182255,0.03531285075223212,-0.05054814394983212,0.007747748396105975,0.026416972266109912,-0.06125236722395853,-0.009082102555684401,-0.08277631217839175,-0.07833759477627988,0.054226061974212515,-0.01244203356252758,-0.061074547192956234],[0.08462663597141686,-0.01487244259000207,-0.08085049665521687,0.05396567693853365,-0.036106228519555056,0.06489794945868067,0.030572989869611416,-0.05171250139814991,-0.0289516195829095,0.012098209119698004,-0.04077854431489791,0.07028789192458049,0.08529480738744302,-0.03466674845859582,0.02935986371507794,0.07397489943096795,-0.08020242591933559,-0.07579072200166008,0.04150543613436817,0.004200958141248976,0.046527546252678624,0.012728546515092075,0.03440362333394423,0.05638015595124789,-0.05585133638626712,-0.06839140081991955,0.062305744211275035,0.06993806311698843,0.025033897997400884,0.08044114380832186,0.08234921654162689,-0.008774916187600517],[-0.010372955273091056,0.03729703520385041,0.053432190456120736,-4.2870034117657957E-4,-0.04604850591426284,-0.07666701240381558,-0.030247688729673313,0.037513804606804646,0.07114209650212219,-0.05087848949514777,-0.0722234054770165,-0.08753054771800656,0.007503326599174721,0.02103142240767443,0.06864642741595715,-0.011714558088824123,-0.07210104326422818,0.004616768378806354,-0.041155993878346356,-0.07095077259350281,-0.044103776032749724,0.08452439611047141,-0.05593143380303316,0.023902653757013406,0.0432225028482923,-0.05215430890021004,-0.08159426492172694,-0.026659540560528106,-0.001327596733693318,-0.04696584042555971,-0.08298804102253433,0.05240976271310804],[-0.07335034930505716,-0.032815468926135474,0.09514011938942238,-0.04208693853933464,-0.021721712899138462,-0.004275544147966659,-0.026877197708955282,0.07025618810525656,-0.06712411111444389,0.04251831152296409,0.04100451650632701,-0.07327663023747415,-0.010314906467258,0.06777314902288256,-0.06297547329378292,-0.05146682099786173,-0.037219155825068136,0.08375950790852466,0.004457711174223966,0.006454705776185199,0.07702192986385506,0.0030209213830113416,0.011504305320213853,0.05102806868411049,-0.08202898586308648,-0.019337972574855304,-0.0146098081077638,-0.0632820441397974,-0.04240410245938795,0.018706573145238478,0.08361579078629193,0.06761431131465688],[0.01610954753580469,0.09960365101274976,0.032780487596680646,0.11831515354498286,-0.004568112447015932,-0.06700618280548547,-0.06977774785130011,0.018483789944163824,0.06367653392083625,-0.012992548452426894,0.04019826751664078,0.046193408398877214,-0.03315402793273998,0.05123212993715106,-0.06451247149623261,0.029053141016591132,-0.04685773854620371,-0.00918766970898474,-0.007390318779743301,-0.06951235390026464,-0.043204803145480676,0.0811727016735764,0.07961726460111745,-0.03706334071886651,-0.033551326371151,-0.050326265382065964,-0.060218240007497356,-0.06979953932763674,-0.02196672527204082,-0.02369344938549327,0.06266976960182538,0.04071173311813672],[-0.043276964715334786,0.1169003793597721,-0.06525649890330786,0.09160020235299715,0.04864328643395974,-0.07114773791698797,0.07125195810162653,2.4178831860866934E-4,0.025726295526518797,0.09048850746644549,-0.017054400694978808,0.08899366170809773,0.06485121534528815,-0.07520275126810233,-0.05958922322812298,0.050591006843192954,-0.03192646126430631,-0.06059611060198786,0.042195989344272294,-0.05609412732130891,-0.0844209929338439,0.08812134064700883,0.017964772414950668,-0.011736146972347,6.878409895295297E-4,0.011928527201744867,0.0066804689025386325,-0.04986961843509949,0.07280494040401687,-0.014388713396884635,-0.00428320677974689,0.04976595588266123],[0.0595136019126434,0.016406298625612162,-0.031131088520816988,0.025739171857798854,-0.04905453311218357,-0.08656726871690866,0.0439876861633388,0.0732769394986079,0.03174737884193097,-0.013118763537332316,-0.049654309931960364,-0.02623696374368389,-0.03729947621432007,0.0011543254970005597,0.07859211559646644,0.026813099456869563,-0.01713996120029932,-0.06347912023937342,-0.04578947172464462,0.0027538485793237866,-0.013324492520919768,-0.07149366686842203,-0.07180540708290965,-0.02289118767770605,0.03473714599655006,-0.059661455760969255,-0.0393051307860884,-0.06598878410504964,0.0380794371987032,-0.054543269824915815,-0.0815690137947503,-0.030655665884596804],[0.07184196454292421,0.09447684725081353,0.013582829182143073,0.10581680848879008,0.047550088810022643,-0.031895450167765536,0.07128572485918508,0.0802782698410752,0.012960656537396857,0.02745352635369271,-0.03026371033067439,0.0282523424126452,-0.05370527370809061,-0.024529163569747436,0.062262272028417366,-0.02655495718520684,0.03230267653544059,0.055938506460334526,-0.050011857181294764,-0.061012523650906744,0.06344521295906697,0.028042641231803313,0.06947379956886272,0.035612947389372054,-0.07427497357634827,-0.08315318312463017,-0.04337512555825163,-0.009707416093211867,0.02789980771640638,-0.072697419452121,0.07274481497448235,0.01037226067580609],[0.0669631541092903,0.03981417451858189,-0.029658987302307795,0.12471227884730188,-0.04221809093998848,0.07012835792408358,-0.003054066866708894,0.04406817195303326,-0.05852300433884177,-0.06724388773797273,0.0648693296577053,0.02004207988983127,-0.021656045219985078,0.04882962851641677,-0.016517128221456172,-0.06797252209052503,0.06319966345818183,-0.06869216451346644,0.11790484785504274,0.003916850341606439,0.08347105154770425,-0.051673491623632904,-0.05318131788344677,1.3742911257066243E-5,0.023300363422733103,-0.0700082757628878,-0.061021977238850014,-0.12151266640776913,-0.027329173941554753,-0.05876938571064215,0.05689273347594796,0.05014418777346485],[0.04877187144489463,0.1363429170814273,-0.07459050114883689,0.02541457266334493,-0.07934326787243438,-0.03151093681092943,-0.010411868507591914,-0.07674196687434727,-0.0018011215119798601,0.012207182369061528,0.0922256199349648,0.031180386653391047,-0.008635366139410842,0.03684826049289559,0.05294232267298615,0.038064829948358296,-5.032071338278584E-4,-0.010643540943812452,-0.007777484043111692,-0.062290505641632965,0.08724617423684289,-0.0602694685779701,0.03178538965344962,-0.01529342359219062,0.06455407542324033,-0.05358727748027693,-0.0821129427745029,-0.17178511636358101,0.08083665552217555,-0.039294575605114186,0.08067000545348532,-0.039034597792110284],[-0.01720696582582907,0.046344609746641854,0.06383025327747804,0.05163197254809069,-0.018964403665249124,-0.03021559766909818,-0.014603442820655583,-0.07802249121918091,-0.02021985099918993,-0.05280218526056851,0.12879221961276754,0.19561165962264243,-0.04739997990781182,0.06438982895669128,0.055687156259188915,-0.07370256104411887,0.018519545224933473,-0.019830897325925793,0.0966234522543708,0.036093573300145884,0.050413262917379326,-0.013350987713354355,-0.077496598207647,-0.05907915344570907,0.03212380548485545,0.01562747120183435,-0.04232613006470472,-0.06694798093517036,-0.028836396985539144,0.04359070142822742,0.041887575977901485,-0.05259142275363916],[-0.01143808713128521,0.12678655059980806,0.05963190512544519,0.193467829902859,0.05842921997329599,0.07407522311422449,-0.005641528374947089,-0.011672817761217077,0.03273325492090141,-0.010996533357502246,0.16233744538797615,0.09581315687810373,-0.03217789314510889,-0.06856609397077697,0.1402188322584771,-0.06719825697837377,0.03744245029251904,-0.03689339293263252,0.1064885479270506,0.029763356089794874,0.0888402843771245,0.06787939911497246,-0.03845144931703177,-0.04535015900018515,-0.061000086691129364,-0.11958418893039498,0.06058289647637294,-0.17720164819649106,-0.041323633016462726,0.047812006032596874,8.731448877830007E-5,0.04701006226130494],[-0.06991222995771727,0.04467557651339529,0.06770614291673015,0.11783795024237627,0.05785976102447677,0.07990223671922014,-0.04579073495469711,0.03604444923619062,-0.030435185702077434,0.06470150325082276,-0.003764612108485479,0.08361582184363905,-0.0767287350760806,0.06500579758568344,-0.031191004298202145,0.0659366983864686,0.05526359388244385,-0.05744915548775045,-0.008459717024805542,-0.02655917040827408,-0.03934193440103456,-0.003127064451089062,-0.0034818711972960164,0.05862311939040263,-0.06714076745757114,0.011532821410996595,0.00198700129876844,-0.1264333948621549,-0.04546249012665934,0.020690915140347287,0.0029873732896547284,-0.028805652181098748],[0.06785528509457328,-0.05448008138119175,-0.057962750491564,0.041299151760211004,0.04016410564881964,-0.009755409747678615,-0.035410409852079515,0.05440295425031417,-0.039208553497700506,0.07152154562948822,-0.06103294117350712,0.12078495194237497,-0.05995369806779689,-0.06209424319617143,-0.06287821709862389,-0.0744123173122551,0.044842461745740664,0.08868322846147167,-0.017548439168353955,0.020674117954497397,-0.016346911896596556,-0.01458424045734443,0.07297909950201319,-0.07546209258582813,-0.0967084818435653,-0.053363274708530486,-0.02656224528500807,0.024363076943616405,-0.0505377812565986,-0.0825510164619092,0.008500862247860064,0.056152133092495435],[0.023331445157349265,0.01029123260973495,0.002368743354079346,0.013910534748459547,0.05649183719568384,0.022120425998962814,0.05367915691072809,0.06095964398039596,0.06531506457161336,-0.013526189840971155,0.013759697064251505,0.028419313866169808,-0.03579190679941989,-0.017373208367146478,0.06229107339793815,-0.012539389907449999,-0.0854199950504045,-0.04699822669025324,0.049726568633084674,-0.07169552692283085,0.01093906696373457,-0.08177952241519654,-0.053939254829822876,-0.03407387125630037,0.007749992354131943,0.05903738577914947,-0.08265732049789079,-0.04313649638327264,0.03569958592035032,-0.04117178455592584,0.07868664266799823,0.0694250190093202],[-0.05302232301633527,-0.02295280071224335,0.033006259960111695,0.01636277460232549,0.06946235106209597,0.05822596414659694,-0.006816634634013382,-0.052049426030304845,0.006689520998088973,-0.02725677549183159,-0.04771136496648275,-8.495453943074298E-4,-0.06175592209515012,0.06747935729260096,-0.011128513122198598,0.061030990874206735,0.015541167544198663,-0.02668547367365646,0.016101397303712635,-0.07606800129662739,-0.02709231472085574,0.010539051298828617,0.03736223288334116,-0.08119565534497093,-0.09855293552660006,-0.015580025003229359,0.06614835534456742,0.07483712530734361,-0.04634317660914486,-0.014039203261709397,0.07921890986906413,-0.031063003108199375],[-0.09823710929104547,-0.06464761076299005,0.053901047228371135,0.05810071537104145,0.045998503939494326,0.03358607863172825,-0.010320548674930121,0.05632371806426408,-0.008957935867187215,0.07987019670735551,-0.05432842506016063,0.0163982378984901,-0.10090282084478022,-0.04261837060219174,0.03359969402304384,-0.038784718902690286,0.06616163591405799,0.07255415335192907,0.05601555480076792,0.08600785100986286,-0.09670516074971638,-0.014299503843448216,0.01883606756531528,0.016207506033342346,-0.07189241266587923,-0.02479500130564044,-0.07419691253603693,-0.05535301776596993,0.05039476263326742,-0.014700614766641586,-0.004915750830290904,-0.06625049099164126],[-0.028095029767067816,-0.1342485831848721,-0.02500286592705235,0.07352766796456021,-0.03923491145045444,-5.482242821698221E-4,0.07365873380271055,0.06651193536743455,0.024261690289693046,-0.012319301696043401,-8.794267285199619E-4,-0.05028871316505343,-0.11331357325725896,-0.03666529590679234,0.019782935208460296,-0.03640123108295372,-0.023448770451465685,0.06000486704265018,0.05039189701865965,8.039357122485657E-4,0.052389351476848894,-0.10095426617927478,0.009279950983051996,0.01500390908718744,-0.033913076910367546,-0.019669808837680006,-0.021598775511144235,0.056362351294856776,0.05900831956985773,-0.012011201028034608,-0.0011130844745441651,0.07233230818957628],[0.03409570183982795,2.4187102945744316E-4,-0.043771652426674655,0.011020587586826374,0.004514288393937275,-0.03213167985500427,0.035733664173919134,-0.002159939984039263,-0.018076948657714222,0.0013504439207276775,-0.05782116741733442,0.05403058137394731,-0.07106496444285822,-0.08264236483939914,-0.034050195279193014,0.04022106169751314,-0.06305557151661949,0.04054045040316758,0.06217795465354749,-0.02245679488806983,-0.011586386482377257,0.045831934249359316,-0.07424117379756429,-0.053660493588085056,-0.060160208964527985,0.0730046345121732,-0.05321802072014484,-0.07765866843595615,-0.028027925250199964,0.04926143223379401,0.021273364411902015,0.03810350211025447],[-0.08449389963497649,-0.014456285069574653,-0.051369815561936996,-0.012410932865591483,-0.049433739669778536,-0.007540842160681928,0.06816312923364044,0.04858237264737771,0.043970311256853606,-0.07549907275061325,-0.06973157319269552,0.07626906629216018,-0.0330300382155469,0.08355310457146921,-0.030661945701476626,-0.011393641763066667,0.051123356930747245,0.010492429289720922,-0.06778701803284687,0.0718994682345295,0.06552466259437977,-0.0012144114192219248,-0.08094809525075997,0.0621018232645653,0.08165974132936928,-0.0029244003160682967,0.019294989436609376,-0.04666599468955626,-0.06918197558429726,-0.006255845559150015,0.06023918857613428,-0.029466743997579856],[0.0735787513702754,0.02157071635221525,0.059741208649957425,0.05298757975830156,-0.03543030666040217,-0.04205898459228719,-0.043805490550931185,-0.03560104685776963,-0.019930976330805802,0.0086059100168965,0.0756775389144527,0.001656895478796351,-5.805278052715217E-4,0.05224298931436578,0.06613474831762171,-0.013092843179361473,0.007918308772643965,0.046769857336943076,0.0020894562628141463,-0.05623902744448578,-0.008867603809860979,0.012392905255285122,-0.015155281800494087,-0.030953007534303266,0.028948801134970677,0.0018701529099027408,0.05070370814541522,0.07127957619874706,-0.012624535619652617,-0.002491925089925541,0.026671269437718064,0.04944816491135122],[0.08473042521711134,0.08771359645950334,0.06428965764990362,0.05972038765719162,0.0746645742126803,0.08312510987592393,0.0020249221571736428,-0.006866040648968519,0.019994923524388964,-0.030316530149441044,0.0538664163293926,-0.06400279713510737,0.018704670252040218,0.07795879525274915,0.03930963093207501,-0.03176025998563064,0.018489483613092637,-0.01548839757883407,-0.04359133085458216,0.07922964048131584,0.05120231226033774,-0.03138071136235959,-0.036718786451832026,0.03378180666722983,-0.04117630881587698,-0.062020683188302804,0.015473820658753301,-0.0680464332494033,0.0791515434087985,-0.0037328686102968745,-0.03392197604800796,0.06321019639540378],[-0.022613072484232926,0.03791331488231728,0.06376521190772033,-0.06082972806082461,0.028835345393024972,-0.06480478817636014,0.07647398299476943,-0.003995883821868306,0.05191154999336529,-0.05022322317940356,-0.02054944261880851,0.07230022644036593,0.05115805693342573,0.059326538245618225,-0.08476175296185531,0.07359413639889824,0.06413532119746747,0.013530535201763257,-0.04204916587931206,0.017080049953615867,-0.002294358343377837,0.026617120207331164,-0.0756368183150029,-0.08485553243337718,-0.049751589837215,0.01410910224662898,0.005041174160760526,-0.07816563424242833,0.04758649419135958,-0.03913829527023136,-0.015659176928133654,-0.08270972758170918],[-0.06012165599368712,-0.006170362926936828,-0.012486098035947664,0.062467665799827495,0.05299223611515452,0.072581771486024,-0.0485280510131229,-0.02634947238088656,0.06401260720047391,-0.008853009200107148,-0.023341393499664673,0.004376443740045976,-0.057512589087228894,-0.06618504155621659,0.0016216190002293989,-0.05529007946910408,0.048530969205472424,-0.057899806877697385,-0.05886361788363972,0.017804412676663977,-0.07881906096786273,-0.063483137156797,0.08169853696822664,0.05493593969031861,0.05911283433780612,0.02992363167331755,0.07934161059300295,0.016505423305862927,0.042180661081831446,0.037570364538914325,0.04249162071799499,0.06784715516688791],[0.06833585632628732,0.05486531972924623,0.0420996104910013,-0.08120919465962022,-0.06329708042497152,-0.06487645318068136,0.011388998487752823,-0.05092920740286948,-0.056955399360796674,0.06252476736813711,-0.03011493123160145,-0.03655188408584232,0.05137876797786207,-0.05614022663161451,-0.07961517994655316,-0.05339733765756717,-0.0071585764760915835,0.046670015197243106,-0.033826905250297454,0.04872291415234461,-0.046778790767957004,-0.023617149627180353,0.06312988781948403,-0.04694714616174231,0.04833082395682436,0.016122789788922405,-0.012134456686719803,-0.047958310733000165,-0.061495320761604945,0.08547588854633642,-0.032804936550818696,-0.05675677183477712],[-0.017416595159572116,0.04318957124121763,-0.05287173387540872,-0.06995164164107072,0.048283253592619764,0.062416590557867226,-0.05796715084220638,0.06492435542179396,0.0016985045264157864,-0.046009053684337074,0.033348243142557146,0.040911451809174146,0.06857070674013274,-0.08312890227479262,-0.06942196152079581,0.032245547926222036,-0.06928785228553982,0.07890221095347592,-0.0651945898103236,0.0037052801424545946,0.02011429933068229,0.019788472974587402,-0.06077637388745535,-0.08453328825195618,0.022444639964661117,0.06522951952497776,-0.030006552360362423,0.08055450813863325,-4.2561098001872084E-4,0.07658985483021989,0.018335150329056134,0.004311906513822645],[0.028804999695304118,6.113940988398245E-5,-0.02154240722618548,0.08013442171016928,-0.008217503351898674,0.08528835595635695,0.03782301275091622,0.03771815749147549,0.005388779132176395,0.0736745735098504,-0.07567401913381834,-0.030558573183106574,-0.027372061080601674,-0.03989582404960246,0.05966256677858132,0.022091971118202963,0.01763290921533278,0.030213824575270953,0.03463643829658183,-0.03583021275691742,-0.02099659326970876,0.03196882323646644,-0.0773550687640372,-0.07039816373952618,0.07563181203702503,0.03822294354841437,0.0524210982313152,0.06888812592027263,0.03661312846904238,0.04972514554167908,-0.04401079812009995,0.06987268034834794],[-0.0468073220277158,0.025291283526781567,-0.02608965906161655,-0.06227381111644422,0.05082050245634669,0.00815782762013625,-0.020639039422738557,0.02685562472677518,-0.04310711865187649,0.0578439653889505,0.03315200747781345,-0.024809685500541013,-0.019368158273040847,-0.00208534965002763,-0.03550507325950225,-0.07352721777325325,-0.002818065324997652,0.08170046148404297,0.025157630639419018,-0.00850193087961495,-0.030775229471531655,-0.0822165643921289,-0.06109109250751102,-0.045423381116689567,-0.017601446323517737,-0.002695371171239445,0.07545378374212962,0.027641598939267892,-0.01532264103004057,-0.07484833594106699,0.03676097897230157,-0.08141003605850393],[0.01773682043077205,-0.008918457429830702,-0.07960308765017834,-0.07856043776098358,-0.06867777270339304,-0.008424315671268619,0.05485509210813873,0.0030730305348627405,0.06637252713414103,-0.002726512458434382,-0.03177090561419927,-0.03684448680783015,0.029060554441402108,0.03788284484467175,0.03284369372498334,-0.03212900193181533,0.08213337801737841,0.08243894474802153,-0.05832458437184975,-0.03533554501776899,-0.05513032120578502,-0.07564541598339267,-0.07399934978411378,0.08282084447022406,-0.03695346570762029,-0.009934064790932362,-0.06656640752781766,-0.02716855342183975,0.006661174737848296,0.04581952600639784,-0.004994626736870785,-0.06884649062917514],[-0.06541848446893997,-0.02078853352967298,0.09340931367289541,0.06758158181007795,-0.05189295184898794,0.015883542655609918,0.024009913912546095,0.017243431410872038,0.0782752270976397,-0.011031963741325972,-0.04895803770730569,-0.07093757775884729,-0.013930424818200721,-0.03468308023242703,-0.036997189449640415,-0.04445933405806557,-0.008044980691897427,-0.07184247887077835,-0.027011651803980123,-0.028452242477190495,-0.04722077444322369,0.06310178667022225,0.005371399225027372,0.05857330947656812,-0.0640953856303683,0.06389192977172375,0.029619998370558995,0.0024447713385205364,-0.045818878782632376,0.061342549848989965,-0.04658778820805317,0.07089620934515037],[0.05071043239360709,-0.04427522134804261,-0.019783496273124708,-0.009404747507019286,0.02487113624813475,0.06497616474058834,0.07962314029085685,-0.002440516185833811,0.009343609032759291,0.0734224137358639,-0.039834037734830165,-0.0628563786538878,0.07374363749954578,0.06662500904519297,-0.06253143807205688,-0.07635702002718375,-0.08248505769608701,-0.01872876873577166,0.08258561215159456,0.02404294775067813,0.07389957811157394,0.08282785644195483,0.008642586073888289,0.04077600298109171,0.05305074251174176,-0.056264933753760946,0.05961382916238525,0.0330767690755996,0.06858497308770645,0.04537453250518351,0.003186409074757003,0.08406759832429313],[0.05203895921468167,0.07134546013112572,0.08734532713462168,-0.055090705204639566,-0.06246735211973849,-0.08392828190500522,-0.030638494542156818,-0.06960377650407666,-0.08940696873943221,0.05511016209456437,0.03924350063001534,0.07305870264932043,-0.026301198989291195,0.0518949737106368,-0.010552417718330298,-0.07527232229979777,-0.008249146325047585,-0.004094115007783171,0.0948947229780932,-0.09756627391417108,