{"outputSize":10,"numberOfHiddenLayers":2,"inputSize":784,"biases":[[-0.01321867100416395,-0.02854136920273565,0.2015525293514135,0.04690052497401255,0.02008185705123974,0.047188632850732715,0.07354867572011242,0.15441955495321114,0.20973441506244908,-0.002344485095570132,-0.03376007047127654,0.08202457685379382,0.10011240917758626,-0.022699759274285525,-0.023470878615712412,0.1187240901134112,-0.009285139524962448,-0.016967730839358763,-0.03214901442895076,0.038844859219897,0.010987008008347716,0.3531509936499752,-0.05664587939911141,-0.043777684476060945,-0.041806743463196565,0.12758357806680426,-0.020741201788575313,0.0030022273637266804,-0.026315940276093557,7.420043670929646E-4,0.025998558199042163,-0.0384354839373031],[-0.00208014950691833,0.2794667717119486,0.6207572935610943,0.1353775331377319,-0.08902546919664969,-0.0858611150156145,0.13381586132199647,0.003391826318616424,0.09020289020909875,0.08186449292415485,0.009395335338136327,0.053685701077662205,-0.07756397617212579,0.08997695556335888,0.14125717051905778,-0.008182757501447114],[-0.5298613498187754,-0.024232023947209948,-0.3869224790163158,-0.37508575072141886,-0.32142938184016795,-0.03177233957136698,-0.42930798954115984,-0.20928276163088624,-0.3738971079023109,-0.10595210027340682]],"testSize":1000,"weights":[[[0.05999584839435282,-0.041060283763018283,-0.03250783701985835,0.015066544680010568,0.08385360987218725,-0.056673876248130355,-0.07587339141680863,-0.02342561986674528,0.08552390279068366,0.07099475861767036,0.003915875194889899,-0.021381856437549095,-0.06483425097232956,-0.037050742883442976,0.04475176651344413,0.07514687519238482,-0.015797848490427282,0.05878765630318566,-0.08140960226159048,-0.04632077364822835,0.0036278274882120443,0.0790808229511636,0.018178716828051996,0.07886451709422597,0.04830955364080323,0.049500771847666374,0.07636597727114353,-0.04079401371194412,0.020716096650136337,-0.08091746853590663,-0.0324579026441152,0.055614318634928425],[-0.04955267423879722,0.062189620010176055,0.046013557353594116,-0.04075832405177692,0.02229239073985969,-0.059733465016368316,-0.05305634039258782,0.00607838311558581,0.008736308187624428,-0.0748953634998879,0.010377904449788717,0.044041485380530536,-0.06512924453596898,0.022881508238457672,0.06599930011385377,-0.0681843638581913,-0.02139009384010313,-0.024179360736981147,0.02083415853551104,0.02486358457701252,-0.036634299512629066,0.054770556684769094,0.023949048223150346,0.05961198092271956,-0.040540317020134095,-8.381620534685648E-4,-0.01996235355045714,-0.06165042641272909,0.04456887323102914,-0.015874035405087007,-0.07023432995744788,-0.004517873723363694],[-0.01316821097367691,0.07473383146460201,0.02135838923120623,0.08381622174621596,-0.06805142443758724,-0.05338483933436756,0.040107643245250124,0.08354400807137546,0.06870467309806415,0.017306786769872722,-0.032725172687026266,-0.05435061201734645,-0.023245913412363855,-0.08446332350069634,0.0053127649176822524,0.055929481686849795,0.06627291102297676,-0.03287947395271443,0.02184767298899409,0.02632746761444677,-0.030696103707460686,0.0815255096596505,-0.028510785693583583,0.04968740516808756,0.06302681117002555,-0.07190357952272915,-0.0781895405165635,0.02556405868071675,-0.035842042772114606,-0.047271293000610795,-0.07281497396165129,0.020084941218653726],[0.02230753397045536,0.03928321658441498,-0.012362965224480027,0.04932525653687776,0.02430663062804111,0.04019861005949323,0.07143925725162688,-0.03196484517324258,-0.02262750686122866,-0.022233236959280898,0.012883246102280439,0.08494644059235887,-0.021650285858610573,-0.08229069514349853,0.04943376131142978,0.012281968279110732,-0.01710276527720316,0.05011440346945938,0.03340806657298117,0.05289002417189914,-0.015483539010279098,0.036464627668800896,-0.08170185204744017,0.06584252281214906,-0.04279232991865803,0.055353038528924974,0.02951221196476357,0.044582915459087526,-0.005725296758680887,-0.03083744101122607,-0.08245678167396275,-0.051926932958168956],[-0.06959161834717657,-0.0657103331896081,-0.055628533520286634,0.05564998311956692,0.02412080394117039,0.03513785734031243,-0.06555829095813065,-0.050893620365474825,0.05595713586213604,-0.0825900320387935,0.07302795569404638,-0.061276946288635496,-0.07145641527360963,-0.0757100664204099,-0.05945299582372122,0.01979874981826973,-0.04239085664399692,-0.015551707034072458,0.03259282550914165,-1.1746848274434635E-4,-0.017491090495191756,-0.014721500913199612,-0.025562292254518112,-0.08083459910120619,-0.05799492411668382,0.035084367836372976,0.0551430602888755,-0.03831408358715847,0.023215881929575206,0.08193335020252364,0.003636556941187348,-0.049819626742628305],[-0.03839331938530255,-0.016385065632035258,-0.015760677914805305,0.061062742406159394,-0.0827907235405651,0.05412427751800072,0.04152665512686761,0.0712072495517064,-0.027005076523843253,0.062314783509641224,-0.026204615205011453,0.032796484601417986,0.04584136752144412,0.03125980493040587,0.08046994458123333,0.015162000312807303,0.06196392680254503,-0.05390951393988296,0.07096117764666443,0.004120831103147821,0.030455325233150865,-0.08155020762584626,-0.04029702955859728,0.004409383378626943,-0.049791119241044096,-0.015633582156166077,0.02352200987209356,-0.005606951157999297,-0.036012687944713836,-0.009279969461701967,0.015454261011945167,-0.02271678445187633],[-0.057739203878296,-0.01991742189057064,0.009196852218539341,0.07313818353218658,0.055128558352455656,-0.056919769269964636,-0.026369692538832534,-0.08454289827529851,-0.07375896084910816,-0.08351535610341272,-0.059881183909313546,0.014159076968232816,-0.04948068237219728,-0.038929886340861926,-0.06626031621278967,-0.040200420537195684,-0.05517353441999711,0.043819407753815064,0.012114382727909686,0.07025948029254593,0.07231294141967112,0.04484408060049532,-0.03883987582014949,0.0742136489459047,0.06473889660307512,0.010405038299736285,0.06631513991439995,0.07703875786464884,-0.023116422686018524,0.036678498892973845,-0.007314270564638105,-0.0826716641621691],[0.05992457650142608,0.02389329108682384,0.003972260158349885,-0.03195666686845982,-0.06926609784438166,-0.07081557221079327,-0.08331843822664572,-0.03221831478482606,-0.019040330762896098,0.03997348141895364,-0.06325179923501006,0.024474232055737614,-0.06236718428489391,0.0743831707074737,0.07504480939068567,0.018250272802380604,-0.01788481290483211,0.0500847298742042,-0.0018750511840681598,0.08301773151599123,-0.07369005050505806,-0.07231474477233765,0.0760660726845035,-0.05731715018795164,0.04987093434582542,-0.04788428585977721,-0.04405868497626737,0.055215151364693335,0.048948023961790287,0.0061385026418895065,0.02410809235291522,-0.03336600301706874],[-0.023454425908024483,-0.0680738750900126,0.009436543796888497,0.0386966367725532,0.083588877524823,-0.05021681259451055,0.08296176133295205,-0.057050054703900406,-0.03441548538492537,-0.07458160837277589,0.08108609757712412,0.058464058620817654,0.06341796307238548,0.023708026952183547,-0.007932752726399931,-0.0780892776122381,0.06844044104761551,0.032236049391366775,-0.07015093343164354,0.03377873582926225,0.011302307683449432,0.06438573536842424,0.02616408591286406,0.06034283014985515,-0.04567102194396294,0.022070892121259893,0.05434120190510743,-0.0769101098029426,-0.04069539112546403,0.03515817764189659,-0.04165018325855281,0.015074261200394502],[0.04252095526940466,0.061903106057401104,-0.03264963383815514,0.04231441425787548,-0.06771645817105339,0.05316792018673338,0.003840499499570326,0.06696140209497538,-0.07525025982715129,0.03341297094871221,0.06990675311930687,0.051165951625455466,-0.03943787673483745,0.02238950056662581,0.047164803897986725,-0.08085569864122764,-0.004895191515408383,-0.002365299750282574,0.019105139958146146,-0.05293377688946759,0.05802216460414651,0.07927964923035269,0.015344208961172107,0.07398794419683165,0.07125769606537057,-0.05216530679626717,0.07513934401033104,-0.06789991349121675,-0.026641295564961733,0.013465979098453039,0.015021902529851704,-0.06836917675608237],[-0.01885073507117337,-0.05005314862952645,-0.04901723896367254,0.005817759607857516,-0.06290811632599196,-0.015265709592657188,-0.07663088353805292,0.0013279637221890175,-0.0707988025829136,-0.07371214426473781,0.02093852291658653,0.008063848519717516,0.06833784552321788,-0.07300970443529492,0.051956678230211675,0.053278766111051375,0.04247662758974876,-0.07536262014656561,0.011738293000917164,0.021394411769017855,-0.0788160484943784,0.04620517716066416,-0.0848075284202043,0.0018818188648934582,0.08357665541573694,0.0426567493190962,-0.05333610284425485,0.0565265671917545,0.03638529428445763,0.06026876765675077,0.06673504705572891,0.06431809864689045],[0.016937040107280754,0.0779873655930232,-0.07589126992416241,0.04512263077947988,0.032535065771928134,0.016506141143251055,0.005267213049133318,0.0397120059541532,-0.07141769321393406,0.046236193672616936,-0.01466775446652236,0.006595544751213202,-0.009864568591399168,0.07753353180647503,-0.057233413921787685,-0.0020256891796937666,0.0717508924472275,0.007953033174189493,-0.0029531770887905305,-0.044500355223353695,-0.08003064166833382,-0.03252287450780164,0.036901990451485664,0.07984406680133507,-0.03280496278815634,-0.08193957649037563,0.03184666382786003,0.016438483465837123,0.03898332940872956,0.013943036673355369,-0.007017065920263322,0.0679970716873894],[-0.011202958845583191,0.08257322339786485,0.057377244832807095,0.055805962834361865,-0.010696284475996555,-0.06695038556936134,-0.07421900802668321,-0.05354109570970284,-0.009908230050146925,-0.06515654121155906,0.01750002414368882,0.06903607616761025,-0.019155273027187017,-0.04886159292535467,-0.015555155075023792,-0.0355422228094011,0.0315735258698231,-0.08211718073775487,0.05959315307514312,0.0324325240493236,0.02089688882459811,-0.01827155044897922,0.0595742869375985,-0.035782686529142266,0.07960807574123357,-0.016716909616126277,0.01900910605106722,0.02950695395606997,-0.04609386421511254,-0.00640772573234427,0.07690021061290057,0.0045454507963847085],[0.049608401221324386,-0.07796669512789339,0.05856235929531177,-0.038857803763553626,-0.009446524217793214,-0.053253627194545274,0.05290351227973458,0.06748582234271043,0.06552013783006028,-0.07453637609838627,-0.05516851781618614,0.0782557151217946,0.07613133662151216,-0.05449503035850026,-0.011926466501197377,-0.06335431729819373,-0.006955538052763186,-0.011080777417668896,-0.026110528719495405,0.01704306701139802,-0.07894105773386675,-0.07136786842646807,0.05937829134763094,0.035691895427740775,-0.08062053406570942,0.07211511607400374,0.085004604365892,0.06220604496780792,0.01576648939611887,-0.025512495113253302,0.07290639375096934,-0.05758486694690855],[0.0366627364227445,0.05752171307140817,-0.08232230862118642,0.0030144571852501944,0.05058508098215451,-0.05904440921292187,-0.07550777155904655,0.08306493726647565,-0.027340340758342522,-0.037005946982393456,0.03777757631090804,0.07934982467500629,-0.04941815508201431,-0.0531995467254803,-0.05646499248104734,-0.021866634251806478,0.05609687726428166,0.05023956305728954,-0.029050497273357005,-0.017175032903544215,0.031726506188231675,-0.014510816818725616,0.038096702295403656,0.0020278278992121325,0.015472932425216995,-9.021166477162427E-4,0.04325233946612092,-0.0186186408236886,-0.0853752033500587,-0.07912182299926972,0.03221030396917675,-0.057938439999838574],[0.08547500147688042,-0.038048556370317135,0.00897116988392801,0.04670886124092992,-0.009105143927666119,-0.04345927493855705,0.027734271083574787,0.03296294963346226,-0.06591551922374293,0.010012271153554917,0.007823240636878085,-0.0618510064008316,0.0192137659755262,-0.0015967267899604934,0.008960729462357465,0.06756305038477911,-0.04424616512962176,0.0140600427942385,0.0042276815649922314,-0.0188555897138803,-0.06765030157340425,-0.025297394026406204,0.009042758629392874,-0.05536838104496359,-0.08500899485148654,-0.012902088248535046,0.07813309215407443,-0.07980816150534255,-0.08106362126729084,-0.03832225883349697,-0.02930097365580182,0.08424766160623863],[-0.08551969398140918,-0.06972415544374247,0.035304350269834736,-0.04242500738239324,-0.026404384760161617,0.03527654246360449,0.020016135201796268,0.012466528424222004,-0.041684569165788776,-0.018708356450989505,-0.06518091365583009,0.07159533171430646,0.00938137285879645,-0.01646983924811459,0.028558966827556594,-0.02313343944626315,0.08324827931338308,-0.00763132846992219,-0.08407412281204973,-0.07515791461705479,-0.045592498558522945,-0.0853838717357639,-0.0456469242994096,0.0360190622391813,-0.013242690115893607,-0.06273447905448466,-0.021227583728775208,9.318732961246751E-4,-0.016609626488060733,-0.07697048088715101,-0.07730129312566943,0.026726707058666036],[0.03908981696021759,0.017168767868307087,0.07338940417336026,0.0205609920682797,0.04872066859475025,-0.06536775703582944,0.07964248908349653,0.08278100342007073,-0.05014622418191472,0.06418887464174788,0.036697639450763396,-0.008488181924497606,-0.02346364942834137,0.03673225725375083,-0.049189931853254126,0.0498755788370428,-0.02246108576206622,-0.057962931759190636,-0.010828052050602523,0.029205634968273005,0.06415476339415453,-0.07276678504944635,-0.0033462914136743087,-0.04284451921430464,0.009300385463788403,-0.057641775725214416,-0.04081426749751296,-0.07077053169247752,-0.07138519200416064,-0.06726127706148936,0.037609970168900976,-0.02421148060183491],[-0.058353222232708425,0.04657086622521116,-0.053085108350159366,0.030634664220266186,-0.08409889819000972,-0.08557924678706481,0.06994807697430348,0.05280511426611468,0.033588216059733535,0.05291462522433095,-0.03243148903940114,-0.021779189239179576,-0.009125559615277013,-0.03072560216288304,-0.053460769029514715,-0.03417643891013795,-0.05332477630393018,0.03880127580068258,-4.143372504955836E-4,-0.07617194574417628,-0.011266052743460058,0.017312164719992324,-0.07239347322038213,0.07265648451735153,0.031193749643727144,-0.01455415140580383,-0.022189209955200687,0.003107759566852876,0.006753449669442264,0.03858761293524421,0.03342367926954183,-0.014305583346321735],[0.057226040127358206,0.007107734883246208,0.014534866589620542,-0.030433555548357354,-0.07059222687204197,0.022835339391768614,-0.05322568644682769,-0.010225260637763084,0.06458359784828377,-0.07383109169985648,0.045172607062132934,0.05305984385912879,0.038355288119105546,-0.062120913079316754,0.055368140905164925,-0.053297540672768214,-0.011940183564858072,0.06512569382209954,0.02470514141336162,0.03682234372241684,0.07115588785955237,0.06583441121278814,-0.02017968608809759,0.07638459753116729,0.07378051845944916,0.024487496886231783,-0.042592276087490846,-0.06456046943558263,-0.03356990786124072,0.041023905366589286,0.06509998009206924,-0.013018793084514035],[0.029339377074701616,-0.0241130855190763,-0.05725039009551665,0.039592710455079484,-0.08341365722751794,-0.06014330602567115,0.03732197852288501,-0.08471162336761427,0.03823719298411924,-0.04684468489627107,-0.051267762775420216,0.02276359245959601,-0.0354030478676643,-0.0441449523235022,0.046539852939601375,-0.05048889184193171,-0.04792452522512828,0.04143174930653524,-0.07570075959017646,-0.06506371879090433,-0.06132644931953392,0.03784607414037825,-0.0733493114695408,0.0809007115259176,0.04827126786995438,-0.05171548356568107,0.04783371572329198,-0.05124197439497466,0.047071873156478525,0.05471812685273431,-0.0791638202992973,0.029138369475836357],[-0.07600861975988359,0.08516956119306189,-0.07735880858839789,0.05395937715639766,-0.0743485885918425,0.06402471429728292,-0.010110143459236264,0.05870296275769716,0.028813869829843294,-0.015022966112119437,0.03215463868970996,0.08121623743769485,-0.02385919401028493,-0.03840383638398877,0.008612660266178596,-0.06963027955629678,-0.0799145210045936,0.04270831406270345,0.06404468660347955,-0.034985051567682585,-0.04199216438769802,0.06167557474134043,-0.060139502329842165,0.03480434750670896,0.0587136870560767,-0.08169467235029247,0.07419943191765185,0.02645793008313716,-0.04187575402712466,0.08400415337987112,-0.023804905178925792,0.051664145355254154],[-0.05687726481291923,0.01742099049314391,0.04299924718545853,0.07083025244389257,-0.012636225775084931,0.06960617647368543,-0.004030363962435471,-0.04708567488653725,-6.426534125311854E-4,-0.010602447144342107,-0.06386722972515142,0.0820897755814202,-0.015898984937623584,-0.07004491501066372,-0.04696291360619519,-0.019989519484186948,-0.0606858130307139,0.05799672816078268,0.024094836221028273,0.022861964663586337,-0.010529367844277975,0.03653013506773117,-0.053332385933115234,0.0404414901266067,0.06184256873965518,0.06739056180835422,0.05689156864742357,0.06436396683903785,-0.04087637301207793,-0.015808474369372303,-0.038373541686172304,0.040993450149432724],[0.00942958664073876,-0.0847754407976318,0.04931857667481696,0.041078493189721454,-0.08041768571948482,0.07911581547980259,-0.0027675590826415682,-0.02600759637352714,-0.0025267688812020805,-0.057518307553370895,-0.012901861619723147,0.0548470956393307,0.019680124905399755,0.02649145399820787,-0.02489670249839864,-0.012352981330781146,-0.027899110695593584,0.06424909889763745,-0.07699812934256615,0.07996121620315647,0.0704469938804229,-0.03103875567825636,0.058658857928668304,0.028492700271927813,0.08430017374393242,0.06983422223688536,-0.08302285656848003,0.06517410621765514,-0.07533837993723216,-0.019751818000295233,0.00234456664770261,0.05880182821390187],[0.08005183754533786,-0.03791848156580664,0.003164309901223735,0.013448512178359536,0.03218349914643233,-0.007772371623511566,-0.03561851062936206,0.008215192578443142,0.05098954762740548,-0.065390120087756,0.0665694697837576,0.07762535305648004,0.006564999434379184,-0.05289813344592344,-0.05673260648806576,0.033712868038174755,0.059526865887662164,-0.028437371677824955,0.06952775967069456,0.06707889476373616,-0.058738177074971885,0.009207647831362539,0.014587103331292674,-0.010068326556453776,-0.031764500171424126,-0.04517038091303224,0.08197535689320494,0.032780247655812986,-0.004288776962435248,0.027867750203044137,-0.013905282239018005,-0.029813098623116385],[-0.011359591382093037,0.006085498130223884,-0.04457979949514948,0.03959532589715502,-0.011628937644629255,0.058050920452632215,0.04738085280234494,0.04846179401235637,-0.06500666465526495,-0.023630125024582282,0.0668633180863741,0.02149539882576444,-0.08080544413270767,0.015510340052383923,-0.08265332100859432,-0.0320183624264348,0.013421351814270253,-0.04571423436318669,-0.028664451180218382,-0.027761247411957478,-0.014090086772103159,0.015917181523496454,0.03803165901240293,0.0793598241428058,0.017271130828336742,-0.06620156748744856,0.07652106693412915,0.08096217678048018,0.07333751106592776,0.07490439874641004,0.0027858373688396726,0.07221738262261741],[0.016293403619580815,0.08396456934420567,0.00540874622197664,-0.04950003333558762,-0.06165806648515192,-0.05320629354474523,0.08256450578120407,-0.02401285620426399,0.01073338455153295,0.018821740334772973,0.04668212890916398,0.02359020350039894,-0.01609785596464914,-0.07734678692352935,-0.0764047340383994,0.059553360688360875,0.008735063176505834,-0.032493914078030234,-0.04096593159080836,-0.01842797506491053,-0.013820981503341465,0.021236202033916143,0.022947472775839223,0.07522119450060362,-0.029641149375206993,-0.07240274495786803,0.07137887769974971,0.07046035778238431,0.041277376443196526,0.022685162477934007,-0.030495222072380763,0.05037088016304967],[-0.038120268065303865,-0.04099355484899457,0.05988879111301928,0.033252487838753654,-0.019159020746631682,-0.07771617099074653,1.1292307082887731E-4,0.07106575584480114,0.04941462848002179,0.016637466759975593,-0.08491880085773608,-0.025883587835206417,0.06543965712792826,0.08141748705232318,-0.05584712955607013,-0.025270381041729042,0.0182982788904417,-0.007592841089376894,-0.06237866062016972,-0.022952356412218853,-0.023369406076580848,0.05277932317166675,-0.037420918626429635,0.08338209305090392,0.0764929615301007,-0.005908316411686283,0.07435165025227068,-0.025082253493964937,0.03139386424864568,0.07319410068335501,-0.015600356573421384,0.03582937525519526],[-0.0297768292776601,0.07384701217569842,-0.022075067777549837,0.03572373386156383,0.01058756904270582,-6.18359081123251E-4,-0.06859280325570336,0.02302284699055106,-0.014648434957908416,0.03411522722288292,0.01580322416427624,0.07523206229604831,-0.04613080792521146,-0.06272072540391407,-0.050631695515983836,0.027244927266103818,-0.023552077205127152,-0.018497115819745634,0.06728706780305817,-0.06542996933585674,-0.0580349137286135,-0.001526223691763288,0.07825202680500655,0.08309529720883992,-0.017183380257113346,-0.05888783666432522,0.021556629324613774,-0.05330091215417663,0.04601082456428079,-0.08135902711365796,0.037443400089884,-0.009336494259968514],[0.03117242862972886,-0.02634528597916391,-0.06986984936085393,-0.07090236579568557,-0.04842608265873291,0.0017603061057571894,0.016260604382933988,0.04112311003524068,0.02600205391122204,0.05107111277923984,0.03950161245024737,0.07081025463224574,0.03732657058181882,-0.07671281977675948,-0.027002441121028398,0.07039257643104113,-0.014470748213699026,0.01824505074522151,-0.05639750298308589,0.02195435629040532,0.07175761609141923,0.02877421145168325,-0.037952604091871935,0.030334637656626612,0.06658301483483078,0.011275974075026007,0.08307475614190236,0.0825876437821069,-0.033880589986029885,0.03188763950504964,-0.06442926807673804,-0.006615616114474899],[0.03604160163551287,0.030662724881171853,-0.0567098106760148,0.02728379089272066,0.03323811610593908,0.005557904978831207,0.08152621350182244,-0.049648877754628645,-0.05261722651630334,-0.016895889260494807,0.036821499480598714,0.0625647474699451,-0.040323575951508366,0.027948627687645534,0.0587779860195968,-0.02448761862158342,0.05077648145040705,0.005009813701397786,0.05006655187238331,0.0537821154061973,0.029076824118840536,0.032760590946237046,-0.00816735049486899,0.004004257764791794,0.0660138287705596,0.06619659462407138,-0.017516846910205806,0.06085803430985712,-0.0545436554874018,0.08427309556680238,-0.04331612902244381,0.05287435428167473],[0.048423835404815214,-0.04689737829110894,0.002358300067614212,-0.05128538559768213,0.08052028548469711,-0.03158875687247264,0.048573550135690285,0.04505226497191957,-0.024153388508870038,-0.0837656978709442,-0.06913189092987794,-0.0029384781428291383,0.06501934391159526,-0.05052189691680704,0.07837853173693975,-0.018145503797448816,0.029566615649733088,0.07995312514348955,-0.004946526136414053,0.01812285979378036,-0.02303582742412739,-0.04539631608023093,0.04518969019293561,0.052025316431033544,-0.0164860385176955,0.014057802503555383,0.07424807351054716,0.021713788067512806,-0.010036053550950923,-0.021208030626629515,0.0030458133652696865,-0.034807632006273785],[-0.0681146600017476,0.08099009624982857,0.02382608545208062,0.021997301029199078,0.047283449542587404,-0.08413990952220089,0.04064263928764548,-0.07253476218136792,-0.0022511258878318567,0.041418530676826076,-0.06995728455516265,0.05309789386817409,-0.030402309397626025,-0.021085627337630926,-0.06477820797503381,0.060326367854572766,-0.03345490156805292,0.04774934459578751,0.05010823622331129,-0.03986376864930459,-0.06719792224911537,0.0014066199577296287,-0.02879652807273073,0.08029736850992378,0.002769374625319605,-0.06293472163628915,0.0630123473169194,-0.052887711059068504,-0.07687803603233945,0.06865473726715418,-0.001961732022933941,0.07074692679691294],[0.049525521472066854,-0.019192073831226574,0.0434675524352588,-0.009536897428295658,0.07811333670655729,-8.725458806509608E-4,0.01857703654048572,-0.0383919699056723,0.012478202228868016,-0.05405359884182603,-0.04523828672250222,0.04296478850293057,-0.07944655762534429,0.03962792890042351,-0.01732072628056103,0.006108654325027472,-0.04286963489832525,0.05369452847678736,-0.012860751226024203,0.08004721720731736,0.02304960499258199,0.03642814098930001,-0.06637336694417095,-0.04396705335670684,-0.0657761655031334,-0.08122434617166684,-0.004760970727367556,-0.0590427174732459,0.08014837985552636,0.04673388884863822,-0.01720289516248525,-0.0036393294857039885],[-0.051571243418640667,-0.0014604467004266349,-0.0675379553453818,-0.010927168099461945,-0.07300152876840924,0.08127875796300457,-0.026072817201325742,0.02606114624323015,-0.057632195740338094,0.0056939208170816,-0.0354567013069307,0.05707374373106982,-0.031920949016990746,-0.029806840962614687,-0.05834592329282373,-0.08285700418658892,0.05389302232814415,-0.0713042533190774,0.01646872374661217,0.016503154167183284,-0.07664013297253587,0.04417204161944295,-0.06057412899236633,-0.003036011589048371,0.07541899579741984,-0.08569977584793972,-0.07825893838769415,0.0376702817593363,-0.012908153244742215,-0.06413222639389796,0.08422383457649998,0.01268837563910581],[0.002466756719424812,-0.05989865138054198,0.013884783145437977,0.020709756837399836,-0.03762785023687579,0.052250007337109855,-0.006570128077122521,0.024611352624650903,-2.2895878001148247E-5,0.07627442287719559,-0.015028419085803376,-0.04903152687066442,0.0379358955532355,0.021633763575793063,-0.08097879356299581,0.02950006158583745,0.044311105367998885,-0.05087630855251567,0.052771831988223314,0.059289783417561956,0.05655794873768872,-0.04764311740643756,-0.07530128322111672,-0.04006438398747024,0.056226072273353495,0.006380467865067573,-0.053917292128586224,0.053636619462189304,-0.0017252526087585365,-0.07845101686089112,0.011376012619477273,0.033529398664356766],[0.011001056438550491,0.024131154000238637,0.0070861642255216324,-0.010157090836708271,-0.014452490918082345,0.015252012810390137,0.023365164337657052,-0.07472570976562555,0.06925650226468918,-0.05794997326461391,0.006036781243950109,0.07570114844136491,0.04684737571078361,0.025554120118639327,-0.07454470992760846,0.08112649855180187,-0.042605679772871954,-0.07544590804892594,0.052882032281866775,0.003941780613633657,-0.08198249155895793,0.01125615005817595,0.05496353637478101,-0.0411409724477646,-0.04356619286374174,0.01834387532776436,-0.027141490644761835,-0.003978104415127883,0.061134895520610605,0.05598882583033204,-0.03327906689061119,0.03000347814337893],[0.0699417250816015,-0.008832991238860607,0.07386301048259399,-0.04943640241696538,-0.022027832388537876,0.0010582159880722468,0.02031874507515639,0.014513124317641705,-0.013812860696752416,-0.020483725999293705,-0.07664991847138997,-0.007083100270408722,0.06032429218058601,-0.022866004283880588,-0.05016985682398309,-0.0810159706305875,-0.0728114257117265,0.043369622130598154,0.05347384919542212,-0.06428493495265131,0.04538231408810461,0.015422901860332915,0.039332670876338904,0.05355032344171206,-0.07754715054573957,0.027427367811240347,0.013342595404824503,-3.267895207736036E-5,0.06742920375739454,0.0053812585380256526,0.055819400552500946,-0.02689460497453269],[-0.05780650261154307,-0.029313627984301885,0.026997411340505456,0.05449942288455687,0.03159883442800456,0.06741283375052419,-0.01956256070543045,-2.958125194725339E-4,0.027507215341767283,-0.02292298422128688,0.036728851972734074,-0.023125111806116865,-0.023969396105877543,-0.02499645487737047,0.07083945330903792,-0.019675413254438088,-0.0723433955019697,0.04625061168426717,0.08012174337869542,0.027807370584994245,-0.08480359914759032,-0.057971950541419986,0.031100019556468333,0.05294258786966786,-0.0032059049066890414,0.06348239179017212,0.019516920937313165,-0.03433745666166363,0.07581338251233166,0.04364013984368063,-0.09286484731400316,-0.009367127274866455],[0.014463786643198018,0.019031346580498473,0.07332265951072613,0.02710716415094113,0.0038626383735810357,-0.056306947154065735,-0.034291004219586585,-0.007312373677365401,-0.049124913470295684,0.055676963479346954,0.04816929537354712,-0.008476711986712085,-0.03940246600584276,0.032494393835517874,-0.027808927281500646,0.08899557267209857,0.06492895935084995,-0.013972339950428197,-0.07226497680170035,0.0377804119046743,-0.0016250988233725413,-0.06159903812537021,0.02748554428163201,0.047166947543936875,0.004865313393079944,0.022053298968836888,-0.06752726905776738,-0.07571256595569079,0.06280053809624936,0.008485482996645236,-0.07691501361098359,0.05249338913256472],[0.06746376089294326,0.043205671538395767,0.01771892826751756,0.058829010925747625,0.0024419484653526832,0.03635095556276923,-0.066679065550144,-0.0578704662973423,0.003313452327061999,-0.08267700576421672,-0.01082187370759533,0.06168281941033019,0.007137765539496464,-0.06823466516351985,-0.0725541043658968,0.03277973901622587,0.054936737862401205,0.0014173813416588994,0.012858916707625343,0.04958304927415331,0.08183353134858605,0.01697226620395927,-0.00453656851689988,-0.04648323094147526,-0.03868374476560375,-0.0366725050383801,-0.05481477617705391,-0.06766718866906009,0.05959158036638679,0.06821563838165896,0.044584146620056095,0.04188277516727243],[-0.024531535674131077,-0.06095500968726199,0.06258679569350767,0.024137567878005566,-0.017051235729666003,-0.01642218840031601,0.007350842582205275,-0.004830748667586486,0.07685297920783965,0.022964608814648475,-0.009511152847291543,0.04501295476591312,-0.035336715826494294,-0.02170436880812674,0.07820554077451687,-0.010092934285073473,-0.05559093875710991,-0.03786575825995545,0.03936869391081793,0.058947293087792424,0.05397540870438584,-0.018518519318298465,0.05704595757676721,-0.037220588990988866,0.052130396143118596,-0.06053547964104632,-0.04933001805043194,0.008795748007768217,-0.011216869988038499,-0.07001204568958819,-0.05617430738090686,0.04083706073192821],[-0.06574410852111406,-0.05623969263537208,0.03077735941431527,-0.056054379722027765,7.039469757483713E-5,-0.06549133367814818,-0.007804898930644335,-0.05251570458470742,0.017556675616865837,0.0692716026158175,-0.07684594965757029,0.08171464669260099,0.058738991604609755,0.08326708859716937,0.026236603231650342,-0.023266379822812343,0.017252263226816625,0.014369920957347435,-0.06347998530692961,-0.0610727666488008,0.005732771722678375,0.02915356938220888,0.005077543606954046,-5.488469341424202E-4,-0.054578693927064964,0.03629832808288242,0.062005524214050464,-0.056248992177956696,0.0584457898588511,0.005727207614533162,-0.02827434398759262,-0.027335370423799132],[0.045926298800532686,0.0023646090704497187,-0.01575204018026591,-0.02360520903012531,0.01665290226482228,0.022694114024398818,-0.012310500750715346,-0.06242605796575333,-0.028459566593302555,0.0807652092893869,-0.059994684046561664,0.08407773641705481,-0.05504534941875977,-0.08218769896585958,0.013868031307406065,0.05446705598070273,0.057809381646149356,-0.031342729365525325,-0.01761896114866996,-0.030902384941311777,0.0692250707654178,-0.08358308377502822,0.054025940478159555,0.08231964146315125,0.03321820544891541,-0.05658152476063838,-0.02525957004355942,0.007290003278483924,-0.0014129996769130955,0.04473303069863701,-0.03611232592269056,-0.026752658789085997],[-0.053403793417645534,0.034467062347505635,0.028091271512050986,-0.06397692904706223,-0.07717956014789576,0.022264927484603892,-0.06207602822097801,-0.03277947449788504,-0.04991943653905506,0.0013366096614086836,0.03099623281264806,-0.036847162917648106,0.02393226525433022,-0.032369543712544184,-0.06867964143399624,-0.004208248193433271,0.028982978068079934,-0.0689010328971544,-0.05885236869398754,0.03258991259742305,-0.050307595450177725,0.013952538148868305,-0.019122823166158622,0.04192669195238379,-0.019989235621293157,-0.06088536974250265,-0.08433763667941262,-0.013651430597315634,0.055474380436305114,0.04096679039240033,0.003168140796719712,-0.05227659018843864],[0.020454298764202915,0.0724432418397879,-0.0174928884981055,0.05623771317343632,-0.0592277913460629,-0.07792800111591051,-0.042785960736342644,-0.020410907195601388,-0.050209791351921995,0.014634410265472806,-0.03558276327731169,0.055460874423987956,0.04517565524317716,0.05799901635921292,0.07789480055322567,0.07016135785026939,-0.06426030091103298,-0.051520638451254853,-0.041680906226878325,0.05719893294007918,0.029070101757496965,-4.7661941671575236E-4,-0.01950937931704453,-0.03309995808214595,0.05843912225835868,0.031634374291405296,-0.08054410433520316,-0.020686853864197156,-0.029149323803095588,-0.019914670392523346,-0.0011803369566117036,0.027537809759370473],[0.0842132078595809,-0.07201571562187378,-0.044734682273805504,0.07933451665827548,0.04346254453440497,0.03565145302275986,0.03889549277673165,-0.010403742058379494,-0.07676308996207921,0.050090008511730864,-0.043020556136294914,0.04721907151273597,0.005163427224793393,-0.02035692325980499,0.07861495663872352,0.006641924722952428,0.07448661906041451,0.039248073276890394,-0.04473874081039622,-0.014657243158411036,-0.04890657406702359,0.0315214597318078,-0.012563354509672985,0.007165434401824952,-0.05437074270030413,3.6514716653736866E-4,0.005727890387428346,0.03253829822949664,0.062006415888740056,-0.03217681513203147,-0.019223406439956556,0.04137585558474342],[9.203399291164134E-4,-0.06948782689091089,-0.07780892061737782,-0.06427698904851928,-0.06934858304361265,-0.06367421225744478,0.091217863560872,0.06817923634111055,-0.038055859945574325,0.017100065283648377,0.01478443209090376,0.006443735102464227,0.05530735418035796,-0.014019240647678859,0.0759368083645239,-0.003216581579785665,-0.04666642840045952,-0.07561887394278174,-0.07586284377977442,-0.0469674473262833,-0.009225914595902471,0.04816639861846334,-0.04131568260707382,0.04853473580087235,-0.03217375970367612,-0.0019302515486830712,0.05591040016937563,-0.0048320013904983,-0.0562530205592457,0.06958320652312765,-0.04749538678059363,0.05796291669050743],[-0.006353770140382416,-0.006516170099053979,0.05948202460365058,-0.05501692584477673,0.07682106269059627,0.014888010288163368,0.051030549795908195,0.05427304434127026,0.04848806802443043,0.08097591136443108,0.0031630301708609754,-0.0823067718632024,-0.0841933568078343,-0.038745398058129155,0.08145366160354006,0.08020621828377944,-7.92514807159072E-4,0.0016067839497672526,-0.07728481381866201,0.012422247725583223,0.06577116235436516,-0.020880671457774478,-0.005117898924564846,-0.055335503197281505,-0.004131242717386916,-0.012973011072778264,0.07603533542656934,-0.07772159046310631,0.03721169743548205,0.0050162323129250815,-0.056475033520761074,-0.05725272418879439],[-0.026944000509281033,-0.07594005443935531,0.06329818095034367,0.03702373791162018,0.07798992972426182,0.008681940210008312,0.06671038545148383,-0.022586291756149107,-0.020405800022891295,-0.039972212823440254,-0.06911267369278568,-0.06160041702626104,0.06221306148316489,0.0035262474264805945,0.0308162172009808,0.0717691764181684,0.049368248016894704,-0.03847414516341499,-0.059446709808146106,0.04686343116838735,-0.008873171738634196,-0.019439802557131784,-4.897715818892879E-4,-0.0366123031649496,-0.08488208958147597,0.08359397579992447,-0.012111962962897216,0.014994558233487791,0.034593061921378496,-0.06502547102359,-0.07471994121931823,-0.01355085985910596],[-0.06315302136785383,-0.05285295277113735,0.06593684401761227,0.044136826025315525,-0.04312280492724717,-0.06118312323354667,-0.049816814345833633,-0.0024554540471606818,0.0308644558155889,-0.03214762938420352,-0.06573984413862838,0.010636339354107608,0.0560949367351913,0.021554287200292514,-0.07314175864896184,0.011976761277432227,-0.056217766272900455,0.019085420571305644,-0.020443574942914055,-0.08092240759911823,-0.05162475204177764,0.06238180114208195,0.0670827023775844,0.0754300649965662,-0.02803904990036712,-0.08460630487533825,-0.022468725579854115,-0.08385504199960281,-0.020790631046127172,0.07073018119659485,-0.03646704707268678,0.032997030547340316],[0.06906380272047218,0.07182411414647788,0.054866114998150244,0.03319308568614145,-0.032545323989232565,-0.07712749370365451,-0.0379599694988573,0.06945708842065586,-0.04225827695269236,0.051349575303877515,-0.03891794195387245,0.038526604520844464,-0.022563038416307264,0.06054109193364787,-0.013417298841572665,0.02244623971296859,-0.011128100749479227,-0.041554392799378496,0.005910054935079681,-0.005055293175658689,-0.0314653546802143,0.0706094910655683,0.05155903338183909,-0.028004603850849786,-0.03783239964269055,0.0758218207443545,0.02921093671601546,-0.06850070201824256,0.016463296254523686,-0.003296182466196693,0.05030758857113244,0.022327524406082783],[0.024795231687838492,0.015139582995435033,0.016304209638601817,-0.0032339851380976427,-0.07212237742160595,0.01555872395899492,0.05319417632136685,-0.021344100674448422,-0.08142567952437672,0.06741042815228294,0.011988647748956345,-0.06867680172532038,0.028258692499920874,-0.015240069161442141,-0.009525309986219884,0.007597470260237914,-0.07934725211249874,-0.06429316179781587,-0.05511171262807222,-0.0015182333614346141,-0.02753023125466622,0.06839260355074318,0.03899922383545574,-0.017281588463707077,0.005480830882207497,0.022609472957998627,0.016632131429337456,0.06722877606100754,0.01617656820745551,-0.0829792679105971,-0.012277036965286816,0.061563836265383094],[-0.027268525153141633,0.026275948876417647,-0.04772975785738549,-0.07033020987961741,-0.03172115929271947,-0.07625226606643364,0.01582987623218858,-0.061559131946311074,0.0702152493886129,-0.06819402958210573,0.08166544866162771,0.0336624019512907,0.00530112016792407,0.06054967890439639,0.04369386366859816,-0.08044788810506678,-0.03127201339683269,-0.04747692349330369,0.061533859768476036,-0.03227664574029786,0.0256275682640646,0.07387925073833167,0.004734093804605392,-0.021490724717749383,-0.008906394945694446,-0.036864717036210796,0.008608527916867467,-0.032898567516291354,-0.07620638142754804,0.05945283326159486,-8.75654683412182E-4,0.024573341118722686],[-0.03438971428034009,0.038603131119604304,-0.060651184951403876,-0.05162812029121589,-0.050551216313230375,-0.035488025007051845,0.01918504147235366,0.028380488417083873,0.03490921327044541,-0.01755059128563347,-0.028561196475008647,0.05520513659542411,0.015482385178260944,0.03869689710893803,0.008152857427813222,0.06477634362082872,0.07667335278739752,0.05858403357032414,0.012224043076434665,0.052392318723813065,-0.05034679800518473,0.010079618179951833,0.027905973276684,0.03225858368552214,-0.07650681472316705,0.038634759835309215,-0.06840801065891124,-0.07845635874007467,-0.017038728463927538,-0.0492633687165485,0.011100412437092807,0.05189265242565639],[0.03953208524992304,0.06509661268383281,0.059186186156029226,-0.061215508091470326,-0.046618203701459096,0.008163624404297918,-0.011963672421943138,0.01896125464114124,-0.046431396221470196,0.013544213919242426,0.002234341677646726,-0.07036280859474214,0.03392048158202118,-0.0053215864654779215,0.00646186112190967,0.08195601628124073,0.022789554540294212,0.08247627505514796,-0.002905729649277752,0.011629999416578739,0.005872200385343615,0.041331436285828964,0.03438832169432277,-0.07807309456072697,-0.0318170697171442,0.06578007007186591,-0.038928792548476726,0.033091847700911454,-0.02800840283485409,-0.035752525572978,0.007366561452472936,0.06453581320236944],[0.013152515654902757,-0.049364134533986394,0.028863940202085783,-0.0670749405603562,-0.04079591728125456,0.007655956259531762,0.05305042689359062,-0.07489395515326525,0.03843686225153712,0.06759272354172034,0.05542424721508963,0.030549763642294368,0.01932633724160148,0.01128845285563544,-0.06024366985149692,0.020729444894295256,-0.07327350249915524,-0.08008526602729472,0.06885192199263238,-0.04490880983045221,0.0781599727606183,-0.0763513942693376,-0.07442286852293929,0.048497675471620184,0.025782978827789287,0.007128786754675656,-0.07314655211978201,-0.0607853504693135,0.02668667495629713,-0.0049275076241190145,0.08252571088611743,0.006671507828644119],[0.015744004771749514,0.024670343136540606,0.07463736512739212,0.013955605140003926,0.07647207677217653,0.056363660302053774,0.015018456263000775,-0.08342719677982342,-0.0028721123337457676,0.06978930012842559,0.028537860324494926,0.058205971992276034,0.07227155643915914,0.07563900300457006,0.07739084662689705,-0.08019241325881861,-0.058510749223755355,0.036347455894551586,-0.0010394559886271583,-0.07357637127194767,-0.07232247468323932,-0.058568256266834526,-0.07844441083468431,-0.004175481839978613,0.034999913209870746,-0.030048467244440664,-0.03828892586330442,-0.05000175304935922,-0.03744929263893394,0.06444262820083989,0.024207950212801647,-0.04032367714081364],[0.029140474139870077,0.08177430014045946,-0.03793591530178923,-0.07890044382672523,-0.03614747682370707,-0.025758006526677132,0.052455082532757345,-0.07176929095520912,0.043027373134695096,0.0197838792435774,-0.009150257518649544,0.027165025783075742,-0.04966354393810091,0.019034813428421008,-0.025478218836883212,-0.057535375638031426,-0.01168134531532661,-0.045548056178056316,0.04419161592290563,0.04411794223724858,0.004977543134101404,5.689074706522446E-4,-0.08185815292146867,0.048829167448352306,-0.024526098014347943,0.07643569083869434,-0.007587413247540727,-7.750697794931661E-4,0.011865494597472003,-0.06195221148358207,-0.03292358132272326,-0.04393452830319651],[-0.012947573564428508,-0.05143651953825241,-0.04450828160088847,0.0694219246343434,0.005663069912480255,-0.03414786987256916,-0.07141492019308388,-7.946667729682288E-4,0.06208435275812369,0.05482158689774018,0.038845223396638665,-0.07520761445769343,-0.0018785497038344523,0.014218808475760774,0.00504337356602861,0.04040744004840635,0.04894231296140995,0.04297930602062142,0.04106515759218472,-7.621648055701133E-4,0.07550352248424348,-0.03509890125138325,-0.08419701658077734,0.010596679274935607,0.08499908241909439,0.03376658784632998,-0.040377319413620806,0.010314864637574188,0.060153279881394905,-0.012283235329806918,0.06071622307224935,0.00779675899918444],[-0.08274330228008932,-0.07801211138618065,-0.06606418698477186,0.04000531705318182,-0.04119127472686728,-0.05072755008068979,-0.043809678836323473,-0.03109591926714928,0.022967486292092085,0.04126125358461381,0.023062025079186897,-0.07285972775912221,0.062150027314071786,-0.08499795340079545,0.021922528398486588,0.003516899879667082,-0.01379549031620443,-0.08149866740324699,-0.08484640230375555,-0.03198635364563151,-0.05405342567273108,0.035562379817428366,-0.02305219212550058,-0.05117028017390773,-0.08087150869791776,-0.05242657819342584,0.0806769158327231,-0.03785461462273965,-0.04549426034012103,0.037988733147050785,0.008899509297371653,0.005950619645320456],[-0.044837743864623775,0.05000913455673063,-0.07813594911853314,0.028476574023262265,0.04357314871731185,-0.04251089718748603,-0.05134855940379319,0.07385247995530626,-0.08442293169950385,0.06646147539959675,0.00380083505964149,-0.028365484915679137,-0.00828031430177249,0.010757010178083814,-0.053243097678305595,0.06801909186092593,-0.07793350978468856,-0.0229932765482595,0.06176176530196151,0.023823283721059033,0.06137315007350233,-0.02718625277262966,0.05426782064694433,-0.04381400502979475,0.026132391726270677,-0.02224026258740088,-0.045259039599641115,-0.002400944786498905,0.026286218689094316,-0.029093751243278367,0.023177581496189557,0.0062660057311599935],[0.05725349768628587,-0.030351872699669737,-0.023185600031537003,-0.06457214801828276,0.01930156694080824,0.06774790437729675,-0.07208117188023844,0.043570950829414055,0.07540668314134734,-0.05545014532821786,0.06371622941289269,0.05866029684634192,0.011421511861262123,-0.06269889174644025,0.05930874690104733,0.023277689530781458,-0.027512913162948783,0.05289605918286086,0.05449563605478888,-0.06496111874171759,-0.08383364805984814,0.07561737910657475,0.03367981912264166,-0.04650968105029191,0.06335605378783102,0.03720854587082852,-0.05967391137539064,0.0606066374916112,-0.058279236832752185,0.0303985513384742,-0.06673102330322814,0.04306786230333864],[-0.07109326680224652,-0.011602442571012382,-0.052349904926940485,0.04325609564082081,0.017944203628969365,0.024390561962104915,0.003187594699176759,-0.051211300232491035,0.006666163183125809,-0.034443072703592065,-0.008221217427227952,0.08192680286134606,-0.05941523184961423,0.031634992628089074,-0.0407142342854126,0.0642703865487254,0.02517794530419748,0.007335819698620878,-0.03081548734825612,0.03462490671664978,-0.055726651603176705,-0.02720863730127926,-0.004675109428372265,0.05031709053616554,0.04333750737134904,0.047857852212216306,0.0032005318772872888,-0.07917939371615253,-0.0036560404347381575,-0.03551562112705244,0.0614859546550564,-0.013689603711733445],[0.024072894386891485,-0.020972603301538262,-0.03703654163886276,0.021439058692050466,0.04848563921657307,-0.04643402415378154,-0.005085611983465625,0.07964577131296223,-0.007355034912674103,-0.027561065878239067,0.03905650944000159,0.042853378787315634,-0.017235730056275832,-0.014421808168877531,-0.032659185016153364,0.009617372106634983,0.07472920742062347,0.016489907584412263,0.03569202125804146,0.07473451657434407,-5.355876837902724E-4,0.03300234687971382,-0.010563693254217778,-0.08054408452307757,0.07944397286076145,0.06815223927446981,-0.020835819758937318,-0.07935380571459204,0.051339292275040284,-0.06144994364932814,0.060868908960675254,-0.04424719565744707],[0.015356038166104266,0.03225089598236829,-0.06124350477949497,0.029239331827133105,0.05820513993600813,0.05166371553442077,0.05464648135035424,-0.0070699838028326824,0.01794001861890749,0.02446248254341693,0.002678495753318527,-0.02499765069325663,0.049737238956273445,-0.05674042621767614,0.005341990916521783,0.04513204971829497,-0.08538455880917688,0.0451328620137949,-0.010395461436286089,0.012674096388572914,-0.0126363843661955,0.08328836397286661,0.05684477041107614,-0.07076231359709856,0.003975613902122422,-0.0511266593742724,0.0511964779179276,0.06218916926544949,0.05624133268792513,-0.06448245921451495,0.06283511566935987,-0.08113576807380882],[0.05094392915028998,-0.04822484796570975,-0.02430750950251661,-0.019081127639496175,0.03456743072181313,0.04777490460470391,0.08110164043102554,0.01630586954470985,0.050572729066257066,0.074472333945825,0.06713541811642403,0.05227569007825253,-0.07555273832210323,-0.07350342160107032,0.04138595402302682,0.057035813901668016,0.07256636244894538,0.04913208826513355,0.010281580602352715,-0.02438737552931048,-0.0618439451018555,0.017255930169398855,0.0694189807664211,-0.08224483122365268,0.05085297026067534,0.060836478934383695,0.06898891300858497,-0.017602431808459305,-0.07148169637311524,0.060229420032587515,-0.06999120188434288,0.021562275763309897],[-0.003569819065284183,-0.007283610938849015,0.08394045630082052,0.05156893140856364,0.0025901133105036404,-0.009075317333724353,0.003654573236538212,-7.251261836511817E-5,-0.02118218606550204,0.032031031353171105,-0.02631801703900206,-0.06618011122538951,0.06787352656906573,-0.01095652141389811,-0.04385274267091411,0.08248220936152346,0.044834805354803484,0.05041352539473884,-0.013205043597065829,-0.06671022523815655,0.048503931711191134,-0.016806791419337185,0.0126281705694048,0.06794122225132167,0.0619348304239699,0.006515504707519022,-0.06038259039823132,8.639912543348071E-4,-0.00947498709112682,0.01228133196303734,0.0017854572040011695,-0.06913988681718738],[-0.07999880603894634,-0.07209595909293569,0.07761129728771292,0.019319311799807656,-0.004271081225913442,0.09357314407968079,0.020069904751743625,-0.0411048273439126,0.0798592582774284,0.04093174381409139,-0.05199187886316858,-0.019690420547762374,-0.030833831653576033,0.07071707442279541,0.0069852474911713865,0.07255580414447614,0.0033110758864350904,0.07971637932785738,0.02723266967477252,-0.07473775986265546,0.020758037752649117,0.07076406992306916,-0.06510236841750426,-0.060962765053362115,0.06236252311996338,-0.050936493357886706,0.06333691670559219,-0.0076438802159881514,0.07734174246951532,0.02933785021359719,0.039644757862578886,-0.06751495273538825],[-0.06549663603950312,0.04354395250668385,-0.01269804328469977,0.040665376305468084,6.472241967934475E-4,-0.05412201440238954,0.11878332187796287,0.06593336827877469,0.01662523004862174,-0.05790717055717741,-0.04473238082525774,-0.011093087729700388,0.06660253478181742,0.0658956577475646,-0.05271613241709366,0.11662801001526135,-0.02696686832443814,-0.008577960173515222,-0.018114040882542773,-0.013007233124312942,0.01180054934496316,0.058128303853016865,-0.04412325052365078,-0.058083580361818446,0.0660004942802814,-0.07970991679392055,-0.07548794082932608,0.016417003424364213,0.05880150769461109,0.08085943506192682,-0.08067605354797142,0.017223909400755695],[0.08238495521008252,-0.05172543736669869,0.058188125959536034,0.06189856428538342,0.025994455028206298,-0.005120630080734248,0.010160715933295544,-0.02726427802505918,0.0039482172656728105,-0.0201458478654553,0.027164767068776515,0.02412579786865783,0.02461176356081773,-0.06525847606012572,-0.025410983980932517,0.08767706073225315,0.08156296306658857,0.016448247600690878,0.038302496510352516,-0.05756295751665725,0.05919204896524551,0.027524311422960423,-0.03881751297055595,-0.058194241657471446,-0.08336276089698423,0.052639630610349264,-0.015559746778010492,-0.05965475373640666,0.06308860438217972,0.027493180565944995,-0.07585240414072068,0.03813676430916051],[-0.07946435285952842,-0.002423448402464477,0.07479544596934057,8.829484723370306E-4,-0.0817902488572071,-0.040249512737000344,0.015079917807583094,-0.028924042107425843,-0.0335272156636843,0.0077288347519240755,-0.05406082326308838,0.017710011304266617,0.010224743646619992,0.029184253859189095,0.03032467863169,-0.01237784788393134,-0.006255342945353913,-0.022468870117323,-0.012774449413464681,-0.06303234341649518,-0.0827985560308202,0.027367835349303385,3.720329865812177E-4,-0.038134315465563895,-0.006329743442489086,-0.020339451331249994,0.004694423627860075,-0.030182129545791525,0.05698727512592273,-0.042595012137857484,-0.0023260970880661716,0.08294923299563607],[0.03730251790444115,0.01707976336827711,0.07380577569474481,-0.05063582987679628,0.07967857215361833,0.07334729199340273,-9.634602961991908E-4,0.030977135797120227,0.06509684167532676,-0.06356648229627196,1.9890671634755207E-4,0.03941806250064585,0.014502067125347073,-0.081872816717663,0.014427395296502221,0.03333315216591147,-0.0671755897918839,0.0825395217568211,0.0748950487806539,-0.023503632765301843,-0.06122720960182987,-0.058618133137858366,-0.05355191103830701,0.07215142524362553,-0.04758532498359598,-0.08974204648926477,0.009740150890399342,0.05990374209294603,-0.01725256364995071,0.04385073238090874,0.07685702706160116,0.02728964196799384],[-0.004574528624960249,-0.04477079903637271,-0.003508964068209992,0.06832987463145776,-0.043780342817126575,0.06400790272400028,-0.019202048886778886,0.058774314539953694,0.04655047134776118,0.05631073116986364,0.06864235935846616,0.03111810422174406,0.07266993262225348,-3.8247794374380575E-4,0.018181182108177197,-0.03531606736452879,0.029459293646599778,0.06346878955089105,0.011738880000034885,0.026266240176450253,-0.013537279141171903,0.07046167307673298,0.011685912168150295,-0.021548159764719247,0.034978418266554706,0.0658067420485214,0.07364680777057912,0.0012528568673180768,-0.06293968012192565,-0.014718293333981067,-0.05805398850390986,-0.0054009718568714515],[-0.048068804076448965,0.06432992611645974,-0.04808441311704007,0.029096971970010974,0.054776948297712104,-0.013952056066630268,0.05251046892211696,-0.003224905734710789,0.037762571720654003,0.028753850081540484,-0.05285504327674545,-0.07984666675214236,0.021109742578573426,0.06735988205107137,-0.06495933859148455,-0.02669430203754595,0.05659788633897421,0.06284701269896527,0.08192183025301303,-0.021711375545057934,0.05192030649480099,0.05091689010806302,0.06807399457201171,0.025991602032767402,0.06646730557893968,-0.03881195200864153,-0.0206565428177589,-0.09238025922613763,0.03988468534765604,-0.031805931797910504,-0.10224532763300627,-0.00311000059816173],[0.06060420036710128,-0.07602350546623861,-0.072398362508215,0.03401719264217389,0.02726179174219275,-0.019076439863010063,0.02092685794766658,-0.016503650573002602,0.04283259812317896,-0.028615991275282884,0.061717603016918844,-0.014211185365261284,-0.08175358629038214,-0.01814881644680721,-0.024067664955539206,0.12764361031797694,0.06581545930032236,0.021526699827656554,0.06628758134890758,0.006788536572128224,-0.08390867036901326,-0.07907473609943369,-0.09002645364230973,0.016526403234605573,0.005163892887647659,0.05342897817281105,-0.04451445379452475,-0.08419590821635804,0.03556070903476254,0.008478517511130023,-0.05703041660547615,-0.03309910018480699],[-0.07558015739950394,0.07983583310681147,-0.027067564746411105,-0.011973188811139724,0.05123629671068867,-0.03961693300310942,0.06770941072562016,-0.0748543828696987,0.027037319307281624,0.058520288223641574,-0.005141792454383785,0.032089833841122684,-0.025905410422537013,0.03640758309810228,0.005211136407587368,0.071813515573848,0.03277570141414117,-0.033083700655873134,-0.07683880483004386,-0.059521027615583255,0.04696854044941153,-0.0544201205236347,-0.033871467971090405,-0.0452027577875068,0.02459486070974331,-0.021835940990952925,0.08133259797802457,0.07176681526886299,-0.070312924328005,-0.02170045615406043,-0.041520015800884214,-0.004551928929325434],[-0.012622220123575407,-0.04766413464460518,0.017209584006934616,-0.08227787965960022,0.04527901316797791,0.06122197139417391,-0.05195452889360979,0.05064248854832636,0.03060510386893093,-0.014760831060009263,-0.029746226094461647,-0.021143428928197417,-0.005727089538368023,-0.0011210789118920182,-0.050529250652073164,0.06998350172725658,0.066204219412001,0.0010891892191217157,-0.0024695003376564956,0.038537471039340826,-0.032157079473122054,-0.026284148937490464,-0.011224230660819675,-0.019633564867649517,-0.037133608454483304,0.0800104286596489,0.07790178697793886,0.08263031037524858,1.2802746118473042E-4,0.033353467646926746,-0.013002185527276819,-0.06610200660695949],[0.04561164321845503,0.0756934506921662,-0.07541039293600717,-0.07472847373820134,-0.05832696141050165,0.007028559788244065,-0.06523030318335277,0.016615069290818824,-0.04963453236782098,0.005988981241672626,-0.02062302012022718,0.007782030579893806,-0.05403909579719594,0.07855783529992688,-0.07483049016782027,0.030273789979637353,-0.024090514045049114,-0.011229871923672297,0.07261201553206534,-0.060478614392099915,-0.07309730688390621,-0.023498072237971252,0.008469989944332056,-6.68892829616153E-4,0.012867884489845273,-0.06450631355615129,-5.109156122462805E-4,0.006367396925617758,-0.009085886546093356,0.0828388963107394,0.03750318904501135,0.06516020253706287],[0.0326984756478262,-0.07914629931532345,-0.026150193686152474,0.003905121207075097,0.0044363147449167474,-0.07186619233144677,0.0447201193846333,-0.06265791047767408,-0.06071716036530641,-0.02312758276434118,-0.020051112996081866,0.050730378600802296,0.05395310856203016,0.05263851013815617,0.057646294991200414,0.02309027565294744,0.0716018734006119,-0.025809288335028987,0.007778796147880943,0.04244071054844584,0.0372282211023741,0.009400460994459866,-0.06934514911645949,0.044905658446054215,-0.0856881388537099,-0.0314030144574807,-0.060926429805537356,-0.07954940309817315,0.0636908632081967,-0.04800325065965407,-0.06958006865654232,-0.06857325830988682],[-0.00965010582226773,0.04876861935966305,-0.046363180506577034,0.07110391963979573,-0.008570994533321023,0.054963374432176526,-0.007257332206538813,0.07950036816072081,-0.0523287122621714,-0.02584544555383428,-0.034222285530772535,0.00330078785277614,0.0325521055165914,-0.021711442425031646,0.001372664269506273,0.01040684421220508,-0.042019905278146,-0.04517488731286265,0.07636575175034166,0.01730770359912539,-0.02584271057631777,0.07615562049517006,-0.018293958193704527,-0.005115438135200078,0.06879195725860648,0.03281868549246156,-0.051905091642750506,-0.01392868110704101,0.07705629172208284,-0.052640401595945865,0.03106188464051969,-0.05116192258104756],[0.08197790128764464,0.01908575420254267,0.03380546538858184,0.04630664609393022,0.07364619469657577,-0.08100177951258608,0.027415477462464553,0.08445267199506466,0.0023336870484755813,-0.07134399855721434,0.07947227783895762,-0.020928112361210293,-0.06881101990678039,-0.08346507393502334,0.038602336576328555,-0.05913329735797568,-0.05789618711923778,0.04099767872306769,-0.025639070776854657,-0.06663145317514604,-0.08398485425408926,0.03210480434285411,0.018963625226926014,0.017974110122383022,-0.04624881705829238,-0.07295854139867626,-8.944493233720379E-4,0.044222545893947994,-0.06223545829754622,0.08524028251710031,-0.029748451981684368,-0.02195095435655518],[-0.03685902024764474,-0.056818263925404136,-0.029198119943901972,-0.030451570004399454,0.08239940558700967,-0.006207989320579391,-0.0740380689511733,-0.0450021597052346,0.018181829743458406,-0.010984953703669096,0.08203571367496783,-0.07253077004068322,-0.002146821516800307,0.04552924128053597,-0.0017899240923471063,0.054426299176336006,0.08185062659507185,-0.027629229932801782,-0.07004553183430932,0.056678640853050404,-0.015768113997301218,0.05982948717991552,-0.07566618772796208,0.03400732944502872,0.01339053145269048,-0.04888232316599224,-0.008702476300110956,-0.061234011306547834,-0.005195832352619034,0.056743067185223726,-0.013167347222704089,-0.004347446867158937],[0.08134930418499123,0.022087521010395236,0.06681923831195355,-0.007199659431493121,-1.3717325305947163E-4,-0.04817754037732156,0.08252392257562416,0.048200420843682326,-0.0059805146658625605,0.07033150580241823,0.06582394708638925,-0.021601326837027236,0.06345398209171381,-0.044043442919028654,-0.0684170215298016,0.02923493023809803,-0.03632866732796223,0.04929599207251002,-0.030522255677209405,0.0047940776773885705,0.06933173125509032,-0.028989234356295048,0.03061975821212146,0.0745264506334498,-0.010595087705307205,-0.03810906813539125,-0.029597529306681136,0.053872489217442636,-0.06713618409646159,-0.08333870074865572,0.08126978581898053,-0.049015071340759025],[-0.06822995350484513,-0.044210395646247895,-0.05755246479106092,0.0704715709759842,-0.022001539348849897,0.05121069378026024,0.07208305212593039,0.08534932507609523,0.07970151760195797,-0.03981899738763006,0.009888725538410486,-0.027867423824684018,7.868779450308347E-4,0.04904903439934864,-0.02655466643621063,0.06077118080627991,0.06670708366069637,0.0490570118208327,0.08371014187305666,0.002362347403932251,0.042794016984068824,-0.07223527852644347,0.050591516405607447,2.456890168729039E-4,0.03857110885856938,0.015013615085104662,0.04846917792049235,0.00785261634100713,-0.0618458491658374,-0.041667352889471175,0.06967641317757908,0.008803134804560044],[-0.04272238629126928,-0.06110676245576548,-0.07486130501318469,0.03594740192040281,0.057358743577942316,-0.006844440367192187,0.0022076340862158517,-0.07930978797946499,1.7328999977605472E-4,-0.018000388505714438,0.06418962226691104,0.061062170951435804,0.05428538678084972,0.06159760887936461,0.07405957691206437,-0.07434044961579726,0.08280666241900543,0.07147147361842299,-0.0774353722292161,-0.04989387915344256,0.011788934084251445,0.009557753076963731,-0.06535354257410687,-0.05261698554286233,0.006725931088311997,0.020777395640090127,0.023518569893474246,-0.03765932957087258,0.020619976010756054,-0.05302728644151943,0.023180245902412085,-0.022656322020291636],[0.06140682730649685,-0.015825638818264296,0.07927227131474779,0.06399894411917484,-0.07123621563945602,0.05154083337617612,0.019881792281103705,0.008965667005345427,0.06587201237108188,-0.013642678462240758,0.019187773682700283,-0.01766411206466104,0.012175886870324835,0.03481851532056649,-0.05419954182849316,-0.025398359717130083,0.02339577610774704,0.0553788649428135,0.07613533896051897,0.08016889677443009,-0.0692065132314248,-0.008295583303986852,0.08534996387650495,-0.04062635999076746,-0.05389087359829136,-0.04268591451962225,0.07106484195935794,-0.0836296357975791,0.06502137867672815,-0.061762101019795596,0.06450890772903654,-0.020253720745462802],[0.0506652192767075,-0.02499941308173909,-0.03484693514749468,-0.024422537625955264,-0.06165661049544623,0.01597469926669861,0.032987736878665075,0.02957449909312847,-0.0034788875920510414,-0.07140656543456185,0.018804349475715115,-0.08314042316227178,-0.03500960943010395,-0.045894232314102154,0.08159536110898176,-0.06124731037641741,-0.0027676891421871794,0.023997382661846183,-0.031351980888577734,-0.06065053745239867,-0.05792349558874286,0.024830098806453402,0.07136353907005602,0.00445531245818936,-0.01041344392297229,-0.04482740313506349,-0.06497599069387322,0.07231660260529924,-0.07511052997501579,-0.06058479901348479,0.0358788988567307,-0.032137934551603846],[-0.05177867649405365,-0.0678746499159413,-0.015629379203117525,-0.04202634432695952,0.07747066496476093,0.06510238747330527,-0.00965867627311074,-0.045134271795395885,0.01728085066399533,-0.025169221624278086,-0.055735011496343724,0.019182721309028244,0.07698848886180071,-0.05384595342766377,0.07226192886786477,0.009005624540872916,0.031036210362245884,0.030158288669837895,0.08274980494917426,-0.012310208407615417,0.07306391630125139,-0.015013445571882935,-0.0432767259189766,0.03612828044682374,-0.07524908272154848,0.08224485733249713,0.04798151390534111,0.04509593077240925,0.07385257382705519,-0.04284680740774847,0.06725216558489693,-0.03506920117420389],[0.007470512808729225,-0.01964039204749861,0.02426766783211739,-0.045824939014958356,0.04456182425655967,-0.03200679519464626,0.03601065424693428,-0.0378118661574819,-0.0603705564222359,-0.03512967910552586,0.041308987824807866,-0.010154966807190689,0.058542496516675466,0.004460475622985517,0.05297854557310768,0.07540162385616994,-0.06700596282981515,-0.02708372380481506,-0.060791025271947546,-0.018541607508436014,-0.026631557928787616,0.06845135747912214,-0.04372199494262581,-0.0750086986142765,0.011382175228252692,-0.0015186398214372863,-0.04964287623422239,-0.002974060649159584,0.07035544235648152,0.08769408299967903,-0.015834481787969167,0.008052514145932107],[0.08248109886760342,0.015120950756255724,0.030458388408920872,-0.04649447581195621,0.03574493295134684,0.030661261263446607,-0.008682096183684098,0.03513470590102783,-1.5951071963757595E-5,-0.05304813455954559,0.04678585703961837,0.06396679793734146,0.06151541839443684,-0.07080036743828563,-0.03356410645528542,0.01375717212435691,0.05663109128469289,-0.028469692540738886,0.0639568504602544,-0.028619065061965834,-0.09046339094246761,0.05362466590148418,-0.029713520634305265,-0.052051949284727464,-0.04478841245471377,0.026329547931798092,0.010917584041605161,-0.065615345186239,-0.019270969118036527,-0.043989501441397454,-0.02777747699521797,-0.037558435545853794],[0.07030659761939352,-0.07364684405606205,-0.07155210814140457,-0.010923041562583021,0.03663363279407411,0.05990529021958562,-0.024244014522006224,-0.029109526234187128,0.023218516678828422,0.06935950757894577,0.07305920097710131,-0.018939230324412748,0.049531164983751944,-0.004032462499772932,0.060771871362890584,0.06995705639287753,0.04957513608629353,-0.07516696533070424,0.05366541792240817,-0.028351437259795127,0.0554922720722924,-0.015927941464463382,0.006170194618494302,-0.05170050815894263,-0.01889046983508015,0.03667645247316351,-0.06830917708731721,0.07159446552311562,-0.04134946892754314,-0.06688015334490727,0.05463275505457959,0.06417245341159114],[0.054532796866160485,0.03681894383745058,-0.02173171568913118,-0.011999506011227647,0.00836694063642384,0.03603459618130853,-0.03906233852611265,-0.06372638482944255,0.0039999119632635385,-3.057398020370703E-4,-0.00797740951590741,0.07199993548228308,-0.06111020932744255,-0.04758556069991688,0.06056771419699611,0.011100821917394671,0.04617498106483585,-0.028893341159313427,-0.056272973129786054,0.016267239982308963,0.05281834645225443,0.03078796978943915,-0.015226991145187488,0.082198187387171,0.06887067355057229,-0.09442815794477186,0.03973213855869957,0.039755138500521835,0.03897661602506215,-0.019226003425377752,-0.0025981761734635753,-0.03862322205695717],[-0.03004802226374719,0.039780147153113295,0.06491525017961862,0.02109483754625123,-0.04920614878554571,0.04263889335256794,-0.0505674395483441,0.023721772556435126,-0.09824878920767306,-0.06582534518995801,0.06215478601367689,-0.060991690190663424,0.05674539668697007,-0.055763296684480095,-0.037351674880293353,-0.055640498803273854,0.01650928768591202,-0.0387393060977955,0.06987428268428252,-0.08770537481765399,-0.08249012400434508,0.06239231954856664,0.020670977356920816,0.0644899604251096,-0.09345445238375069,-0.10606308147983867,0.04928626614230334,0.03441648278407678,-0.025548680560217498,0.06707067061104725,-0.09768960916467784,0.0297654282548515],[0.011654652363058059,0.0375355210466007,-0.0763215257821352,0.09069875856837065,0.005750458023116445,-0.02083122404555942,-0.016528168257679,0.042809879478872985,-0.05371346556116387,-0.07156178964295504,0.05514122664888938,0.010156347324930304,-0.0018276317806296826,-0.05944395344365985,-0.050685886276450015,-0.07477302437392469,0.015762901894823045,0.004498752098586111,-0.048384020120033185,0.07048061383548654,0.0012569022159722954,-0.06555207668047482,0.02806184587065577,9.174714652863667E-4,-0.06934058179033772,-0.002133632636653435,-0.07519287890657109,-0.06272062427736193,-0.027218494679968255,-0.008907925960977989,0.010105839672270826,-0.013993716490774934],[0.04111836345863953,0.0793459363553377,-0.05936738879153572,-0.0569641883622061,-0.05931394090194776,0.0808655489375317,0.02381943283981648,-0.006079902676733305,-0.05087305758525655,-0.04008253029560236,-0.031260476064195686,-0.047917477609722904,0.09703794659451273,0.05966637870971752,0.044352627934895084,-0.06037460359223243,-0.03801786821638339,0.030611662170299748,-0.03962209337711392,-0.03275335336390098,-0.028359398757019292,-0.02719364296429128,-0.04869949681334331,0.06270836170866075,0.004905780249633848,-0.05685167021979092,-0.07401886011576772,-0.01871549372389135,-0.06690029446256833,0.029923532994525708,0.04365270804384276,-0.05573046142977645],[0.07365448965319096,0.08465789742009858,-0.024818551842631226,-0.03884784262684341,-0.020574989850483724,0.05158355426714617,-0.03173616371386106,0.02226947478095598,0.024615771336304104,0.0403391627197599,-0.07470072601939874,0.08682498572065009,-0.03988700609467419,0.08010978105598887,-0.07855667239692313,0.006491127972834016,-0.028799618389344434,0.06839485231044362,-0.053563374866767266,-0.07769281670984518,0.036415193085016034,0.02495529460825673,0.05273639721505165,0.0325394401916718,-0.015818052714356892,-0.0817661499337255,0.025607188369402872,0.0041296633126672285,-0.07508704813757153,-0.017980099756413383,0.046371260620503355,-0.023101719372917284],[-0.050502286292975825,-0.019249818312201936,0.1095466571082244,0.04186627318587462,0.05108988303079251,-0.029465730489834762,0.1269257696339852,0.052395615007184475,-0.011995180351471025,0.015352663092292627,-0.05855907846749538,-0.010880257575405625,-0.018240304743344413,0.02283702919455278,-0.0658710512918821,0.011795968750623059,0.04944461703547928,0.07489429043091675,-0.05073636020713205,-0.015580700351495991,0.03464076022402106,0.04059536665313042,0.05164389784435936,-0.0776329482895136,0.06997960748385904,-0.086479823545078,0.02559334187601621,-0.07083257135243859,0.026116889657848995,-0.05270413046527149,-0.09243151181277919,0.04866880669467371],[0.07498520304598892,0.06083772139247847,-0.003742060110737189,0.052457353446724746,0.03348736542727727,0.08681936360078298,0.06305762236719682,-0.0061144448191196524,-0.09802935846549996,-0.06927404291509316,0.08340872628037163,-0.05797905701888643,0.03812554495361694,-0.07692814069037417,-0.013440870962445952,0.09592317892728394,-8.709570243175902E-4,-0.04217824796088615,-0.0542428198156231,0.08489588830170403,0.030716752941259105,0.04345825420043399,0.04416728079071559,-0.05247140121388488,-0.07632701968273214,-0.12112137822085706,-0.07856559526770801,0.026055846399410627,0.03412675730186581,-0.047271086566031725,-0.06009839564142233,0.010773282108922868],[-0.02037879436274069,0.001267402204833924,0.08678819444378548,-0.007091615552032324,-0.07644155793303413,0.10167168164591554,-0.007289345495009779,0.05427986560138661,-0.04889187347213662,-0.0817729350420229,-0.019972527227783175,0.06587888648610607,0.06086575686306831,-0.02012410359646401,0.0157771161452959,-0.02929068288424749,0.05426132698826218,3.7918670022258857E-4,-0.029115723894309883,0.0495812180267055,0.002191510418210166,0.02532069412718534,0.06181121756238243,0.027485920571280693,-0.07431254004994144,-0.039293553564602526,-0.06203112133259867,-0.07691589931215786,0.06423062781323449,0.086721693905971,0.013604206547901263,-0.030823513575577367],[-0.0015244614106595228,-0.014294590768369702,0.06373135762707816,0.016689457695633445,0.029174266774260653,-0.011359411728836052,0.1285281371234446,0.040689547032929964,-0.031153574473985892,-0.034377475942109714,-0.07857706593939533,0.06342305450121556,0.06348075094715756,0.06965498260567622,0.04994892275361614,-0.0489052151299959,0.015088312838657929,-0.05958079732779939,-0.05900968387052686,-0.017574570023073704,0.02940860643140991,-0.0714549701582263,0.055138819901277586,0.03289873913558908,0.06012920988803511,-0.0701331121033057,-0.06376483439120627,0.01502996218863074,0.015845100928067037,0.04555147596336541,0.036770651605522724,0.008330302013597756],[-0.08254545018517594,-0.012215580826620349,0.036162077143534456,0.033836689281058055,-0.0162355449321123,-0.05528076303287439,-0.004608509340667285,0.03720587581666386,-0.00268818269173219,0.06685090637771195,-0.0593680800589537,-0.04068972568717079,-0.05843071776050532,-0.013961515367166123,-0.04858534971803985,0.021702322210232515,-0.03139929204484712,-0.00995878218725085,0.0344789957369115,0.0412230053609402,0.03878718273838843,0.011623789245338408,-0.010601155784599818,0.036306182883658306,0.04815652113081668,-0.028843314624544425,0.07400544686372128,-0.056122009051939974,0.07935397883856907,-0.06843966209261006,-0.016362555292214927,-0.027572578205025684],[0.05984767799899225,-0.0471782916975082,0.09163008640219084,-0.011890078547170694,0.03118929804065069,-0.01136587721233476,-0.04106849749088984,0.017699721726741342,-0.03719012250210595,0.06421865735712824,-0.024702372939101262,0.07422501241960464,-0.021968167251169023,0.06564352988094822,0.032712286583623434,0.08212471801897521,0.02675508053580829,0.011222284147829453,-0.08512313251099557,0.059241984800891934,-0.05425927798717335,-0.06624639416157391,-6.544357698615778E-4,-0.04454656676018962,0.008772031237800161,0.0026691820017382484,-0.05159890651689497,-0.08459393328618808,-0.06964120097724581,0.06190275062035537,0.023973631033314395,-0.05355814077614076],[0.009933118436657099,0.0209407892182065,0.12116848070222,-0.02191987294250184,0.052134180380566844,-0.022126184220835204,0.027777936892836606,0.08899353544064212,-0.05383292331841717,0.0562492724215025,0.05876136526387293,0.03594207527533181,0.04303301666314375,-0.030190891573677416,-0.0031636269229749895,0.10820051677311483,-0.07769032490842268,-0.06843948934554309,0.054755490833216014,0.048871756440742646,-0.013004814728185097,-0.012688950609026542,0.07418726516465407,-0.07426269217847642,0.05525607915666186,-0.021602301845979943,0.008363123535524613,-0.03294771028613778,0.05252426299493919,-0.06342165897907215,-0.049766567338665385,-0.03582377766648219],[-0.04228019813852248,-0.062854361531748,-0.06222012294907076,-0.010372351210720207,0.030918196733437025,0.10217301853776763,0.09030143179132911,0.09313835642007265,0.09065516830829212,-0.008463616310651819,0.0512600359866431,-0.055275790665420356,0.033526135405444336,0.08276078754104876,0.04036384198278357,-0.017694499637753606,0.05169652352591954,0.032506573848716074,0.01555374993556597,-0.06742012114384545,0.07315199462196932,-0.034645205849078965,-0.0220932434509715,-0.005046844810936851,-0.011668897615469014,0.03489896283892164,-0.06141162998754033,-0.05154291898401752,-0.05172000211016607,0.0786378113222464,-0.05366610671100315,0.06879101002777853],[0.027273886970199404,0.048853981621217936,-0.07097261749423209,-0.027448439630560123,-0.060839581735714736,-0.0021022741420297594,0.07719237890182068,0.0015702982265248082,-0.04170115687889302,-0.007817274564157171,-0.08008095611520073,-0.005722506604547785,-0.08785717074590481,0.03702307238637032,0.019226041702946176,0.07059692110509995,-0.06250606663300047,0.07997976907861025,0.028747900367504506,-0.006114374495381048,0.024224259994202742,-0.007844836858909278,0.02143161930032275,0.06414607060694219,-0.05566794615970385,0.03582897838832684,-0.015409052024133466,-0.07636455337418942,0.04698319342206316,-0.024989706360137198,-0.06734736814218376,0.08200582553705114],[-0.013975058889389299,-0.07078278591688505,0.09056672766216733,-0.08404177717050555,0.039906066456613244,-0.0340130880424262,-0.00867311581627392,0.06737544918728643,-0.023588914392023774,0.02227368807353703,0.07289749123231673,0.0807969606022382,-0.02021840283317529,0.024370084659577133,-0.032742933525058644,0.04996345639019743,0.037332627017237115,0.04134598524611258,0.04741751113494466,-0.033713564680832316,-0.08436720261626332,-0.01006418762739798,-0.03490090375834304,0.04608133434799933,0.07223338727630238,0.07730236801566381,-0.053369517238182784,-0.015302529333424703,0.05849601207142538,-0.03916182500650477,0.015215584870426426,-0.06479007502178113],[0.0342578323947939,-0.0036823939478788097,0.008366442547379348,0.06319968821861909,0.020870434023140785,0.03800511162256367,-0.02025907693807049,-0.036984687900067564,-0.003708038223471877,-0.043310212142422505,0.008895515463231874,-0.04881636125828264,-0.026950039091396937,-0.07830684770176577,0.05504296345193137,0.03874357170478306,-0.009235510431890297,-0.012222606925402352,0.04117612662961303,-0.0782634786838518,0.025367599290237828,-0.0644478692251174,0.051477204610102384,0.039978428025073884,0.03475780914060756,0.010303017437332434,0.07197353631844594,-0.03376634330373227,0.07763722135076305,-0.06842542570111958,-0.04824542410463084,0.040332575202036196],[-0.08300763590780424,0.050614269088890176,-0.006903029582918533,0.07457488503957056,0.007520873147781829,-0.044232772436342424,-0.0223424251325388,-0.011783542820723492,-0.06561950192140038,0.02943785356115256,-0.06805315300411373,0.004322917713870041,0.07482839872044732,0.0024486728792423723,-0.06720751276160966,-0.05291240447407084,-0.042651216225175065,0.03948679563395086,-0.0090205768914115,-0.027054085955599452,0.042162828290542506,0.07794385543164571,-0.07698083451115437,0.05327895515414544,0.024333598486276094,0.035423869007190405,-0.05064568717421212,-0.001238854955853458,0.04021007257756502,0.00894758848258698,-0.046431038312007844,-0.010966995571428004],[-0.033459426040750084,-0.07042100588936345,0.08397414274331508,-0.05465405484325964,-0.04151920144315509,-0.04943793698829237,-0.05332678608635577,-0.0386039244301163,0.02813582682993187,-0.04674282855076395,0.006639306903563384,-0.07504915849343476,-0.01623394502851786,-0.02393954561403649,0.024694104359660126,-0.05683010532588017,-0.018715869387827596,0.010839429949888704,-0.07319199301270585,0.029090529703063372,0.0027480053979418366,-0.004559449428457305,-0.03817305640193685,-0.06651736471331833,-0.0341354079280856,-4.2270365715264986E-4,0.015114110958801885,-0.06814002742414865,0.07420596358705983,0.01331885503852819,0.042921642606008045,0.03874233653202251],[-0.041542898248297835,0.03246141951059939,-0.06042466299937962,-0.03927599884138869,-0.06444345767461672,-0.005987887076050765,-0.06681017525862304,0.04941941236024453,-0.024738241568417668,-0.031124025695533398,-7.928577611235133E-4,0.05290947716885899,0.00952934239877404,-0.04313494926091334,-0.0854802244060037,-0.0591931705535462,0.06593106961741442,-0.04416764341649927,0.008224831946189627,-0.060402865729841784,0.07446365160323125,-0.019380679063189705,-0.018152703762730628,0.028852313747339806,0.056110275234233106,-0.05073429356738577,0.01524083684365408,-0.004146764622336924,0.036389797101993235,-0.010538591892477191,0.044717528754025106,0.06910139000134517],[0.06834720492732684,7.213114655336676E-4,-0.046630373945987715,0.007634323005357914,0.0810296856263997,-0.07403487314528123,0.06815164491041105,0.059415661628194415,-0.02156823134655436,0.050658125476770684,-0.00951053197284214,0.01001626705735305,-0.07229882888503743,-0.06763433056069484,0.05642771704916471,0.062111480025085396,-0.048432683886900564,0.07045416323184972,-0.03818702138644524,0.019234456149434614,0.03696020176222299,0.03141656413691051,-0.0015643968097854997,0.005509179173051647,-0.04181382995274267,0.06608467174537787,0.08276199729776054,-0.0170403473767419,-0.05074707548290014,0.04172788328404578,-0.06394433517456939,-0.04673816181266314],[-0.014934994850220628,0.013814252972175258,0.03805949169721505,-0.05587979069115753,-0.04936593032945564,-0.009137290844979539,0.01688868664415045,7.186203398791557E-4,-0.04370678445517229,0.01261738579215134,-0.06872667336947538,-0.05803998729846515,-0.043415593718845964,-0.03964495629521394,-0.07895683818697931,0.02944375941857884,-0.03499081867950636,-0.04807506109434725,-0.06652329901982032,0.07438929429891435,0.009248476470790221,0.054672695786319614,0.010036757002473959,-0.06311580094815994,-0.08379321597104808,-0.07734665280741312,-0.028472132350650752,-0.011930145450576456,-0.03365503415261127,0.02853328148867028,0.07179716497263576,-0.027938037191867673],[-0.04672921749283717,0.06986896320916516,-0.01814654987539137,0.021026884211180295,-0.05265575081979297,0.03634061551104243,-0.017947100450292353,-0.006450938241133722,-0.003200222712980895,3.034900044195539E-4,-0.0734943369482962,-0.07999335876305316,0.05840769070178844,0.06591581446999571,-0.043165659919775924,-0.06117088869926681,0.025623174719115967,-0.041206032147861164,0.01162848204247048,0.015600159748990384,0.018441033933492723,-0.05096311258896281,1.6449516405595495E-4,0.06405557471216328,0.028815994799316222,0.028145059207221126,0.04785515790661946,0.005608591801005524,0.037483121649089124,-0.002309377178643869,0.08037802873702866,0.07058700693668299],[-0.027621463690876574,-0.004766385384369453,0.022008726657609622,-0.02757744383485269,0.054061253507729445,-0.04316480007636661,0.03890287447294479,0.05052309759111709,-0.004375915449417132,-0.0034286355725620323,0.047884258178569346,0.07113047446581335,-0.03102616518286959,0.009796928167020772,-0.006800609399197663,0.052391011545063135,0.0662009523595496,0.04143324215422194,-0.03525069893165167,-0.0015928146889255812,-0.04563465329168619,0.06936152170662772,-0.01955646977372012,0.0844650392542086,0.0805356050978395,-0.01649482791296063,-0.07593484825501674,0.08110334200919503,-0.04016670807198923,-0.02405739736192237,0.03239538972122648,0.015097069958952429],[0.06736962955319475,0.011392534433105159,-0.08299610427401193,0.03569790380747798,-0.018838349737082694,0.008611569082582461,0.028284695324165724,0.0727923228428155,0.024044047226201983,0.056219319284268876,0.017824672700118557,0.06502576849474859,-0.043577012345097026,-0.042842357078664586,-0.0839564502149469,-0.052275299932287314,-0.01778683821570791,-0.012605661828353137,0.05081505608718307,-0.07907449164229524,0.08154735524815233,0.01985056263268154,0.07670604000606308,0.026996091688027607,-0.06951569729147956,-0.06112765952178307,0.050372434730410136,-0.008355947603579187,-0.0136384000445319,-0.02685140530578545,-0.06300207510961205,-0.06417316492519275],[-0.08351318358854243,-0.027231117745999536,-0.05104194064200742,-0.043881558407374566,0.042915614323793,-0.03282282128306137,0.00627124903135558,0.06022283044012582,0.0535568826090022,0.06900615044200134,-0.034706635864821006,0.015905533683746347,0.07880951136069651,-0.011303909214427994,0.04375470229087554,-0.06051860990576474,-0.033064918841620036,0.05263708463638131,-0.016886795596777415,-0.006438114522903547,0.051215037374807856,0.062202473528790485,-0.028518685332091377,-0.030563223112437567,-0.05606831713452647,0.03449764742983065,-0.08032346404923242,-0.002477464633306322,-0.06632670327386606,0.028999441140398343,-0.03288479534292224,0.05516700012217644],[0.06529011392503088,0.019390655634656685,-0.08562681361569305,-0.08165610809876324,0.018804419570385315,0.04633539822140831,0.056839048347947306,0.02276746654842415,0.064140362228979,0.08003863072097382,0.024025377787815414,0.05386985133401292,-0.004604285624522915,-0.0023503990387986097,0.002877794750336775,-0.022002701559999043,0.03195401794489928,-0.07935294819729051,-0.0030829257008340204,-0.019563732249260345,0.01100452998463584,-0.006866250074970706,-0.07136908804629863,-0.029684289610669438,-0.07697760182791254,0.05037201257367012,-0.08330144432508238,-0.08297874597339297,0.047712161209962974,-0.040324140094500444,0.037900971150586764,-0.055867424939857656],[-0.07667657368962601,0.07194123896875707,0.040235520759354625,-0.014719911104796316,-0.05543057345253947,-0.04028270643481665,-0.031114328867055896,-0.06643232258874054,0.005495262268599897,-0.03296069755258564,-0.026383361372259367,-0.055728758727936464,0.03953604208587616,-0.027333090771002298,0.027382223203275356,-0.06112611754720027,0.0850470562664425,-0.06609073884741495,0.07255036409689582,0.022484012886185283,0.04075703249731699,-0.04555330168756766,-0.0023604842585317983,0.04361271178269781,-0.03444467171572187,-0.02476822607818146,-0.04848072888190671,-0.026953989272461974,0.02585010584997091,0.010766507501083851,-0.041842175566966,0.05164801949816861],[-0.07159325949295492,0.055678937299758674,0.04358255421728978,0.09147132594631165,-0.0811197174210026,-0.07942555560281474,-0.04872141796912874,0.06097848073010625,0.04365174413710558,0.0168431093584459,-0.04746548459566916,-0.05372530208141724,0.07858394403752245,-0.01944219431392625,-0.0457851411348905,-0.022929693686633782,0.050933489523995734,-0.032501578091872284,0.05906353752516042,-0.029160221399511452,0.002867066512571596,-0.0872265126947366,0.08452926028554712,0.0048455407706007245,0.001535879772092747,0.07089337716078184,0.022476366587830823,-0.049699550394064956,-0.03166411911471143,-0.008265756196757065,-0.05745326411889995,0.01771982364246524],[-0.034547244629793555,-0.0042674076404520655,0.009716220609308015,0.05188200898566947,-0.06066465600137907,0.00846884485687106,-0.019442152038487915,0.01098499771558046,-0.10927275927901205,0.006045441893837427,0.01347555765722156,-0.009374311951079259,-0.03952849857739666,0.02041883915386081,-0.07825629226415098,0.1045565937496015,0.03493622689025032,0.05864243657615081,0.014070574039556114,-0.04741098898654418,0.06203579143890777,0.02554835833279616,0.05549497247601743,0.04602560028058908,0.05491333370685871,-0.002728596521050498,-0.0346586179439546,-0.04664928701397216,6.297265699580317E-4,0.02033176463979395,-0.017248819769196323,-0.05573248549886947],[0.06646667513604551,-0.01622677283276802,-0.022062407471049487,0.01680094870244049,-0.018002507116082728,-0.018686095295512267,-0.032045639902483825,-0.05930841155061948,0.0117549539539467,0.032541303077885546,0.06422599325933044,-0.03792772848423584,0.04575686170903892,-0.07939810398967682,-0.04133405007874432,0.0256812999158153,0.014900011815369249,0.053676546832720766,0.059364511716204944,-0.05078255145241768,-0.05596389325634864,-0.10239443362823179,-0.04355366772369708,-0.018500389528637026,0.01344532560879258,0.01860981640846786,-0.07284706178644554,0.009678027247439488,-0.06138732768376203,-0.08266344730711682,-0.04443883290871621,-0.0040030296852120745],[-0.041705477994066445,0.016102718088035463,0.0705117550451692,0.05059546639044374,-0.08471658270743954,-0.02365205778582615,0.12140871547274051,0.08579791961496691,-0.01856949427495104,0.018516437080436852,0.023149087059779357,-0.01848611249981839,0.004177066588555353,-0.03539525290819661,0.037683019290513986,0.053994351303460794,-0.08092317174915632,-0.01260147403538854,-0.036221255891472216,-0.0615995649401881,-0.10274042692775684,0.03934983550863158,0.05194959614254945,0.08015317805770235,-0.008086246484698204,-0.01779107944912186,0.031868854466861246,0.038808925378757214,0.02566201661722386,0.06179198377200674,-0.0888984629001405,0.04151685306665456],[0.014871359168594984,0.048090257242667425,0.0977471986173262,-0.03223053766888638,0.026991929378189953,0.08081857678528433,8.936642099742595E-5,-0.02645731450171095,-0.07773518034528841,-0.04344387169129263,0.01618691814092873,0.04599505074084,0.10023802604490759,0.015522328021041462,-0.046535877680330885,0.008624250019406837,-0.0816730693267877,-0.02586052238992325,-0.05955919725265326,-0.07427814434904072,-0.009955083215107555,0.01185990117204689,0.13927389099752172,0.05400460665864512,0.048236167820417876,0.06974854758791875,-0.08568206856271687,0.014300767711891055,-0.003059426943658096,0.09700658711747685,-0.056393623489562957,0.024666953766674368],[0.030515005917005983,0.0773973374765376,0.13507244839205845,0.052817915022616506,-0.043710897260656495,0.01071460371602279,-0.021021662033196102,-0.059184331055480766,-0.0029576767959520276,0.0026793155515197403,-0.0566981370239821,0.08754718513337739,-0.028016750328044116,0.059136658125996444,-0.017862225212690708,0.016494872506936806,0.07470198682062913,-0.016822646820561508,-0.037379698398833136,-0.033828886953554654,0.007684845073690203,-0.10286706043232402,0.1701280980007688,-0.023842237473036758,0.06490907603119402,-0.0813669896402366,0.01369244260206045,-0.08385836232200987,0.07393484208847718,-0.060468130957321085,0.029119816332522804,0.03744348551335964],[-0.08281046316212279,-0.03847007479637745,0.03340686295034048,-0.07780456953557,-0.00414983461916007,0.012162106148534448,0.0695463666628365,0.07547082229650444,-0.07232071421440493,-0.062389643698584275,-0.08443351223547897,0.09368270166352599,0.10641779704299274,-0.07411937607475845,-0.01895165501077311,0.021918454629042856,0.036224993446938095,0.007605568532994574,-0.028811523970184938,-0.05982469292438584,-0.10360682942941922,0.03886646270155195,0.16404583446102922,0.04113951164981044,0.07705531705332151,-0.07787386671657447,-0.013654982060586494,-0.02123785072808072,-0.04995697896509697,0.048017052157204684,-0.025366718445436177,-0.08234572484988274],[-0.06398679812227819,-0.07358605315215064,0.13540895441366127,0.00195588858706865,9.058055486537867E-4,0.04791496518732415,-0.014447876912955819,-0.03694009732678531,-0.14467653581636716,0.05853971558996326,0.07170193864326285,0.05743039853902165,-0.027116875156010956,-0.08273983137597832,-0.11726744499480966,0.021658417039172942,-0.030386724627706224,-0.08578515089006858,-0.06276485183000813,0.03815885346101423,0.026727223454056297,0.04370873320046906,0.1355825101560422,0.021079322665475592,0.07490865993778782,-0.05888700846847974,-0.08147176977448872,0.017255361931952564,0.027243566079978156,0.07379725932497741,0.10125791176576643,-0.07072234642549804],[-0.06777094729295005,-0.06378300267596634,0.21208150711644136,0.04000371754925539,0.05162024479523135,-0.05437223383807438,0.09935950569624892,0.0913547053125546,-0.11713193661446311,0.05319861061222236,-0.061952520074782295,0.1056907135751932,0.07822841423071653,-0.06629131267792755,-0.07409529922161108,0.02148479152638212,-0.005790888960084332,0.04471609819876597,0.02004344916628493,-0.0816746634996986,-0.004533071948528298,-0.051602231002797906,0.23574228296632543,-0.01947272239030481,-0.06392530570829856,0.06127832425886675,0.02879459023657502,0.01982309065335845,-0.01857074510391938,0.14061950052824992,0.02257569478446404,-0.08709381637256769],[-0.0032261353580637035,-0.03836968514897651,0.2134109714532698,-0.07048008116657278,0.06643614711300933,0.037042415320746515,0.075143665297131,-0.0226280461256418,-0.1190821424754485,-0.07821223736456422,0.030114722083817085,0.016368430175248742,0.08273118487412728,0.011427555447694122,-0.09971062935458257,-0.040511559540263344,0.003219167560180778,-0.05274980692253643,0.02423426235905686,-0.05180539185037634,0.017656157760571684,-0.023900599040506062,0.047855379460937146,-0.013352856721443554,-0.019267650955811226,-0.09658588100116654,0.06662767183606715,0.043183434179156786,-0.07917095099869306,0.02378811632429286,0.06991323473483431,0.06317401110116674],[-0.041405987461222364,-0.06559959495174239,0.008230968506084296,-0.008761515009113648,-0.052426487550468893,0.10057307419982608,-0.01495759114281845,0.01962378565419693,-0.04796791352455239,-0.04068527001913124,0.062043028097372416,0.08811349913062831,0.09307412503076372,0.05044768466585958,-0.09968302045691226,-0.02497357779859447,0.044834928758112,0.08051241032281041,-0.04254229619025399,-0.05197056632498988,0.01551378382701762,-0.01027477410816267,0.1390942792102782,0.028455331899457564,0.0533283125898702,-0.031701664808850644,-0.020511967605167623,-0.06159874836419505,0.047810440844671565,0.09265186398591842,-0.02116568146423024,-0.0021471987640408756],[-0.0274846357033691,-0.051588953974106656,0.01739797191643096,0.014389077769889564,-0.001039379433882093,0.061958079721797774,0.1151810879459349,0.07268997881722843,0.01579067196479164,-0.02688540440266696,-0.015176579580552305,0.0476129874131436,0.035844011369072955,-0.07416420558051524,-0.10004969209983393,0.005863362898103105,0.04851565919139926,-0.035986342686585564,-0.06314749306010309,-0.019116146771476036,-0.07890189894828278,0.0575818629217236,0.055736901630691185,0.031939194714943636,-0.03934338452533502,0.04671769154453254,0.07214159505746957,0.05402836102452624,0.03977840769629328,-0.05529787366603161,0.01192674448400127,-0.03644133831644351],[-0.08350360386805211,-0.03953854411299444,0.025763311797442047,0.0019248450987355671,0.026869757003899156,0.1280328117597267,0.0015180566455203451,0.09032874073053679,-0.06708276346839723,-0.01985466101799835,0.0038328889410112216,5.577081102837958E-4,0.03779471486356044,-0.01906297176670324,-0.0539545038823379,0.04188566392811258,-0.030660971338960688,-0.03374818996292919,-0.031051944979800943,0.06218244433848646,0.0020215180624327325,0.033287530778007404,0.031385519934236085,-3.445264317967359E-4,-0.06209509475465686,-0.04422868012612107,0.0295098667397298,0.013197898525278967,-0.014796166343083703,0.09546389576000301,0.013458015173417819,-0.01811620351306828],[0.05536661661552841,0.042161746460194695,0.12500632793194633,-0.012836541894659523,0.0712051080416926,0.03150072507643011,0.10627836057671614,-0.04458385656103728,-0.007752121938456473,-0.018036373019759903,-0.04971808187952581,-0.03387781662773675,0.023492047034735293,0.0346557906657468,-0.011073904548337959,0.10627495719722845,0.08501556788973168,0.04448248137048879,-0.04900086732543632,0.040853319600757096,0.021480815320395506,-0.0021876151836322352,-0.02176986015054989,-0.08319017154510293,0.08000279939010162,-0.1349799009568406,0.04420251499196392,-0.08366298162112801,0.011620402780444362,0.036327862458444604,-0.06035749024120774,-0.05821049107757228],[0.023975823457732873,0.035891683789595556,0.12437191718276858,0.013350024819973987,-0.07503187658912823,0.049655392451964916,0.044899472966082175,-0.028334968332091603,-0.028629311160356573,-0.04723310387955133,-0.0711116676494939,0.05614471785296609,-0.09045358056978008,-0.05377295326139261,-0.05029358929689546,-0.05312735101195335,0.030122463764822673,0.08211087134268916,0.046537282203965136,0.016102190316445525,0.04080511193811577,-0.05086380067217961,-0.019716861786280404,0.03539661848709307,-0.010991233454434082,-0.010737789406949916,-0.08741454328991961,0.05210858518850558,-0.06518586981468091,0.06659964725923487,0.02554761913482786,0.04547719198256827],[0.07628052825852931,0.04951134038812724,0.07539431206402894,-0.04857075789918075,-0.064014033643617,0.04883527647057397,-0.028043716999423,0.02629111935623354,-0.060825424325688465,0.018409899192264597,-0.047543621118866355,0.03211476894776463,-0.08056331474260978,0.0814240041287719,0.09195640615064585,0.06325448420501685,0.06688368667881428,-0.08368257931682681,0.08106225196579238,-0.023434175435559815,0.03524081088142934,-0.05527399912050322,-0.044647383260793774,-0.005895532578713747,-0.06113264372811479,0.04004339616026167,-0.08596022679411157,0.019471397484505236,0.027987983341553464,0.06686995511723968,0.08398445557889272,-0.06054158223264099],[-0.00519982429077508,0.004370991050822353,-0.05747301629108181,-0.06465988178936873,-0.02266702758859157,-0.07293911911361813,0.04221451453615153,0.0689692753896252,-0.003698577188243724,0.011555850942994045,-0.036287484017352045,-0.02002684755533221,-0.02998502888581895,-0.06994527730071366,0.057629718855576696,-0.04683516343295114,0.01139916409682678,-0.07342024632269858,0.008483811457503133,-0.014416375250799977,0.01715082827438959,-0.08907932787632163,-0.01968189036854014,0.023461990626559584,0.050877106505856126,-0.07738347245621177,-0.03217447298576807,0.06593350819155994,0.06574325223924303,0.03590962106648096,-0.025727699761416322,-0.05575209351350606],[-0.081994934172795,0.08084060461586785,-0.06095060741915245,0.014367067389872876,-0.0593918829219358,0.024947326963901083,0.0830698662776498,0.005525093704423367,0.03400852034829976,-0.08065059408075753,0.07947311890756578,0.0764145893861225,0.05951601439319417,0.006224420142447407,-0.00641434284956089,-0.07482275213952612,0.0705405004094859,-0.048780183774719585,0.07742847504997508,0.06771972664857197,-0.0401741735154365,-0.07842685175199791,0.042044498940695715,-0.013377344051221362,-0.06045944980140822,-0.0633679715604061,-0.06319197392282583,-0.0824826264703676,-0.021981194477389318,0.06633205100008212,0.042463371556779435,-0.07698355955955748],[0.006956676773605828,-0.010288580792922199,0.014453602468748043,0.073672021196948,0.011056695289444285,-0.07960381370430418,-0.06990891664583566,0.07106698605883868,-0.01448131181715874,0.03230915443014494,0.017363583147999444,0.07179266648940019,-0.0024506639782534024,0.034322722491559016,0.07535586845381796,-0.06658313983243738,0.02832493668293706,-0.03849280402687952,0.011429356679257072,-0.04592947468214717,0.01668579048355869,0.09082058636858803,0.024099584786860802,-0.008495626398515355,-0.01046577813928338,0.07518286972681357,0.08151645733600488,-0.08342358086368588,0.030973674606969717,-0.010376412572818261,-0.021171444145601407,0.08246729955127349],[-0.011613115223202424,0.013476600878755565,-0.07218795494632646,-0.054787893943703155,0.05569142192788072,-0.036955878354703674,-0.008355901937149557,-0.03985798921336242,0.01941921189862345,-0.06437337618574551,-0.06259926724214579,-0.008093651805616352,0.06277147765437427,-0.08210978587856751,-0.05784340777565532,-0.05307846824409605,0.007774200495129764,-0.07885582356680174,-0.05302343366810499,-0.08555205524558938,-0.024046832149884304,-0.009047644168022792,-0.03488671436778293,0.024298526260513965,-0.01699524076762885,0.08080102920250051,0.040320807622826325,-0.00919783511127062,0.020575228985843512,0.0685529418134735,0.010784717051382956,-0.07071629951443512],[-0.059825720084110134,0.029885354854146434,0.04378979176206231,0.08519206364427566,-0.04987859421339347,0.009675616287083685,-0.06802235694276196,0.03379681149925222,0.026818446649740053,-0.0557054051029394,-0.04553879531842359,-0.042852476953195745,0.06102805040320057,0.06536522510410295,0.07361553120445877,-0.08283817090599359,0.0771711933492905,0.03162259809223435,0.04245351098202284,0.08565722019415843,-0.06436346512785888,-0.003032580780293017,0.03741902011730001,-0.03280736831897337,0.026339790724426444,0.0520778457411449,0.07909875375381693,0.002031344152225044,0.05254931585573536,-0.039471760985749164,0.05080450476993915,0.013418612486272642],[-0.08096182428130463,-0.04976430859511348,-0.06816111893399344,0.06806824312059698,-0.06086049858317682,-0.02032012162530527,-0.010290774272389861,-0.02239370909967719,0.04208138533849103,0.008631255013519617,0.036621624737147765,0.0679283656242885,-0.03736219256152889,0.04371948050769605,0.08073177698865852,0.028720847119931014,0.07068986415490852,-0.008536144411273103,-0.04155068391240088,0.00856537426163336,0.007709977791993699,-0.02408290992790892,-0.02955422540961097,0.0018274785547365078,-0.06962374984059745,0.04985698019280539,-0.017946468256548324,-0.005824092869622921,-0.006783698362864997,-0.021550398583288007,-0.07519329187421506,-0.05870964278397402],[-0.025895587030532557,0.029043263734564215,0.08463089453947437,0.027471378147110665,0.02077880695650507,0.05925475579906648,0.0755119346850544,0.07003122657067527,0.0037694894294284416,0.03466768931727728,-0.05362652858796195,-0.052544245950694755,0.04863946239340839,0.01894571034491244,0.0184958904908025,0.07297159721707186,-0.03360447660632167,0.013319385573398658,-0.07556689848341268,-0.07223372139496413,0.05615880568697699,0.0038153564541374457,0.08362585423043135,0.02663736521473267,0.053364375907072006,-0.08175419495278313,0.043357623417885946,-0.05547415545346357,-0.0078066827254071975,-0.04115151392135129,-0.02191513568816986,0.03332313073997751],[0.03184722274311032,0.016094744011588655,-0.07113645991811889,-0.07599653951279134,0.04395445233302764,-0.04099524767277993,-0.018774739636166694,-0.05144710199634817,0.0814648232909871,0.07591144664953203,0.08220546629670607,-0.07772634121052362,-0.08065738411509217,0.009938327704214866,-0.03536698737124659,-0.052546091387215256,-0.03587737885270657,-0.0025386095181631845,-0.03818148105939101,0.07493762000363684,-0.0054100973898500715,0.010177911145089336,-0.042551688420374795,-0.025442063467364974,-0.0852123042261392,0.01986101058312924,0.043688050354046236,-0.07365525860784365,0.018979631939665786,-0.07632910685457271,0.01741205958702546,-0.06261236013199664],[-0.004595675938064721,0.06636171819588034,-0.019176104871076925,0.049899386997324775,0.02921166834484197,0.08297171106052455,-0.04504006133526398,-0.02543801182438217,0.014987450184732111,0.05348897390512834,-0.03791953710853706,-0.010399989490439519,-0.06244886943482701,0.0427416641849006,0.015391176330918327,6.875661406115845E-4,-0.07976718129792651,-0.0513617356592454,0.0073958311993138105,-0.0053195251009984365,-0.04478188659767051,-0.06551773367709929,0.0633122970692237,0.002110077486693983,-0.03980969327036275,-0.05126923223328248,-0.015377838942737618,-0.041069579388305806,-0.04308759391385318,0.08096414703369911,0.007175564916403007,0.029093737479441745],[0.05826525361943501,-0.02219666196793834,-0.06292763175872246,0.03226904333580245,0.017046311696762153,-0.0015105752489790068,-0.05462022560298132,0.06950327341599895,0.038906220197333384,0.033658478305966626,0.008260056601535814,0.03179221474969392,-0.028624763540944325,0.004675679416137322,-0.02213000828364379,0.05090146918134545,0.025737815853303096,-0.07869105159584305,0.07963865136689911,-0.027092292999161587,-0.010409833743028347,-0.06812782898792262,0.003960296115215097,0.035364102862251875,-0.06542295659991632,0.023211463908110564,0.008415175128257688,0.0693343133810192,0.08299428215904532,0.011095656777746855,-0.04948924080437704,-0.06051820431738859],[0.03184284435115438,0.015530927138185196,0.06285249494623966,-0.0568053791153309,-0.038906991438991685,0.04458580134532524,-0.04698331514547344,-0.02407080909863792,-0.04697199414351083,0.033698978259993025,-0.054967833082727485,0.069606333826598,0.07551434594778848,0.055832090816731,-0.05017308050946717,0.006666205623772676,-0.016190443704027915,0.007751905603206357,-0.02661044968414042,-0.06738130052272288,-0.038073923770632304,-0.06956009477180765,0.06466331002959923,0.04477293955780509,0.042774539022260936,0.08856719676218255,0.017766525323141446,0.05555603167615655,0.04710835338996947,-0.03991635442753013,-0.02064961987841926,0.04097256159548437],[-0.08683381346524909,0.060712295284642406,0.057373310740745524,0.05864325796519724,-0.013631402830311478,0.04450825607393931,-0.018809776224521214,0.058825039930175,-0.030350954738397478,0.04142081676009804,-0.016607097351268522,-0.08949053612523873,-0.024977455377993663,0.05445360364695729,-0.08067095873464136,-0.036790418561113404,-0.054849076301470824,0.026051592079804894,0.026411865504276197,-0.08440694606474766,0.06188531651902184,-0.023395328960820118,0.04147325482371496,0.01812320683255323,-0.07834604346411646,0.08095556479366865,0.024692547060083392,-0.0032667895336395093,-0.04790921666157258,-0.036155346866386086,0.017515646293479292,0.060865114827407404],[-0.0029437328670141737,0.01247107347424299,-0.009780265460028567,0.02165110538142424,0.051705023292576285,-0.014596253382892997,0.032916242895945635,-0.05377780298258625,0.04273290225682667,0.0787792207243,-0.009531046976695412,-0.04247681745934293,0.03822176589084098,0.054179352506044415,-0.06453099065143571,-0.07027069372606813,-0.057246168803794274,-0.06262284330518143,0.04257594412431935,-0.06376856867934266,0.04933243467652261,